-0.04548882320523262,-0.03699124976992607,0.03907933458685875,0.017508143559098244,-0.05090298131108284,-0.038116205483675,-0.03607170656323433,0.016695069149136543,-0.05051545798778534,0.037149518728256226,0.014106771908700466,0.030356697738170624,-0.025728192180395126,-0.01552622765302658,0.04663582518696785,0.04216853901743889,-0.04815719276666641,-0.05217145383358002,-0.05499349907040596,-0.04037089645862579,-0.04501621797680855,-0.021538928151130676,0.04607897624373436,-0.006985541433095932,-0.029925592243671417,0.05456477031111717,-0.03519380837678909,0.02352192811667919,0.05041522905230522,0.029029348865151405,-0.05734672397375107,0.001576525392010808,0.02507294900715351,-0.004873897880315781,0.055905941873788834,-0.049708276987075806,0.02849290519952774,-0.013958204537630081,0.05131875351071358,0.05438046529889107,-0.037425387650728226,0.04716145247220993,0.050473567098379135,0.029081564396619797,0.05231080576777458,0.05861138552427292,0.04463090002536774,-0.05435458943247795,-0.025432754307985306,-0.06017123535275459,0.019548388198018074,0.05545252561569214,-0.03249213844537735,0.04907733201980591,0.03636307641863823,0.03643057122826576,0.05646099895238876,-0.03263785317540169,0.03853587433695793,-0.015610132366418839,0.04437015578150749,-0.05754132196307182,-0.016750510782003403,0.009549795649945736,-0.00993395410478115,-0.05197847634553909,0.04115762934088707,0.05888926237821579,-0.0391039103269577,0.037435971200466156,-0.034195974469184875,-0.03656631335616112,0.026076242327690125,0.038680341094732285,-0.04372730106115341,0.029183920472860336,0.028965288773179054,-0.05139925330877304,-0.010415651835501194,-0.0054429094307124615,-0.03559138625860214,-0.0472509004175663,-0.0037598363123834133,-0.0015627670800313354,-0.04706640914082527,0.039258312433958054,0.03605785220861435,-0.059131771326065063,-0.05463120713829994,-0.03985843062400818,-0.020435651764273643,-0.02939077839255333,-0.05035482719540596,-0.02222265861928463,-0.009571151807904243,0.05794840306043625,-0.029324086382985115,-0.01846565492451191,0.01587136834859848,-0.02840176597237587,-0.02115771360695362,0.0542636476457119,-0.051385633647441864,0.021064070984721184,-0.0020314366556704044,-0.03503984585404396,-0.05591223016381264,-0.054929062724113464,0.045921534299850464,-0.04897056892514229,-0.013863399624824524,0.02859429270029068,0.04277424141764641,0.022754941135644913,0.05269399285316467,0.020247189328074455,0.05189208686351776,-0.03789595887064934,0.009837447665631771,-0.020309412851929665,0.020109031349420547,-0.04239920899271965,-0.006304273381829262,-0.03412851691246033,0.04674641788005829,0.029356352984905243,-0.04521661251783371,-0.05700765177607536,0.013990451581776142,-0.037419289350509644,0.0005871416069567204,-0.025291290134191513,0.04990613833069801,0.0410863533616066,-0.04459657892584801,0.025040676817297935,-0.012443555518984795,-0.050401657819747925,0.034604478627443314,-0.036634787917137146,-0.0505463108420372,0.03697146847844124,0.002735827350988984,-0.014431052841246128,-0.0298949982970953,-0.004803175572305918,0.018067555502057076,0.013624425046145916,-0.03146956115961075,0.03899003192782402,-0.03231947124004364,-0.0371398888528347,-0.004278616048395634,0.029142463579773903,0.03655112907290459,0.036880020052194595,0.053246162831783295,0.009168902412056923,0.019687430933117867,0.03837070241570473,0.022858822718262672,0.04669472947716713,-0.0013282869476824999,-0.010930011048913002,-0.050207510590553284,-0.050495631992816925,0.054503630846738815,-0.011689543724060059,-0.02347182296216488,0.020707672461867332,-0.003465724643319845,-0.023680413141846657,-0.05007244274020195,-0.05156652629375458,0.051434021443128586,-0.013167073018848896,-0.04919975623488426,-0.007465491071343422,0.010404706932604313,-0.014884769916534424,-0.024104516953229904,0.044079892337322235,0.010409582406282425,-0.032207977026700974,-0.012606880627572536,0.05390678718686104,-0.024888021871447563,0.027916666120290756,0.015569201670587063,-0.050401732325553894,0.05222833901643753,-0.045321378856897354,-0.057304747402668,-0.002904042834416032,-0.031623270362615585,0.0056301564909517765,0.0492149293422699,0.05500964820384979,-0.04983366280794144,-0.02582593262195587,0.03768319636583328,-0.016421061009168625,-0.03438331559300423,-0.05972786992788315,0.0014949811156839132,-0.004650489892810583,0.04064694419503212,-0.05708810314536095,-0.01145667303353548,-0.022600920870900154,-0.05637430399656296,-0.024051140993833542,0.0033244674559682608,-0.009070917963981628,-0.022332319989800453,-0.04363589733839035,0.037399981170892715,0.03264940157532692,-0.05063249543309212,-0.016665127128362656,-0.0027840251568704844,-0.01497303694486618,-0.03147933632135391,-0.006451090332120657,0.015029969625175,-0.029656413942575455,-0.05264783278107643,-0.003940527327358723,0.04238587245345116,0.04020034894347191,0.04168989509344101,-0.002837222069501877,-0.035625915974378586,-0.028189076110720634,0.05623549595475197,-0.04513250291347504,-0.016042038798332214,-0.042978979647159576,0.013753320090472698,0.047774843871593475,-0.011192007921636105,0.006278531160205603,-0.05230923369526863,0.033430781215429306,-0.0008642610628157854,0.033603452146053314,-0.04203122854232788,0.026751065626740456,0.05153488740324974,-0.05962216481566429,-0.045271117240190506,-0.0030399071983993053,0.0229774322360754,0.01459922268986702,-0.05036899447441101,-0.008100018836557865,0.03424818441271782,0.04950243607163429,0.009018274955451488,-0.02640654891729355,0.013217623345553875,-0.0159523393958807,0.0051959725096821785,-0.014719096012413502,-0.04891917482018471,0.055335331708192825,-0.04161592572927475,-0.04252634942531586,0.007363875396549702,0.030277760699391365,0.04686572775244713,-0.052749957889318466,-0.004220999777317047,-0.05842113122344017,0.015650225803256035,-0.010790333151817322,0.025686202570796013,0.050263773649930954,-0.011211086064577103,-0.04860902950167656,-0.027548672631382942,0.05951383337378502,-0.03768274560570717,0.06250875443220139,-0.022682439535856247,0.02904955856502056,-0.038911327719688416,0.03615553677082062,-0.016989974305033684,0.05611073970794678,0.02067979983985424,0.009598351083695889,0.028767935931682587,0.05427064746618271,0.0523475706577301,0.025531111285090446,0.0011175030376762152,-0.00989188626408577,-0.009828128851950169,0.02664472907781601,-0.05076194182038307,0.024600494652986526,0.01865277625620365,-0.014346749521791935,-0.02600134164094925,0.022164633497595787,0.02907545492053032,-0.031176798045635223,0.04729731008410454,0.00022996051120571792,0.02195846289396286,0.037095554172992706,-0.037579216063022614,-0.014647233299911022,-0.031855758279561996,0.03622370958328247,-0.0335206612944603,-0.016663536429405212,0.03839954361319542,0.027314189821481705,0.04967082664370537,0.031214410439133644,0.06337292492389679,0.0025524869561195374,-0.022572003304958344,0.03532383590936661,0.013278926722705364,0.0369257777929306,-0.04510820284485817,0.04535353556275368,-0.014395808801054955,-0.025654902681708336,0.049352165311574936,0.02325504645705223,0.05531209707260132,0.00153220328502357,-0.06179774925112724,0.003968100994825363,0.0226939357817173,0.06337982416152954,0.04465017840266228,0.05704641342163086,0.03320643678307533,0.020337404683232307,0.04672447592020035,-0.027055293321609497,-0.009004446677863598,-0.044262342154979706,-0.04081061854958534,0.053696323186159134,-0.021449483931064606,-0.016421569511294365,-0.019833847880363464,0.012336420826613903,0.03551021218299866,-0.02460416965186596,0.030517859384417534,-0.045313626527786255,0.05340719223022461,0.034518051892519,0.058795396238565445,0.048191070556640625,0.03612159192562103,0.006007494870573282,-0.05007151886820793,-0.023626137524843216,0.061519499868154526,-0.014457343146204948,0.0036391594912856817,-0.0013478470500558615,0.05075228959321976,-0.010281196795403957,-0.017271559685468674,0.007319256663322449,-0.02974776178598404,0.03120829351246357,0.06223280355334282,0.03824252262711525,0.02918897569179535,0.03101959079504013,0.05434099957346916,-0.011367667466402054,-0.018004458397626877,-0.035002149641513824,-0.026489974930882454,0.02541547268629074,0.019304752349853516,0.06140238419175148,-0.013087828643620014,0.048475224524736404,-0.037359438836574554,-0.003559230826795101,0.028986237943172455,-0.04094301536679268,0.030048664659261703,-0.043363090604543686,0.009486320428550243,-0.020358501002192497,-0.027798786759376526,-0.04382055625319481,-0.02436705492436886,-0.012522990815341473,-0.005159502848982811,-0.0014239709125831723,0.05493136867880821,-0.04340169578790665,-0.012162020429968834,0.0482027493417263,0.04057536646723747,0.012542925775051117,-0.03130791336297989,0.0017255768179893494,-0.02102513611316681,-0.05328396335244179,0.01175351720303297,0.011319695971906185,0.013756481930613518,0.020887305960059166,0.014904468320310116,0.023822424933314323,0.012423847801983356,0.06173555552959442,0.04160958155989647,0.04136772081255913,-0.030335690826177597,0.05442225560545921,-0.02892882004380226,-0.05418568477034569,0.05306320637464523,-0.026536406949162483,-0.007069137413054705,-0.020947156473994255,0.031643107533454895,-0.013744697906076908,0.005946428049355745,-0.025927193462848663,-0.019684920087456703,0.05599622800946236,0.036236297339200974,-0.045470334589481354,-0.013206887058913708,-0.02983001619577408,0.061528876423835754,0.03500045835971832,-0.014392990618944168,0.037867967039346695,0.04999608173966408,-0.015208027325570583,0.00098143657669425,-0.026747824624180794,0.0013514970196411014,0.002252940321341157,-0.05536116287112236,-0.0285920649766922,-0.009244248270988464,0.05628706142306328,-0.004570645745843649,0.05902724340558052,-0.03120736964046955,0.044443752616643906,-0.04479793831706047,0.0212722085416317,0.047953519970178604,0.05268988385796547,-0.04446764662861824,-0.02521958015859127,0.037277426570653915,-0.03453201800584793,-0.047104887664318085,0.0029907466378062963,-0.027342453598976135,0.04512586072087288,-0.03235749900341034,-0.037697549909353256,0.03922291845083237,0.010595031082630157,-0.029048578813672066,-0.02205805294215679,-0.04650208726525307,-0.028654048219323158,-0.04974015802145004,-0.02803647145628929,-0.045158982276916504,0.03415129706263542,0.022315526381134987,0.04185744747519493,-0.003131253644824028,0.0024936352856457233,-0.04719562828540802,0.03521782532334328,-0.030607739463448524,-0.05454985797405243,0.05542336776852608,-0.04813414812088013,0.020102236419916153,0.0009665472898632288,0.01318906806409359,-0.046034473925828934,0.005009926855564117,0.003433217527344823,0.05091947689652443,0.015448869206011295,-0.05262591317296028,-0.019918836653232574,0.006081766914576292,0.061606090515851974,-0.013560591265559196,0.028941333293914795,-0.027910903096199036,-0.04344620928168297,-0.017421364784240723,-0.036698199808597565,0.006846173200756311,-0.00915900431573391,-0.024831602349877357,0.004734324291348457,0.032111845910549164,0.008190562017261982,-0.01131780631840229,-0.016625601798295975,-0.0278543159365654,0.02901587449014187,0.006701401434838772,0.006721749436110258,-0.0011031182948499918,-0.035586338490247726,0.05338205769658089,-0.012109972536563873,0.04020014777779579,0.01897551864385605,-0.0267587061971426,-0.017210856080055237,0.0010398955782875419,-0.031035728752613068,0.012237908318638802,0.01912688836455345,-0.03378763049840927,-0.03909924253821373,0.04289189353585243,0.03714929148554802,-0.01978537254035473,0.006359376013278961,-0.009230039082467556,0.040786247700452805,-0.015032891184091568,-0.0021850087214261293,-0.021197235211730003,-0.0628172755241394,0.03186922147870064,0.02162403240799904,0.052202701568603516,0.008190074935555458,-0.01644139364361763,-0.050653427839279175,-0.053187549114227295,-0.014635158702731133,0.017289524897933006,-0.057013001292943954,0.004059231374412775,-0.005384151823818684,0.02497062459588051,0.025480855256319046,0.019948234781622887,0.057185251265764236,0.03779428452253342,-0.03364088386297226,-0.021522212773561478,0.046845100820064545,-0.015483158640563488,0.026280438527464867,0.06062953174114227,-0.0355713851749897,-0.03775745630264282,-0.04101355001330376,-0.04077322408556938,-0.044948723167181015,0.04797520488500595,0.04984045773744583,0.049566600471735,-0.001349936705082655,0.05841657146811485,0.03829256817698479,-0.019673096016049385,0.04019121080636978,0.010800751857459545,-0.0022451786790043116,0.045208025723695755,0.009886348620057106,-0.011627910658717155,-0.019554121419787407,0.02292662300169468,-0.06319862604141235,-0.06302772462368011,0.020754477009177208,-0.03263569623231888,-0.03957720100879669,0.0047935196198523045,0.06037344038486481,-0.04820562154054642,0.007563028018921614,0.047105446457862854,0.011082583107054234,-0.005536331329494715,-0.008986291475594044,0.0022338991984725,0.00573189789429307,0.00960360188037157,-0.033586759120225906,0.025622613728046417,0.048258934170007706,0.03424130380153656,0.05985814705491066,-0.025303998962044716,-0.013200382702052593,0.01806388981640339,-0.014767062850296497,-0.03803883120417595,-0.03607656806707382,0.02045735903084278,-0.015971777960658073,0.0111073674634099,0.047629162669181824,0.01319675799459219,-0.042906634509563446,0.02502652443945408,0.012651143595576286,0.05262676998972893,-0.047238580882549286,-0.06356479972600937,0.030343538150191307,0.03513700142502785,0.019938968122005463,-0.05181222781538963,0.00047450148849748075,0.01652904599905014,0.011177502572536469,-0.04376831278204918,-0.010366750881075859,0.0011873653857037425,0.05429023131728172,0.048766277730464935,-0.011710544116795063,0.02408660389482975,0.04979279264807701,0.03964681178331375,0.01933869533240795,-0.04032799229025841,0.02004399709403515,0.04042994976043701,0.05809418484568596,0.05421506613492966,-0.005866179242730141,0.002367036184296012,-0.024306658655405045,-0.019092900678515434,0.04452796280384064,0.03426121920347214,-0.03941233083605766,-0.021469658240675926,0.004619057755917311,-0.013524294830858707,-0.005985999014228582,-0.0013749157078564167,-0.03288979083299637,-0.048069581389427185,0.02794252336025238,-0.04798083379864693,-0.0021803979761898518,0.005009873770177364,0.046822354197502136,0.047177478671073914,0.05855068564414978,-0.009817967191338539,5.782897642347962e-05,-0.0211622416973114,0.02425745688378811,-0.05223037302494049,-0.018435563892126083,0.044406477361917496,-0.05276956781744957,0.01789139397442341,-0.019832585006952286,-0.011572377756237984,0.005194832105189562,-0.03486607223749161,0.045651212334632874,0.037802569568157196,0.016194993630051613,-0.022432884201407433,-0.044176552444696426,-0.04909622669219971,0.01919686794281006,0.017319053411483765,0.04353970289230347,-0.009176148101687431,0.004085285123437643,-0.02438999153673649,-0.028089474886655807,0.006398477591574192,0.05721123889088631,0.028708653524518013,0.004646026995033026,-0.03004021942615509,-0.0472383089363575,0.03620060905814171,0.026850631460547447,-0.037764012813568115,-0.016911307349801064,-0.008111163973808289,-0.004014149773865938,0.0025099769700318575,0.05493563413619995,-0.028444508090615273,0.006926360074430704,0.03774814307689667,-0.027147438377141953,0.04855768382549286,0.013960760086774826,0.010842164047062397,0.05768774449825287,0.004372834227979183,0.03000258468091488,0.024928981438279152,-0.04363979771733284,0.04294752702116966,-0.04829186946153641,0.0137511370703578,-0.004640897270292044,0.04783804342150688,-0.007440169807523489,0.005302715115249157,-0.025726400315761566,0.04112689569592476,-0.010816797614097595,0.019356416538357735,0.04458951950073242,0.04887392371892929,0.023044094443321228,0.029033366590738297,-0.04233686253428459,-0.030683882534503937,0.030162913724780083,-0.06160939484834671,-0.03901010379195213,0.0089817363768816,-0.03576286509633064,-0.02589830756187439,-0.0371718630194664,0.02083658240735531,0.043564025312662125,-0.0017208735225722194,-0.04853302985429764,0.057366762310266495,-0.017238454893231392,0.05382430925965309,0.04875314235687256,0.00730794807896018,0.011088188737630844,0.0073824129067361355,0.015092563815414906,-0.030183447524905205,-0.022438492625951767,-0.014628611505031586,-0.004202512092888355,0.004666748456656933,-0.04191187024116516,0.0014402078231796622,-0.016026239842176437,-0.04414492845535278,-0.022090641781687737,0.03504383563995361,-0.016731277108192444,-0.013770042918622494,-0.05669477954506874,0.03265789523720741,-0.02386871539056301,-0.025368129834532738,-0.00031050480902194977,-0.023997755721211433,-0.055520519614219666,0.005082213319838047,0.020921504124999046,-0.02323293685913086,0.055855512619018555,-0.05092747509479523,0.04749695211648941,-0.05273307487368584,0.02047129161655903,0.039998363703489304,0.031641632318496704,0.03540654852986336,0.0021694402676075697,0.02860826998949051,-0.02741250768303871,-0.007220672909170389,-0.02195809781551361,-0.04802630469202995,-0.03144745156168938,0.013727244921028614,0.03144146129488945,0.0013895718147978187,-0.0013762451708316803,0.04249688237905502,0.04656612128019333,-0.03550760820508003,0.03652156516909599,-0.03497251868247986,-0.0643593892455101,-0.036043357104063034,-0.02938390150666237,-0.037851665169000626,0.008405093103647232,-0.04072551056742668,-0.0015794828068464994,0.002188574755564332,-0.05378671735525131,0.03025931306183338,-0.004712529014796019,-0.04095497354865074,0.03581462427973747,-0.019923467189073563,-0.05120157077908516,-0.03696504235267639,-0.0330408439040184,-0.003608308732509613,0.016316430643200874,-0.0037787524051964283,0.045847177505493164,-0.03348204493522644,0.006169364787638187,-0.056997526437044144,0.007497021928429604,-0.011497873812913895,-0.0368272103369236,-0.026666445657610893,0.04390450939536095,-0.016806529834866524,-0.0434766449034214,-0.01921982690691948,-0.029562825337052345,0.04952244833111763,0.004663340747356415,0.05381832271814346,0.02039981819689274,-0.05295027419924736,-0.050148855894804,-0.024469830095767975,-0.03976212814450264,-0.0049110352993011475,-0.018010307103395462,-0.024925248697400093,-0.0060166348703205585,0.05718562752008438,-0.03569578751921654,0.061875153332948685,-0.054728757590055466,0.016582712531089783,0.02916713058948517,0.02348136529326439,-0.007848512381315231,-0.02635928802192211,-0.045177608728408813,0.03559277579188347,-0.05409093573689461,0.03278889134526253,-0.0035242715384811163,0.0035863087978214025,0.05725850537419319,-0.0349801629781723,-0.0074495235458016396,0.02912583202123642,-0.011656181886792183,-0.003471899777650833,-0.005819128826260567,0.025009818375110626,-0.01758737675845623,-0.003136086743324995,0.029752906411886215,-0.017654893919825554,-0.008131226524710655,-0.000731488864403218,0.034713029861450195,-0.029659215360879898,-0.024477005004882812,-0.014671159908175468,-0.03665611520409584,-0.05086427927017212,-0.0520036444067955,-0.04597846046090126,0.018764520063996315,0.042789772152900696,-0.03401266410946846,-0.012945684604346752,-0.04604316130280495,0.036153148859739304,0.0007191738113760948,-0.0453503355383873,-0.0023434178438037634,-0.06658226996660233,0.03825964033603668,0.017766963690519333,-0.007936610840260983,0.04089246317744255,0.00263802008703351,-0.05562470853328705,-0.028795083984732628,0.034530773758888245,-0.0260359775274992,0.03208424150943756,-0.058796823024749756,0.0593312606215477,0.04184043034911156,0.026503313332796097,0.0004422893689479679,-0.013152987696230412,-0.017539141699671745,-0.06155598908662796,0.018997110426425934,-0.0024248973932117224,0.030686823651194572,0.04191168025135994,-0.03208698704838753,-0.01347197312861681,-0.03581295162439346,-0.002779654460027814,0.02837633714079857,0.004405290819704533,0.03255786374211311,-0.061794739216566086,0.023918285965919495,0.04984278231859207,0.05683128908276558,0.01631520874798298,0.03797711804509163,0.03508812561631203,0.020821863785386086,0.004029985051602125,0.021151255816221237,0.06295739859342575,0.009000543504953384,-0.039322707802057266,0.013850092887878418,0.006051314994692802,0.012680419720709324,-0.01933438889682293,0.027871565893292427,-0.018553342670202255,-0.02951575256884098,-0.06321334838867188,0.037652671337127686,-0.024738896638154984,0.006387426517903805,-0.026033272966742516,0.01006583496928215,-0.04722992703318596,-0.021632229909300804,0.02565748803317547,0.04548389092087746,0.0016314811073243618,0.04476466774940491,-0.042903486639261246,0.02412843145430088,0.030025536194443703,-0.04116399586200714,-0.05431590974330902,-0.052169594913721085,-0.019567042589187622,0.03771997615695,-0.0476558655500412,0.05444082245230675,-0.023915858939290047,-0.01869424246251583,0.046458322554826736,0.008936495520174503,-0.0033428343012928963,-0.019076138734817505,-0.03532281145453453,-0.028435304760932922,-0.06063293665647507,-0.011832887306809425,-0.023115575313568115,-0.022802161052823067,-0.04162934795022011,0.046857092529535294,-0.023396002128720284,0.021717578172683716,0.043248556554317474,-0.03783553093671799,-0.005115856882184744,-0.018414273858070374,0.0030106634367257357,-0.0032296711578965187,0.03132570907473564,-0.02931736782193184,0.03244808316230774,-0.029540665447711945,0.015455253422260284,-0.0017114980146288872,-0.027336185798048973,-0.009367542341351509,0.05085710436105728,-0.025877369567751884,-0.04069307819008827,0.06601140648126602,-0.003567717969417572,-0.05250807851552963,-0.02762642316520214,-0.01103814784437418,-0.03402381390333176,0.04937676712870598,0.0022565308026969433,-0.03441498801112175,-0.03043377213180065,0.0582888238132,0.004687045700848103,-0.05990734323859215,-0.014978134073317051,0.05419069156050682,0.028213627636432648,-0.010434855706989765,-0.03372146189212799,0.010268713347613811,-0.006726330611854792,0.010247623547911644,0.02279828116297722,0.015460090711712837,-0.024840041995048523,-0.0003310803440399468,-0.05550583451986313,-0.06210607662796974,0.04649710655212402,-0.024703331291675568,-0.032436564564704895,-0.06791351735591888,-0.061792198568582535,0.044200487434864044,0.055098552256822586,0.04752373322844505,0.05411960184574127,0.05312051624059677,-0.00045842642430216074,-0.04847755655646324,0.010913840495049953,-0.044362686574459076,0.030972756445407867,0.014572768472135067,0.05225421115756035,0.02905379608273506,-0.06285922974348068,0.01353956013917923,-0.01192221138626337,-0.02473314106464386,-0.006926973350346088,-0.011906927451491356,-0.0570344403386116,-0.008101265877485275,-0.01147632859647274,0.048066094517707825,0.048227645456790924,0.013036257587373257,-0.04043322801589966,0.01274071540683508,-0.01134475041180849,-0.052174996584653854,0.03311598300933838,0.04487518221139908,-0.004434693139046431,-0.04803578555583954,-0.002032659947872162,0.05000981688499451,0.02204529568552971,-0.03497062996029854,-0.017735345289111137,0.016233935952186584,-0.037524640560150146,0.048838961869478226,-0.024941833689808846,0.014534974470734596,-0.01830596849322319,0.04442989081144333,0.014495537616312504,-0.0479009784758091,-0.030315695330500603,-0.010812699794769287,-0.04509764909744263,0.05246985703706741,0.006409766152501106,-0.03046453930437565,-0.028676006942987442,-0.012768675573170185,0.01001602690666914,0.027170613408088684,0.0628756433725357,-0.0043424819596111774,0.04637909680604935,-0.01646605134010315,0.032731182873249054,-0.05654660612344742,-0.017831766977906227,0.024094022810459137,-0.0174845140427351,-0.034775152802467346,-0.022210875526070595,0.021417418494820595,0.013502913527190685,-0.013026333414018154,-0.04884682223200798,0.013160936534404755,0.021591143682599068,0.0020440968219190836,0.0636238381266594,0.014123985543847084,0.016388818621635437,-0.004052232950925827,-0.0051482911221683025,-0.055682096630334854,0.04825548827648163,0.004950636997818947,0.02416902221739292,-0.012156542390584946,-0.04402758553624153,-0.013248208910226822,-0.03521553426980972,-0.04101603478193283,-0.03919080272316933,0.025835135951638222,-0.0218980573117733,-0.045289915055036545,-0.01591651141643524,-0.0003403481387067586,0.011575334705412388,-0.024519814178347588,-0.01516922190785408,-0.012454514391720295,0.015868941321969032,-0.04526223987340927,-0.01783166639506817,-0.014368914067745209,-0.009681940078735352,0.016517765820026398,0.04552237316966057,0.05091738700866699,-0.014910024590790272,-0.0379551500082016,-0.016104625537991524,-0.03481454774737358,-0.05147352069616318,-0.04961831495165825,0.03796027600765228,0.03643067181110382,-0.03668826073408127,0.050539806485176086,0.05600951611995697,0.00988734234124422,0.04065100476145744,0.006039060186594725,0.034780390560626984,0.014886309392750263,-0.046656787395477295,0.02117036283016205,-0.03227010369300842,-0.04526646062731743,-0.001060699811205268,0.013214541599154472,0.008322360925376415,-0.04989582672715187,0.016235629096627235,0.018613213673233986,-0.03616946190595627,-0.016200823709368706,-0.015093994326889515,0.03899269178509712,0.002652206923812628,0.0021855051163583994,-0.01874748431146145,-0.021425960585474968,-0.010313685052096844,0.060061655938625336,0.032654207199811935,0.01792457327246666,-0.045453451573848724,0.056934457272291183,0.03922490403056145,0.03268992900848389,0.049001552164554596,-0.0010586184216663241,-0.019001023843884468,-0.043747544288635254,0.012294444255530834,0.003126004943624139,0.005525488872081041,-0.03452269732952118,-0.006368065718561411,0.022550351917743683,0.04827609658241272,0.01592588797211647,0.04796517640352249,0.02316288836300373,-0.002707243897020817,-0.028724750503897667,-0.02375969849526882,0.010154832154512405,0.0018774308264255524,-0.02724294550716877,0.021193133667111397,-0.020989732816815376,0.04477138817310333,-0.025151623412966728,-0.022119704633951187,0.056092843413352966,0.021403765305876732,0.034274257719516754,-0.013791686855256557,0.016004078090190887,-0.036405570805072784,0.056529950350522995,0.038287531584501266,0.05481981858611107,0.018459845334291458,-0.04601229727268219,0.002183046890422702,0.032879214733839035,0.015957919880747795,-0.03547490015625954,0.04724477604031563,0.006073216442018747,-0.03994937613606453,0.026500239968299866,-0.006374146789312363,0.018502214923501015,0.049928903579711914,0.043251123279333115,-0.04193316027522087,-0.04053914546966553,0.02098924294114113,-0.040536824613809586,-0.008330771699547768,0.005938265472650528,0.046998411417007446,0.011769251897931099,0.0052309660241007805,-0.05062670633196831,-0.015120016410946846,-0.011163453571498394,0.038652416318655014,-0.06163090839982033,0.028703639283776283,0.06394360214471817,-0.028843704611063004,0.009146875701844692,0.006976935546845198,0.0027252715080976486,-0.029541803523898125,-0.014053217135369778,0.03440607339143753,0.0010014197323471308,0.04523802548646927,0.057756662368774414,0.02099386788904667,-0.041607532650232315,0.028834130614995956,0.05059700459241867,0.039675623178482056,0.023227455094456673,-0.0603579580783844,0.014650787226855755,-0.02627016231417656,-0.02324563078582287,-0.002021396066993475,0.03297096863389015,-0.050764843821525574,0.02334088459610939,-0.02013452537357807,0.042299117892980576,-0.032176628708839417,0.03556489199399948,0.017504354938864708,-0.021790890023112297,-0.0042972988449037075,0.029123391956090927,-0.0356360487639904,0.020062115043401718,0.004572792444378138,-0.00820912141352892,-0.02757972851395607,0.022883236408233643,0.05996086075901985,0.03925513103604317,-0.024987434968352318,-0.04946104437112808,-0.00896596908569336,0.012158064171671867,-0.01631101593375206,-0.049631569534540176,-0.0516851507127285,-0.044165827333927155,-0.004738740157335997,0.04397043585777283,0.0028575051110237837,0.008323988877236843,0.04292338714003563,-0.00977244321256876,-0.032020095735788345,0.04607624560594559,-0.056584812700748444,0.038151081651449203,0.015616906806826591,0.047803327441215515,0.02305537462234497,0.05086222663521767,0.052465084940195084,-0.03421669080853462,0.0006251473096199334,0.050444427877664566,-0.05294877663254738,-0.02835974469780922,0.03367537260055542,0.0560540072619915,-0.04692096635699272,-0.010412348434329033,0.0029522329568862915,0.054986048489809036,-0.0034830071963369846,0.026921024546027184,0.033285874873399734,-0.02807994745671749,-0.0005926769226789474,0.047468990087509155,0.029941249638795853,-0.013071675784885883,-0.048784732818603516,0.03667334467172623,0.051941145211458206,-0.04356418922543526,0.014560413546860218,0.03965066373348236,-0.05021938681602478,-0.02298436313867569,0.029123125597834587,-0.03796227276325226,-0.009229565970599651,0.023204436525702477,-0.0022820127196609974,-0.044060077518224716,-0.043852418661117554,0.02899620309472084,0.05727650597691536,0.052751652896404266,-0.01921192742884159,0.03516789525747299,-0.04308368265628815,-0.05164181813597679,-0.05457838252186775,0.04234272986650467,0.013886353000998497,0.049565739929676056,0.022557266056537628,0.040702249854803085,-0.02686348371207714,-0.01979740895330906,-0.007259133271872997,0.02182566560804844,0.013481237925589085,-0.022749990224838257,0.04937538877129555,0.03568219393491745,-0.006012731231749058,0.020615125074982643,0.023199962452054024,0.021946163848042488,-0.0415264293551445,0.03230934590101242,0.04463794827461243,0.012145299464464188,0.04797566309571266,0.05049782246351242,-0.05437108501791954,0.020015280693769455,0.04304889589548111,-0.01479134801775217,0.03178342059254646,0.022192781791090965,0.022136779502034187,0.004773302469402552,0.03651382029056549,0.02428572252392769,0.01736629195511341,-0.0426316075026989,-0.030817201361060143,-0.001040237839333713,0.0314624048769474,-0.046398963779211044,-0.029296530410647392,0.015335445292294025,-0.047231532633304596,0.028170205652713776,-0.04224202409386635,-0.053845446556806564,0.013057471252977848,-0.051970820873975754,-0.027171140536665916,0.03138698264956474,0.04677200689911842,-0.026258589699864388,-0.03232228010892868,-0.039738114923238754,0.044217221438884735,-0.053410280495882034,-0.06261656433343887,-0.03843756392598152,0.0025123923551291227,-0.05399322882294655,0.03891187906265259,0.005758390296250582,0.018882494419813156,0.05869603902101517,0.052948638796806335,-0.04370898753404617,0.030596457421779633,0.001731440774165094,0.04826926067471504,-0.04771728068590164,0.013627402484416962,-0.006077974569052458,-0.05411217734217644,-0.02120228484272957,-0.013804087415337563,0.005263419356197119,0.03924126923084259,-0.0363127775490284,-0.014888400211930275,-0.05154174566268921,0.00994387548416853,-0.011688929051160812,-0.008222510106861591,0.003023409517481923,-0.029962005093693733,-0.05249085649847984,-0.0160453412681818,-0.049043700098991394,-0.05567360296845436,0.021558916196227074,0.026467615738511086,0.024768557399511337,-0.05136512592434883,0.04733387008309364,-0.03792106732726097,0.006186206359416246,0.007840045727789402,0.042636942118406296,0.03374974802136421,0.047934114933013916,-0.023028265684843063,0.007955146953463554,-0.04124254733324051,0.026151472702622414,0.04773933067917824,0.005299288313835859,0.02926655486226082,0.011754287406802177,0.03281411901116371,0.04144086688756943,0.03898950293660164,-0.030901873484253883,0.05419466644525528,-0.013057045638561249,-0.05495787411928177,0.01983662135899067,-0.04257069155573845,-0.019300803542137146,0.022509416565299034,-0.01417338103055954,-0.026242047548294067,-0.007067172788083553,0.018848104402422905,-0.01500274520367384,-0.026301957666873932,-0.03918568789958954,0.006267080083489418,0.05173927918076515,0.06000670790672302,-0.04424603655934334,-0.014889762736856937,-0.02676367573440075,0.04938309267163277,0.020257839933037758,-0.045819129794836044,0.034253932535648346,0.0452459380030632,0.0012507583014667034,0.04268926754593849,0.037426773458719254,-0.05753394961357117,0.050893429666757584,-0.045282378792762756,0.014890474267303944,0.02108832821249962,-0.013834337703883648,-0.00808632094413042,-0.030851144343614578,-0.009658864699304104,-0.015074263326823711,-0.019509360194206238,0.06522208452224731,-0.03168042004108429,0.028852730989456177,-0.0175995621830225,-0.007161898538470268,-0.028711456805467606,0.02346445433795452,-0.05514342337846756,-0.007949980907142162,0.018842916935682297,-0.04199567809700966,-0.025994934141635895,0.020200420171022415,-0.009431122802197933,-0.02576596662402153,0.036794207990169525,-0.03355016931891441,0.03773583844304085,-0.035215750336647034,-0.01119289267808199,-0.05086977779865265,-0.02940584532916546,0.05039668828248978,0.01929953694343567,0.031637925654649734,-0.01027561817318201,0.02652338333427906,-0.043012432754039764,0.01823291927576065,0.011238516308367252,0.03382369130849838,0.006046562921255827,0.04833934083580971,-0.017953870818018913,1.5506746422033757e-05,0.056633561849594116,-0.0015231514116749167,0.040935296565294266,-0.05362347513437271,0.039696402847766876,0.01537955179810524,0.04181426763534546,0.024954887107014656,-0.04369112104177475,0.03299662843346596,0.01740988716483116,0.05873251333832741,-0.035598088055849075,-0.048202354460954666,0.022981520742177963,0.05211498960852623,-0.038054902106523514,0.02390171028673649,0.04738187789916992,-0.03498227521777153,0.018587077036499977,-0.06098579987883568,-0.05585607513785362,-0.0009800386615097523,0.04645674675703049,-0.02693469636142254,-0.002927658846601844,0.028569012880325317,0.03802526369690895,0.029927542433142662,-0.05911582335829735,0.05834724381566048,0.03860615938901901,-0.042346272617578506,-0.02644556201994419,0.0170399509370327,0.0505879782140255,-0.01886073686182499,-0.0258901659399271,0.025234224274754524,-0.008550642058253288,-0.04207286611199379,0.029652630910277367,-0.05111325904726982,-0.02597719244658947,0.040635280311107635,-0.004472612403333187,-0.049338046461343765,-0.00912512931972742,0.05188697949051857,-0.02230662666261196,0.032008275389671326,-0.041494954377412796,-0.0341501459479332,-0.032863862812519073,-0.005667632445693016,0.06166587769985199,0.01621832698583603,0.008633858524262905,0.06026339903473854,-0.052741099148988724,0.008959262631833553,-0.010198264382779598,-0.014062711037695408,-0.03793792799115181,-0.05792325735092163,-0.028257327154278755,-0.00860347505658865,0.029339302331209183,-0.021892471238970757,-0.03671681508421898,0.007810740731656551,-0.058625128120183945,-0.05408014357089996,-0.04872322827577591,-0.011060127057135105,-0.031238265335559845,0.03233134001493454,0.03501621261239052,-0.02226323075592518,-0.02141510508954525,-0.01374090276658535,0.01797068491578102,0.026044482365250587,0.030968431383371353,0.05333457142114639,-0.04140504449605942,-0.03628920391201973,-0.030146246775984764,0.01750209741294384,-0.0068342117592692375,-0.025965290144085884,-0.035830412060022354,-0.03946266323328018,0.03309895843267441,-0.04528605565428734,-0.04059235751628876,-0.056984905153512955,0.0007685544551350176,-0.023206619545817375,-0.026053614914417267,-0.04253346472978592,-0.044984471052885056,-0.03713228181004524,-0.015053714625537395,-0.04360342025756836,0.0016971337608993053,0.026341063901782036,-0.05778752639889717,0.0458703488111496,0.011966468766331673,-0.022892940789461136,-0.04362344369292259,0.05118578299880028,-0.035660531371831894,-0.0235914196819067,-0.025523101910948753,0.037987347692251205,0.038887616246938705,-0.026773223653435707,0.035920653492212296,0.0435272678732872,-0.0010749491630122066,0.04655241221189499,0.02319353073835373,-0.03612193092703819,-7.368957449216396e-05,0.031411994248628616,0.048646170645952225,0.004063944797962904,-0.06153697520494461,-0.013225444592535496,-0.019835565239191055,0.05349283292889595,0.004023449495434761,-0.02357974834740162,0.016626007854938507,0.04290331155061722,0.02203068509697914,0.0026345541700720787,0.02213827334344387,-0.009577086195349693,-0.015582536347210407,0.004212134052067995,-0.024937432259321213,-0.035516299307346344,0.021225817501544952,0.02309182658791542,-0.05542650818824768,-0.0058081261813640594,0.03007347881793976,0.052030522376298904,0.02204415760934353,-0.05705910176038742,0.02350769191980362,0.034553173929452896,-0.04715397581458092,-0.018129883334040642,-0.04220709577202797,0.022993046790361404,0.026993507519364357,-0.026555048301815987,0.03928922489285469,-0.030438043177127838,-0.01643953286111355,0.03059050627052784,0.02080148085951805,0.06005251780152321,-0.05014058202505112,0.04380437359213829,0.025553621351718903,0.029129566624760628,0.06740549951791763,-0.04233556613326073,-0.02700161561369896,-0.01784348674118519,0.029415689408779144,0.03836784139275551,0.053116802126169205,-0.005372932180762291,0.008096350356936455,0.012427791953086853,-0.008874203078448772,-0.004952190909534693,-0.012916241772472858,0.008777298033237457,0.048669058829545975,0.04760115593671799,-0.00791170634329319,0.056904230266809464,-0.018248751759529114,0.007302472833544016,-0.022098788991570473,0.028851618990302086,-0.045334603637456894,0.018711047247052193,-0.03702028840780258,-0.041286855936050415,0.045139968395233154,0.04068880155682564,-0.0008643438923172653,0.048242129385471344,-0.05047955736517906,-0.05579439923167229,0.013835402205586433,0.04417649284005165,0.0325087308883667,0.04368774965405464,0.052011944353580475,0.033875081688165665,-0.04184730723500252,-0.005519988015294075,-0.05284218117594719,-0.04196273908019066,0.029134418815374374,-0.05846880376338959,0.03569585084915161,0.03418830782175064,0.027848316356539726,-0.01800408959388733,0.02566598355770111,-0.0069989776238799095,-0.04846858233213425,-0.04296576976776123,0.0021147856023162603,-0.057069260627031326,-0.027548279613256454,0.008311094716191292,-0.043742917478084564,-0.0510861873626709,-0.008506863377988338,0.037526946514844894,-0.03967156633734703,-0.0030254132580012083,-0.01479080505669117,0.018189432099461555,-0.035094574093818665,0.01776515133678913,0.051491234451532364,-0.04384710267186165,0.059220295399427414,0.034024715423583984,-0.031922951340675354,-0.002209253143519163,-0.0013701538555324078,-0.02375601790845394,-0.04584292322397232,-0.028142906725406647,-0.04959220811724663,0.017988121137022972,-0.053942691534757614,0.04196331277489662,0.046994175761938095,0.03483835235238075,-0.029848191887140274,0.05080822855234146,-0.033150169998407364,-0.04949331283569336,-0.0008601982844993472,0.02475513331592083,0.013582820072770119,0.0278383269906044,-0.006659346166998148,-0.015697021037340164,-0.0011665811762213707,-0.015852799639105797,0.05107107385993004,0.051633570343256,-0.026255667209625244,-0.056279513984918594,0.023756466805934906,0.01881353370845318,0.04742499813437462,0.012305029667913914,0.010635539889335632,-0.05247284471988678,0.019833341240882874,-0.019409075379371643,-0.000992185901850462,0.016684699803590775,-0.03689344972372055,0.03172234818339348,0.04095140099525452,0.041153211146593094,0.03216664865612984,0.016916552558541298,-0.03346308320760727,0.038329318165779114,-0.04270891845226288,-0.0036697457544505596,0.04537423327565193,-0.04356452077627182,0.026761937886476517,0.019126661121845245,-0.03581467643380165,-0.011597667820751667,0.03694728761911392,-0.032015178352594376,-0.051819831132888794,0.020342916250228882,-0.05055103451013565,0.04763112589716911,0.01304460410028696,-0.015108085237443447,-0.05166192352771759,-0.04924648255109787,0.043323516845703125,0.047469351440668106,-0.03476347774267197,-0.031153643503785133,0.03720690310001373,-0.0017910394817590714,-0.04110487923026085,0.0029385159723460674,-0.025041896849870682,-0.04988488182425499,-0.029762063175439835,0.02626464143395424,-0.0458296500146389,-0.003837160998955369,-0.019594641402363777,-0.014549115672707558,0.0034197529312223196,0.027525778859853745,0.023776007816195488,-0.036414481699466705,0.02561134658753872,0.00021139942691661417,0.021643446758389473,-0.03037913516163826,0.04214080050587654,0.04193442687392235,0.0440564826130867,-0.044749192893505096,0.038973551243543625,0.051160749047994614,-0.020802587270736694,-0.004446160979568958,0.0025238581001758575,-0.030855700373649597,0.02112444117665291,0.034269820898771286,-0.02961002290248871,0.05396157130599022,0.04700366035103798,0.014310181140899658,-0.04243741184473038,-0.014348657801747322,0.023478016257286072,0.007080894894897938,0.047992199659347534,-0.035729631781578064,-0.025520747527480125,-0.02765040658414364,-0.038201022893190384,0.0017615942051634192,0.03376958891749382,0.04876790940761566,0.04497306048870087,-0.014454977586865425,-0.0004152801993768662,0.03370656445622444,-0.05920840799808502,-0.012903440743684769,-0.00858333334326744,0.02562694251537323,-0.008340632542967796,-0.04474617913365364,0.01997961290180683,0.0036340777296572924,-0.004284236580133438,-0.0005213241092860699,-0.0012187332613393664,0.04680647328495979,0.013857991434633732,-0.01654449850320816,0.06052325665950775,0.01541090477257967,-0.06468620896339417,-0.0219517070800066,-0.037814658135175705,0.013374636881053448,-0.043901629745960236,0.022162053734064102,0.04863405227661133,-0.0383499413728714,0.013267947360873222,0.015284200198948383,-0.019529694691300392,-0.003253079717978835,-0.047848179936409,-0.051329366862773895,-0.026026010513305664,0.0017878597136586905,0.01495045330375433,0.05978739634156227,-0.04004339501261711,0.007265843451023102,0.037729959934949875,0.010471781715750694,0.05824028700590134,-0.023825373500585556,-0.05385616794228554,-0.03289249911904335,0.006648183334618807,0.042340416461229324,0.027720488607883453,0.03165903314948082,-0.05535746365785599,-0.017931818962097168,-0.008728064596652985,0.008134493604302406,-0.008011650294065475,0.05231194570660591,-0.03696941211819649,-0.035476282238960266,0.04434074088931084,0.04917240887880325,-0.015690170228481293,0.05379171669483185,-0.037271711975336075,0.05359393730759621,0.01385568454861641,0.024980993941426277,0.04310069978237152,-0.016022758558392525,0.04216836765408516,0.01907414384186268,-0.008341950364410877,0.02130822464823723,0.04107706621289253,-0.0348699688911438,-0.020526481792330742,-0.006219212897121906,-0.05619928240776062,0.04453755542635918,-0.053799424320459366,-0.027267711237072945,0.04904550313949585,0.0003807381435763091,-0.0018468924099579453,0.034723225980997086,0.018154267221689224,0.01702682301402092,0.019466545432806015,0.019017057493329048,-0.017818516120314598,-0.026544835418462753,0.013481957837939262,0.059874627739191055,0.045756902545690536,-0.004263502545654774,0.03948143497109413,-0.05626003071665764,0.0017283821944147348,0.027528418228030205,0.050754696130752563,-0.04589233919978142,0.02518216334283352,0.011692416854202747,0.015422547236084938,0.0574769489467144,0.039810046553611755,0.04936843365430832,-0.019612019881606102,-0.009586888365447521,-0.008291667327284813,-0.028766613453626633,-0.049853693693876266,-0.03257117047905922,-0.0451904833316803,-0.027307825163006783,0.04705015942454338,0.009970834478735924,-0.033245716243982315,-0.025598322972655296,-0.01067256648093462,0.00283531635068357,0.013837629929184914,-0.05432657524943352,-0.023041781038045883,0.046346113085746765,-0.024664727970957756,-0.013977687805891037,-0.05597434937953949,-0.03504148870706558,-0.036149416118860245,-0.011126085184514523,-0.042704883962869644,-0.04612487182021141,0.026228880509734154,-0.019731560721993446,0.04928738623857498,-0.03542530909180641,0.007011008448898792,-0.023917289450764656,0.009508415125310421,-0.042311299592256546,-0.027759255841374397,-0.03688972070813179,0.052719518542289734,0.047899238765239716,0.0055509149096906185,-0.004048522096127272,0.053192026913166046,0.013615148141980171,-0.002871657954528928,0.02166074328124523,-0.0013917888281866908,0.049435410648584366,-0.041463714092969894,-0.03526803478598595,-0.04043541103601456,-0.028882861137390137,0.0010670328047126532,0.030948936939239502,0.04914841055870056,-0.013186507858335972,0.05464109778404236,0.04732312634587288,0.006290033459663391,0.03373461216688156,-0.011235127225518227,-0.030308982357382774,-0.05231773853302002,0.017900099977850914,0.027394728735089302,0.011957187205553055,0.0479002371430397,0.021822139620780945,0.02923491969704628,-0.005312582012265921,0.007859724573791027,0.029666800051927567,0.04870358854532242,0.0018730800366029143,0.009431947953999043,-0.033075690269470215,-0.021771518513560295,-0.018826976418495178,0.06338748335838318,0.05613638460636139,0.02951033227145672,-0.04695965722203255,-0.013138270005583763,0.01404653862118721,0.06058826670050621,0.006488549988716841,0.008597767911851406,-0.03533259406685829,-0.030330337584018707,-0.02710694447159767,-0.026511894538998604,-0.0522129088640213,0.029915442690253258,-0.05721571668982506,-0.0325101837515831,0.009386402554810047,-0.045506902039051056,0.01071956381201744,0.020720619708299637,0.013583647087216377,-0.003006041282787919,0.04445638880133629,-0.052195291966199875,0.058970604091882706,-0.04384193196892738,-0.02766149677336216,-0.016628477722406387,-0.008552687242627144,-0.03520229458808899,-0.009963269345462322,-0.05414954945445061,0.003144254442304373,-0.018907826393842697,-0.05085873231291771,-0.00043966452358290553,0.0061304266564548016,-0.026826485991477966,0.03634325787425041,-0.04460340738296509,0.014854896813631058,-0.013755042105913162,-0.012962779961526394,-0.029048487544059753,0.0445733480155468,0.03507506474852562,0.024783264845609665,0.025083154439926147,0.053712114691734314,0.023421114310622215,-0.03744595870375633,0.013122418895363808,-0.05408187583088875,0.03420083224773407,0.042592454701662064,-0.01831784099340439,-0.036364711821079254,-0.001453536911867559,0.047032907605171204,0.04916498064994812,0.013523971661925316,-0.027748797088861465,0.024297671392560005,0.057179518043994904,0.02820119634270668,0.016565866768360138,-0.03992856666445732,-0.06409160047769547,-0.0351431630551815,-0.023789484053850174,0.03983953595161438,-0.026729445904493332,0.05271070823073387,0.057056065648794174,-0.043592460453510284,-0.023682065308094025,0.05145293101668358,0.01837657205760479,-0.044364962726831436,-0.05708575248718262,0.05500772222876549,0.012246008031070232,-0.03410784900188446,-0.03728967159986496,0.02865917608141899,-0.03344852104783058,-0.010075405240058899,0.012506932020187378,-0.020759662613272667,0.048391036689281464,-0.03255065903067589,-0.051137521862983704,-0.04971751943230629,0.04176970571279526,0.04477664828300476,0.009945375844836235,-0.012367268092930317,-0.012753983959555626,-0.00351734459400177,-0.042480047792196274,0.016400348395109177,-0.02765495516359806,-0.029488615691661835,0.0406976118683815,0.03054206445813179,-0.0102126719430089,0.0075628082267940044,-0.004974777344614267,-0.015291372314095497,-0.05338545888662338,0.012182096019387245,0.03936690092086792,-0.04435174539685249,-0.04225224629044533,-0.03758709505200386,-0.010531497187912464,-0.05097891390323639,0.05419056862592697,0.04771732538938522,-0.03969370201230049,-0.017494911327958107,-0.007208259776234627,0.03611890599131584,0.018680641427636147,-0.05498209595680237,-0.04481393098831177,0.04993363097310066,-0.023872343823313713,-0.01402905210852623,-0.011712885461747646,0.03739286959171295,0.052837587893009186,-0.033626630902290344,-0.03696922957897186,-0.00935236643999815,-0.03612568974494934,0.03303944692015648,-0.055855121463537216,-0.03255245089530945,-0.022839145734906197,0.05344067141413689,0.06148717552423477,-0.01158316619694233,0.014966288581490517,-0.020091453567147255,0.04644029214978218,-0.006175292190164328,-0.028966546058654785,-0.047087833285331726,-0.016382522881031036,-1.867775608843658e-05,-0.008050567470490932,-0.03883536159992218,0.034025661647319794,0.032296814024448395,-0.023194709792733192,0.04247856140136719,0.024815300479531288,0.008773718029260635,-0.033963996917009354,-0.025507651269435883,-0.03120395727455616,-0.039356015622615814,-0.03559846803545952,0.011695463210344315,0.04920807480812073,0.005630232393741608,-0.04066242650151253,-0.015711119398474693,-0.0005252968403510749,-0.024979373440146446,0.044360656291246414,0.0011461933609098196,0.013188743963837624,0.05339895933866501,0.03779863566160202,-0.04563918709754944,-0.02554641291499138,-0.046864841133356094,-0.01154047716408968,0.00669565936550498,0.0393054336309433,0.051096394658088684,-0.028979985043406487,0.013326075859367847,0.002240047324448824,0.04861174523830414,0.022834166884422302,-0.05147690698504448,0.02622724138200283,0.024849973618984222,0.005363170523196459,-0.042710985988378525,0.030149610713124275,-0.015236485749483109,-0.026178210973739624,0.02558087557554245,0.03813821077346802,-0.05276580527424812,-0.04940144717693329,-0.01863577961921692,-0.01380564272403717,-0.04741213098168373,0.01931602694094181,-0.03037826530635357,0.037176746875047684,-0.048857707530260086,-0.04224041476845741,0.016676168888807297,-0.03370697796344757,-0.023179346695542336,-0.032193947583436966,-0.028200075030326843,0.045456696301698685,-0.05213397741317749,0.014942513778805733,-0.010408700443804264,-0.00878729298710823,-0.043914545327425,0.006829023361206055,-0.00199927669018507,0.0017701293108984828,-0.04569778963923454,0.06385843455791473,-0.02535838820040226,0.017668019980192184,0.02186579629778862,0.030466310679912567,-0.04751618579030037,-0.036042165011167526,0.05563204735517502,0.04372716695070267,0.029344474896788597,-0.02933395281434059,-0.03389739617705345,0.012905901297926903,0.05556945875287056,0.012799904681742191,0.05507264286279678,0.042945168912410736,-0.024809477850794792,-0.011593635194003582,-0.04418673366308212,-0.0071533117443323135,0.0173918716609478,0.04670296981930733,-0.018575496971607208,0.03346661105751991,0.023898595944046974,-0.021676110103726387,0.05449269711971283,0.011875498108565807,-0.008362379856407642,0.05735263228416443,0.05855031684041023,-0.007412678096443415,0.047447364777326584,-0.05614502727985382,0.029973885044455528,-0.01106480322778225,0.049205485731363297,-0.008024284616112709,-0.011187107302248478,-0.026891661807894707,0.00579896429553628,-0.016578499227762222,0.007043474353849888,-0.04833545908331871,-0.045468345284461975,-0.040350377559661865,0.025198237970471382,-0.03540043905377388,-0.017917398363351822,0.029754171147942543,-0.013861618004739285,0.027480226010084152,-0.04383951798081398,-0.005433323793113232,-0.033613741397857666,-0.04640551283955574,0.04227764904499054,0.02986328862607479,0.060748592019081116,-0.04143917188048363,-0.020196322351694107,0.031734857708215714,0.035723838955163956,0.06255394965410233,-0.048634689301252365,-0.005022246390581131,0.019389614462852478,-0.05273360013961792,0.0028894178103655577,0.026877135038375854,-0.010693089105188847,-0.03564691171050072,0.01609181798994541,0.008977283723652363,0.029032066464424133,-0.05481470376253128,-0.011855998076498508,-0.04520273208618164,-0.018178556114435196,0.0584937185049057,0.01222127303481102,0.056283872574567795,-0.02687220089137554,-0.044485416263341904,-0.01918189600110054,0.010479372926056385,-0.029921477660536766,0.01676855981349945,-0.044428501278162,-0.05314319208264351,-0.04441629722714424,-0.04893525689840317,0.0002534561790525913,-0.05125153809785843,0.03147998824715614,-0.02395646646618843,0.04862559586763382,0.019351454451680183,0.025232214480638504,-0.0687728002667427,0.031205687671899796,0.024663735181093216,-0.05009261146187782,0.023553991690278053,-0.03981907293200493,-0.044459447264671326,-0.04771686717867851,0.055448587983846664,0.04274110868573189,-0.006198603194206953,0.009730135090649128,-0.021898910403251648,0.037689391523599625,-0.03661828860640526,-0.04409189894795418,-0.04461568593978882,0.013500798493623734,0.03707797825336456,0.013126065023243427,-0.007067388854920864,-0.03510221466422081,0.06367141008377075,0.06375247240066528,-0.031226323917508125,-0.01808272674679756,-0.03504731133580208,-0.01454484649002552,0.02235744707286358,0.0015528552467003465,-0.04184640198945999,-0.0444490872323513,0.015719115734100342,0.054753754287958145,-0.04465944692492485,-0.006900628563016653,0.0538501963019371,0.042932454496622086,-0.04067123308777809,-0.018443726003170013,-0.018834061920642853,-0.026222655549645424,0.058197055011987686,0.004536881577223539,-0.04886834695935249,-0.007142324466258287,-0.040029581636190414,0.03650825470685959,-0.008350429125130177,-0.012103552930057049,-0.03315691649913788,0.04418831691145897,0.03614269569516182,0.004616369027644396,0.029112672433257103,0.008464314974844456,-0.030502742156386375,-0.05194514989852905,-0.0017445676494389772,-0.007602699566632509,-0.012093677185475826,-0.033628907054662704,-0.02070077881217003,0.011176456697285175,0.0436888113617897,0.018617263063788414,0.010340484790503979,0.036351513117551804,-0.04859987646341324,0.06136446073651314,-0.03601811081171036,0.03666490316390991,-0.052337683737277985,0.014346104115247726,-0.03861994296312332,0.043728750199079514,0.002054659416899085,-0.03733193874359131,-0.03400639817118645,0.0035611737985163927,-0.0410306453704834,0.015855297446250916,-0.04117820784449577,-0.0002850970777217299,0.013898944482207298,0.04118671640753746,0.024009639397263527,0.007135864347219467,0.04434400051832199,0.037519440054893494,-0.015187855809926987,0.03891459107398987,0.054071094840765,0.04807325825095177,-0.05100451409816742,-0.02622174099087715,0.011174590326845646,0.056268565356731415,0.05373870208859444,-0.04001183062791824,-0.009792454540729523,0.0018897431436926126,-0.0024107054341584444,-0.004968113731592894,-0.05065780133008957,0.009285381063818932,0.0422365702688694,-0.0050532934255898,-0.03560974448919296,-0.047773800790309906,0.0577571876347065,0.05893772095441818,0.03518296033143997,-0.0502566359937191,-0.02780769020318985,0.009122025221586227,0.02161538228392601,0.006694438401609659,-0.0424724742770195,0.055452413856983185,-0.0328507162630558,-0.03985007852315903,0.0008370469440706074,-0.03735947236418724,-0.00978255458176136,-0.004911360330879688,-0.033771220594644547,-0.0014327726094052196,0.0511215403676033,0.05101896822452545,-0.008199342526495457,0.012739020399749279,-0.011082664132118225,0.04996265098452568,0.019676031544804573,0.018100282177329063,-0.019150665029883385,-0.0083757434040308,0.04743129014968872,-0.033890098333358765,-0.04037437215447426,0.02565643936395645,-0.004025920759886503,-0.02059081755578518,0.012216944247484207,0.03767792880535126,0.03400687873363495,0.02769659273326397,0.04191923141479492,-0.00316544808447361,-0.04181448370218277,-0.04809090495109558,0.059446532279253006,0.05554092675447464,0.033817730844020844,-0.02988976053893566,-0.05447804182767868,0.001664282288402319,0.02632848173379898,0.023934345692396164,-0.03727837651968002,0.03338492289185524,0.026779405772686005,-0.02720148116350174,0.024376321583986282,0.04413660615682602,-0.044873401522636414,-0.012609902769327164,0.043536972254514694,0.01765657402575016,0.046643201261758804,-0.002019195118919015,-0.040854547172784805,-0.017529280856251717,0.05094009265303612,-0.0024695415049791336,0.00486047612503171,-0.0002937719982583076,-0.022197024896740913,-0.005128690507262945,0.023116759955883026,-0.029995035380125046,0.0022879657335579395,-0.01585978828370571,0.045943982899188995,-0.007596959825605154,0.04407206177711487,-0.06317663937807083,-0.016279935836791992,0.01815543696284294,-0.04866308346390724,0.04851876199245453,0.0509144552052021,-0.045497216284275055,-0.05041620135307312,-0.05247855186462402,-0.016296163201332092,-0.06393790245056152,-0.044104427099227905,-0.01725742034614086,0.02240106277167797,-0.04795239120721817,-0.05409281328320503,0.0113551439717412,0.03635236248373985,0.017561599612236023,-0.01671145297586918,-0.03837962448596954,-0.023522617295384407,0.02751948870718479,0.007510724943131208,-0.029226848855614662,-0.03218703716993332,-0.022249875590205193,0.00808622594922781,0.053120456635951996,0.029203614220023155,0.011753490194678307,0.04223616048693657,0.03140252083539963,-0.012508222833275795,0.05858863145112991,0.051785487681627274,-0.005337075795978308,-0.05923915654420853,0.02515229396522045,0.04106065258383751,-0.05678191035985947,0.043771445751190186,0.010727590881288052,0.04446319490671158,0.0019608386792242527,-0.04465887323021889,0.049313560128211975,0.046050168573856354,0.009597410447895527,-0.00900962669402361,-0.05252884328365326,-0.01884138211607933,0.014096878468990326,-0.02906092070043087,-0.03979412838816643,-0.03494243323802948,0.005272381007671356,-0.05368279293179512,0.013977937400341034,0.031097447499632835,-0.03481350094079971,0.0502658486366272,0.047728728502988815,0.03781787306070328,-0.041892580687999725,0.033283110707998276,-0.0084613598883152,-0.0120703699067235,-0.024491705000400543,0.009479189291596413,-0.03021620586514473,0.031758006662130356,0.06096708029508591,0.03918112814426422,0.012671763077378273,-0.029274098575115204,-0.05503157898783684,-0.0353076308965683,-0.0072886329144239426,-0.05941757559776306,0.01183390524238348,0.05341378226876259,0.023191852495074272,-0.023309294134378433,-0.030604280531406403,0.0021232464350759983,0.030703624710440636,-0.026896441355347633,-0.008776458911597729,-0.03044142946600914,-0.02185995690524578,-0.027387768030166626,0.034503400325775146,-0.008221359923481941,0.038920920342206955,0.02832079492509365,0.05008406937122345,0.030383750796318054,-0.01998848095536232,0.04913993179798126,-0.038009580224752426,0.04122794046998024,-0.052349820733070374,-0.05464271083474159,0.019581712782382965,-0.014370974153280258,-0.025345509871840477,-0.005482089705765247,0.026640858501195908,0.028109969571232796,0.0049644699320197105,0.02480071224272251,0.05099382624030113,-0.05188440531492233,0.004081368912011385,0.04821602627635002,0.04485534504055977,0.01059011835604906,-0.018524937331676483,0.01380639523267746,-0.014766640029847622,-0.012008617632091045,-0.0036401012912392616,-0.02148096077144146,0.02642560936510563,-0.03915584087371826,-0.003353928215801716,-0.007418733090162277,0.016159985214471817,-0.006017254665493965,0.03128369152545929,0.0360703207552433,0.04172879457473755,-0.03241843730211258,-0.022261667996644974,-0.03925175219774246,-0.012541394680738449,0.006653370801359415,-0.04065881669521332,0.009813291020691395,-0.005227434914559126,-0.04815490171313286,-0.0020369822159409523,-0.04766690731048584,-0.013235609047114849,0.0007214625366032124,0.04495910182595253,-0.037726305425167084,-0.03585560619831085,0.006683411542326212,-0.038868244737386703,0.024899045005440712,-0.04170795530080795,0.06157887354493141,-0.042259011417627335,-0.01689123548567295,-0.051756829023361206,-0.027098139747977257,0.03287486732006073,-0.04548567906022072,0.032656025141477585,-0.0327332429587841,-0.009483004920184612,0.039823539555072784,-0.027597540989518166,0.040724899619817734,-0.04239591583609581,-0.007758552674204111,-0.03958631679415703,0.05317239463329315,-0.03007064200937748,-0.06027238070964813,0.011972453445196152,-0.05490538477897644,-0.05032937601208687,0.02076265960931778,-0.009229751303792,0.022497108206152916,-0.055017177015542984,0.055888835340738297,-0.05696801468729973,-0.01677764393389225,0.0016277828253805637,0.05393270030617714,-0.04488039389252663,-0.018160231411457062,0.05832677707076073,0.037772998213768005,0.01406906545162201,0.015037763863801956,0.028345322236418724,-0.03265649080276489,0.01966668665409088,-0.03809769079089165,0.03578678146004677,-0.0048125735484063625,0.006975139025598764,-0.05837384611368179,0.047528624534606934,0.045589953660964966,-0.004642321728169918,-0.03767223656177521,0.006442624609917402,0.01000079233199358,0.04092878848314285,0.03378654643893242,0.05228240415453911,-0.029631666839122772,0.029489753767848015,0.011130893602967262,0.03054894134402275,0.019424326717853546,0.02621600218117237,0.02771827019751072,0.009467106312513351,-0.037205345928668976,-0.004895416554063559,0.054120223969221115,-0.04222140833735466,-0.029784586280584335,0.038451842963695526,-0.003214168595150113,0.05509302765130997,0.043376680463552475,-0.033764809370040894,0.004832199774682522,0.029464267194271088,-0.02598457783460617,0.005796860437840223,0.00700946431607008,-0.015045026317238808,0.0008966947789303958,-0.02627144381403923,0.009493641555309296,0.04698357731103897,-0.0486292727291584,0.034093476831912994,-0.041903674602508545,-0.03879494592547417,-0.02642030455172062,-0.005122906994074583,0.009135746397078037,-0.029894210398197174,-0.032721664756536484,-0.0016607909929007292,-0.041489336639642715,0.026924315840005875,-0.033299461007118225,0.039966750890016556,0.0504806749522686,-0.009463954716920853,-0.034321948885917664,-0.03381967544555664,-0.02756110206246376,-0.030040495097637177,0.002790905302390456,-0.00810915045440197,-0.019095389172434807,-0.015020527876913548,0.023869171738624573,0.015932729467749596,-0.034246739000082016,-0.006408881861716509,0.061867550015449524,0.05275794118642807,-0.0426066555082798,0.027422161772847176,-0.06046042591333389,0.01796911656856537,-0.020272890105843544,0.03928867727518082,-0.01964736357331276,0.04238090291619301,0.026036394760012627,-0.040284447371959686,-0.01134223397821188,0.014219055883586407,0.012830805964767933,0.03127637878060341,-0.01350267045199871,-0.0677725151181221,-0.010845301672816277,0.013613570481538773,-0.008834149688482285,0.04789577051997185,-0.05448966845870018,0.007937358692288399,-0.0560184121131897,0.051339369267225266,-0.05379757285118103,0.04172242060303688,0.03511226177215576,0.030616991221904755,-0.019059589132666588,0.05424163490533829,0.04746044799685478,-0.002487664809450507,0.0017478681402280927,0.03704489395022392,0.020749855786561966,0.03095431998372078,0.008280383422970772,0.04971843212842941,0.038438573479652405,-0.010787692852318287,0.0011296141892671585,0.054457034915685654,-0.003929142840206623,0.050843823701143265,-0.0046550012193620205,0.00351959140971303,0.05532296001911163,-0.028014881536364555,-0.010491480119526386,0.004656744655221701,-0.02879660576581955,-0.042991556227207184,-0.00013473909348249435,0.019852330908179283,0.05425689369440079,0.023170622065663338,-0.049247391521930695,0.05209624022245407,0.010998155921697617,-0.019629469141364098,-0.017079539597034454,0.03790224716067314,0.051897112280130386,0.02710660919547081,0.010787044651806355,-0.026626482605934143,-0.04688268154859543,-0.03777091205120087,0.0212110485881567,-0.0012088855728507042,-0.039316415786743164,0.04662154242396355,0.0057009425945580006,-0.030725447461009026,0.014163007959723473,-0.03071138821542263,-0.025236602872610092,-0.05204426124691963,0.0435769259929657,0.03329573944211006,0.04571827873587608,0.013501714915037155,-0.05025376006960869,0.03280474990606308,-0.04195665195584297,-0.022511711344122887,0.01931590586900711,0.005801462568342686,-0.022534022107720375,0.045594874769449234,0.030617330223321915,-0.03686872869729996,0.05757495015859604,-0.03647489845752716,0.04984030872583389,-0.00024899968411773443,-0.03568577393889427,-0.02752060629427433,0.006848772522062063,-0.020732449367642403,0.05688595026731491,-0.028134530410170555,0.01685633696615696,-0.043311070650815964,0.03202005475759506,0.029004981741309166,-0.04236895963549614,-0.002393170492723584,-0.012564253993332386,0.01660842075943947,-0.01119518093764782,0.03881530091166496,-0.0520191453397274,0.02834635227918625,0.039946623146533966,0.01095616165548563,0.01115977019071579,0.0019516837783157825,0.055459458380937576,0.03912591189146042,0.004175397567451,0.035805411636829376,0.040009502321481705,0.04966110736131668,0.04033351317048073,-0.05239623785018921,-0.0007960678194649518,-0.03935085982084274,-0.038430746644735336,-0.01067078672349453,-0.028372809290885925,0.05727613344788551,-0.04815429449081421,0.01283878181129694,0.030630771070718765,-0.00477227196097374,0.01461178157478571,-0.001920664100907743,-0.03056921437382698,-0.05407903715968132,-0.0225286316126585,-0.055816054344177246,0.004761295393109322,2.9531315703934524e-06,0.059959832578897476,-0.035582926124334335,0.045965660363435745,0.027792736887931824,-0.03982836380600929,0.012089028023183346,0.018461622297763824,0.04789908230304718,-0.022986125200986862,-0.02082405798137188,-0.0557088665664196,0.018322447314858437,0.02049804851412773,0.03503085672855377,0.025457721203565598,-0.03311045095324516,0.0077581326477229595,0.02512645348906517,-0.053993869572877884,0.04087419807910919,-0.0499938502907753,0.03870048746466637,-0.0306510329246521,0.061306267976760864,-0.04900261014699936,-0.011491264216601849,-0.0498831644654274,-0.0017463569529354572,0.01780051551759243,-0.05265771225094795,-0.05707428231835365,-0.005555307492613792,0.025967342779040337,0.03965631499886513,0.0017591217765584588,0.039550554007291794,-0.048929717391729355,0.05969368293881416,0.0030236856546252966,0.04217769205570221,0.015812600031495094,0.03649769350886345,0.017434565350413322,0.015315227210521698,0.0198269821703434,0.054006945341825485,0.05760360509157181,0.02225145883858204,0.05814163759350777,0.03150729835033417,0.020385969430208206,-0.049387309700250626,-0.027671517804265022,0.0509774386882782,0.04286566749215126,-0.0068176849745213985,-0.013643122278153896,-0.0003613810404203832,-0.04711184650659561,0.02918057143688202,0.053646448999643326,0.042247429490089417,-0.05603279545903206,-0.043927013874053955,-0.05747712776064873,-0.04850228503346443,-0.03943519666790962,0.011733319610357285,-0.043771300464868546,-0.046581339091062546,-0.03524000570178032,-0.018327895551919937,-0.025175372138619423,-0.0432867631316185,-0.04789775237441063,-0.02317984588444233,0.056358784437179565,-0.02549409121274948,0.05808253586292267,0.05247507989406586,0.0423678457736969,0.03291526809334755,-0.013322971761226654,-0.010637663304805756,0.035592883825302124,0.012994096614420414,0.05384320393204689,0.03531721979379654,-0.0014001595554873347,0.05264950543642044,-0.013547266833484173,0.04334733635187149,0.029185613617300987,-0.040648870170116425,0.0027393486816436052,0.0215015672147274,0.028023546561598778,0.05802847072482109,-0.023221544921398163,-0.0548272505402565,0.007158518768846989,-0.0017001036321744323,-0.043384894728660583,-0.04614948853850365,0.00030417850939556956,0.030027640983462334,-0.007929624989628792,0.0013594807824119925,-0.010175950825214386,-0.02889247052371502,-0.04027455300092697,0.016071561723947525,0.009588910266757011,0.05488215759396553,-0.006294474005699158,-0.005181989166885614,-0.04725327342748642,0.03655356913805008,-0.05171368643641472,-0.042703378945589066,0.05212295055389404,-0.005384938791394234,-0.012239341624081135,-0.05659853294491768,0.012967105954885483,-0.03986452892422676,-0.032669223845005035,0.04102820158004761,0.020661069080233574,-0.05051058530807495,-0.0017618057318031788,-0.04254159703850746,-0.00045968516496941447,-0.024650953710079193,0.014701089821755886,0.031237073242664337,-0.0263049378991127,0.025588523596525192,-0.015736237168312073,0.012717314064502716,-0.028702208772301674,0.033651165664196014,-0.04525705799460411,0.04201947897672653,-0.043708279728889465,-0.006375724449753761,8.102558058453724e-05,0.03092060796916485,0.04975441098213196,0.017625251784920692,0.0205838680267334,0.009430726058781147,0.046080660074949265,-0.008761280216276646,0.04632887616753578,0.010733879171311855,0.040361419320106506,-0.030668430030345917,0.04297477751970291,0.061057198792696,-0.036402057856321335,0.021288782358169556,0.010598708875477314,-0.008835149928927422,0.04678581655025482,-0.04671243205666542,0.004140287637710571,0.025719158351421356,-0.014769050292670727,-0.060403719544410706,0.049597710371017456,-0.016642993316054344,-0.01239687204360962,0.04741022735834122,0.03518727049231529,-0.01028975285589695,-0.010850785300135612,-0.043156884610652924,0.05762750655412674,0.053780607879161835,-0.02276928909122944,0.013909230008721352,-0.04649006202816963,0.03151458129286766,0.04131877422332764,-0.02276197262108326,-0.04526252672076225,-0.015205894596874714,0.02876044064760208,-0.02599840797483921,0.020321795716881752,-0.04982072114944458,-0.032909050583839417,-0.0035167494788765907,-0.04629183188080788,-0.019154032692313194,-0.011356916278600693,0.0045142159797251225,-0.0017670894740149379,0.02229447104036808,0.0034484979696571827,0.0413670651614666,-0.030200516805052757,-0.031422559171915054,-0.014477690681815147,0.004375520162284374,-0.024678433313965797,0.05017533525824547,0.05381718650460243,-0.0036566066555678844,-0.05553111433982849,-0.03062259592115879,0.006009713746607304,0.05070934072136879,-0.03069479577243328,0.014686491340398788,-0.02926444821059704,-0.006032077595591545,-0.057383015751838684,-0.0032556108199059963,0.04608314856886864,-0.01403899397701025,-0.03740965574979782,-0.021865541115403175,0.04170391336083412,-0.028723912313580513,-0.002028627786785364,-0.012781900353729725,0.04957767575979233,-0.007316849194467068,-0.009605036117136478,0.021128978580236435,-0.007245994172990322,-0.0019921581260859966,-0.028752809390425682,0.010902728885412216,-0.047814711928367615,0.03591829910874367,-0.008855902589857578,0.04790902137756348,-0.021900486201047897,-0.04992257431149483,-0.029906483367085457,-0.03617732599377632,-0.057289209216833115,0.007267063017934561,0.019259409978985786,-0.061630915850400925,0.015636488795280457,-0.04904959350824356,-0.02444988489151001,-0.02173100970685482,-0.043795231729745865,0.04842698201537132,0.022000515833497047,0.04796410724520683,0.03992091491818428,-0.028235848993062973,-0.05926819145679474,0.05177164822816849,0.04820960760116577,0.060371823608875275,0.03168187662959099,-0.06349477171897888,-0.004004291258752346,0.0513119101524353,0.040854282677173615,-0.018252134323120117,-0.028570130467414856,0.05424569919705391,0.04580669477581978,-0.025616534054279327,-0.022239839658141136,0.01659354753792286,-0.02343755029141903,0.0038212579675018787,0.0448421835899353,-0.04346761852502823,0.05381680279970169,-0.046077921986579895,0.050012413412332535,0.03545723482966423,0.05096592381596565,0.00047993232146836817,0.04500044137239456,-0.05435119569301605,0.045799143612384796,-0.017371103167533875,-0.05621859058737755,-0.02241116389632225,0.02463531866669655,-0.03238165006041527,0.04966379702091217,0.012840812094509602,0.05039069429039955,-0.02789524756371975,-0.04377693310379982,0.03757801279425621,0.03716117888689041,0.052740514278411865,0.020042240619659424,-0.01561953779309988,-0.03942408040165901,0.04326165094971657,0.04386499151587486,0.05285746231675148,0.01528021227568388,-0.043922290205955505,0.04697543755173683,0.030249368399381638,0.009052825160324574,0.012791126035153866,-0.012171708047389984,-0.006998608820140362,0.03506157174706459,0.04511154815554619,0.01470154244452715,0.007831087335944176,0.04048750177025795,0.03818454593420029,0.036142319440841675,0.05477665364742279,0.005524252075701952,0.015217271633446217,0.019019251689314842,-0.03628537431359291,0.03777480497956276,0.011737165972590446,-0.04422296956181526,0.06301340460777283,0.03992262855172157,0.034651365131139755,0.05654151737689972,-0.032828062772750854,0.05550747737288475,-0.024015963077545166,-0.0006078130681999028,-0.04179065302014351,-0.007388867903500795,-0.01611771248281002,0.028697220608592033,0.017111854627728462,0.05131327733397484,-0.06345817446708679,0.01180671714246273,-0.052279286086559296,-0.011616050265729427,0.04386961832642555,-0.04402472823858261,0.014615822583436966,0.0020228400826454163,0.0545455664396286,0.04437631368637085,-0.04148683696985245,0.045086830854415894,-0.03279414400458336,0.044802915304899216,0.024594517424702644,-0.040841877460479736,-0.0348474346101284,-0.03623214736580849,0.024034999310970306,0.041884228587150574,-0.03305656090378761,0.01965458318591118,-0.008069762960076332,0.02965296432375908,0.000390341883758083,-0.00982241053134203,-0.02762238122522831,-0.0527602918446064,-0.0340740866959095,0.03526495397090912,-0.025905633345246315,0.056248925626277924,0.03780016303062439,-0.00971293356269598,0.03020014800131321,-0.05969594791531563,-0.048727329820394516,0.028077581897377968,-0.006448218133300543,-0.016413360834121704,-0.05202783644199371,-0.05353441834449768,-0.017651144415140152,-0.015796339139342308,-0.04432004690170288,0.02365311048924923,0.03683517873287201,0.007014287635684013,-0.010332684032619,0.009629985317587852,-0.0022278830874711275,-0.03803591430187225,0.03399819880723953,-0.03472082316875458,0.023463049903512,-0.039446745067834854,-0.022060688585042953,0.0341760478913784,-0.027439594268798828,0.042466193437576294,-0.05559726059436798,-0.023433377966284752,0.04569687321782112,0.03597181290388107,-0.020161734893918037,-0.041181325912475586,-0.050999715924263,-0.011485880240797997,0.03922576457262039,0.02701485902070999,-0.04310961440205574,-0.01172174047678709,0.045576173812150955,0.020558597519993782,-0.03273659199476242,0.052828460931777954,0.024242067709565163,-0.006371419411152601,0.009685104712843895,-0.03221936523914337,0.03448675945401192,0.012399781495332718,0.04781496524810791,0.005127733573317528,0.03021102398633957,0.0281854085624218,-0.04094037786126137,-0.04121611267328262,-0.017453286796808243,-0.06098111718893051,-0.007152419537305832,0.029566993936896324,0.057074908167123795,-0.0279854666441679,-0.03879034146666527,-0.04080452397465706,-0.044798754155635834,0.03153497725725174,0.04297572374343872,-0.05176141858100891,-0.007577977608889341,0.007144691422581673,-0.010078189894557,-0.009758491069078445,-0.007290903013199568,-0.06020455062389374,-0.04463076964020729,0.047352422028779984,-0.006532486993819475,0.05999870225787163,-0.02026744931936264,0.049859970808029175,0.061986587941646576,-0.01674555242061615,0.01818208023905754,-0.03729782626032829,0.015582763589918613,-0.005231003277003765,0.020122099667787552,-0.04286777973175049,-0.0475594587624073,8.730658009881154e-05,0.05114138871431351,0.02024965174496174,-0.03681465610861778,-0.010736390016973019,-0.003707919968292117,0.0021591410040855408,-0.01258851122111082,-0.015034442767500877,0.03726258873939514,0.028698842972517014,0.003542473539710045,0.03443161025643349,0.009944709949195385,0.033708903938531876,0.034240998327732086,-0.027330944314599037,-0.02069883793592453,-0.004982414655387402,0.04811183363199234,0.007817802019417286,0.016714047640562057,0.046551093459129333,-0.020523443818092346,-0.02172214910387993,-0.01587231643497944,-0.042840369045734406,-0.039413657039403915,0.009467492811381817,0.009386418387293816,0.03832228481769562,0.01295719388872385,0.04965342581272125,0.019244449213147163,-0.03120892122387886,0.027781713753938675,-0.021065199747681618,-0.03926043584942818,-0.020403431728482246,-0.04572098329663277,0.028793690726161003,-0.053491365164518356,0.00900303665548563,0.03738299012184143,-0.030144834890961647,-0.012240099720656872,-0.028414281085133553,-0.030075497925281525,-0.013524186797440052,-0.02176651358604431,-0.039927732199430466,0.001660684822127223,-0.021411418914794922,-0.051859162747859955,-0.035395681858062744,0.01303701288998127,0.033870432525873184,0.009724495001137257,0.018739666789770126,-0.014137479476630688,0.0106974421069026,0.008577813394367695,-0.039020925760269165,-0.02643088810145855,-0.046465855091810226,0.019191760569810867,-0.01042719092220068,0.02512754313647747,0.043654441833496094,0.007513861637562513,-0.03341833874583244,-0.021752238273620605,-0.05650128424167633,-0.04721399024128914,0.005558416713029146,0.047470711171627045,-0.05210103094577789,0.006891425233334303,0.05072911083698273,-0.03714511916041374,0.004977386444807053,-0.04256095364689827,-0.04383391886949539,0.012164155952632427,0.04835689440369606,0.024363340809941292,-0.028011679649353027,0.016820870339870453,0.015451347455382347,0.015226799994707108,0.0009531098185107112,-0.016433922573924065,0.009401936084032059,-0.04369591921567917,-0.048927370458841324,-0.03559213504195213,-0.052711449563503265,-0.03552482649683952,0.003824591403827071,0.044867951422929764,-0.03305741026997566,0.031899482011795044,0.01765689253807068,0.02502536214888096,0.024220934137701988,0.046325698494911194,0.0056693702936172485,-0.04024236276745796,-0.020912475883960724,0.05286581069231033,-0.03739514946937561,-0.010393972508609295,-0.052796266973018646,0.01047674473375082,0.009925413876771927,-0.04241887107491493,-0.013798046857118607,-0.03948420286178589,-0.02820717915892601,0.013794004917144775,0.022487688809633255,-0.04208998754620552,-0.04437858983874321,0.02319306693971157,0.010798385366797447,-0.04324290528893471,0.008535034954547882,0.013720431365072727,-0.028343163430690765,0.029259586706757545,0.03314092382788658,0.03785276785492897,-0.026210201904177666,0.040442999452352524,-0.04858054965734482,-0.03877421095967293,-0.04163721203804016,0.007484680972993374,0.05215372517704964,-0.03623833507299423,-0.03208731859922409,-0.0347851887345314,0.04642046242952347,-0.0037711753975600004,0.0029918253421783447,-0.052700676023960114,-0.01842397078871727,0.03290810063481331,-0.054962560534477234,0.04220050200819969,0.023487037047743797,-0.0539245679974556,-0.04794011265039444,-0.005233311094343662,0.012828264385461807,0.053836382925510406,-0.031463127583265305,0.000708846200723201,0.01976381056010723,-0.018051015213131905,-0.006801576819270849,0.015362512320280075,-0.036163702607154846,0.0025676428340375423,-0.04206068068742752,-0.01678987592458725,-0.015482551418244839,-0.008100660517811775,0.0286380834877491,0.007686886936426163,-0.051854997873306274,0.027416395023465157,0.004577274434268475,0.013480781577527523,0.013736913911998272,0.05835914984345436,-0.0020090860780328512,-0.017439931631088257,0.018280943855643272,-0.04579363018274307,-0.025959590449929237,0.06373411417007446,-0.03519652783870697,-0.04961433634161949,-0.057809460908174515,-0.05134713277220726,-0.05565720051527023,0.02058049663901329,-0.01661362498998642,-0.01292785070836544,-0.04039303958415985,-0.01944713480770588,0.023056818172335625,0.047309741377830505,0.017570804804563522,0.04878615960478783,0.01430520135909319,-0.033436551690101624,0.0490453764796257,-0.02990557812154293,0.051680583506822586,0.04121004790067673,-0.036780212074518204,0.012708409689366817,0.011573861353099346,0.03303190693259239,-0.05569162964820862,-0.01979612000286579,-0.02082197554409504,0.037523236125707626,0.03600678965449333,0.05424042418599129,0.023292426019906998,-0.0077405101619660854,0.0018442260334268212,-0.006072584073990583,-0.021581824868917465,0.025354167446494102,-0.01056288368999958,-0.04449356719851494,-0.055838268250226974,-0.035650551319122314,0.013881425373256207,-0.025961631909012794,0.01441839337348938,0.04145156964659691,0.0430007204413414,0.05205313488841057,-0.013579834252595901,0.029638798907399178,-0.03906189277768135,-0.044463470578193665,-0.047665201127529144,0.04849303513765335,0.0518726147711277,0.04584885388612747,0.01976834237575531,0.036639753729104996,-0.03630412742495537,-0.05746054649353027,-0.00957688968628645,0.0414760448038578,0.005218627396970987,-0.05792262405157089,0.02615976519882679,0.04722695052623749,-0.033853281289339066,0.027512576431035995,0.058276139199733734,-0.061737868934869766,0.05306669697165489,-0.0098497923463583,-0.014231384731829166,0.051309939473867416,0.060677994042634964,0.028865186497569084,0.02915331721305847,0.054266296327114105,0.013109244406223297,-0.01739346794784069,0.012200052849948406,-0.0163373202085495,-0.026063887402415276,0.051816344261169434,-0.004961676429957151,-0.04428119212388992,0.02137698233127594,0.04044165089726448,-0.04898684099316597,1.8526081476011313e-05,-0.03440111503005028,-0.034044746309518814,0.003452481236308813,-0.018166672438383102,-0.03374302014708519,-0.01555565744638443,-0.00019377241551410407,-0.032690513879060745,0.029061855748295784,-0.037888310849666595,-0.026395002380013466,0.04509773105382919,0.03672732412815094,0.04733585566282272,-0.05047890543937683,-0.019441260024905205,0.02694617584347725,-0.048570357263088226,-0.0016994514735415578,-0.0057806335389614105,0.024876415729522705,-0.03239762410521507,0.040218785405159,-0.05001705512404442,0.009218764491379261,0.03988778218626976,0.030089538544416428,0.034560415893793106,-0.011247898451983929,0.04809625446796417,0.02147459238767624,-0.015063227154314518,-0.06084996089339256,0.04819062724709511,0.05919323489069939,0.04426640272140503,0.056930799037218094,0.04917315021157265,-0.018973156809806824,0.05708566680550575,-0.022960076108574867,0.04624256119132042,-0.03044438175857067,0.01592690870165825,-0.03168122097849846,-0.05331296846270561,-0.03262094035744667,0.04535534605383873,0.038711123168468475,-0.016751538962125778,0.01274548564106226,0.014354890212416649,-0.018076905980706215,-0.0281186792999506,-0.044382400810718536,-0.0539373941719532,-0.025602079927921295,-0.0005067597376182675,-0.0468476265668869,0.033686473965644836,0.023773249238729477,-0.05749983340501785,-0.014074417762458324,-0.06041291356086731,-0.03780759125947952,0.04133272543549538,-0.03457921743392944,-0.018455540761351585,0.01672581396996975,0.06220846623182297,-0.05313707888126373,-0.021154021844267845,0.03477030247449875,0.013335599564015865,0.014682318083941936,0.030568473041057587,-0.0435788668692112,-0.005707162898033857,0.0490531250834465,-0.013635250739753246,0.00619317265227437,0.028151994571089745,0.044575076550245285,0.0532553531229496,-0.030429642647504807,0.031218916177749634,0.04034024477005005,0.02199328877031803,-0.012011043727397919,-0.047635216265916824,-0.05293137580156326,-0.011563437059521675,-0.02370797097682953,0.051275067031383514,0.005563389044255018,-0.0044578020460903645,-0.05864350497722626,-0.04719160124659538,-0.022181330248713493,0.04478985443711281,0.008763209916651249,-0.04575091600418091,-0.012636548839509487,0.04565795883536339,-0.02209424413740635,0.0007873032009229064,0.007487915456295013,0.020978795364499092,-0.05133810266852379,0.004932110663503408,-0.03366265073418617,0.014256619848310947,-0.029232211410999298,-0.005793214775621891,0.005027376115322113,-0.004214098211377859,-0.05462901294231415,0.010383568704128265,-9.213534212904051e-05,0.008319610729813576,-0.03476668894290924,0.03515230491757393,0.024116937071084976,0.003039347240701318,0.02436896227300167,-0.006013151258230209,-0.0065861656330525875,-0.06268765032291412,0.042451005429029465,0.029691534116864204,0.05083348974585533,0.05462265759706497,-0.045910559594631195,-0.016907665878534317,0.018988745287060738,0.000818998203612864,0.024871274828910828,0.054033488035202026,0.051073864102363586,-0.04736008867621422,-0.043496690690517426,0.040883757174015045,-0.0022356146946549416,-0.029019229114055634,-0.04612481966614723,-0.039120033383369446,0.04426922649145126,-0.026044564321637154,0.014792717061936855,-0.00892319343984127,-0.03644978627562523,0.010551368817687035,-0.04100252315402031,-0.03886107727885246,-0.04491002485156059,0.0009842122672125697,0.035090122371912,0.004042370244860649,-0.05472960323095322,0.008651264011859894,-0.005934765096753836,-0.04266195744276047,0.013025284744799137,-0.039620522409677505,-0.002348636044189334,-0.04072883352637291,0.012289430946111679,-0.04937748610973358,0.004529506433755159,-0.009004340507090092,0.0031201601959764957,-0.030064275488257408,-0.038651563227176666,-0.025823496282100677,0.04331769794225693,-0.028168534860014915,0.02479444071650505,-0.0424283966422081,-0.004257499240338802,-0.049354393035173416,-0.04966774955391884,0.035864390432834625,-0.04283308982849121,0.0065408977679908276,0.029307112097740173,-0.033522263169288635,-0.053676459938287735,0.008957872167229652,0.027408085763454437,-0.036225639283657074,0.028751853853464127,0.05282416194677353,0.050880126655101776,-0.00857353862375021,0.03554943576455116,0.013851338066160679,0.029239298775792122,0.03154890611767769,-0.03150101751089096,0.009987877681851387,-0.04382685571908951,0.025255843997001648,0.004955517593771219,0.05242016911506653,0.023396886885166168,-0.011137207970023155,-0.044401541352272034,-0.0364040769636631,-0.021976372227072716,-0.022005638107657433,0.05956912040710449,0.002620536834001541,0.022617215290665627,0.04205872491002083,0.05606156587600708,-0.033579304814338684,-0.04237509146332741,-0.002981961239129305,0.0005149167845956981,0.012214912101626396,0.016859259456396103,0.01795784756541252,-0.05444285646080971,-0.044314686208963394,0.027810633182525635,-0.013227029703557491,-0.034080322831869125,0.05354686081409454,-0.04459160566329956,0.046771422028541565,0.0011360765201970935,0.052822936326265335,0.035421062260866165,0.012287365272641182,-0.056168343871831894,0.055395666509866714,0.017742089927196503,-0.051121532917022705,-0.002054034499451518,0.031020518392324448,-0.002893954049795866,0.0063915676437318325,-0.04209078475832939,0.02337605506181717,-0.04129932075738907,0.04053690657019615,-0.04266863316297531,0.01735229417681694,-0.02246568724513054,0.04555005207657814,0.022705765441060066,0.0461646169424057,-0.03491682559251785,0.033192895352840424,0.041378576308488846,-0.05568023398518562,0.013115458190441132,-0.035509251058101654,0.047321073710918427,-0.050683699548244476,-0.02178863435983658,0.002093910239636898,0.01959029771387577,0.03911309689283371,-0.044512536376714706,0.012858209200203419,0.02421175315976143,-0.02094075083732605,0.024698464199900627,0.02987905777990818,-0.054604850709438324,-0.030208325013518333,-0.03653859347105026,0.05019686743617058,-0.013924251310527325,0.01042197085916996,0.004454858601093292,-0.028800543397665024,-0.003410489996895194,-0.011195547878742218,0.04832027480006218,0.019830189645290375,-0.008029371500015259,-0.04540643468499184,-0.02016245201230049,0.02055956795811653,0.028374481946229935,-0.006920512765645981,0.04262049123644829,0.020236819982528687,0.053632259368896484,0.016893764957785606,0.0418090857565403,-0.042328882962465286,0.01618911884725094,-0.055792126804590225,0.012700052000582218,-0.02619088813662529,0.03507869690656662,0.05478735640645027,0.013770758174359798,-0.04199511930346489,-0.04582984000444412,-0.056506700813770294,-0.05557888746261597,0.046066973358392715,-0.03824097290635109,0.003779760329052806,-0.04650382325053215,0.04521939158439636,0.036946818232536316,0.022788459435105324,-0.03192589804530144,-0.042138371616601944,-0.0030711134895682335,0.04403802379965782,0.022217396646738052,-0.018261093646287918,-0.011000472120940685,0.0014094483340159059,0.024480685591697693,0.053087346255779266,-0.0007012909045442939,-0.03750438615679741,-0.03805743530392647,-0.013833953998982906,0.04727426916360855,0.05455484613776207,-0.031080586835741997,0.04079882428050041,0.01271685678511858,-0.017046388238668442,-0.010315918363630772,-0.019720742478966713,0.04897783696651459,0.002032975200563669,-0.0633353516459465,-0.00035805036895908415,-0.006785939913243055,0.04153839126229286,0.002303377026692033,0.04246450588107109,-0.04911728948354721,0.02429755963385105,-0.029702842235565186,-0.01385517604649067,0.0005754142184741795,0.0018440354615449905,0.04086454212665558,-0.014232821762561798,-0.03084925189614296,-0.0019250313052907586,0.04544071480631828,0.047969646751880646,-0.0010480491910129786,0.019288307055830956,0.017452044412493706,-0.009948545135557652,-0.05187786743044853,0.016160260885953903,0.021681439131498337,-0.00030188477830961347,-0.05349109321832657,-0.0233254823833704,-0.0026305809151381254,-0.04603148624300957,0.048781756311655045,-0.04571676626801491,0.014420773833990097,0.05392458289861679,-0.04346749559044838,0.025199243798851967,-0.0009645771351642907,0.03322959691286087,0.05420612543821335,-0.02983487769961357,-0.004258270841091871,0.02880055084824562,0.05658380314707756,-0.047832317650318146,-0.005111684091389179,-0.0023833762388676405,-0.03283347561955452,-0.013826793059706688,0.01810688152909279,0.026340391486883163,0.038896750658750534,0.04626838117837906,-0.02701137587428093,0.003815965261310339,0.04617975652217865,0.02839936874806881,-0.024782096967101097,-0.005508619826287031,-0.038665883243083954,-0.010674252174794674,0.012394417077302933,0.002716582966968417,0.03756469115614891,-0.061433225870132446,-0.01882936619222164,0.05778821185231209,-0.0176821481436491,0.018012290820479393,0.03583146631717682,0.02729206159710884,0.04010225087404251,0.05533105507493019,-0.026195598766207695,0.0013292660005390644,0.019095467403531075,0.01846144162118435,-0.007654465734958649,-0.05545809119939804,0.0178357120603323,-0.05733884125947952,-0.04956300929188728,-0.04303193464875221,0.05587419122457504,0.04744834825396538,-0.0065985475666821,-0.00021616811864078045,0.0066125234588980675,-0.029749318957328796,-0.017390379682183266,0.06174037232995033,-0.0049888575449585915,0.02666311338543892,0.01611335575580597,0.044672250747680664,-0.049420539289712906,-0.048051901161670685,-0.0006223337259143591,0.05224040523171425,-0.021861866116523743,0.024511700496077538,0.043734289705753326,-0.039641108363866806,-0.005426281131803989,0.022481191903352737,0.047466084361076355,0.04890060052275658,0.03921358287334442,0.05310973525047302,0.006038257386535406,-0.0027911595534533262,0.0137318791821599,0.009445811621844769,0.032054588198661804,-0.022630250081419945,0.0014862148091197014,0.030305253341794014,0.03395461663603783,-0.05543680116534233,-0.041996389627456665,0.02480674907565117,-0.020091967657208443,-0.051566217094659805,-0.026815393939614296,0.01532504241913557,0.024034874513745308,0.048145491629838943,0.028497062623500824,-0.05800129845738411,-0.0063373493030667305,-0.010012191720306873,-0.006698567885905504,-0.010480685159564018,-0.04066470265388489,-0.008338837884366512,-0.0005010467721149325,-0.02996245212852955,-0.025744657963514328,-0.03675847873091698,0.03708040341734886,-0.04599478840827942,-0.03630218654870987,-0.055955223739147186,-0.04573332518339157,-0.0007440310437232256,0.034249335527420044,0.057146988809108734,0.03777211531996727,0.000280174077488482,0.004225464537739754,-0.020943500101566315,0.02984757348895073,0.016866685822606087,0.036514829844236374,-0.03128131106495857,-0.04369320347905159,0.04885125532746315,0.02205559052526951,-0.028065228834748268,-0.05261222645640373,-0.01898033171892166,0.044378407299518585,-0.03156513348221779,0.028654370456933975,-0.045034151524305344,-0.047793567180633545,0.011238434351980686,0.0029679324943572283,0.012930531054735184,0.03305947035551071,0.022551333531737328,-0.04268764331936836,-0.016836218535900116,-0.05060642212629318,-0.048300210386514664,0.02907857671380043,0.02050754986703396,-0.055715203285217285,0.053313739597797394,-0.041228391230106354,-0.053654611110687256,0.00010568948346190155,0.032894279807806015,0.008626408874988556,0.012871850281953812,0.011156079359352589,0.028996452689170837,-0.043582119047641754,0.057791147381067276,0.02239321358501911,-0.025420738384127617,0.010284691117703915,0.029217423871159554,-0.01892382837831974,0.019218357279896736,-0.013820069842040539,-0.054022856056690216,-0.0448770597577095,-0.012226774357259274,0.041562020778656006,-0.015539565123617649,0.036161188036203384,-0.010725155472755432,0.05749620124697685,0.042183686047792435,-0.0010000558104366064,0.03871815279126167,0.015841873362660408,-0.01769810914993286,-0.0033351005986332893,-0.055978771299123764,0.026289211586117744,-0.05204544961452484,-0.009615478105843067,0.001367543009109795,0.04765578731894493,0.024044770747423172,-0.05032576248049736,-0.05258765444159508,0.04525291547179222,-0.022804541513323784,-0.0370233990252018,0.02582235261797905,0.0483865886926651,0.05341130122542381,0.029454965144395828,-0.01306978054344654,0.037499457597732544,-0.040579523891210556,0.027837706729769707,-0.03660738468170166,-0.0006145036313682795,-0.004622772801667452,-0.0035905707627534866,0.020365504547953606,-0.009856089018285275,-0.03032342903316021,-0.05489323288202286,0.03019764833152294,0.048012278974056244,0.027720456942915916,0.004031754098832607,0.020401248708367348,0.02690662443637848,0.04375675693154335,-0.05579297989606857,-0.011202137917280197,-0.014767821878194809,-0.03957340493798256,-0.05763646960258484,-0.022672228515148163,0.04851623624563217,-0.013360997661948204,0.05956394597887993,0.03735817223787308,0.03799803927540779,0.06367852538824081,0.017038775607943535,0.007012681569904089,-0.05310176685452461,-0.04710870608687401,-0.041345130652189255,0.028778187930583954,-0.03550281375646591,0.043621134012937546,0.0075814793817698956,-0.014715306460857391,-0.03226998448371887,0.011838537640869617,-0.04122620448470116,-0.005049101542681456,-0.027326304465532303,-0.027458304539322853,-0.025673268362879753,-0.042927734553813934,0.015655219554901123,0.021085355430841446,-0.019448816776275635,-0.01827726885676384,0.02550535462796688,-0.022467950358986855,0.046860627830028534,0.045784417539834976,-0.03676703944802284,0.036484114825725555,0.005577588453888893,-0.04225407913327217,0.003762919222936034,-0.048633042722940445,-0.04364551231265068,0.027735041454434395,-0.03642081841826439,-0.04234358295798302,0.03568592295050621,0.04560878500342369,-0.05007684975862503,-0.016723141074180603,-0.0488872155547142,0.03996511548757553,0.013658211566507816,0.035389307886362076,-0.04099072143435478,-0.023632129654288292,0.03197626769542694,0.00874120183289051,-0.0023992762435227633,-0.022853130474686623,0.03552304208278656,0.006253055762499571,0.045964937657117844,0.04763755202293396,-0.05019966512918472,0.024576948955655098,-0.02877243608236313,-0.021529117599129677,0.05776771530508995,-0.022792600095272064,0.006938445847481489,0.01204412616789341,-0.02274521440267563,-0.01526519563049078,-0.013336596079170704,0.030608627945184708,0.004036862403154373,-0.022190269082784653,-0.005603020079433918,-0.03481709212064743,-0.006744897458702326,-0.020451273769140244,-0.0017476873472332954,0.020687954500317574,0.02250612899661064,-0.033579979091882706,0.0460476316511631,-0.02588493376970291,-0.019704516977071762,0.027661917731165886,-0.04795366898179054,-0.011716206558048725,0.026132671162486076,0.030705420300364494,0.009676280431449413,-0.011289216578006744,-0.010515477508306503,-0.033224452286958694,0.031196951866149902,-0.052100781351327896,-0.032921548932790756,0.029244180768728256,0.04580700397491455,0.025279536843299866,-0.02438627928495407,-0.048384521156549454,0.05326509848237038,0.03762730956077576,-0.03242509439587593,0.005770411342382431,-0.01025141030550003,-0.009311985224485397,0.010601580142974854,0.013334697112441063,0.0018984333146363497,-0.006058382801711559,-0.05794931575655937,-0.02313270792365074,-0.009874857030808926,-0.029836827889084816,0.04740776866674423,0.012212157249450684,-0.03187664598226547,-0.04671809449791908,-0.03994530439376831,0.01998770982027054,-0.014432352967560291,0.046888142824172974,0.027005251497030258,-0.05054860562086105,0.02543904446065426,0.011051502078771591,0.04505039006471634,0.04470507800579071,0.027380498126149178,-0.023595307022333145,0.024248767644166946,0.03199862688779831,0.05601581931114197,-0.03257500380277634,-0.01438948418945074,-0.04341127350926399,-0.00729734031483531,0.0026580854319036007,-0.04756031185388565,-0.015399840660393238,0.03131493180990219,-0.054877277463674545,-0.039472177624702454,-0.02177714928984642,-0.05634946748614311,-0.008750848472118378,-0.020478753373026848,-0.006827958859503269,-0.019709177315235138,0.026478273794054985,-0.04892587289214134,0.019452184438705444,0.053304459899663925,-0.026963215321302414,-0.00862099975347519,-0.04711945727467537,0.02609701082110405,0.02404383197426796,0.0012111468240618706,0.031623002141714096,-0.026732448488473892,0.025030897930264473,-0.047768719494342804,0.01580779254436493,0.0037995893508195877,0.04790705814957619,0.027898773550987244,0.016608888283371925,0.005835272837430239,-0.05001034215092659,0.006250211503356695,-0.037674739956855774,-0.046350251883268356,0.0441550686955452,0.004960848484188318,-0.0014009966980665922,0.006875929888337851,0.023687733337283134,0.052966732531785965,0.02703634463250637,-0.014421304687857628,-0.013366665691137314,0.05889970064163208,0.033603161573410034,0.060984473675489426,0.009818144142627716,-0.010987512767314911,0.03457851707935333,-0.03872969001531601,-0.017625536769628525,0.013417216017842293,-8.008891200006474e-06,0.010591777041554451,0.0363895483314991,-0.012076483108103275,0.0456371046602726,0.01332924049347639,0.05257338657975197,-0.012269426137208939,-0.037208735942840576,0.04837135225534439,-0.03330696001648903,-0.03508749604225159,-0.0009678512578830123,0.05855277553200722,0.045253582298755646,-0.02480064146220684,-0.024693505838513374,-0.048162732273340225,-0.02416127361357212,0.0017741090850904584,-0.02745208702981472,-0.0494966097176075,0.046815235167741776,-0.004258133005350828,-0.0077346321195364,0.03851247951388359,-0.02290632203221321,-0.04335992783308029,0.03122590109705925,0.03578750416636467,0.027058890089392662,0.014126761816442013,-0.044543590396642685,-0.0362265408039093,-0.038337480276823044,-0.0019286882597953081,-0.039980847388505936,0.011484558694064617,0.0322832316160202,0.044030867516994476,-0.01547558605670929,-0.03637278079986572,-0.013407137244939804,0.0539020411670208,0.022493671625852585,-0.01608717441558838,-0.01610400155186653,-0.006932509131729603,-0.027939513325691223,0.004623273853212595,-0.016316363587975502,0.043599218130111694,-0.0145463477820158,-0.0501786433160305,0.04187702015042305,0.054754018783569336,0.04051867499947548,0.031049733981490135,-0.03563636913895607,0.003251110902056098,0.020174996927380562,0.0561182014644146,0.0409829244017601,-8.326710667461157e-05,0.057144634425640106,0.009477660059928894,-0.022270334884524345,-0.04421595484018326,0.026324937120079994,0.002742249984294176,-0.023917842656373978,0.02262568660080433,-0.021699750795960426,0.027819277718663216,-0.01798226870596409,-0.013508211821317673,-0.005016657058149576,0.049312837421894073,-0.018413644284009933,-0.030803628265857697,-0.035150196403265,0.040927398949861526,0.008421061560511589,0.05006861686706543,0.0016159191727638245,-0.04196229949593544,-0.007532181218266487,0.0068755303509533405,0.03193868696689606,-0.016291821375489235,-0.03369996324181557,-0.019844191148877144,0.05191987380385399,0.025909781455993652,0.0400010384619236,0.011009559035301208,-0.03941463679075241,0.05593336373567581,-0.025592375546693802,-0.04802558943629265,-0.028236698359251022,0.036721810698509216,-0.03833358734846115,0.01573066972196102,-0.046410076320171356,-0.007318638265132904,-0.026848336681723595,-0.04481469839811325,0.03658492490649223,-0.0403810515999794,-0.055006783455610275,0.007426190655678511,0.05328921601176262,0.00495875533670187,0.031110228970646858,-0.0018617340829223394,-0.03468789905309677,0.0056546456180512905,-0.05255609378218651,-0.05579378455877304,0.002849184675142169,-0.00021264702081680298,-0.03220413625240326,-0.03975719213485718,0.003659459762275219,0.019042013213038445,0.021415142342448235,-0.029815569519996643,-0.02528560161590576,-0.035526078194379807,-0.046947091817855835,-0.03565690293908119,-0.02713245525956154,-0.00014928996097296476,0.00822999607771635,0.029763750731945038,0.03409114107489586,-0.01234150119125843,-0.007624621503055096,-0.026431525126099586,-0.0325021967291832,0.0361933670938015,0.03702118247747421,0.05820392444729805,-0.013764332979917526,0.05647582933306694,-0.008315163664519787,-0.016644025221467018,0.05887290835380554,0.06471196562051773,-0.04668031260371208,-0.015589346177875996,-0.053071461617946625,-0.03620541840791702,0.03205040842294693,-0.02612452208995819,-0.01196618378162384,-0.033531554043293,0.0314951129257679,0.02653568424284458,0.03740887716412544,0.04767661169171333,0.05824249982833862,-0.03188400715589523,-0.004274570383131504,0.05664563179016113,-0.03142373263835907,-0.016217024996876717,0.005675986409187317,0.0018379262182861567,0.020683640614151955,-0.04730715602636337,0.04462360218167305,-0.04187667369842529,0.03501145541667938,-0.056515321135520935,-0.03770080581307411,0.0026375141460448503,0.014832861721515656,-0.004205858334898949,-0.003420907771214843,-0.04727071523666382,-0.008364584296941757,-0.05363115668296814,-0.057367097586393356,-0.024743594229221344,0.009290341287851334,-0.017469746991991997,-0.018188418820500374,-0.004449773114174604,0.0019521465292200446,0.04487689211964607,-0.04737163707613945,0.00404585525393486,-0.04034529626369476,0.04310532286763191,-0.024421347305178642,0.032412491738796234,-0.039277613162994385,0.01757943443953991,0.047183435410261154,0.04781021177768707,-0.04180299863219261,0.006139243487268686,-0.01458644587546587,0.01623249053955078,-0.0385509617626667,-0.04703133553266525,-0.015072785317897797,-0.0300077386200428,0.052079081535339355,0.008502422831952572,0.023437242954969406,0.005026312079280615,-0.05676697939634323,-0.023607484996318817,0.00623317202553153,0.019955959171056747,0.022658905014395714,-0.0345236100256443,0.04796576499938965,-0.016657011583447456,0.030204372480511665,0.04816202074289322,-0.007154659368097782,0.0424690768122673,0.03483368083834648,0.030209841206669807,0.057643380016088486,-0.019018840044736862,-0.02163306064903736,0.0555194728076458,0.04825619235634804,0.05844166502356529,-0.04185844212770462,0.01924263872206211,0.03245185315608978,-0.02735842764377594,