1.819403081526616e-07,-0.005413721781224012,0.025373270735144615,-0.015728389844298363,0.0014604277675971389,-0.017427459359169006,-5.592588786385022e-05,0.054168734699487686,-0.0016889035468921065,0.021241938695311546,-0.023659344762563705,0.018920794129371643,8.485357102472335e-05,-0.04453103244304657,-0.0011814577737823129,-0.055857639759778976,2.0201148799969815e-05,-8.840501686790958e-05,0.013275098986923695,0.04973212629556656,-0.006345239467918873,0.0007232981151901186,0.023359503597021103,0.01423448696732521,-0.0031842717435210943,0.0406804084777832,-0.01994846574962139,-0.04759388789534569,0.024367107078433037,-0.02238548919558525,0.05588141456246376,2.760685674729757e-06,0.03030139021575451,5.7283021305920556e-05,-0.0427381694316864,-0.007977236993610859,0.029455531388521194,-0.053358886390924454,-0.007491528056561947,-0.04578734189271927,-0.020027782768011093,-0.022697411477565765,2.1387972083175555e-05,-0.001169694704003632,0.000925189524423331,-0.003367975354194641,0.011713031679391861,0.008169695734977722,0.014560490846633911,-0.04587528482079506,-8.60666623339057e-05,0.0010405628709122539,-8.387670095544308e-05,0.04990223050117493,-0.008197231218218803,0.005960055626928806,-0.01999758742749691,-0.046048957854509354,-0.02931683324277401,-0.005803864914923906,0.00611948361620307,-1.9164061086485162e-05,-0.010431929491460323,0.053106434643268585,0.01812811754643917,-0.045583829283714294,-0.05305789038538933,0.01897885836660862,-0.0536334365606308,-0.004318150691688061,-0.018708646297454834,1.7018593325701659e-06,0.01729319617152214,-0.0004574742342811078,-0.05507667362689972,-0.021103857085108757,0.0008640737505629659,-0.03765465319156647,-0.040408067405223846,0.006585175171494484,-0.056062862277030945,0.0026621269062161446,-5.962827708572149e-05,0.047267161309719086,-0.03972839564085007,-0.014215526171028614,-0.002267960226163268,0.05630679428577423,-1.5785058167239185e-06,0.03700430691242218,0.022069323807954788,-2.6235597943014e-06,0.0025351105723530054,0.007523414678871632,-2.1519936126424e-05,0.044338490813970566,0.014901340939104557,-0.03179720789194107,7.058275059534935e-06,0.0476791150867939,-0.02295326441526413,2.2105079551693052e-05,-0.052682407200336456,-1.463991247874219e-05,0.0020691559184342623,0.03649096190929413,-0.03628353774547577,-3.261272286181338e-05,0.02976256236433983,4.575840193865588e-06,-4.099629222764634e-06,-0.01420317217707634,-0.03257647901773453,5.622582648356911e-06,-0.0006512755644507706,-0.00034046938526444137,0.012860797345638275,0.05465932562947273,-0.03091663308441639,-0.04415378347039223,0.025939196348190308,0.013442843221127987,-1.7697211660561152e-05,0.05058075115084648,-0.022324470803141594,0.031016632914543152,-0.015068204142153263,-0.016116874292492867,-0.01842426136136055,-0.011099956929683685,0.043144792318344116,0.046202823519706726,0.05413496494293213,-3.0853177577228053e-06,6.465566457336536e-06,-0.008352568373084068,-0.03960784524679184,0.04699002951383591,-0.01570596545934677,0.03576336055994034,0.00642582168802619,-7.551487215096131e-05,-0.002483266405761242,-0.04447826370596886,-0.029159825295209885,0.012759767472743988,0.051778387278318405,-0.02014046162366867,-0.006700669415295124,-0.02097923681139946,-0.046161819249391556,-0.019393499940633774,1.5525502021773718e-05,-0.00032048451248556376,-0.005968410987406969,-0.024776054546236992,0.046873729676008224,-0.0021424877922981977,-0.012156790122389793,-0.04214677959680557,-1.464900833525462e-05,-0.040315013378858566,-0.015526947565376759,-0.017087819054722786,0.06203431263566017,-0.04778830334544182,0.05366893485188484,0.0626850575208664,0.0681680366396904,0.02972998283803463,0.08078332990407944,0.05087132751941681,0.026211410760879517,2.1209805709077045e-05,0.02410895563662052,-0.02826821245253086,-0.03612300753593445,-0.014706023968756199,0.03015775792300701,0.005497084464877844,-0.04453675448894501,0.04135593771934509,0.07666916400194168,0.04678444191813469,-0.020000873133540154,0.02201157622039318,-0.0016776645788922906,0.04208337515592575,-0.04310235753655434,0.01839512772858143,-0.07028958201408386,0.02860046550631523,-0.0017616021214053035,0.06815692037343979,-0.04079236090183258,0.06466283649206161,-0.06356718391180038,-0.014479205943644047,0.000549508782569319,-0.040587168186903,-0.0415186807513237,0.012823008000850677,6.136686715763062e-05,-0.053500328212976456,-0.017591305077075958,0.012340685352683067,6.673202733509243e-05,0.047908663749694824,-0.05028865486383438,-0.05319051817059517,-0.0019866200163960457,0.04910580813884735,-0.054955847561359406,0.017959628254175186,0.053569547832012177,-0.04627847298979759,5.622010212391615e-05,2.4925035177147947e-05,0.04016156867146492,-0.0019202758558094501,-0.026133060455322266,-0.025447996333241463,-0.0336829349398613,0.049253787845373154,0.025457844138145447,0.05344783142209053,-0.008217389695346355,0.06562452018260956,-0.048834268003702164,-0.01644243486225605,0.022687790915369987,-0.012097734026610851,-0.05213144049048424,0.024481629952788353,-0.05396837741136551,0.0054599628783762455,-0.05552234500646591,-0.006393130403012037,0.021908145397901535,0.03280253708362579,0.0006774899084120989,0.02862256020307541,0.0019157454371452332,0.06145700439810753,0.04810868203639984,0.014304514974355698,0.009719916619360447,0.04971485212445259,-0.019623108208179474,0.07466550916433334,-0.0610952265560627,0.004390285350382328,0.004085369408130646,-4.1629337488302554e-07,0.05538656562566757,-0.005921282805502415,-0.01854952983558178,-0.010207447223365307,9.458343265578151e-05,-0.011401916854083538,-0.0476662702858448,-0.07320593297481537,0.0829116702079773,-0.08479966223239899,0.06658799201250076,0.03417704626917839,-0.01883747987449169,-0.01122275646775961,-0.029509851709008217,0.03456635773181915,0.03712618350982666,0.049301572144031525,-0.054355815052986145,-0.004660360515117645,-0.014500451274216175,0.05807225778698921,0.006313578691333532,0.016453856602311134,0.03899640589952469,-0.026959819719195366,-0.03227091208100319,0.0038856565952301025,0.055967673659324646,0.03891279548406601,0.046941161155700684,-0.03194642439484596,0.058434512466192245,0.0633884072303772,9.582990605849773e-05,0.044284019619226456,-4.1460970123807783e-07,-0.047613199800252914,9.560709440847859e-05,-5.36779552930966e-05,-0.05035993084311485,-0.028275005519390106,-0.019603367894887924,-0.03248888999223709,-1.7296774785791058e-06,0.04277656599879265,0.01740485616028309,0.011279803700745106,-0.042480021715164185,0.03183622658252716,-0.05381070077419281,0.04625551775097847,0.046056024730205536,0.00021825912699569017,-0.04181786999106407,0.046140462160110474,0.021147841587662697,-0.004678652156144381,0.03330923244357109,0.05214139074087143,0.002875781152397394,-0.013829036615788937,-0.02915322035551071,-0.003084644442424178,3.6024286487190693e-07,0.050413817167282104,-0.0362328365445137,1.9196271750843152e-05,0.038013383746147156,0.01684023253619671,-3.4378488635411486e-05,-0.01798616349697113,0.04960465058684349,0.006220060400664806,0.017084762454032898,-0.033390484750270844,0.05618225783109665,-1.0615275641612243e-05,-1.947481450770283e-06,-0.056970275938510895,0.011507434770464897,0.000826633011456579,-0.028383096680045128,-0.014331917278468609,0.05364210903644562,0.051778312772512436,0.03938794136047363,-0.028533346951007843,-0.0053737773559987545,-0.03779621422290802,0.010357668623328209,-0.04964010789990425,-0.020815176889300346,-5.359927968129341e-07,4.775860816152999e-06,0.03181055560708046,0.04187004640698433,0.0025481260381639004,-0.007809644099324942,-5.839984441990964e-05,-0.013243638910353184,0.008763160556554794,-0.012999671511352062,-2.2214751879801042e-05,0.046275071799755096,-0.01749747060239315,-0.02808372676372528,-0.04772637039422989,0.03691422939300537,-0.0148133160546422,0.02403402142226696,-8.829564421830582e-07,-0.004350988660007715,1.5896619515842758e-05,0.04345805197954178,0.03950769826769829,0.010168218985199928,-0.03943788632750511,3.954075964429649e-06,0.03543847054243088,-0.0025443292688578367,0.02671387791633606,-1.93804089576588e-06,-0.03227836638689041,-0.03349430859088898,0.0023231508675962687,0.05113514885306358,-0.046636324375867844,6.860270218567166e-07,1.975083932848065e-06,0.05313890799880028,-0.010753443464636803,0.025411145761609077,-8.829920261632651e-05,0.05339599773287773,0.03174196928739548,0.03685380145907402,0.038751792162656784,-6.69867149554193e-05,-0.03602764755487442,-0.048086829483509064,0.029045967385172844,-0.012613654136657715,0.04628710448741913,0.04227786511182785,-0.001523405546322465,-0.05687632039189339,0.014910956844687462,-2.6178304324275814e-07,0.03371158614754677,-0.04193343594670296,-0.02490711770951748,-0.056916024535894394,-0.018638383597135544,0.044577378779649734,0.0014141543069854379,-0.05139758065342903,0.0003072610998060554,0.015307160094380379,-0.024172384291887283,0.02254425175487995,0.04928087815642357,-0.008836881257593632,3.0194146347639617e-06,3.0958572097006254e-06,-0.020172778517007828,0.048989709466695786,0.03633822500705719,-3.0819419407634996e-06,-0.017739323899149895,-0.049592409282922745,1.4948807347536786e-06,-0.013260954059660435,-0.043929435312747955,-0.017847588285803795,0.01817823201417923,0.047984279692173004,0.03448474407196045,0.00592861557379365,0.036594610661268234,0.011924900114536285,-7.743443711660802e-05,0.005922134034335613,-0.0007218531682156026,0.043936681002378464,-0.023093970492482185,-0.003388060489669442,-1.9350687580299564e-05,0.017425190657377243,-0.02435002662241459,-0.01410280354321003,-0.018317708745598793,-7.511005969718099e-05,0.03422403708100319,-0.008315040729939938,-0.015524441376328468,0.017689581960439682,0.049591004848480225,-0.07485880702733994,-0.019787682220339775,0.04884489253163338,-0.05202561244368553,0.0473848357796669,0.0689476802945137,-0.00034835643600672483,0.0028391804080456495,-0.05517029017210007,-0.023722033947706223,2.3138582037063316e-05,0.0400334894657135,-0.03514264151453972,-4.349707523942925e-06,0.0313931442797184,0.0320429727435112,0.012884239666163921,-0.03582590073347092,-0.0061297304928302765,-0.05315665900707245,-0.03416839987039566,-0.05049857124686241,0.01635945960879326,0.039030153304338455,-0.0003296128415968269,-0.030578965321183205,0.0433698371052742,-0.0028690029866993427,0.05097576230764389,-0.004928747657686472,-0.015532453544437885,0.014354497194290161,0.04202818125486374,0.06497529149055481,-0.0005889329477213323,-1.0937925253529102e-05,0.03401675075292587,-0.05628480389714241,-0.02132771536707878,0.004723747726529837,0.0350707471370697,-0.024243615567684174,-0.01670038513839245,0.01795089803636074,-0.05618543177843094,0.032699789851903915,-0.000105635954241734,-0.03331154212355614,-0.03254537656903267,0.05080479383468628,-0.04592290148139,0.028855077922344208,0.03689000755548477,-0.0014280356699600816,-0.03550415858626366,0.04726811498403549,0.02438410185277462,-0.0020018029026687145,9.457785927224904e-05,0.04864247515797615,0.020537536591291428,-0.08422333002090454,-0.059362176805734634,-0.009766031987965107,0.026761915534734726,0.06089712306857109,-0.046768710017204285,-0.06526953727006912,-0.06107049435377121,0.020553728565573692,-2.102646976709366e-05,-0.05576508864760399,-0.025842515751719475,0.03627753257751465,0.031035203486680984,-0.027715520933270454,-0.02546287700533867,0.022444339469075203,0.037067096680402756,-0.04455107823014259,-0.08229973167181015,-0.014299890026450157,0.03532077372074127,0.007067214231938124,0.0499035008251667,0.06625644862651825,0.04538111016154289,-0.012153920717537403,0.020753083750605583,-0.05161496251821518,-4.38354163634358e-07,-0.03384465351700783,-0.030094612389802933,0.012330770492553711,-0.0317409448325634,0.052670396864414215,-0.05236538127064705,-0.02547268010675907,0.0368705689907074,-0.000496520719025284,0.07225990295410156,0.02474539540708065,0.049559563398361206,-0.02434048429131508,0.06246497854590416,-0.027508283033967018,0.008914746344089508,0.04925290122628212,-0.03016233630478382,6.373263022396713e-05,-0.03563894331455231,-0.04782043397426605,0.0041839261539280415,-0.05283364653587341,-0.001218448393046856,0.07265681773424149,-0.08051647990942001,0.0018291217274963856,0.067994125187397,0.03529813513159752,0.07064227759838104,-0.05015944316983223,0.021796979010105133,-0.06604349613189697,-0.031059565022587776,-0.0005396236083470285,0.04859865456819534,-0.00581296905875206,0.021647458896040916,-0.023798365145921707,9.582757775206119e-05,0.003697096835821867,0.03060392662882805,3.234037649235688e-05,-6.318804662441835e-05,0.04858916997909546,0.04687762260437012,-0.005312752444297075,-0.01902022771537304,-1.2560930372274015e-05,1.9264198272139765e-05,-0.011842663399875164,-0.06449689716100693,-0.010222842916846275,0.06805671006441116,0.03948158025741577,-0.054088544100522995,-0.024077584967017174,-0.020543992519378662,0.04901173710823059,0.0349569097161293,0.029944825917482376,-7.130129961296916e-05,-1.9080831407336518e-05,-0.0030182129703462124,-5.153563051862875e-06,-0.054078251123428345,0.01625886559486389,1.1535923476913013e-05,-4.632581476471387e-05,-0.07589010894298553,-0.016815461218357086,-0.07061910629272461,-0.02602921612560749,0.03213752806186676,0.03803497552871704,0.050038207322359085,-0.03760485351085663,-0.04882305487990379,0.0472666472196579,-0.05953138321638107,-0.03301440551877022,-0.06202401593327522,0.062482260167598724,0.05797513201832771,-0.08576862514019012,-0.0074097211472690105,-0.06926900893449783,-8.955591329140589e-05,-0.039933182299137115,-0.04444736987352371,-0.002944751875475049,0.03548235073685646,0.04306286573410034,-0.002002533758059144,0.0003097959270235151,-0.05116121470928192,0.0034515978768467903,4.255611258940917e-07,-0.04547248035669327,-0.003982602618634701,-0.047156769782304764,0.020683784037828445,0.054040420800447464,-0.01368492841720581,-0.02190089225769043,-7.306435145437717e-05,-0.053284451365470886,-0.0010775589616969228,-0.0019062926294282079,0.02987191453576088,0.0042113931849598885,-0.006631334777921438,-0.0002627562789712101,-0.028695447370409966,-0.042328014969825745,0.023681076243519783,-0.061218421906232834,0.034717805683612823,-0.016249798238277435,-0.03338732570409775,-0.0356982946395874,-0.01128444168716669,-0.030345823615789413,0.05017662048339844,-0.0806436762213707,0.02471650391817093,0.006374421063810587,-0.002035862300544977,0.04611201211810112,0.023661857470870018,-0.04755762964487076,0.010045694187283516,0.0679471492767334,-0.030667468905448914,0.043241508305072784,-0.018433768302202225,-0.0544850192964077,-0.02938039042055607,0.011663923971354961,-0.04898639768362045,0.03937205299735069,-0.02765687368810177,-0.05202227830886841,0.0061431466601789,-0.012938166037201881,0.03440278768539429,-0.04603343829512596,-0.033984459936618805,-0.0007618585368618369,0.003933185711503029,-0.05706879124045372,0.06647177785634995,-0.06858739256858826,-0.02748512662947178,0.05256447568535805,-0.02499888651072979,-0.029531925916671753,-0.002445685211569071,0.03790896013379097,-0.002923510270193219,-0.05508630722761154,0.004881969187408686,0.04612331464886665,-0.06186988949775696,0.011057808995246887,0.003214870346710086,0.023040572181344032,0.040922269225120544,-0.010578959248960018,0.01570315472781658,-0.09296419471502304,-0.03649439662694931,-0.03227929398417473,0.022746017202734947,-0.019141385331749916,-0.01796656847000122,0.02940528094768524,9.534831769997254e-05,-0.00026665066252462566,0.049053873866796494,0.021305326372385025,-0.002382713370025158,6.349667819449678e-05,-0.0033160585444420576,0.03223034366965294,-0.03673962503671646,-0.0524560809135437,9.368942119181156e-05,-0.018709316849708557,-0.004143711645156145,-5.653048356180079e-05,2.4931692678364925e-05,0.04925179108977318,-0.006913680583238602,-0.03173438087105751,-0.007743830792605877,0.02223633974790573,-0.024506550282239914,0.07974525541067123,0.001884869416244328,0.06409832835197449,-0.053107649087905884,0.03434488922357559,-0.04218670353293419,0.010473455302417278,0.02077575959265232,0.015567685477435589,-0.00856526754796505,-0.006004348397254944,0.04312927648425102,0.0009379108669236302,-0.003716974752023816,-0.03665391728281975,-0.06779173016548157,-0.07420772314071655,-0.005593188107013702,0.051533300429582596,0.034670017659664154,0.07681339979171753,0.03875388577580452,0.08062610030174255,0.008148671127855778,-0.018884683027863503,0.034695371985435486,0.007155111525207758,-0.043655917048454285,-0.07092965394258499,-0.047534529119729996,0.0599813312292099,0.03700045868754387,-0.025094764307141304,-6.114245024946285e-06,-0.014639602974057198,-0.0005187495262362063,-0.04169832170009613,-0.04480352625250816,0.03293449804186821,0.03950290381908417,-1.177310787170427e-05,6.123742846142477e-09,-0.036703355610370636,-0.011640842072665691,0.05360489338636398,0.030886678025126457,-0.048996325582265854,-0.034967102110385895,-0.04115026816725731,-1.3680032679985743e-05,0.011647027917206287,0.045255374163389206,-0.02618974633514881,-0.036528509110212326,0.014550022780895233,1.0250527111566043e-06,-2.7060010324930772e-05,0.027996135875582695,-3.7634596083080396e-05,0.0265217162668705,-0.044959329068660736,-0.045561905950307846,0.07654345035552979,-0.02101687528192997,0.07997395843267441,-0.06638495624065399,0.0033745374530553818,0.015343540348112583,0.04468004032969475,-0.02947465516626835,-0.0008446928113698959,0.0006844046874903142,-0.047100406140089035,-0.025860793888568878,-0.05129558965563774,-0.010123644955456257,-0.058703940361738205,0.024083241820335388,0.0005015593487769365,-0.01362066250294447,0.026305843144655228,0.00829920545220375,-0.0026546025183051825,-0.03845727816224098,-0.05919331684708595,-0.004425573628395796,0.043544624000787735,0.008443869650363922,-0.014275484718382359,0.03872756287455559,0.00022551845177076757,-0.012718277983367443,0.043447185307741165,-0.04737845063209534,-0.0015724882250651717,-0.0291915200650692,0.03392146900296211,-0.053020164370536804,0.0768951028585434,-0.034347325563430786,0.04131855070590973,0.01803569868206978,-0.030665608122944832,0.029194623231887817,-0.03263520821928978,8.34949969430454e-06,0.05141936615109444,0.03838956356048584,-0.02747352048754692,-0.012938123196363449,0.024029763415455818,1.4453200947173173e-06,0.03896007314324379,7.724059287284035e-06,-0.043360594660043716,0.0020783860236406326,0.03456171229481697,0.013820253312587738,-0.021450422704219818,-0.011606098152697086,-0.025940386578440666,0.07867085188627243,0.03270670771598816,2.1992553229210898e-05,0.023984083905816078,-0.0025689667090773582,-0.001033402164466679,0.020959777757525444,0.055674850940704346,-0.013281972147524357,-0.04632723331451416,-0.04280991479754448,-0.04190969467163086,-0.01864374242722988,0.014608532190322876,0.0013010333059355617,-0.03046056255698204,-6.840372952865437e-05,-0.0016682228306308389,-0.017306452617049217,0.04598574712872505,-0.019045164808630943,0.03744107857346535,0.022646557539701462,0.04452123865485191,-0.02848414145410061,-0.008998710662126541,-0.05153345689177513,0.019228214398026466,0.04510660842061043,-0.05551004782319069,3.392208469676916e-08,0.0001503890671301633,-2.037205376836937e-05,-0.007294273003935814,0.03290627896785736,0.0007545740809291601,-0.00035369841498322785,0.000646686356049031,0.04485257342457771,-0.015383566729724407,0.054509636014699936,-0.0039032679051160812,-0.03253348916769028,0.019681094214320183,-0.006607639603316784,-0.06379296630620956,-0.03359951078891754,0.0738578513264656,-0.010599907487630844,0.021857809275388718,-0.017595412209630013,0.0020839243661612272,-0.05706992745399475,0.010705533437430859,0.009351463988423347,-0.07018087059259415,0.03353359177708626,-0.022106342017650604,-0.012660655193030834,-0.006048131268471479,0.027006052434444427,0.020511172711849213,0.05432850867509842,0.03936561197042465,-0.010994547046720982,0.042381610721349716,0.04328025504946709,-0.04166927561163902,-0.023781107738614082,-0.0054140291176736355,-0.04654977470636368,-0.009485704824328423,-0.029092369601130486,-0.03098490834236145,-0.03936592489480972,4.534084837359842e-06,9.426576070836745e-06,-0.045225124806165695,0.006320914253592491,-0.005257085431367159,-0.0030714888125658035,4.1876435830090486e-07,-0.01060288492590189,0.03286999836564064,0.02025403454899788,-0.0012323553673923016,0.0007120255613699555,-0.026968518272042274,0.017090195789933205,0.05609268695116043,-9.440969006391242e-05,-0.014686147682368755,0.022382298484444618,-0.06776174902915955,0.0010905259987339377,0.0007281513535417616,-0.04251718893647194,0.00224650208838284,0.015915853902697563,0.047511257231235504,0.05292787402868271,-0.012999605387449265,0.05628319829702377,-0.02992679737508297,0.03665396571159363,0.013245373964309692,-0.050696294754743576,0.05831900238990784,0.06611263006925583,-0.051835961639881134,0.01965821348130703,2.7793355911853723e-05,-4.550958692561835e-06,-0.052594833076000214,0.03541633486747742,1.7094737359002465e-07,-0.00480653764680028,-9.28453155211173e-05,0.043607644736766815,0.021074315533041954,-0.024168597534298897,0.05819254368543625,-0.04500351473689079,-0.0398482121527195,-0.04391387104988098,-0.056356482207775116,0.07537379115819931,-0.030254798009991646,-0.012174311093986034,0.04912406578660011,0.016095593571662903,0.000966680992860347,-0.056775931268930435,0.034493107348680496,-0.03587108477950096,0.03425109386444092,0.0007560040685348213,0.08647200465202332,-0.059227943420410156,-0.045623503625392914,0.05973539128899574,-0.053925734013319016,-0.05193251743912697,-0.06313827633857727,0.0459170825779438,-0.029311073943972588,-0.0274190753698349,0.0086522763594985,0.010866587981581688,0.04160947725176811,0.005778055172413588,0.014008332043886185,-0.03217214718461037,0.018055664375424385,-0.0021690307185053825,8.913474448490888e-05,0.054341379553079605,4.2556149537631427e-07,-0.020408479496836662,-0.04955412819981575,-3.0884259558661142e-06,-2.84435401454175e-07,-0.009674723260104656,2.9038503271294758e-05,0.08314808458089828,0.012233284302055836,0.03752771019935608,0.06026468425989151,-0.0015851364005357027,-0.008394992910325527,0.06248002499341965,-0.03069726936519146,-0.01695762388408184,-0.012743826024234295,-0.025310667231678963,-0.02057461626827717,0.02300226502120495,-0.05583462119102478,-0.009270396083593369,-0.013962719589471817,0.0067574866116046906,0.04258032515645027,0.03755475580692291,0.08904743194580078,0.0762617215514183,-0.04149124398827553,0.017179567366838455,0.035738714039325714,-0.02806876413524151,-0.0001288578350795433,-0.04950318858027458,-0.046201564371585846,-0.04143410921096802,0.007162978872656822,0.009198924526572227,-0.005845203530043364,0.0652746930718422,-0.07160409539937973,0.02809474989771843,-0.00936841405928135,-0.030397353693842888,-0.02826559916138649,0.0014587348559871316,-0.049753591418266296,0.035785406827926636,-0.02031523548066616,-0.03418561816215515,0.03547658398747444,-0.03395519405603409,-4.577069034894521e-07,-0.04848383739590645,-5.105684249429032e-05,0.04236830398440361,0.004786028526723385,0.006282887887209654,0.006866966839879751,0.03527414798736572,-0.03954126313328743,0.03513730689883232,0.0012724640546366572,-1.9446057194727473e-05,0.005037577357143164,-0.04187224432826042,-0.03152795135974884,0.04295898973941803,0.008260972797870636,0.05444488674402237,0.08009456098079681,0.015229647979140282,0.08689653873443604,-0.025554336607456207,0.05414125695824623,0.043882474303245544,-0.06173528730869293,0.049917127937078476,-0.004896183498203754,0.010846495628356934,0.0498298741877079,-0.05367960408329964,0.05666753649711609,-0.03299996629357338,-0.06867962330579758,0.03880910575389862,0.06174321845173836,0.06826425343751907,-0.04614149034023285,-0.027148105204105377,-0.040453534573316574,-0.027121368795633316,-0.02636406384408474,0.06595861166715622,-0.060102224349975586,-0.02682795748114586,0.013608564622700214,0.04723977670073509,-8.206810161937028e-05,-0.017563072964549065,0.0015143866185098886,-2.164558281947393e-05,0.012398775666952133,0.055707961320877075,-0.01976819895207882,0.04893270507454872,0.04213711991906166,0.0076600476168096066,0.040893882513046265,0.051543354988098145,-0.0792325958609581,-0.047992389649152756,0.04948803037405014,0.05251302942633629,0.07655850052833557,-0.009969312697649002,0.03869961202144623,3.1152821975410916e-06,-0.007899406366050243,0.020050011575222015,0.03157278522849083,0.01528130192309618,-0.002854620572179556,0.026352720335125923,0.08654670417308807,0.06263969838619232,0.06708335131406784,0.01741943508386612,0.0044599613174796104,-0.008327550254762173,-0.04694351926445961,0.009409255348145962,-0.014417070895433426
