0.04976491630077362,-0.019904296845197678,-0.04738735780119896,0.06567816436290741,0.05613735318183899,-0.004974059760570526,0.050873249769210815,-0.020452192053198814,-0.07340116053819656,0.030348647385835648,-0.026363352313637733,0.039229366928339005,-0.022512564435601234,0.027762705460190773,-0.02482638694345951,0.04745660722255707,-0.061750415712594986,0.03690161556005478,0.000680233002640307,0.08407913893461227,0.052730049937963486,0.07678620517253876,0.06341494619846344,-0.05031052231788635,-0.021814676001667976,-0.05739593878388405,0.061887044459581375,0.005805213004350662,-0.03486770763993263,-0.014612982980906963,0.07836232334375381,0.009638521820306778,-0.05599231645464897,-0.010587352328002453,0.07801790535449982,-0.07475597411394119,-0.01780654303729534,0.07603323459625244,0.02994517609477043,-0.004808283876627684,-0.007401545066386461,-0.05239611119031906,-0.042836446315050125,0.06420934945344925,0.07535325735807419,0.06300023943185806,-0.05715256556868553,-0.09011635929346085,-0.05174011364579201,0.06682395190000534,0.00376177579164505,0.005723301786929369,-0.07415993511676788,0.017721954733133316,0.018424084410071373,0.05818747729063034,0.0072153727523982525,-0.017566388472914696,0.045407600700855255,0.08534777909517288,-0.030390530824661255,0.0512881800532341,-0.015154405497014523,0.06664369255304337,0.07204506546258926,-0.01751636154949665,0.0841660276055336,-0.01954851672053337,0.042389851063489914,-0.021808668971061707,0.08227289468050003,0.0032075406052172184,-0.04869186133146286,0.058705173432826996,-0.07402165979146957,-0.03911689668893814,-0.0630502998828888,0.04139730706810951,-0.012850455939769745,-0.07590343803167343,-0.06891205906867981,-0.059952475130558014,0.07475283741950989,0.06841973215341568,0.018579117953777313,-0.0748642310500145,0.036315858364105225,-0.07490704953670502,0.07126535475254059,-0.07488343864679337,0.0819690153002739,-0.003567006904631853,0.03193814679980278,-0.05663972720503807,-0.07004345208406448,0.049477968364953995,0.048588670790195465,0.08474934101104736,-0.03424903377890587,0.026096079498529434,0.019608810544013977,-0.04754684865474701,-0.0031851816456764936,-0.022575844079256058,-0.06298141926527023,-0.047873612493276596,-0.046113207936286926,-0.06670192629098892,0.017641009762883186,0.03407580032944679,-0.010971447452902794,-0.021303817629814148,-0.01111570280045271,0.030723130330443382,-0.02893281914293766,-0.0718294158577919,-0.016743944957852364,0.05008593201637268,-0.049977220594882965,-0.005438856314867735,-0.04932108521461487,-0.01793060451745987,-0.01219845749437809,0.030529934912919998,0.08920943737030029,-0.056279588490724564,0.05216289684176445,-0.06434530764818192,-0.055402882397174835,0.01415171381086111,0.06567942351102829,0.028159141540527344,0.07822056859731674,-0.00016581104137003422,0.062442850321531296,-0.019351273775100708,-0.051646485924720764,-0.02855227142572403,0.04464713856577873,-0.04969990625977516,-0.06167576462030411,-0.04080015793442726,0.013680223375558853,-0.06429226696491241,0.06443703919649124,-0.0498383566737175,-0.06412807106971741,-0.03645050525665283,-0.011669538915157318,-0.03639332577586174,-0.08782164007425308,-0.034159522503614426,-0.08293677866458893,-0.02656436152756214,0.0031202947720885277,-0.028752079233527184,-0.015205626375973225,0.06875597685575485,-0.08342256397008896,-0.05011776089668274,0.013128588907420635,0.011892229318618774,-0.07081466913223267,0.028917890042066574,-0.041480112820863724,-0.03646756336092949,-0.06344705820083618,-0.04860014095902443,-0.0004621313128154725,0.07949451357126236,0.016954345628619194,-0.05575220286846161,-0.025999536737799644,-0.06104244291782379,0.0005484515568241477,0.06567782908678055,-0.06191801279783249,-0.05524617061018944,-0.045885421335697174,0.06381206214427948,-0.05902797728776932,0.07716651260852814,-0.04832879826426506,0.0559542216360569,-0.05645112320780754,0.031640466302633286,-0.02679406851530075,0.06436535716056824,-0.009514905512332916,-0.09086095541715622,-0.07054988294839859,-0.05918440595269203,0.03226874768733978,0.008139405399560928,0.04908663406968117,0.023024126887321472,0.05559288337826729,0.0010581151582300663,0.020359469577670097,0.06398341804742813,-0.06553791463375092,0.019013917073607445,0.021789005026221275,-0.01258947141468525,0.0832194909453392,-0.02204933762550354,0.08928007632493973,0.023021580651402473,0.008459880948066711,0.05989110842347145,-0.036942727863788605,0.04441408812999725,-0.0002620634331833571,0.07226988673210144,0.0674659013748169,0.061210982501506805,0.003507904475554824,-0.03777298703789711,-0.048343475908041,-0.06466273963451385,0.02888553775846958,-0.04537462070584297,0.04678879678249359,-0.02571069449186325,-0.07590318471193314,-0.03343740105628967,-0.0099183963611722,-0.06112344190478325,-0.0689242035150528,-0.047783263027668,0.04974281042814255,-0.003407525597140193,0.02284126542508602,-0.04266819730401039,0.05419924855232239,-0.05373944714665413,0.07529266923666,0.06634564697742462,0.05354654788970947,-0.0016997713828459382,0.06469756364822388,0.061431095004081726,-0.07326069474220276,-0.08782561868429184,-0.05929001420736313,-0.004694364499300718,0.05920915678143501,-0.04645586386322975,0.07583776116371155,-0.003868767526000738,-0.07650178670883179,-0.0761699229478836,-0.06334238499403,0.061021748930215836,0.021155284717679024,0.02372489869594574,-0.024428201839327812,-0.02255767397582531,-0.06452116370201111,0.0698954313993454,-0.009775321930646896,0.04721579700708389,-0.03347198665142059,0.09253540635108948,-0.06282999366521835,-0.07774262875318527,-0.03405420482158661,-0.028589744120836258,0.06833898276090622,-0.006766555830836296,0.018439214676618576,-0.03513846918940544,0.029499759897589684,0.0063875215128064156,-0.018007565289735794,-0.009494836442172527,0.0699123740196228,-0.07526646554470062,-0.04960025101900101,-0.058822423219680786,0.07414662092924118,0.05819040909409523,-0.03767644241452217,-0.04230228066444397,-0.07579141855239868,-0.08137866854667664,-0.011619094759225845,-0.059019945561885834,0.024149829521775246,0.03499352186918259,0.01864493638277054,0.050726570188999176,0.07112807035446167,-0.010434160009026527,0.04196907579898834,0.024715043604373932,-0.01272538024932146,0.04675328731536865,-0.03132419288158417,0.045183923095464706,0.07825729250907898,-0.05105549469590187,0.014044118113815784,-0.003731973934918642,0.042250242084264755,-0.05501919239759445,-0.030424537137150764,0.03515373915433884,-0.07960076630115509,-0.03897327929735184,0.015261730179190636,-0.02944045700132847,0.06984569877386093,0.014816338196396828,0.005648096092045307,0.06731555610895157,0.08865688741207123,0.05149706080555916,0.026081601157784462,0.08328225463628769,0.01787193864583969,0.009282704442739487,-0.07242037355899811,-0.047212403267621994,-0.06472982466220856,0.023691145703196526,0.0771629810333252,-0.03739754110574722,-0.022249514237046242,-0.08272318542003632,-0.02011965401470661,-0.02450331673026085,0.05420886352658272,-0.04392148181796074,-0.019703812897205353,-0.008762075565755367,-0.06589328497648239,0.03494373708963394,-0.05922229215502739,-0.036610931158065796,0.05265205726027489,-0.051107291132211685,-0.07791867852210999,0.015118270181119442,-0.07555608451366425,-0.020059937611222267,-0.04955631121993065,0.0026340147014707327,-0.006856351159512997,0.03648693487048149,-0.04125450551509857,0.031868383288383484,-0.08133922517299652,-0.01654204912483692,-0.06116185337305069,-0.03812811151146889,0.05165589973330498,-0.014871744439005852,0.06774517148733139,0.007178313564509153,-0.0031098532490432262,-0.05487101897597313,-0.050141748040914536,-0.06823838502168655,0.057779233902692795,0.038246143609285355,0.02844318561255932,-0.003204799024388194,-0.022375280037522316,-0.06396248191595078,0.027604620903730392,0.06692095845937729,-0.016934484243392944,-0.008584988303482533,-0.009038964286446571,0.0579230971634388,0.01875135488808155,0.05298131704330444,-0.011169567704200745,0.03296247497200966,-0.08557405322790146,-0.056860584765672684,-0.06599331647157669,-0.06871562451124191,0.07892979681491852,-0.04533485323190689,0.006236612796783447,-0.007539510726928711,-0.00023933083866722882,0.08532974869012833,0.01914035528898239,0.04791240766644478,0.07579586654901505,-0.030916113406419754,-0.04018435627222061,-0.012372261844575405,0.0481066033244133,0.07496582716703415,-0.027612362056970596,-0.08350756019353867,-0.090498186647892,-0.06711167842149734,-0.05152622610330582,0.0562860332429409,-0.05020269379019737,-0.00548382755368948,0.07311422377824783,0.07308962196111679,-0.006194173824042082,-0.05646106228232384,-0.023154951632022858,-0.051547467708587646,-0.040147822350263596,-0.07778153568506241,-0.014661777764558792,0.005472399760037661,-0.03599908575415611,-0.020591922104358673,-0.03383869305253029,0.032409511506557465,0.006240525748580694,0.05279811471700668,0.0736880749464035,0.045738864690065384,0.051452651619911194,0.04254437983036041,0.0447707399725914,0.048516687005758286,-0.006205590441823006,0.022960271686315536,-0.06217004731297493,0.04242780804634094,-0.07482237368822098,0.03144235163927078,-0.08518892526626587,0.03731875121593475,-0.08265966176986694,0.05872636288404465,0.026783501729369164,-0.02025364339351654,0.03528377786278725,0.07253275066614151,0.06556504964828491,-0.0341031588613987,-0.04045187309384346,-0.05368193984031677,-0.055004242807626724,-0.0005563156446442008,-0.022912105545401573,0.0427560992538929,-0.050447795540094376,0.05989198759198189,-0.023036783561110497,-0.04465290531516075,-0.01592125929892063,-0.05652806907892227,-0.056556880474090576,-0.04811312258243561,-0.03301089629530907,0.07615198194980621,-0.07208648324012756,-0.06332817673683167,-0.0006876576226204634,-0.011281702667474747,-0.005805128253996372,0.06587503105401993,-0.07797686755657196,-0.022424252703785896,-0.053216353058815,0.02310330420732498,0.04008837789297104,-0.07661169767379761,-0.046645767986774445,0.06203461065888405,-0.03975557163357735,0.03713563457131386,0.07362516224384308,0.029033584520220757,-0.03891237825155258,-0.03780067339539528,-0.06946060806512833,0.029675746336579323,0.0019000021275132895,-0.047558095306158066,0.047906793653964996,-0.02879159338772297,0.01557451207190752,-0.037226706743240356,0.016929946839809418,0.00977406557649374,-0.06848283112049103,-0.07660196721553802,-0.025078214704990387,0.0796552300453186,0.05693986639380455,-0.056867651641368866,-0.06346867978572845,0.06438688933849335,-0.022687990218400955,-0.0052359444089233875,0.0033280127681791782,0.017219578847289085,-0.061973705887794495,0.07998034358024597,-0.0017350780544802547,-0.046387337148189545,0.018950961530208588,0.00596627127379179,-0.06482765078544617,-0.022787634283304214,-0.03986045718193054,-0.0811750590801239,-0.005659585818648338,-0.08055318146944046,0.019252127036452293,-0.018453802913427353,-0.05577825382351875,0.07864536345005035,-0.036451902240514755,0.06245635822415352,0.07368051260709763,-0.012910936959087849,-0.0069093042984604836,0.061608556658029556,0.03016567975282669,-0.06347138434648514,-0.025210049003362656,-0.035005439072847366,-0.0748811662197113,0.008065389469265938,-0.049960631877183914,-0.0665738582611084,-0.07169756293296814,0.04906924068927765,-0.07593508064746857,-0.011193527840077877,-0.09010603278875351,-0.06782589852809906,-0.02702011726796627,-0.018613547086715698,0.018915440887212753,0.04744831845164299,-0.01643352396786213,0.03855391591787338,0.05250117927789688,-0.031432390213012695,-0.015472632832825184,-0.06500367075204849,-0.004193930886685848,-0.04501281678676605,0.018125852569937706,-0.07150329649448395,0.03421454876661301,-0.027658283710479736,-0.058133549988269806,0.04183107987046242,-0.07082273811101913,-0.04351237416267395,-0.01823084056377411,-0.05635729432106018,0.003278888761997223,0.015326409600675106,0.06831206381320953,0.06648421287536621,-0.039232056587934494,-0.0656094178557396,0.07775627076625824,0.08247949182987213,-0.07950245589017868,-0.0775868222117424,-0.07079126685857773,0.03485569357872009,-0.05568977817893028,0.03793121129274368,-0.019370483234524727,-0.033408861607313156,0.04889906197786331,-0.04298761859536171,0.016051670536398888,-0.0178475771099329,0.08104114979505539,-0.010666419751942158,0.026451608166098595,-0.033534906804561615,-0.061603643000125885,0.04038866609334946,0.02603934146463871,0.06515417248010635,0.04099515080451965,-0.04933229088783264,0.06468341499567032,-0.03307371586561203,0.0073783560656011105,-0.03537164255976677,0.0008036566432565451,-0.003326437436044216,-0.03636937215924263,0.023269979283213615,0.06729406863451004,0.04991068318486214,-0.08725495636463165,-0.020482754334807396,-0.0336092971265316,-0.0625046044588089,-0.04243116080760956,-0.012985935434699059,0.008304734714329243,0.04572064429521561,-0.059724267572164536,0.06997035443782806,-0.04384538158774376,0.06978761404752731,0.06961140781641006,-0.0827334001660347,0.07707501202821732,-0.006513012573122978,-0.04947835952043533,-0.07412777096033096,0.037532106041908264,-0.062387771904468536,0.026743276044726372,-0.005998955108225346,0.00783432275056839,0.030651435256004333,-0.06999858468770981,-0.02674904279410839,0.07562196999788284,0.041804540902376175,-0.01747165620326996,-0.062325067818164825,0.05031578987836838,0.00799829512834549,0.026891980320215225,-0.02897810749709606,0.008731314912438393,0.03300444036722183,0.00035060473601333797,0.03167128562927246,-0.06254187971353531,-0.05666425824165344,-0.03184127435088158,0.04641863703727722,-0.02689778432250023,-0.07719962298870087,-0.02501274086534977,0.0007845393847674131,0.06332065165042877,0.03403036296367645,0.027480682358145714,0.0758151188492775,-0.008209006860852242,0.08630668371915817,-0.043228842318058014,-0.0028335696551948786,-0.045241598039865494,0.07394803315401077,0.059760309755802155,-0.01990482583642006,-0.07894236594438553,0.06477973610162735,-0.03873208537697792,0.015575915575027466,-0.06503941863775253,-0.0594201497733593,-0.021365420892834663,0.040165405720472336,-0.014773013070225716,0.06302002817392349,-0.01950608380138874,0.07819800078868866,0.022725464776158333,0.006017329171299934,0.030036956071853638,0.04234720766544342,0.02327294833958149,0.08332539349794388,-0.009596397168934345,-0.06136539950966835,0.0738665759563446,0.05777972191572189,-0.0003017972921952605,0.06080510839819908,-0.05124128237366676,0.08051476627588272,0.015022079460322857,0.047977082431316376,0.0633639320731163,0.022630248218774796,-0.06282428652048111,-0.02901306562125683,0.02178097516298294,-0.05157480016350746,-0.03380671516060829,0.05231517180800438,-0.04502664506435394,0.08293675631284714,0.02901148609817028,0.07867813110351562,-0.012893096543848515,0.017817139625549316,0.031459614634513855,-0.027014369145035744,0.051153410226106644,-0.04740569368004799,-0.039276085793972015,0.01226396020501852,-0.013724553398787975,-0.045704435557127,-0.061836495995521545,-0.022269070148468018,0.040565092116594315,-0.04373946413397789,0.03274459019303322,0.004241373855620623,0.04441539943218231,0.0414004810154438,-0.07272207736968994,-0.07460875064134598,-0.004295108374208212,0.0633883848786354,0.03183235973119736,-0.004196550231426954,0.08983232080936432,0.014115169644355774,0.00899465847760439,0.025881368666887283,0.03241218253970146,-0.05829077586531639,-0.010028470307588577,-0.06426253914833069,0.001404288806952536,-0.04605984687805176,0.03690693527460098,0.010816095396876335,-0.036292605102062225,-0.03152848407626152,0.07345933467149734,0.02307608723640442,-0.045376647263765335,0.050936050713062286,-0.0767170786857605,0.05295912176370621,0.07995389401912689,0.05415947735309601,-0.03915362060070038,-0.01877571828663349,-0.008294030092656612,0.06540979444980621,0.0662471354007721,0.07006346434354782,-0.04918031394481659,-0.05843198299407959,0.019423389807343483,0.05501456931233406,-0.08894273638725281,0.08010856062173843,-0.05197178199887276,0.03712927922606468,0.059359610080718994,-0.049072232097387314,0.012883956544101238,-0.027527019381523132,-0.040540389716625214,-0.014765734784305096,-0.03935278579592705,-0.06067749857902527,0.025524482131004333,0.0017856990452855825,0.07077845931053162,-0.07417497038841248,-0.06613895297050476,-0.01898382045328617,-0.0702260211110115,-0.04505576565861702,0.08279605954885483,-0.02201709896326065,-0.02494509331882,-0.037749774754047394,0.039614949375391006,-0.030371883884072304,0.06770261377096176,0.07243243604898453,0.06869635730981827,-0.030206594616174698,0.07826235145330429,0.00399778550490737,0.047374267131090164,-0.07310892641544342,-0.049376480281353,0.07535329461097717,-0.06600872427225113,-0.07076433300971985,-0.0753270611166954,-0.03955938294529915,-0.04188752546906471,-0.052210837602615356,0.06799675524234772,0.043013643473386765,0.09224294871091843,-0.07742518186569214,-0.040145087987184525,0.049214839935302734,0.062333207577466965,-0.021483803167939186,0.06568163633346558,-0.004768800921738148,0.03656131401658058,-0.0808812826871872,-0.05425448343157768,-0.06199880689382553,0.058808669447898865,0.014226996339857578,-0.026656169444322586,-0.0260612890124321,0.059453267604112625,-0.07189717888832092,0.040958087891340256,0.025660518556833267,0.022753305733203888,-0.06701181828975677,0.06156686320900917,0.03201790153980255,-0.06425054371356964,-0.023477116599678993,-0.07183915376663208,0.05528772994875908,0.02459348924458027,0.005955853965133429,-0.0048961397260427475,0.000700003351084888,-0.052689891308546066,0.028739087283611298,-0.006773411761969328,0.06765302270650864,0.006500960793346167,0.07991904765367508,0.035048145800828934,-0.04611723870038986,-0.06742031872272491,0.05442788451910019,0.03228304535150528,0.0006808245088905096,0.08033323287963867,-0.04677262157201767,-0.056556444615125656,-0.07186579704284668,0.021879689767956734,0.02355002798140049,-0.06447181105613708,0.016163529828190804,-0.06453973054885864,0.07629626244306564,0.02506425604224205,-0.006809530314058065,0.051753003150224686,-0.05338827520608902,0.019771480932831764,0.018159203231334686,-0.066423200070858,-0.07548580318689346,-0.07109228521585464,0.06816067546606064,-0.02641180343925953,-0.05208129435777664,0.07374706119298935,-0.014730422757565975,-0.05087115615606308,-0.0060973139479756355,0.08206706494092941,0.07706250250339508,-0.05067262798547745,0.018899185582995415,-0.014454164542257786,-0.04261087626218796,0.052823614329099655,0.011895154602825642,-0.009861974976956844,0.01752564311027527,-0.050018567591905594,0.08134960383176804,0.022611042484641075,-0.02421761490404606,-0.05396982282400131,-0.056186798959970474,0.055964112281799316,-0.04575232416391373,0.04435604438185692,-0.021102143451571465,0.0033314817119389772,0.0663362666964531,0.05422746017575264,-0.05683298036456108,0.07670523226261139,-0.029573433101177216,0.07218572497367859,0.07047869265079498,0.005218589678406715,0.06639918684959412,0.0006081497413106263,0.011067861691117287,0.061310552060604095,-0.07424496859312057,-0.0038006913382560015,0.05247575044631958,0.05850987881422043,0.014186752028763294,0.04698009043931961,0.0434236153960228,-0.0400371290743351,0.07040602713823318,-0.04757504165172577,0.04390530288219452,0.030485304072499275,-0.06905756145715714,-0.064832404255867,0.06645189225673676,-0.004021236207336187,-0.01954125426709652,-0.00868160929530859,-0.08236560970544815,0.01584251970052719,-0.0912589356303215,-0.037009816616773605,-0.023014908656477928,-0.02655964531004429,0.038560766726732254,-0.036776356399059296,0.03755084425210953,0.05311064422130585,0.016468945890665054,-0.07282830029726028,0.006515898276120424,-0.0563618429005146,0.027200259268283844,0.05972270667552948,-0.06468304246664047,0.01278229895979166,0.020766355097293854,-0.048560891300439835,-0.010211066342890263,0.0900101512670517,0.07689044624567032,0.030221926048398018,0.07234665751457214,0.0246051587164402,0.07558943331241608,-0.081805519759655,0.038847487419843674,-0.09339872002601624,-0.0364563874900341,0.058993395417928696,0.019294599071145058,-0.0011805386748164892,0.024930603802204132,-0.03845299035310745,-0.02089184708893299,-0.018149733543395996,-0.015699883922934532,0.050792478024959564,0.0048927925527095795,-0.026747489348053932,-0.08494850993156433,-0.037472013384103775,0.06377461552619934,0.08434734493494034,0.008392312563955784,0.08027958869934082,-0.04053175449371338,0.07783792912960052,0.026290616020560265,-0.054667528718709946,-0.03403642773628235,-0.055926136672496796,-0.06585661321878433,0.06693615019321442,-0.08229798823595047,-0.0328599214553833,-0.0013490797718986869,-0.0555635429918766,-0.023796066641807556,0.06588353216648102,0.035652920603752136,0.020524485036730766,-0.06437245011329651,0.015697140246629715,-0.021254174411296844,0.056899867951869965,0.07292312383651733,-0.019075803458690643,-0.03994264453649521,0.040368251502513885,-0.008566562086343765,-0.03637511655688286,-0.05722300708293915,-0.05151449516415596,0.051248785108327866,-0.08141645044088364,-0.043336983770132065,0.05535384640097618,0.03730208799242973,0.03674382343888283,-0.014072193764150143,0.0823059231042862,-0.056647561490535736,0.05980890244245529,0.004211722407490015,0.033781930804252625,-0.03779320791363716,-0.057758819311857224,-0.06007925048470497,-0.0014719933969900012,0.04537224397063255,0.010984747670590878,-0.05432131886482239,-0.01477514486759901,0.05822490155696869,0.062437959015369415,0.076195627450943,-0.01661592535674572,-0.008772584609687328,-0.04274879768490791,0.03038555197417736,-0.0447113923728466,-0.050272177904844284,0.01575573720037937,0.017088277265429497,0.04542054608464241,-0.03645501285791397,0.07965101301670074,0.05365525931119919,-0.02995125949382782,-0.07676085084676743,0.0040612476877868176,0.042193394154310226,-0.08033070713281631,-0.058611053973436356,0.05104859545826912,-0.05438002198934555,-0.06936460733413696,0.07427966594696045,-0.018144365400075912,0.024960462003946304,-0.059791821986436844,-0.0629720464348793,-0.0634361281991005,0.05023163929581642,0.011829545721411705,0.02171512134373188,-0.07035064697265625,0.03364010155200958,0.018450342118740082,0.021625787019729614,0.011456719599664211,-0.031966496258974075,0.015293566510081291,-0.05541880428791046,-0.00409303605556488,0.026221327483654022,0.0026615718379616737,0.07311052083969116,0.08135256916284561,-0.05941212922334671,0.06731190532445908,0.03253072872757912,0.07162070274353027,-0.04056186601519585,-0.0700005441904068,0.04075859114527702,-0.0577920638024807,0.02883329801261425,0.018327755853533745,0.05417722836136818,0.038571782410144806,0.0034036170691251755,-0.019568786025047302,0.016286231577396393,-0.06309731304645538,-0.009084193967282772,-0.08327760547399521,0.03980902209877968,0.06166468933224678,-0.04235963895916939,-0.08931787312030792,-0.04878370091319084,0.06546635925769806,0.03145011141896248,0.0063017383217811584,0.02915884368121624,0.058403532952070236,0.08341405540704727,-0.03971528634428978,0.029420949518680573,0.022491393610835075,0.06290861964225769,0.03230626508593559,0.03577851876616478,-0.07758177816867828,0.05048978701233864,-0.06497593224048615,-0.043642573058605194,0.03988000378012657,0.06742823868989944,-0.0029212625231593847,0.07844452559947968,0.0412994883954525,0.019100794568657875,-0.003620169125497341,0.06345128268003464,-0.05884455144405365,0.047452036291360855,-0.008689221926033497,0.06420033425092697,0.06356053799390793,0.08516678959131241,0.0738973468542099,-0.012705271132290363,0.04032694175839424,-0.05960913375020027,-0.07204826176166534,0.06429731845855713,-0.0690658763051033,-0.028836995363235474,0.05231994390487671,-0.08924882858991623,-0.07922036200761795,-0.06774979829788208,0.04610762372612953,0.0454711876809597,-0.02930501662194729,0.017936646938323975,-0.004967208951711655,0.0665222778916359,0.020110981538891792,0.05951756238937378,-0.023762021213769913,0.04640799015760422,-0.046763285994529724,-0.08164007216691971,-0.06527405232191086,-0.037055604159832,0.0737989991903305,-0.017501667141914368,0.08521914482116699,0.029219485819339752,-0.04054919630289078,-0.04281602054834366,-0.027169372886419296,-0.03810678422451019,-0.005024251993745565,0.01997344382107258,-0.02318771556019783,0.021038997918367386,0.07118486613035202,0.0633791983127594,0.006826939061284065,0.01236593909561634,0.05778885260224342,-0.053598470985889435,-0.05274095758795738,-0.017085086554288864,0.08359251916408539,-0.023829109966754913,-0.02179194800555706,0.06275098025798798,0.0223564300686121,0.029957076534628868,-0.011946075595915318,0.08122008293867111,0.04490067809820175,0.06359484791755676,-0.004684908781200647,-0.0022270595654845238,-0.015238461084663868,-0.050134819000959396,0.021631956100463867,-0.02749006263911724,-0.00014885324344504625,0.04902629554271698,0.08025433123111725,0.07492223381996155,0.054167505353689194,-0.02965017966926098,0.05138661712408066,-0.03515857830643654,0.02280828170478344,-0.06466495245695114,0.043207209557294846,-0.04252775013446808,0.038646332919597626,0.03789777308702469,-0.046411190181970596,0.0027235194575041533,-0.08414887636899948,-0.03157742694020271,-0.07648952305316925,-0.09327800571918488,0.01273252908140421,-0.07279849052429199,-0.037630192935466766,0.062169238924980164,-0.0069053564220666885,0.08929230272769928,-0.0029922891408205032,0.014067823998630047,-0.03801378235220909,0.0387934111058712,0.029543032869696617,-0.06752605736255646,-0.05839048698544502,-0.03474494442343712,0.047334782779216766,-0.07446996867656708,-0.07932189851999283,-0.04919305443763733,0.050663694739341736,-0.060285091400146484,0.015581837855279446,-0.019194254651665688,0.019428111612796783,0.022098137065768242,-0.028524864464998245,-0.058472055941820145,0.06366662681102753,-0.055285073816776276,0.06074800342321396,-0.04232272878289223,-0.0768905058503151,0.05968797206878662,0.03151983395218849,0.030057065188884735,0.047009292989969254,0.06842266768217087,-0.007185033988207579,-0.057287540286779404,0.05576721206307411,0.06960642337799072,0.08528642356395721,0.025091830641031265,-0.002169567160308361,0.028692694380879402,-0.042089104652404785,-0.04397619143128395,0.008191845379769802,0.07996252179145813,0.06817921996116638,0.02425958774983883,0.05275078862905502,-0.0704553872346878,0.03245919570326805,0.0450502447783947,0.024207165464758873,-0.07486409693956375,0.04162905737757683,-0.03014708310365677,-0.05612100288271904,0.04569797217845917,-0.029968099668622017,-0.07016100734472275,-0.005509085487574339,-0.05452922731637955,0.01209363341331482,0.053002793341875076,-0.011574912816286087,0.02856864035129547,0.0528232604265213,-0.07749204337596893,-0.0625055804848671,-0.06916967034339905,0.036583445966243744,0.021679682657122612,-0.013256086967885494,0.04962695762515068,0.060306549072265625,-0.042688362300395966,0.08756722509860992,0.05418769642710686,-0.08716028183698654,-0.029402246698737144,0.020801912993192673,0.005096195265650749,-0.07612108439207077,0.0603976733982563,0.05817677825689316,-0.0001445499510737136,0.018472829833626747,0.022985247895121574,0.013992984779179096,-0.052088916301727295,0.07360232621431351,-0.012475304305553436,0.013233266770839691,-0.06077216938138008,0.01965820975601673,-0.002502181800082326,0.004180740099400282,0.011729292571544647,-0.07630390673875809,-0.020695963874459267,-0.02031644620001316,0.007543099578469992,-0.0891953781247139,-0.041001614183187485,-0.030794108286499977,0.04216521978378296,0.07423455268144608,-0.010383655317127705,-0.06944382190704346,0.00024140857567545027,-0.06743926554918289,-0.07311723381280899,0.034123726189136505,-0.03878163918852806,0.0582645982503891,0.007951164618134499,0.0064926110208034515,0.050509192049503326,0.07285349816083908,-0.036698807030916214,0.00482082599774003,0.026039181277155876,-0.04242302477359772,-0.017852796241641045,-0.02834753878414631,-0.06650141626596451,0.04712396487593651,-0.08046511560678482,-0.03643883392214775,0.02777125872671604,-0.009244805201888084,0.0028983959928154945,0.07158838957548141,-0.014109637588262558,0.05931627005338669,-0.011009015142917633,0.0650724545121193,0.072634257376194,0.005647310055792332,-0.008915254846215248,0.07980121672153473,0.05200197920203209,-0.01895514503121376,-0.05822312459349632,0.03215493634343147,0.05212545394897461,-0.07350554317235947,-0.062224261462688446,0.03492634370923042,0.0635610893368721,-0.0319686159491539,-0.05855168402194977,0.0008829422877170146,0.005710646044462919,0.06236657500267029,-0.06459725648164749,0.061147838830947876,-0.027860961854457855,0.06454503536224365,0.013918451964855194,0.08749774098396301,0.062151163816452026,0.01824280060827732,-0.019453996792435646,-0.008363230153918266,-0.0406670905649662,7.500544597860426e-05,-0.035456862300634384,-0.06516768783330917,-0.06126391887664795,-0.037369001656770706,0.015139041468501091,0.036346349865198135,-0.05137573927640915,-0.045226164162158966,0.03934234753251076,-0.05504881963133812,-0.029511984437704086,-0.019207147881388664,-0.05755690112709999,-0.06526333093643188,-0.07171234488487244,-0.06679116934537888,0.0385890007019043,0.03795761615037918,0.03793824464082718,-0.06873570382595062,-0.0060829659923911095,0.061504967510700226,0.03209512308239937,0.000856074329931289,0.026248665526509285,-0.08108241856098175,-0.08265466243028641,0.056780725717544556,-0.03233559802174568,-0.040595486760139465,0.0022666356526315212,-0.07331611961126328,-0.027628270909190178,0.061654187738895416,-0.02506495639681816,-0.06593739986419678,0.029249170795083046,0.06067906692624092,-0.0027739321812987328,-0.054987940937280655,0.04455709084868431,0.026148857548832893,0.08766750991344452,-0.06824926286935806,0.020066751167178154,0.02269602008163929,0.08127310872077942,-0.0018266073893755674,0.0651165246963501,-0.054568830877542496,-0.0022942100185900927,-0.023076429963111877,0.04356347396969795,-0.00033603463089093566,-0.03240329399704933,-0.08788169920444489,0.06979811936616898,-0.06914117187261581,0.08111795037984848,0.05747160688042641,-0.0035359144676476717,-0.059085067361593246,-0.07173647731542587,0.052036646753549576,-0.019167540594935417,-0.022724978625774384,-0.0181595329195261,0.02319224365055561,0.06051846221089363,-0.07829617708921432,0.05729040130972862,-0.028492309153079987,-0.06598051637411118,-0.0043664537370204926,0.07634694129228592,-0.053703103214502335,0.07527747750282288,0.01868864707648754,-0.06614409387111664,-0.021969998255372047,0.0776376947760582,-0.02965744398534298,0.002260210458189249,-0.0033592176623642445,0.015438489615917206,-0.04405409097671509,0.04684871807694435,-0.0669403001666069,-0.05951056256890297,0.011781261302530766,-0.05556628853082657,-0.06937851011753082,0.0113473329693079,0.04691047593951225,-0.03649968281388283,0.04515162110328674,-0.06601635366678238,-0.02620290406048298,-0.01792750135064125,-0.053440630435943604,0.00820373184978962,0.031787049025297165,0.047674018889665604,-0.07167362421751022,-0.04581985995173454,-0.05240030586719513,-0.07850777357816696,0.08160292357206345,0.048720888793468475,0.010854262858629227,-0.06953124701976776,-0.07636237889528275,-0.0723615363240242,0.0481635183095932,0.018051903694868088,0.03085366263985634,0.005417171865701675,0.06267254799604416,0.03924703970551491,0.046258099377155304,0.034885719418525696,-0.04622547701001167,-0.0020879677031189203,-0.01804044283926487,0.01569465734064579,0.07164503633975983,-0.043226148933172226,0.018960043787956238,0.004300122149288654,-0.0319221094250679,-0.005697802174836397,-0.03267992287874222,-0.012835591100156307,-0.029911665245890617,0.038868337869644165,0.03274352848529816,0.023967195302248,0.07467146962881088,-0.03709712624549866,0.050976112484931946,-0.06877335160970688,0.058234360069036484,0.024103546515107155,-0.03597619757056236,0.023860428482294083,0.035296060144901276,0.03695382922887802,-0.04791739955544472,-0.0001044141681632027,-0.014852533116936684,-0.07899472862482071,0.07783771306276321,0.0032794903963804245,0.04962274059653282,-0.05509292334318161,-0.03554750233888626,-0.05901903286576271,0.07672908902168274,0.011185646057128906,-0.05422674119472504,0.033593155443668365,0.04835115373134613,0.03786204010248184,0.052515532821416855,-0.04977085068821907,0.04206658527255058,-0.037838421761989594,0.053559038788080215,-0.04793212190270424,0.011699655093252659,0.00559166120365262,0.0603402741253376,0.038837138563394547,-0.05284245312213898,-0.0062311142683029175,0.07323449105024338,0.04443807899951935,-0.03154493868350983,0.017150484025478363,0.061189740896224976,-0.05538768321275711,0.07127828896045685,-0.050689924508333206,-0.006331759504973888,0.0215042382478714,-0.04433869943022728,-0.06348889321088791,0.048710405826568604,-0.01938636228442192,0.011017722077667713,0.03731013834476471,-0.043379902839660645,0.08462250232696533,-0.06593243032693863,0.08554548025131226,-0.01729515939950943,-0.02800879068672657,0.07499560713768005,0.004502748139202595,0.03607959672808647,-0.05573577061295509,-0.05284155160188675,0.07933623343706131,0.048849329352378845,0.025452809408307076,0.06811141967773438,-0.044736456125974655,0.049284085631370544,0.029490765184164047,-0.016982855275273323,0.05743679031729698,0.03379781171679497,0.009329667314887047,0.04604057967662811,-0.043484434485435486,-0.06360390037298203,-0.025452610105276108,-0.019494233652949333,-0.07344653457403183,0.06827162206172943,-0.003325583878904581,0.07273298501968384,0.09225909411907196,-0.05707293376326561,0.03265273571014404,0.06330332159996033,-0.053213153034448624,-0.01937067322432995,0.01567579060792923,0.06010511890053749,0.059208016842603683,0.08770215511322021,-0.003508571535348892,-0.03334362804889679,0.027104537934064865,-0.051658205687999725,-0.004451054148375988,-0.023744111880660057,-0.05342266708612442,-0.02995111793279648,0.06705264002084732,0.0415818877518177,-0.03442000597715378,-0.04054958373308182,-0.07816248387098312,0.010235057212412357,0.013731013052165508,-0.034247852861881256,0.003126745345070958,-0.023920487612485886,0.03374160826206207,-0.041556812822818756,0.01750320754945278,0.043980345129966736,0.04558195173740387,0.002620236249640584,-0.059277161955833435,-0.03255278617143631,-0.022819124162197113,-0.08302267640829086,0.007384132593870163,-0.07552238553762436,-0.0577184222638607,0.0255765151232481,-0.005770394578576088,0.05331430211663246,0.04609047621488571,-0.052066151052713394,0.06871190667152405,-0.011187302879989147,0.020363006740808487,0.07396531105041504,0.08212608098983765,-0.005427381955087185,-0.06624037027359009,0.029106205329298973,-0.003909062594175339,0.043588362634181976,0.03799133747816086,0.07584809511899948,-0.0720687061548233,-0.07146461308002472,-0.029561327770352364,0.06128692999482155,-0.036475878208875656,-0.030260475352406502,-0.025281351059675217,0.037457454949617386,-0.06201700493693352,-0.06648236513137817,0.062393367290496826,-0.06118262931704521,-0.0794176310300827,-0.045163024216890335,0.0755935087800026,0.03666096180677414,0.08348707109689713,-0.06221163645386696,0.04512196034193039,-0.011088840663433075,-0.01117012370377779,-0.0016222054837271571,0.01802821084856987,0.07443538308143616,-0.025235343724489212,-0.06097312644124031,0.04464021697640419,0.02737927995622158,-0.07248051464557648,-0.027423255145549774,0.08609159290790558,-0.07412386685609818,-0.01343238353729248,-0.003030255902558565,-0.054741520434617996,-0.05756879970431328,0.08206980675458908,-0.0464143380522728,0.06097047030925751,-0.07438258826732635,0.08293184638023376,0.07702264189720154,-0.010377014987170696,0.06881070882081985,0.05417069420218468,-0.07057353854179382,0.022303910925984383,-0.046588413417339325,-0.012696778401732445,0.04379228502511978,-0.044032495468854904,-0.031052501872181892,-0.020075149834156036,0.07389242947101593,0.06831604242324829,-0.05234665796160698,0.038285285234451294,0.035270027816295624,-0.018046483397483826,-0.04505370557308197,0.006157738622277975,0.05662710964679718,-0.013098711147904396,-0.0324229896068573,-0.030900100246071815,-0.05817006900906563,0.003690639277920127,-0.0777994766831398,0.010287468321621418,0.05326203256845474,-0.008101897314190865,0.08716674894094467,0.0047519756481051445,-0.028441186994314194,-0.05425409972667694,0.04265792667865753,0.02008938416838646,-0.07573580741882324,0.06276977807283401,-0.03644872084259987,-0.06689024716615677,-0.02539769746363163,-0.04324667155742645,0.06373035907745361,0.05905253440141678,-0.03079574555158615,-0.049938611686229706,-0.021761083975434303,-0.038523390889167786,0.059180404990911484,0.0045757414773106575,-0.04342836141586304,-0.079386405646801,0.03376277908682823,-0.027412105351686478,0.03712368384003639,0.03050689585506916,-0.03366854414343834,-0.02699005790054798,0.03787786141037941,0.08403880149126053,0.045589759945869446,-0.058939483016729355,0.004124482627958059,-0.023632824420928955,0.011456647887825966,0.049285512417554855,0.016892079263925552,1.6353136516045197e-06,-0.06665119528770447,-0.09189271926879883,-0.04275793209671974,0.045593611896038055,-0.05317338556051254,0.03371038660407066,0.029411129653453827,-0.031823791563510895,0.0034588857088238,-0.07170101255178452,0.08818041533231735,-0.027013711631298065,0.06867281347513199,-0.057429227977991104,0.06256479024887085,0.03645208850502968,-0.05586164444684982,-0.06230190023779869,-0.04197949171066284,-0.04542848467826843,-0.0886116698384285,-0.054347358644008636,0.06170060113072395,0.023721154779195786,-0.018040848895907402,-0.0026913261972367764,-0.023334357887506485,0.028402021154761314,-0.02773113176226616,-0.06973503530025482,-0.014745364896953106,0.03319883719086647,0.083097442984581,0.07667342573404312,-0.05943654477596283,0.02400372177362442,-0.03701654449105263,0.08619502931833267,-0.020605357363820076,-0.06213105097413063,-0.0467168465256691,-0.0020761003252118826,-0.06574208289384842,-0.01776290126144886,0.026565857231616974,-0.06064622849225998,-0.08978808671236038,-0.08314047753810883,0.06691418588161469,0.00014046828437130898,-0.026607004925608635,-0.037147004157304764,-0.011365817859768867,0.029780643060803413,0.015469691716134548,-0.05285025015473366,0.08079613745212555,0.029511135071516037,-0.06575644761323929,0.056554365903139114,0.026820320636034012,0.03180031478404999,0.03264208510518074,-0.07492582499980927,-0.08235388249158859,0.06892112642526627,-0.04466146603226662,-0.011930716224014759,0.05594155937433243,-0.07581275701522827,0.050997599959373474,0.02273774892091751,0.07072275876998901,0.03535255044698715,0.04355615749955177,0.032914187759160995,0.07109800726175308,-0.028578246012330055,-0.06428629904985428,-0.01848331280052662,0.07860537618398666,-0.016408972442150116,0.046444181352853775,0.039410125464200974,0.057368259876966476,0.07884624600410461,0.0338178314268589,0.041132595390081406,-0.03183778002858162,-0.04529606178402901,-0.05462413281202316,0.06070249527692795,-0.02253497578203678,0.013329184614121914,-0.018110452219843864,0.013704492710530758,0.06534972041845322,-0.05165078118443489,-0.01022778358310461,0.037004560232162476,-0.07555098831653595,0.03815975785255432,-0.06111403554677963,-0.008670403622090816,-0.016353683546185493,0.023473849520087242,0.057328592985868454,-0.01422208920121193,0.05928833410143852,-0.05783289298415184,-0.05009552836418152,-0.01970876194536686,0.01329001784324646,0.049188654869794846,-0.04452698677778244,0.06816621124744415,0.07091141492128372,-0.07009465992450714,0.04234982281923294,0.01122818049043417,0.0475105457007885,0.006060153711587191,-0.06262298673391342,0.06663728505373001,-0.010200539603829384,0.017944440245628357,0.07035650312900543,-0.0025908215902745724,-0.019608475267887115,-0.07421672344207764,0.005012018606066704,-0.040063902735710144,-0.0485592782497406,-0.02196951024234295,0.0033153772819787264,-0.0018750709714367986,-0.004341429099440575,-0.04064837098121643,0.05872037634253502,-0.01624578982591629,0.04780598357319832,-0.07423985004425049,-0.02690916322171688,-0.039023056626319885,-0.016567206010222435,0.07862581312656403,-0.02783549204468727,0.0053857979364693165,0.0653257817029953,0.07493679225444794,-0.01289170328527689,0.0013452639104798436,0.06977497041225433,0.0597141794860363,-0.0463980957865715,-0.03981234133243561,0.018398553133010864,0.04876142740249634,-0.06848590821027756,-0.007430557627230883,-0.01618863269686699,-0.04794704169034958,-0.04411185905337334,0.08931825309991837,0.004401059355586767,-0.06689360737800598,0.024857133626937866,0.007346784695982933,0.04736349359154701,0.038547810167074203,-0.06836088746786118,-0.003468831069767475,0.04805394634604454,0.005599754396826029,0.031138749793171883,-0.0321231447160244,0.0671592503786087,-0.014142735861241817,0.0011214212281629443,0.0011700061149895191,0.03136087954044342,-0.06742099672555923,-0.029154028743505478,-0.06939069926738739,-0.007017605472356081,0.05648167431354523,0.037906888872385025,0.01163058914244175,0.024169377982616425,-0.04969385638833046,0.07093866169452667,0.05481278896331787,-0.006678975187242031,0.058217618614435196,0.007495717145502567,-0.053188830614089966,0.03253656253218651,0.06428515166044235,-0.047108910977840424,-0.0499999076128006,0.03499035909771919,0.07133986055850983,0.04637213051319122,-0.09206579625606537,0.03619018942117691,-0.0712672621011734,-0.06929782778024673,-0.022809145972132683,-0.006667994894087315,-0.002345304237678647,0.07691753655672073,-0.05964697524905205,-0.02255168929696083,0.03221549838781357,0.02490001730620861,0.009572695940732956,0.032333843410015106,0.07180355489253998,-0.02280556410551071,-0.008441652171313763,0.02627423219382763,0.0331246554851532,-0.0727333202958107,0.0052036745473742485,0.05521325394511223,-0.05352487415075302,-0.043140098452568054,0.007042350713163614,-0.0307619608938694,-0.007362205069512129,-0.028679467737674713,0.032070696353912354,-0.03086934983730316,-0.054311417043209076,0.04794501140713692,0.04143252968788147,0.05139869078993797,0.049140192568302155,-0.017298178747296333,-0.054364558309316635,-0.020509887486696243,0.054146938025951385,0.005064165219664574,-0.035680849105119705,-0.03340313211083412,-0.052378252148628235,-0.062098532915115356,-0.07193127274513245,-0.06663761287927628,-0.03602735325694084,-0.047225892543792725,-0.030194204300642014,-0.06520126014947891,0.04962684214115143,-0.027440145611763,0.014913099817931652,-0.04387886822223663,-0.0163961723446846,0.024396736174821854,-0.08566278219223022,0.07922875881195068,-0.011352135799825191,-0.05597725510597229,-0.06823523342609406,0.04924141988158226,0.01992972008883953,-0.040697820484638214,0.07771316170692444,-0.016021516174077988,-0.062221087515354156,0.05870393291115761,-0.012795631773769855,-0.009540175087749958,0.04611772671341896,0.043128255754709244,-0.01806933805346489,-0.04957536607980728,-0.003417585277929902,0.02724909596145153,-0.06969678401947021,0.06427416950464249,0.07383622974157333,-0.02224951609969139,-0.039266493171453476,0.05404122173786163,-0.03372225910425186,0.00737540889531374,-0.0728587657213211,-0.0507216714322567,-0.00744169857352972,0.08090952783823013,-0.08014365285634995,-0.0680757611989975,0.0065545025281608105,0.08177851140499115,-0.051613252609968185,0.0029257144778966904,-0.01698354445397854,-0.059191178530454636,-0.05543094128370285,-0.024553470313549042,-0.01869077980518341,-0.07293949276208878,0.03194814920425415,0.002856688341125846,0.022158348932862282,-0.016342099756002426,0.08015406131744385,-0.010695266537368298,-0.0827728733420372,-0.022744474932551384,0.06783560663461685,-0.03361113369464874,0.005282236263155937,0.0014571514911949635,0.029258687049150467,-0.055412765592336655,0.06396543979644775,0.011111127212643623,0.013827410526573658,-0.024225665256381035,-0.04748695716261864,0.07592438906431198,-0.060103077441453934,-0.02686789259314537,-0.057742923498153687,0.02207290753722191,0.02809268981218338,0.002131613902747631,-0.06996302306652069,0.03958811238408089,0.041645728051662445,-0.031465623527765274,0.008080560714006424,0.004661162383854389,0.00042274215957149863,0.0015744126867502928,0.057538628578186035,0.011059610173106194,-0.02260776236653328,-0.004932457115501165,-0.07207243889570236,-0.04817087575793266,0.04317420721054077,-0.06327393651008606,-0.04411109536886215,-0.031096618622541428,0.08373240381479263,0.03467920050024986,0.045105136930942535,0.03656100481748581,-0.008597070351243019,0.06808803230524063,-0.011808780953288078,0.07350871711969376,-0.014770329929888248,0.026155289262533188,-0.01741996593773365,0.008118867874145508,0.040287867188453674,-0.050477974116802216,0.06687669456005096,-0.0663909912109375,0.07640808075666428,-0.04290339723229408,0.07738303393125534,-0.0029128456953912973,-0.0716647207736969,0.005243431311100721,0.010489936918020248,-0.002024327637627721,-0.018326623365283012,-0.0600799135863781,0.04686080291867256,0.006716589909046888,0.01905568689107895,0.06207883358001709,-0.007967770099639893,0.006414755713194609,-0.048588693141937256,-0.04373197257518768,0.07131627947092056,-0.04507506638765335,0.08179861307144165,-0.027948841452598572,0.04464169964194298,-0.002110702684149146,0.02737267129123211,-0.013998706825077534,0.06933276355266571,-0.04096432402729988,0.03526457026600838,0.05682286247611046,0.049976155161857605,0.004837790969759226,0.04406777024269104,-0.015518959611654282,-0.012108736671507359,-0.06299315392971039,-0.04783803969621658,-0.09269936382770538,-0.012783845886588097,-0.010353128425776958,-0.0033352768514305353,0.030098116025328636,-0.04680369049310684,-0.08348102867603302,-0.07575162500143051,0.055035922676324844,-0.06596018373966217,-0.013778841122984886,-0.06853905320167542,-0.0585278645157814,0.01507564727216959,-0.04279589653015137,0.004203639924526215,0.00132999278139323,-0.015628410503268242,0.04663553088903427,0.03325754404067993,0.044291023164987564,-0.061229728162288666,-0.06050412356853485,0.013649233616888523,0.07490125298500061,0.012127137742936611,0.05302954465150833,0.0297712292522192,0.04228692501783371,0.06892875581979752,-0.07580924779176712,-0.06613730639219284,0.04476286098361015,-0.020328912883996964,0.06321500986814499,0.04661940783262253,0.009046108461916447,0.02014787122607231,-0.07320988923311234,0.0743824690580368,0.039026111364364624,-0.08350633084774017,0.005320621654391289,0.04814423248171806,-0.02110126055777073,0.0557992197573185,-0.08600448817014694,0.028337568044662476,0.03239035978913307,-0.017428433522582054,-0.06098359450697899,-0.08081050217151642,-0.07119189202785492,-0.04172232002019882,0.030973726883530617,0.008384224027395248,-0.008443516679108143,-0.02060753107070923,0.08491965383291245,-0.047953784465789795,0.07694832980632782,0.011895539239048958,-0.05877884104847908,-0.06742458045482635,0.04535530135035515,0.046073365956544876,0.06476899981498718,-0.06870776414871216,-0.06306956708431244,0.015882663428783417,-0.028687680140137672,-0.03295324370265007,-0.049650125205516815,-0.015538322739303112,0.03369300439953804,-0.029246198013424873,-0.003553537419065833,0.08015700429677963,0.002831798978149891,-0.07309143245220184,0.07238641381263733,0.058001454919576645,0.04359607771039009,-0.07673440873622894,0.05141906812787056,0.03139249607920647,0.008921162225306034,0.08914508670568466,0.02482006885111332,-0.03542163968086243,-0.03939324617385864,-0.028309838846325874,0.08168699592351913,-0.0824628546833992,-0.022178659215569496,0.02639034204185009,0.04193199798464775,-0.017170211300253868,-0.049489084631204605,0.07961337268352509,0.07407806813716888,-0.042898863554000854,-0.06062968820333481,-0.00195196527056396,-0.06562761962413788,0.07920389622449875,0.005143938586115837,-0.052976902574300766,-0.007800004910677671,0.05271557718515396,0.055150628089904785,0.04075070843100548,0.0710061565041542,0.036351799964904785,0.059888336807489395,-0.05696035549044609,-0.01868036948144436,0.072345070540905,-0.02103300392627716,0.01220700517296791,0.0008111848146654665,0.04788656905293465,-0.0067341746762394905,-0.007301871199160814,0.024910803884267807,0.06552663445472717,0.07527929544448853,-0.05564265325665474,-0.014948586001992226,-0.03951697051525116,-0.07105697691440582,0.05854472890496254,0.018904810771346092,0.08384610712528229,0.043224211782217026,0.04621618613600731,-0.06236758828163147,-0.055898599326610565,0.08315499126911163,-0.05901308357715607,-0.051746055483818054,0.005400290712714195,0.07685284316539764,-0.016374928876757622,0.028012437745928764,-0.0680258646607399,-0.012331645004451275,-0.027240503579378128,-0.07023334503173828,-0.06905502825975418,0.03177687153220177,0.043154485523700714,-0.034667421132326126,-0.02352832444012165,-0.030225899070501328,0.03573967143893242,0.07116923481225967,0.04461788758635521,-0.04896395280957222,0.045203253626823425,0.047864098101854324,-0.023098569363355637,-0.0008340294589288533,-0.059157341718673706,0.00021589233074337244,-0.05361609160900116,-0.014546834863722324,-0.04729703068733215,0.013480915687978268,-0.011135865934193134,0.044467419385910034,-0.04431364685297012,-0.03932971507310867,-0.044153034687042236,-0.07122433930635452,-0.05584682896733284,-0.048548683524131775,-0.024038443341851234,-0.0017915198113769293,-0.044277388602495193,0.05622997507452965,0.07338634878396988,0.08020766824483871,-0.04606498032808304,-0.05619417130947113,0.07332093268632889,0.041717175394296646,-0.04518561437726021,-0.05368117243051529,0.04708242788910866,0.06079084426164627,0.0020428597927093506,0.061873894184827805,-0.020317504182457924,-0.027703043073415756,-0.06694773584604263,0.0900401771068573,-0.06407078355550766,-0.015577765181660652,0.0761924460530281,0.07672092318534851,0.042471230030059814,0.07813408970832825,0.03544803336262703,-0.08507160097360611,-0.007050912827253342,-0.08771111816167831,0.05788525566458702,-0.03290046006441116,0.06690162420272827,-0.04876784235239029,-0.05441155284643173,0.06986519694328308,0.045402880758047104,-0.055361974984407425,-0.015562986955046654,-0.061118144541978836,-0.04817671328783035,0.08044184744358063,-0.07305128872394562,0.033841412514448166,-0.07201195508241653,-0.07174532115459442,-0.008458130992949009,0.07850945740938187,-0.07168817520141602,0.06987098604440689,0.08376812189817429,-0.05499272793531418,0.018506400287151337,0.039247266948223114,0.047194913029670715,-0.07557601481676102,-0.05684586986899376,-0.04965062066912651,0.054160844534635544,0.035455066710710526,-0.07524484395980835,-0.07632759213447571,-0.05726945027709007,0.008747406303882599,0.013222876004874706,0.006868742872029543,-0.0652208924293518,-0.06762656569480896,-0.062396056950092316,-0.030590426176786423,0.057965755462646484,-0.06404908001422882,0.022212719544768333,0.036772970110177994,0.03302285820245743,0.006267128046602011,-0.025356469675898552,-0.03370349481701851,-0.05045739561319351,-0.03545069321990013,0.0016348189674317837,0.08090046793222427,-0.0007300445577129722,-0.06607306748628616,-0.006121168844401836,-0.07064612209796906,-0.0043381741270422935,0.06777387112379074,0.022156722843647003,0.06529448181390762,-0.019045468419790268,-0.01562858372926712,0.05778348818421364,0.07148496061563492,0.031829677522182465,0.016294043511152267,-0.036900632083415985,-0.045851077884435654,-0.049474187195301056,-0.056286875158548355,-0.041754357516765594,-0.033131055533885956,0.022543588653206825,-0.06290803849697113,0.03193119168281555,0.046565260738134384,-0.018993645906448364,0.06209395453333855,-0.07114055752754211,0.06824278831481934,0.007590136490762234,0.07736845314502716,0.037032466381788254,0.081217460334301,0.07111763209104538,0.051438670605421066,-0.017684753984212875,0.08338186889886856,0.04539558291435242,-0.03995079919695854,0.07550048828125,0.02007395215332508,0.0016427545342594385,-0.012267940677702427,-0.027117082849144936,-0.07507015019655228,0.030812900513410568,-0.0259937085211277,-0.04909154027700424,0.009139086119830608,-0.07303427159786224,0.014050686731934547,-0.032208025455474854,0.07545655965805054,0.06008847430348396,-0.008146396838128567,0.062160879373550415,0.05590711906552315,-0.009081915020942688,-0.004908229224383831,-0.06702975928783417,0.043509263545274734,-0.06517494469881058,-0.0496351420879364,0.07700227946043015,-0.026352493092417717,-0.07388938963413239,0.06640087813138962,-0.0550287701189518,-0.07653062045574188,0.04592924192547798,0.027193471789360046,0.00872761569917202,-0.0701906755566597,-0.016729524359107018,0.03493292257189751,-0.04249514639377594,0.05865408480167389,-0.003195354947820306,-0.040733590722084045,-0.005145970266312361,0.061404723674058914,0.06502307951450348,-0.043896451592445374,0.05402488261461258,-0.024053407832980156,0.06874068826436996,0.05108145996928215,-0.04740327224135399,0.05673537775874138,-0.05844177305698395,-0.008531453087925911,-0.042428310960531235,0.06670702248811722,-0.014634334482252598,-0.040791649371385574,0.08473584055900574,-0.01078894641250372,-0.04120213910937309,-0.025804804638028145,0.0024157012812793255,-0.05427159368991852,-0.017832860350608826,-0.03366178274154663,0.03175705298781395,0.06951949745416641,-0.08466026932001114,-0.010713241994380951,0.07279938459396362,0.050540704280138016,0.06467185169458389,0.012980159372091293,-0.07046952098608017,0.06648898124694824,-0.04582126438617706,0.08152294903993607,-0.02033207379281521,-0.010024961084127426,-0.0026358936447650194,-0.03962447866797447,0.07837074249982834,0.026457395404577255,0.050437081605196,0.08114916831254959,-0.0722290575504303,-0.0017123986035585403,-0.018049709498882294,0.03160671144723892,-0.06781415641307831,0.02426263876259327,0.0636754035949707,0.06408313661813736,-0.04916979372501373,-0.0053733340464532375,-0.013760965317487717,-0.07388683408498764,-0.07271803915500641,-0.0651480108499527,-0.00936430785804987,0.06990353763103485,0.023707237094640732,-0.023494582623243332,-0.0033466906752437353,0.03560610115528107,0.03885459527373314,-0.017587775364518166,-0.07169177383184433,0.07839787751436234,0.028482623398303986,-0.0260783564299345,0.05839833244681358,0.012605716474354267,0.06862426549196243,-0.043876320123672485,0.05267821252346039,-0.030793555080890656,0.08013948053121567,0.0633821189403534,0.04529847577214241,0.07732667773962021,0.06704343855381012,0.07498075067996979,-0.07351598888635635,-0.03466353565454483,0.051903266459703445,-0.006873480509966612,-0.03622784465551376,-0.0717194676399231,0.00390929589048028,-0.035593051463365555,-0.06307478994131088,-0.006114593241363764,0.013131885789334774,0.06506513804197311,-0.0773981511592865,-0.015751877799630165,-0.06177619472146034,0.06746115535497665,-0.005408933851867914,0.033236049115657806,0.017643077298998833,-0.03414265066385269,0.061887431889772415,0.04023896902799606,-0.08265022188425064,0.043912000954151154,0.02347705326974392,-0.0074540600180625916,-0.05336204171180725,0.012799203395843506,0.07185555249452591,-0.04439524933695793,-0.02102051116526127,-0.02410813793540001,-0.05621683970093727,0.03993261605501175,0.008507060818374157,-0.015013249590992928,-0.038011983036994934,0.03456321358680725,0.01020175963640213,-0.02532358467578888,0.05548877269029617,-0.018855731934309006,0.02876855991780758,-0.0054864236153662205,0.04859571531414986,-0.036890674382448196,0.055611830204725266,-0.04262945055961609,0.0017556868260726333,0.07559427618980408,-0.06625587493181229,0.028570661321282387,-0.06816374510526657,-0.0022094203159213066,-0.05601101368665695,0.030350053682923317,0.060219716280698776,0.03122369945049286,0.06412409991025925,-0.04534653574228287,-0.03483056277036667,-0.07601254433393478,0.09486809372901917,-0.009197107516229153,-0.02383691631257534,0.0011844696709886193,-0.03641475364565849,-0.0727154016494751,-0.07374406605958939,-0.0716749057173729,-0.05393381416797638,0.03433968499302864,-0.03988721966743469,0.045162755995988846,0.023220766335725784,0.000611087481956929,-0.06132107228040695,-0.024406608194112778,0.07425236701965332,-0.028256453573703766,0.0017199227586388588,0.007584065198898315,0.08274129778146744,-0.014568458311259747,0.05323468893766403,-0.08693545311689377,-0.0023874249309301376,-0.005549158900976181,0.00026715011335909367,0.02488142065703869,0.002780629089102149,0.019045840948820114,-0.01396870706230402,0.06317088752985,-0.048205744475126266,-0.04155295342206955,-0.034391824156045914,-0.07624226808547974,-0.024180486798286438,0.06860049068927765,-0.022903790697455406,0.05794131010770798,0.06711749732494354,0.04838484153151512,0.00015479708963539451,0.021038101986050606,-0.031798068434000015,0.06696055084466934,0.04790319874882698,0.07520130276679993,-0.0269827488809824,-0.017986245453357697,-0.06490790098905563,-0.01340051181614399,-0.07647254317998886,0.08103478699922562,-0.0060438658110797405,-0.02490418776869774,-0.07743293792009354,-0.06572467088699341,-0.01284282561391592,0.058540988713502884,-0.05698108300566673,-0.0646238923072815,0.026009734719991684,0.037938252091407776,-0.031402938067913055,0.0370311364531517,-0.06594127416610718,0.03581754490733147,0.06545434147119522,0.0023562719579786062,0.03824464976787567,0.010936099104583263,0.07216154783964157,0.017040938138961792,-0.06009327247738838,0.0726819559931755,-0.055289920419454575,-0.02138482592999935,0.022402092814445496,-0.06435487419366837,0.08057600259780884,0.0721612423658371,0.00501123396679759,-0.04895424097776413,0.07021966576576233,0.06584089249372482,-0.08619250357151031,0.012855223380029202,-0.02653024159371853,-0.07374899834394455,0.011941337026655674,0.050391532480716705,-0.042177990078926086,-0.059333838522434235,0.01486738957464695,0.015916015952825546,1.4166862456477247e-05,0.050825994461774826,-0.07846929132938385,-0.015442002564668655,-0.06938879936933517,-0.02683958038687706,0.07926996797323227,0.07207241654396057,0.010705174878239632,-0.06938628852367401,-0.0012097505386918783,-0.06705857813358307,0.04551708698272705,0.07153894007205963,-0.06381817162036896,-0.009589968249201775,0.0546480230987072,-0.006450175773352385,-0.05977310612797737,0.03709818795323372,0.08127366751432419,-0.02969871647655964,0.05200578272342682,-0.012512474320828915,0.002424084348604083,-0.044287487864494324,-0.05569562315940857,0.014160454273223877,-0.023040125146508217,-0.038104742765426636,0.0367090106010437,-0.06620906293392181,-0.05933728441596031,0.02836158499121666,-0.074183389544487,-0.03683600202202797,-0.06221143528819084,0.07192184031009674,0.023155124858021736,0.047327205538749695,0.0006608901312574744,-0.08531445264816284,-0.04135202616453171,-0.05721745640039444,-0.04029955714941025,0.054358627647161484,-0.0032646155450493097,0.04580621421337128,-0.07797355204820633,0.04837403446435928,-0.04602959379553795,0.011423508636653423,0.04381981119513512,-0.03486844524741173,-0.045143838971853256,-0.07894308120012283,0.06998290121555328,0.05912495777010918,-0.03760246932506561,-0.05174751579761505,0.024611996486783028,-0.03102279081940651,-0.054206766188144684,0.03367278352379799,-0.0484282486140728,-0.01200474239885807,0.044141460210084915,0.061283327639102936,-0.07094258815050125,0.017574703320860863,-0.048541635274887085,-0.049616485834121704,0.0443267747759819,-0.07770760357379913,0.04559329152107239,0.029085878282785416,-0.000734067871235311,0.010829069651663303,0.07450079917907715,-0.056963857263326645,-0.016663987189531326,-0.03894054517149925,-0.06720776110887527,0.025361403822898865,0.010965947061777115,0.039799369871616364,-0.07254897058010101,0.06965482980012894,-0.06366327404975891,0.002878126222640276,-0.07549905776977539,-0.08447881788015366,-0.07091359794139862,-0.036608919501304626,-0.07267748564481735,0.08927414566278458,0.040107835084199905,-0.038361407816410065,0.03456408530473709,-0.0012808336177840829,0.05940646305680275,0.061194855719804764,-0.04409627243876457,0.0320374071598053,0.04301925003528595,-0.024091359227895737,-0.07276230305433273,-0.03916267678141594,0.026115497574210167,0.017169717699289322,-0.009739745408296585,-0.03477882221341133,-0.05915544554591179,-0.04338127002120018,0.042968571186065674,-0.06364233791828156,-0.007833955809473991,0.04302811622619629,-0.06301962584257126,-0.009739244356751442,-0.03214316442608833,-0.0658252164721489,0.030596302822232246,0.06064828112721443,0.0021144216880202293,0.06836023926734924,-0.016852203756570816,0.08884470909833908,0.06280051916837692,-0.03507935628294945,0.022848961874842644,-0.06458762288093567,0.039372872561216354,0.049015115946531296,0.037817712873220444,-0.016523949801921844,-0.06664206087589264,-0.046941034495830536,0.00884079746901989,0.07717626541852951,-0.057505760341882706,-0.0003458685241639614,-0.03155728802084923,-0.0860041007399559,-0.024671850726008415,-0.0875765010714531,0.0395035482943058,-0.015667086467146873,0.058226361870765686,-0.024531738832592964,0.006521760020405054,0.025076130405068398,-0.08519937843084335,0.08914980292320251,-0.008248028345406055,-0.07239945232868195,-0.03078807331621647,-0.005454196594655514,0.015057478100061417,0.027970392256975174,-0.0007505102548748255,-0.05338231101632118,-0.03356587514281273,-0.04501619562506676,0.023284567520022392,0.036665551364421844,-0.014078967273235321,0.017588680610060692,0.029009932652115822,0.060775525867938995,0.06008061394095421,-0.047345053404569626,0.02854098752140999,-0.039934538304805756,-0.03853735327720642,0.0613970085978508,-0.01765500195324421,-0.04914679005742073,0.07798919081687927,0.07266353815793991,0.07719000428915024,0.0707305371761322,0.04341248422861099,-0.005582277663052082,-0.021345283836126328,0.0341714508831501,0.03911865875124931,0.03333679586648941,0.06528054922819138,0.07030580937862396,-0.05222385376691818,0.07690221816301346,-0.08131670206785202,0.009383156895637512,0.03651540353894234,0.049327824264764786,0.08038870990276337,-0.0019129038555547595,-0.0097630200907588,0.07782110571861267,-0.06372960656881332,-0.008797374553978443,-0.04636041074991226,0.0016532704466953874,0.034631986171007156,-0.021349506452679634,0.012722226791083813,0.03625573590397835,0.06242204084992409,0.07503339648246765,0.03161521628499031,0.06627503782510757,0.048209093511104584,0.07208029925823212,-1.1781743523897603e-05,0.004084140527993441,0.0513661727309227,-0.00842638872563839,-0.013193621300160885,0.062168046832084656,-0.008782126009464264,0.07174849510192871,-0.020712362602353096,-0.007760463748127222,-0.007844356819987297,-0.048436738550662994,0.06486518681049347,0.011984172277152538,0.057563938200473785,0.06521575152873993,0.058531127870082855,-0.014212898910045624,0.0482141450047493,0.011106561869382858,0.07984163612127304,-0.023775385692715645,0.0929623693227768,0.08428625017404556,-0.06918525695800781,-0.06093994900584221,0.015296896919608116,-0.07309684157371521,-0.007287627551704645,-0.053547512739896774,-0.020708894357085228,-0.01658114790916443,0.044843073934316635,-0.06366840749979019,0.04654015600681305,-0.08110550791025162,0.027228601276874542,0.05772487446665764,-0.0582573376595974,-0.025526925921440125,0.08161883801221848,0.0865628644824028,0.04780535772442818,-0.018297413364052773,0.04306243732571602,-0.03403923287987709,0.06135004386305809,-0.009943758137524128,0.03499634936451912,0.022780129685997963,0.08177430927753448,-0.09122657775878906,-0.07022777944803238,0.04230966418981552,0.005500454921275377,0.03393068164587021,-0.06757619976997375,-0.026963811367750168,-0.04621005803346634,-0.07024500519037247,-0.053233467042446136,0.042130086570978165,-0.010837672278285027,-0.011347210966050625,0.009208370000123978,-0.047447703778743744,-0.0013249260373413563,0.06140850856900215,0.07001310586929321,0.025534821674227715,-0.06716407835483551,-0.040361784398555756,0.010036659426987171,-0.006147102452814579,-0.04587137699127197,0.03450580686330795,-0.05224192142486572,-0.05507504940032959,0.004457348491996527,-0.0716041624546051,0.017607128247618675,-0.06559421122074127,-0.005342749413102865,0.04831845685839653,-0.018444698303937912,-0.08320081233978271,-0.06577697396278381,0.010978364385664463,0.013380705378949642,-0.04196859151124954,0.032487813383340836,0.023117542266845703,0.07819633185863495,0.00346750533208251,-0.032335150986909866,-0.07736427336931229,-0.018161877989768982,-0.010450008325278759,0.0010386862559244037,-0.03206491470336914,0.03431636467576027,-0.023130254819989204,-0.03841564059257507,0.06847219169139862,-0.052115075290203094,-0.057332444936037064,0.021277369931340218,-0.06480471044778824,0.02727731317281723,-0.0758041962981224,0.017582936212420464,0.012564828619360924,-0.021693754941225052,0.04011368006467819,0.058117352426052094,0.05722006782889366,0.06088444963097572,0.03079313412308693,-0.0014572712825611234,0.06766515970230103,-0.03662286698818207,0.03200819343328476,-0.02580318972468376,-0.07119697332382202,-0.061618901789188385,-0.025614559650421143,-0.005238001700490713,-0.08458323776721954,-0.022589202970266342,-0.01811305247247219,0.013247953727841377,0.07985959947109222,-0.041448917239904404,0.052498430013656616,0.007849346846342087,-0.029855048283934593,-0.0694853812456131,0.04889125004410744,0.02664194256067276,-0.006476466078311205,-0.013935042545199394,0.024869970977306366,0.005825039930641651,0.02614622376859188,-0.06939703226089478,-0.037965934723615646,0.013736633583903313,0.02851487509906292,0.07195571810007095,0.05337117612361908,-0.05648694559931755,0.06537360697984695,-0.08692771196365356,-0.04390901327133179,-0.05314164236187935,0.020908312872052193,0.02599201165139675,-0.06947138905525208,-0.06930066645145416,-0.02623848058283329,-0.06564415246248245,0.03055812418460846,0.043077483773231506,0.06467480212450027,0.05719023942947388,0.03341791406273842,-0.0694226622581482,-0.005385729018598795,-0.07594694942235947,-0.00488067464902997,0.05258727818727493,0.042930737137794495,-0.03738217428326607,-0.005306868348270655,0.06392935663461685,-0.06052696332335472,-0.06999778747558594,-0.04071235656738281,-0.025518270209431648,0.0008429759182035923,-0.010357082821428776,-0.03399883583188057,-0.061229169368743896,-0.052175574004650116,-0.05311005935072899,-0.08433490991592407,-0.04071300849318504,-0.06931093335151672,0.054912108927965164,-0.01416524313390255,0.06239822879433632,-0.055675942450761795,0.036507342010736465,0.01514274813234806,-0.04784644767642021,0.02017359435558319,-0.07038074731826782,-0.028182698413729668,0.007629953790456057,-0.045588139444589615,-0.04916806519031525,0.023493919521570206,-0.02242322824895382,-0.03985781967639923,-0.034937042742967606,0.05744646117091179,0.054659757763147354,-0.012282293289899826,-0.07021486014127731,0.047368209809064865,0.08515306562185287,0.07415985316038132,0.014848170801997185,0.015794239938259125,0.07412170618772507,-0.05403037741780281,0.0031407137867063284,0.026240939274430275,0.06503359228372574,0.011721876449882984,0.059421099722385406,0.0050656478852033615,-0.02999121882021427,-0.039216816425323486,-0.03944297879934311,-0.034737374633550644,-0.03552670776844025,-0.05244503542780876,0.04610701650381088,0.033865269273519516,0.058597344905138016,0.05509280785918236,0.029183274134993553,0.0441475473344326,-0.05434180796146393,-0.0214520376175642,-0.0017849699361249804,0.0139219481498003,-0.05644097924232483,-0.05003496631979942,-0.035757433623075485,0.06975584477186203,0.01588643342256546,-0.012853529304265976,-0.009350945241749287,0.06550658494234085,-0.05615285784006119,-0.0254722461104393,0.055448323488235474,0.06360600888729095,-0.043115343898534775,0.06981967389583588,0.007806593552231789,-0.04107338935136795,-0.0499391034245491,-0.02914585918188095,0.06635773181915283,0.09072964638471603,-0.028826458379626274,-0.024537935853004456,0.011737613007426262,-0.01755102351307869,0.017798736691474915,-0.06081567332148552,0.06691291183233261,0.05612415820360184,-0.04259546473622322,-0.06872724741697311,0.012304192408919334,0.08225715905427933,-0.005024464335292578,0.022459249943494797,0.05260952562093735,-0.05495272949337959,-0.06320951879024506,0.06196843832731247,0.05549247935414314,-0.07091004401445389,0.004534019622951746,0.02127261459827423,0.040007397532463074,-0.07068997621536255,0.0686827301979065,-0.05416388437151909,0.026647234335541725,-0.022489549592137337,0.07084909081459045,-0.07534610480070114,-0.044718075543642044,0.049979373812675476,-0.007789107505232096,-0.0306322630494833,0.017205674201250076,0.030126478523015976,-0.05268882215023041,0.03084099106490612,0.02348506823182106,-0.03624050319194794,-0.047466859221458435,0.026612719520926476,0.08693621307611465,0.07052726298570633,0.08359716087579727,0.06395343691110611,0.08115687221288681,-0.03139255940914154,0.04082082211971283,-0.05960424989461899,0.02733638323843479,-0.02011314034461975,-0.035130832344293594,0.04406297951936722,-0.058722127228975296,0.06251604855060577,-0.05976947396993637,-0.04657520353794098,-0.08364046365022659,0.017612965777516365,0.02409985661506653,0.07444341480731964,0.06430891156196594,0.0385594516992569,0.05277857556939125,0.07374659180641174,0.02535715512931347,-0.05595846474170685,0.08134884387254715,0.03529071807861328,-0.04600292071700096,0.027981199324131012,0.08719996362924576,-0.07384685426950455,-0.016400372609496117,0.005883105099201202,-0.08697324246168137,0.03300287947058678,-0.021504271775484085,0.029704416170716286,0.0010457574389874935,0.05834149569272995,0.020295225083827972,-0.08562608808279037,-0.07699495553970337,-0.0500011146068573,-0.06665442883968353,0.03047371841967106,0.007881403900682926,0.01936667412519455,0.07733560353517532,-0.08134105056524277,0.07402673363685608,-0.059082552790641785,-0.05483003705739975,-0.028371203690767288,0.060200806707143784,0.08935482054948807,-0.026900431141257286,0.04720711708068848,0.03228761628270149,-0.02796730399131775,0.06084388494491577,0.014460154809057713,-0.021274739876389503,-0.02034953609108925,0.0434635765850544,0.04207465425133705,-0.0725729763507843,-0.04314057528972626,-0.03208409249782562,-0.0259112399071455,0.014710744842886925,0.00442460598424077,0.04446950927376747,0.0038163538556545973,0.06765163689851761,-0.04282473400235176,-0.026719490066170692,-0.04164879769086838,-0.038710981607437134,-0.014982673339545727,-0.038499463349580765,-0.0590839758515358,-0.04918776452541351,-0.055988289415836334,-0.002485934179276228,0.054870739579200745,-0.07634646445512772,-0.050102926790714264,-0.044513192027807236,-0.011145882308483124,0.05430566519498825,0.0776086077094078,-0.07818524539470673,-0.006785789504647255,-0.03962418809533119,-0.0014886425342410803,0.037294626235961914,-0.03190317377448082,-0.0896945521235466,0.04732340946793556,-0.06272317469120026,-0.08313439041376114,-0.06630673259496689,-0.00421607680618763,0.02283378504216671,-0.08201026916503906,0.043228842318058014,-0.04916159808635712,0.07123672962188721,0.008168008178472519,0.0497555248439312,0.04710657522082329,0.06394893676042557,-0.06919001787900925,-0.07495392113924026,0.040559131652116776,-0.06175605580210686,0.003201205749064684,0.08359034359455109,0.019367683678865433,0.06668733805418015,0.04426364600658417,0.053006067872047424,0.08457133173942566,-0.013561722822487354,0.024818170815706253,0.0035238051787018776,-0.037923671305179596,-0.05331968516111374,-0.06602103263139725,-0.019587304443120956,0.013473249971866608,-0.04915751516819,-0.01688438281416893,-0.040183741599321365,-0.053731244057416916,0.03483833372592926,0.057887908071279526,-0.008033460937440395,-0.0696241706609726,0.02795187011361122,-0.0739038959145546,-0.08159445971250534,-0.0815807580947876,-0.07800282537937164,0.03198914974927902,0.06805532425642014,-0.020249854773283005,0.06700941175222397,0.0764956995844841,-0.006789619568735361,0.07044565677642822,0.034732259809970856,-0.04756436496973038,-0.05909581109881401,-0.0501956045627594,0.024066196754574776,-0.009884985163807869,0.00697433203458786,0.007646066602319479,0.06678857654333115,0.05038947984576225,0.02447384037077427,-0.08834197372198105,-0.03983934223651886,-0.06891732662916183,-0.043127164244651794,-0.022723084315657616,-0.007123565301299095,-0.01939592882990837,-0.056292951107025146,-0.009576087817549706,-0.0051804170943796635,-0.07449948042631149,-0.01607118546962738,-0.0027332871686667204,-0.011781376786530018,-0.07218746095895767,0.048289310187101364,-0.0573265515267849,0.00788457877933979,-0.012794317677617073,-0.04334840178489685,0.051963236182928085,0.07581570744514465,-0.006836937740445137,0.022960517555475235,-0.04120105504989624,0.057727642357349396,-0.008579237386584282,0.0034702897537499666,-0.002986964536830783,-0.0813949853181839,-0.07133379578590393,0.05997444689273834,-0.0641918033361435,-0.08049512654542923,0.0301069226115942,0.03823645040392876,0.06491832435131073,0.013057606294751167,0.017052456736564636,0.0373406745493412,-0.00753786088898778,0.02874474972486496,-0.07486897706985474,-0.014488653279840946,-0.03714672103524208,0.061336252838373184,0.050506848841905594,-0.025003911927342415,-0.00032259413274005055,0.0672018826007843,-0.07178705185651779,0.003777646692469716,0.07746078073978424,0.08563494682312012,0.03746142238378525,0.05819450318813324,-0.029942210763692856,0.03411422297358513,-0.016151979565620422,0.0023873785976320505,0.012529614381492138,0.09201730042695999,0.050260890275239944,0.06216779723763466,-0.0502765029668808,0.06953948736190796,0.01044236309826374,-0.057583071291446686,-0.04779645428061485,0.03628307208418846,-0.049817923456430435,-0.019833073019981384,-0.06900793313980103,-0.022229252383112907,0.015197099186480045,-0.03091460093855858,-0.00868012011051178,0.05003669485449791,-0.04424630105495453,0.02625233493745327,-0.006257974077016115,-0.005701437126845121,0.08558890968561172,-0.00379242398776114,0.03259046748280525,0.05470488592982292,-0.056888386607170105,0.06743228435516357,0.040152862668037415,-0.014530794695019722,0.029733221977949142,-0.06608010083436966,-0.03812260553240776,-0.06162874773144722,-0.06055459752678871,0.0585581474006176,0.03979197517037392,0.058645330369472504,0.06366270035505295,0.010521099902689457,-0.06820747256278992,-0.0019155596382915974,-0.045978937298059464,-0.01476213987916708,0.02742832526564598,-0.028432734310626984,-0.08697394281625748,0.032873813062906265,-0.035123419016599655,0.0305176991969347,0.013538043946027756,-0.009409924037754536,-0.048680249601602554,0.0280639436095953,-0.07062321901321411,-0.05526120588183403,-0.06244626268744469,0.03619927167892456,-0.04453645646572113,-0.06216353178024292,0.04096176102757454,-0.03693064674735069,-0.020948585122823715,-0.03547423705458641,-0.05588668957352638,0.020086737349629402,-0.08552681654691696,0.05215694010257721,-0.02351968362927437,-0.07630694657564163,0.03802916035056114,-0.07411032915115356,-0.0525922030210495,-0.04642030596733093,0.019571736454963684,-0.0121003407984972,0.06739523261785507,0.04347667470574379,0.06760933995246887,0.06174781918525696,0.07003403455018997,0.06751969456672668,0.04097890481352806,0.046123865991830826,0.032100461423397064,-0.04459068924188614,0.034574802964925766,0.0070304544642567635,0.0849243700504303,0.08102986961603165,0.07449779659509659,0.04353871941566467,0.008922078646719456,-0.07560250908136368,-0.05142877995967865,0.05667824298143387,0.07923051714897156,0.0777938961982727,0.053280800580978394,0.07573645561933517,0.020556675270199776,-0.028996223583817482,0.047347068786621094,-0.011342879384756088,0.04779559373855591,0.06402985751628876,-0.08333572000265121,0.037964627146720886,0.06829829514026642,-0.0493183508515358,0.02652769535779953,0.051761824637651443,-0.002950218738988042,-0.03333870694041252,0.03221368417143822,-0.02306501939892769,-0.07959872484207153,0.05855632945895195,-0.0691676214337349,0.03303778916597366,0.04627969488501549,-0.047666069120168686,0.04010826721787453,0.07133443653583527,0.05357492342591286,-0.011318310163915157,-0.001564255217090249,-0.008995885960757732,0.028421103954315186,0.0630423054099083,0.046174902468919754,0.06792423129081726,0.06321237236261368,-0.057059936225414276,-0.055256571620702744,0.03850588947534561,-0.08521007746458054,-0.016141189262270927,-0.050845347344875336,0.04367994889616966,-0.07253268361091614,-0.037411727011203766,-0.07967221736907959,-0.060771696269512177,-0.08242000639438629,-0.02809697389602661,-0.03173312172293663,-0.06625063717365265,-0.01086676400154829,0.06614526361227036,-0.038703802973032,0.04904504492878914,0.024668918922543526,0.020655235275626183,-0.05675267055630684,0.007352168671786785,-0.056780263781547546,0.05647328123450279,0.020610174164175987,0.05787549912929535,0.012980744242668152,0.056309208273887634,-0.001469370094127953,0.02421032264828682,-0.021693680435419083,0.05930367112159729,0.07416769117116928,-0.04185003414750099,0.0025541505310684443,0.09004227817058563,-0.019091950729489326,0.05707802623510361,-0.037874072790145874,0.02195313759148121,0.08110960572957993,-0.06626731902360916,0.04504818841814995,-0.021490370854735374,0.060942795127630234,-0.058927226811647415,0.0725109800696373,-0.08536726236343384,0.050272099673748016,0.02685198001563549,-0.0765337124466896,-0.019161248579621315,0.016294779255986214,-0.025109831243753433,0.03617566451430321,-0.06346932798624039,-0.02830987237393856,-0.04949682205915451,0.02802848443388939,-0.056482356041669846,-0.0167484600096941,-0.06994398683309555,-0.035066332668066025,0.07395119220018387,-0.029142078012228012,0.03949299827218056,0.030233126133680344,-0.07762564718723297,0.08263178169727325,-0.038232505321502686,-0.06003384292125702,-0.03621336445212364,0.006425679195672274,-0.05233779922127724,0.04533444717526436,0.05308215692639351,0.02253921516239643,-0.034961998462677,-0.05860688537359238,0.03302192687988281,0.011768237687647343,-0.016409149393439293,-0.015399012714624405,0.01486340444535017,0.048441145569086075,0.04068262502551079,0.05336788669228554,-0.07511558383703232,0.07533217966556549,0.08238543570041656,0.038565341383218765,0.023684965446591377,-0.04358554631471634,-0.002217369619756937,5.0856131565524265e-05,-0.0374775230884552,0.02079695276916027,-0.041247233748435974,-0.08199889212846756,0.08246149122714996,0.04127517715096474,-0.04983106628060341,-0.06213698908686638,-0.07174453884363174,0.054887767881155014,-0.08148597180843353,0.06563824415206909,0.06634027510881424,0.07733896374702454,-0.07915333658456802,0.03130841255187988,-0.06154423952102661,-0.026929426938295364,-0.0028418502770364285,-0.06117435544729233,-0.017466958612203598,-0.0041699944995343685,-0.013800256885588169,-0.02013999968767166,-0.06148748844861984,0.012072911486029625,-0.04365290328860283,-0.01724250800907612,0.07548211514949799,0.00031902213231660426,-0.05520417168736458,0.02930164523422718,0.023460296913981438,0.06661202758550644,-0.0380636602640152,0.02137364074587822,0.00916437990963459,-0.037659429013729095,-0.058478642255067825,-0.030534181743860245,-0.07196701318025589,0.041063547134399414,-0.024956023320555687,-0.05393925681710243,-0.07114394754171371,0.0033047664910554886,-0.03350275382399559,0.007734989747405052,-0.007287244312465191,-0.05513309687376022,0.0778542011976242,-0.047059230506420135,0.030322888866066933,0.04361726716160774,0.04400552809238434,0.0016935758758336306,0.0777907595038414,0.016373248770833015,-0.008614558726549149,0.06520530581474304,0.040436163544654846,0.08514957129955292,0.041370224207639694,-0.06459802389144897,-0.017274003475904465,0.035656873136758804,0.04893416911363602,2.5089262635447085e-05,-0.07708212733268738,-0.0743749588727951,0.049179743975400925,-0.05874544382095337,-0.04366938769817352,-0.020803458988666534,-0.07451220601797104,-0.03745821490883827,0.05502593517303467,-0.044022027403116226,0.059251271188259125,0.009817177429795265,0.0615055114030838,0.027121413499116898,-0.06597712635993958,0.0743677169084549,0.03866717964410782,-0.003697344334796071,0.021086227148771286,0.02929655835032463,0.028025036677718163,0.02756538800895214,-0.055984076112508774,-0.011636875569820404,-0.0034962035715579987,-0.019558900967240334,-0.07294006645679474,0.07484282553195953,-0.03266766294836998,0.055932674556970596,-0.009570530615746975,0.005144975613802671,0.07358762621879578,0.08072555065155029,-0.05309406295418739,-0.0642203763127327,0.04469286650419235,-0.0010111219016835093,-0.02247723564505577,0.057129282504320145,0.03666450455784798,0.05313112214207649,-0.009462371468544006,-0.06520838290452957,0.05287085101008415,0.0387764647603035,0.07729614526033401,-0.07123292982578278,0.0390717089176178,-0.0474855937063694,-0.056124258786439896,0.021368592977523804,-0.01060305442661047,0.07718256115913391,-0.019473006948828697,0.08628781884908676,0.031934864819049835,-0.025607222691178322,-0.0009351602639071643,0.04066278412938118,-0.06299561262130737,0.030372675508260727,0.004841075744479895,0.07017021626234055,-0.0851878747344017,-0.057225551456213,-0.07525712251663208,-0.0804794505238533,-0.010966197587549686,0.011578904464840889,0.03529466316103935,0.030106663703918457,0.06690726429224014,-0.03374316915869713,-0.055283594876527786,-0.01881171204149723,0.034584369510412216,-0.025408217683434486,-0.04262440279126167,0.06692861020565033,-0.012251426465809345,0.09295692294836044,-0.03055018186569214,0.005605050828307867,0.037375885993242264,-0.002952608512714505,0.07140634953975677,-0.02917487733066082,-0.03309768810868263,-0.0318358838558197,-0.06784659624099731,0.023835429921746254,0.006705216132104397,-0.03612520545721054,0.06967481225728989,-0.008706179447472095,-0.08099783211946487,-0.030189376324415207,0.016963768750429153,0.05622605234384537,-0.0366915762424469,-0.0556144192814827,-0.020228855311870575,0.062413059175014496,0.07216174900531769,0.06379439681768417,-0.023536840453743935,0.07546371966600418,0.02211907133460045,0.007057940121740103,0.0043807243928313255,0.06833455711603165,0.01346952747553587,-0.029742388054728508,-0.03137018531560898,-0.042001884430646896,-0.03270826116204262,-0.03365973010659218,-0.020710015669465065,0.008479537442326546,0.02115795761346817,0.07543519139289856,0.004854280035942793,-0.07404503226280212,-0.03296469897031784,0.04061564803123474,0.02892892062664032,-0.027112163603305817,-0.07107166200876236,0.0760146826505661,0.06047928333282471,-0.06235697120428085,-0.0011444285046309233,-0.056966397911310196,-0.011796209029853344,-0.04143163934350014,-0.07357584685087204,0.059399183839559555,-0.007810317445546389,0.054842788726091385,0.01266524288803339,-0.004691125359386206,-0.06495655328035355,0.008557870052754879,0.05119173601269722,0.05411490425467491,-0.0584736168384552,0.004777367226779461,-0.04898909851908684,0.008466696366667747,0.06041109934449196,-0.04460912197828293,0.07661622762680054,0.06355507671833038,-0.056582335382699966,-0.06945554912090302,0.0008240488823503256,-0.034749675542116165,-0.007897857576608658,-0.08009473979473114,-0.04574830085039139,0.021984567865729332,0.08682665973901749,0.043899841606616974,0.05527394264936447,0.047244131565093994,0.03373202309012413,-0.04054088518023491,-0.0420847088098526,-0.03323277831077576,-0.043275970965623856,-0.04218527302145958,-0.02377897873520851,0.08110649883747101,0.04438740760087967,0.09011684358119965,0.03280278667807579,0.052096012979745865,-0.005288486834615469,0.025433873757719994,-0.0045138937421143055,-0.05610419809818268,-0.004135147202759981,0.047889016568660736,0.06012219563126564,-0.05482086166739464,0.056856054812669754,0.043515581637620926,0.005054163746535778,-0.025532107800245285,0.050050102174282074,-0.023515760898590088,0.03866250813007355,0.04211319983005524,0.04254557192325592,-0.021019289270043373,-0.07678154110908508,0.005159778520464897,0.018091093748807907,0.05459609627723694,-0.004549430217593908,-0.054163042455911636,-0.04549681395292282,0.06511590629816055,0.055675216019153595,-0.0031062557827681303,0.06786491721868515,-0.051872123032808304,0.017039485275745392,0.08562397211790085,0.05770338326692581,0.06112585961818695,-0.08497094362974167,0.022564396262168884,-0.04919504001736641,-0.029555337503552437,0.006089392583817244,0.022546883672475815,-0.061567969620227814,-0.038987886160612106,0.07126584649085999,-0.04542047530412674,0.06546249240636826,0.038743022829294205,-0.0791148841381073,-0.061381127685308456,0.03601561114192009,0.020335445180535316,-0.040888361632823944,0.028730478137731552,0.06143027916550636,0.06792692095041275,0.02311105653643608,-0.00848304107785225,0.026586689054965973,0.06115981936454773,-0.0725000649690628,-0.08170982450246811,-0.015923695638775826,0.043337203562259674,0.04390900582075119,0.048180125653743744,0.05810604616999626,0.006507219281047583,-0.06107822805643082,-0.035625167191028595,-0.07168527692556381,-0.06965694576501846,-0.0180565994232893,0.06081339716911316,-0.06850539147853851,-0.06398950517177582,-0.02351940982043743,0.017118897289037704,0.010812892578542233,0.05459406599402428,0.032950956374406815,0.035227805376052856,-0.018996890634298325,0.04498175159096718,0.032590147107839584,0.026659267023205757,-0.012425139546394348,-0.06061109900474548,-0.010031698271632195,-0.009525257162749767,0.035071343183517456,-0.026500189676880836,0.04894062876701355,-0.026926588267087936,0.07943100482225418,-0.030934691429138184,0.060903504490852356,-0.022685758769512177,-0.0353483185172081,-0.07503218203783035,0.07454482465982437,-0.04393932595849037,0.020412562415003777,-0.005788837093859911,-0.007690906524658203,0.024526648223400116,0.04295026510953903,0.03539957106113434,0.041505686938762665,0.004243502393364906,0.009336977265775204,-0.004270776640623808,0.003442655084654689,0.06644227355718613,0.008196119219064713,-0.02771478146314621,-0.0635637417435646,-0.012597054243087769,0.08115844428539276,0.061081841588020325,0.021615944802761078,0.020536847412586212,-0.06445592641830444,0.004388277884572744,-0.0593503937125206,0.06988592445850372,-0.0654890239238739,-0.013862654566764832,0.00947831105440855,-0.04091023653745651,0.025484029203653336,0.010780968703329563,0.02407696284353733,-0.018776051700115204,0.06776945292949677,0.017816970124840736,-0.037098515778779984,-0.00955544039607048,0.0009167167590931058,0.0031600319780409336,0.08479662984609604,-0.050187766551971436,0.04953620210289955,0.042507465928792953,-0.0705752819776535,0.061785899102687836,0.02809794805943966,-0.08146915584802628,-0.080241858959198,0.024414658546447754,0.08013513684272766,0.034968212246894836,-0.06183411180973053,-0.04359567537903786,0.016597291454672813,-0.05818704143166542,0.08070322126150131,-0.04919314384460449,-0.03434279188513756,0.013250799849629402,-0.027138253673911095,0.032390985637903214,-0.013830616138875484,-0.06016283482313156,-0.037217576056718826,0.009557022713124752,0.02064700983464718,0.08650025725364685,-0.0043903193436563015,-0.07200556248426437,0.07667993009090424,-0.03202412649989128,0.0029284367337822914,-0.05051657184958458,-0.002846066141501069,0.025337297469377518,0.07030712068080902,-0.00041621350101195276,-0.04009273275732994,-0.05698272958397865,-0.06525824964046478,0.014119821600615978,-0.06732238829135895,0.0630759671330452,-0.06013203412294388,-0.004558461718261242,0.08073820918798447,-0.04686378315091133,0.051342155784368515,0.009767254814505577,0.0450843945145607,0.008919985964894295,-0.023313822224736214,0.0591806024312973,0.06008489429950714,0.06725446879863739,-0.032082121819257736,0.047305356711149216,0.005060931667685509,-0.01171837281435728,0.018979933112859726,-0.05954468622803688,-0.02116032876074314,-0.05569887161254883,-0.06700865924358368,0.08490020781755447,-0.046199504286050797,-0.022909073159098625,0.018050651997327805,0.08138061314821243,-0.016689429059624672,0.03321809321641922,0.061852265149354935,0.05338524281978607,0.05992543324828148,-0.025827717036008835,-0.004901607520878315,-0.06307099014520645,-0.041899070143699646,-0.06621960550546646,-0.047314953058958054,0.07089145481586456,-0.04851460084319115,-0.06638771295547485,-0.04347429797053337,-0.044518452137708664,0.0559798888862133,0.025484882295131683,0.007159723434597254,0.02013060450553894,-0.060099776834249496,0.05599278584122658,0.027674062177538872,-0.007299304474145174,0.000582318170927465,0.022813228890299797,0.07810960710048676,-0.050734132528305054,-0.05042911693453789,0.05889330804347992,-0.05173715576529503,-0.005496910773217678,-0.06681660562753677,-0.06225639581680298,0.03717425465583801,0.008556833490729332,-0.021274207159876823,-0.0013539930805563927,-0.05987733229994774,0.034385357052087784,0.05620505288243294,-0.0509483739733696,-0.0682084783911705,-0.004411379341036081,0.008057945407927036,0.05786428228020668,0.04055775701999664,0.06319869309663773,0.007008062209933996,0.07094699889421463,-0.005243479274213314,0.024091340601444244,0.007556037046015263,0.052135057747364044,0.05402427166700363,-0.030547073110938072,0.07810744643211365,-0.015753302723169327,-0.004427218344062567,0.04813347011804581,0.01142890751361847,-0.08166476339101791,-0.08288312703371048,-0.0705624520778656,0.017815129831433296,-0.031039994210004807,0.07403036952018738,0.04855259507894516,0.010586300864815712,-0.03360455483198166,-0.012542231939733028,-0.054048310965299606,-0.0520397312939167,-0.021178459748625755,0.022328346967697144,-0.05126291885972023,0.05369966849684715,0.03316105529665947,0.005112593062222004,-0.006794808432459831,-0.07991383224725723,0.0643901526927948,0.005770110059529543,-0.06341196596622467,-0.06216828152537346,0.07584723085165024,-0.06821766495704651,-0.058845050632953644,-0.05728614702820778,-0.0428231917321682,-0.0526869036257267,-0.00741976872086525,0.08090750873088837,0.022880248725414276,-0.021311504766345024,-0.034863315522670746,0.009897974319756031,0.08460886031389236,0.0435396246612072,-0.06271100044250488,0.07369883358478546,-0.004963122308254242,0.025242049247026443,0.054052360355854034,0.015923578292131424,0.015779178589582443,-0.06970822811126709,-0.047725532203912735,-0.0789036750793457,-0.001525022671557963,0.029567120596766472,0.010907758958637714,-0.03106662631034851,-0.020640697330236435,0.01371134351938963,0.00896491203457117,0.07042529433965683,-0.047172609716653824,0.039867550134658813,-0.03615400940179825,0.07791530340909958,0.008411789312958717,-0.07065150886774063,-0.06136659160256386,0.08435091376304626,-0.025382284075021744,0.031084585934877396,-0.018714923411607742,0.062163420021533966,0.01772543415427208,0.007940947078168392,0.078690305352211,-0.013288668356835842,0.042783018201589584,-0.056301649659872055,-0.06818277388811111,0.07978997379541397,-0.024817051365971565,0.00783598143607378,-0.04569893702864647,-0.0682753324508667,0.0496530681848526,-0.0519319623708725,0.07497403770685196,0.0702497735619545,-0.06543850898742676,0.019316431134939194,-0.0417647510766983,-0.013827087357640266,0.08470834791660309,-0.07489602267742157,0.04970048367977142,-0.05522751435637474,-0.03449217975139618,-0.040696434676647186,0.0049617839977145195,-0.010675025172531605,0.010519936680793762,0.07767019420862198,-0.059194356203079224,0.016976485028862953,-0.046653393656015396,-0.005529120098799467,0.03802952542901039,0.018821869045495987,-0.05138837918639183,-0.058749664574861526,0.03946194052696228,0.054806265980005264,-0.010113571770489216,-0.0551588200032711,-0.0026000910438597202,0.0033667688257992268,0.0690455213189125,-0.020503781735897064,0.08447308838367462,0.045361991971731186,0.07491981983184814,0.051348768174648285,0.05681377276778221,-0.028224173933267593,-0.05517558380961418,-0.08400300145149231,-0.05899801105260849,-0.0576348640024662,0.016165845096111298,0.007355884648859501,0.01761987805366516,0.0030420648399740458,-0.06611354649066925,-0.04771629720926285,0.07029923796653748,-0.03978846222162247,-0.003826805157586932,0.04937617480754852,0.054453812539577484,0.0494997575879097,-0.01774214208126068,0.044622719287872314,-0.03908063843846321,0.01405741274356842,-0.07783424854278564,0.01988493837416172,0.052142880856990814,0.04723351076245308,-0.03337332233786583,-0.011285698041319847,0.07975516468286514,-0.05468280240893364,0.0856424868106842,0.08809076249599457,0.07021031528711319,0.027008870616555214,-0.08147513121366501,0.0676908940076828,0.003487039590254426,-0.061763908714056015,0.011395138688385487,0.04932068660855293,0.06138164922595024,-0.03399122878909111,-0.0552058219909668,-0.03078223206102848,-0.059460073709487915,0.030223499983549118,0.03874951973557472,-0.004526043310761452,0.07421546429395676,0.00947203952819109,0.040404751896858215,-0.07066477835178375,-0.016725635156035423,0.003001018427312374,0.0469440259039402,-0.01680096983909607,-0.01694379560649395,0.05087878182530403,-0.01457762997597456,-0.02115953154861927,0.007396527100354433,0.017988044768571854,0.03519657999277115,-0.035841140896081924,0.03274413198232651,-0.018901949748396873,-0.05395660921931267,0.06499344855546951,0.03992588818073273,-0.046416692435741425,0.01691940613090992,0.026047641411423683,0.07582831382751465,0.07084714621305466,0.011152008548378944,-0.04646478220820427,0.05428029224276543,0.06553198397159576,0.024452466517686844,0.016685841605067253,0.018544185906648636,0.06288211047649384,0.040794722735881805,-0.04305558279156685,-0.053349483758211136,-0.05398554354906082,0.03819083049893379,-0.0561038963496685,0.06944769620895386,-0.06294585764408112,-0.028578098863363266,-0.06714556366205215,0.029983453452587128,-0.04774365946650505,-0.06799935549497604,0.031030088663101196,0.06004122644662857,0.060741011053323746,-0.0484260693192482,0.04769527167081833,0.07228901982307434,0.03491009771823883,-0.04539566487073898,0.053756874054670334,0.07505176216363907,-0.007508924230933189,-0.05771283805370331,0.0009010097128339112,0.012818668968975544,-0.048429179936647415,0.022918235510587692,0.04728127270936966,-0.026421668007969856,-0.08270110934972763,-0.02634243853390217,0.012179712764918804,0.04097726196050644,-0.0752524584531784,-0.04176769033074379,0.05439223349094391,0.03800494596362114,-0.02846481464803219,-0.04440966621041298,-0.004167961422353983,0.06697358191013336,-0.028067173436284065,-0.0342605821788311,0.05391411483287811,0.048900287598371506,0.06353271752595901,-0.032139040529727936,-0.03877433389425278,0.02581777423620224,0.04391896724700928,0.059156905859708786,-0.044607337564229965,-0.06333877891302109,0.043542101979255676,-0.022189324721693993,0.0568419024348259,-0.0601840615272522,-0.07414760440587997,-0.07071150839328766,0.04085670784115791,0.05781102553009987,0.01991591975092888,0.07820435613393784,-0.03682887926697731,0.030800621956586838,-0.007987426593899727,0.06620871275663376,-0.027332913130521774,0.03251262009143829,0.009262432344257832,-0.07509619742631912,-0.009584889747202396,0.007872451096773148,-0.01887841522693634,-0.007414268795400858,0.05675708130002022,0.07230792194604874,0.08732302486896515,0.06251348555088043,-0.05569898709654808,0.03857599198818207,-0.018745960667729378,-0.02747807465493679,-0.04839453101158142,0.052687615156173706,0.009021063335239887,0.024167973548173904,0.013152752071619034,0.05319446697831154,-0.07964024692773819,-0.053411684930324554,0.054674822837114334,0.05709030479192734,0.012804004363715649,-0.049809589982032776,0.029620468616485596,0.08275783061981201,0.06273672729730606,0.006179919466376305,0.03260507807135582,-0.06139655038714409,0.046040043234825134,-0.03942279890179634,-0.04025113210082054,0.013733668252825737,-0.05007021874189377,0.013018261641263962,-0.04957503825426102,0.05401964485645294,-0.06270361691713333,-0.007101146038621664,-0.033262670040130615,0.028529133647680283,-0.0192007664591074,-0.04102836176753044,-0.020218148827552795,0.060629088431596756,-0.0266890749335289,0.05526687577366829,-0.0032363871578127146,0.04646521061658859,0.06461940705776215,-0.02299112267792225,-0.044639211148023605,-0.07032924890518188,0.05396254360675812,0.00630840053781867,0.07208441197872162,0.07410202920436859,-0.025789625942707062,-0.07592904567718506,-0.023948146030306816,-0.08053546398878098,0.05102193355560303,-0.07124343514442444,0.03652820736169815,0.0491752102971077,-0.06550243496894836,-0.02310575544834137,0.07463895529508591,0.07024254649877548,-0.05015779286623001,0.07062062621116638,-0.08920339494943619,0.05469813197851181,-0.023610295727849007,-0.03077022172510624,-0.01847021095454693,-0.002290192525833845,0.05037052556872368,-0.05471814423799515,0.014020134694874287,0.0863947793841362,-0.04741688072681427,0.030281974002718925,-0.014146242290735245,0.040513891726732254,0.020558977499604225,-0.01992827095091343,-0.07541029155254364,0.06664128601551056,0.06618378311395645,-0.04465511813759804,0.04804489016532898,0.043936874717473984,-0.07799322158098221,-0.0509328655898571,0.04954757168889046,0.09123416990041733,-0.02856164239346981,0.07255952805280685,-0.03582565486431122,0.049168094992637634,-0.031765688210725784,0.06038133054971695,-0.01561677549034357,-0.026601454243063927,0.04035649448633194,0.07119341939687729,-0.0014434061013162136,0.0472465418279171,0.0425872877240181,0.03495357558131218,-0.031366657465696335,0.0034913078416138887,-0.07518067210912704,-0.02580212615430355,0.07173344492912292,-0.03925091028213501,0.05920368432998657,-0.05536406859755516,0.07563465088605881,0.06021016463637352,-0.07870464026927948
