-0.0019474825821816921,-0.017788592725992203,-0.014901229180395603,0.007938828319311142,-0.03466372191905975,-0.05185054615139961,-0.019330892711877823,0.008025824092328548,0.04257253184914589,-0.05525641888380051,-0.04093967005610466,0.0286589153110981,-0.0003040426236111671,-0.014399967156350613,-0.03419134020805359,-0.0025562962982803583,-0.021809514611959457,-0.012425187975168228,-0.005781068466603756,-0.013916224241256714,-0.011576134711503983,7.00404416420497e-05,0.004992715083062649,-0.04929676279425621,-0.04423994570970535,-0.012680836021900177,-0.0326760895550251,-0.020942073315382004,-0.05199092999100685,0.016866106539964676,-0.028275571763515472,0.0213468074798584,-0.035971831530332565,-0.045189570635557175,0.032929595559835434,-0.05279591679573059,0.026824520900845528,0.02825123257935047,0.007052007131278515,-0.04039556905627251,-0.050911106169223785,0.012254849076271057,0.028245899826288223,-0.035423871129751205,-0.027004094794392586,0.05021199956536293,-0.04129446670413017,-0.016352226957678795,-0.013532033190131187,-0.0061935423873364925,-0.015471331775188446,-0.016533805057406425,0.0380822978913784,-0.010013083927333355,0.04313124716281891,0.00702369399368763,0.030387772247195244,-0.0415063202381134,-0.013343262486159801,0.05867381766438484,0.02935999259352684,0.04204035550355911,-0.0004899380728602409,0.047930825501680374
