-0.002018673811107874,-0.017613129690289497,-0.014887284487485886,0.007771757896989584,-0.03452027589082718,-0.05178040266036987,-0.01926320791244507,0.007887343876063824,0.04259234666824341,-0.05532335489988327,-0.04081367328763008,0.028824355453252792,-0.00030396823422051966,-0.014288494363427162,-0.03413621336221695,-0.002364393090829253,-0.021600278094410896,-0.012395646423101425,-0.005469539202749729,-0.013736608438193798,-0.0115363085642457,2.8304270017542876e-05,0.005122324451804161,-0.049202460795640945,-0.04405226930975914,-0.01255566906183958,-0.032703738659620285,-0.020828774198889732,-0.05193442106246948,0.016956858336925507,-0.028145255520939827,0.021406034007668495,-0.03581449016928673,-0.045168060809373856,0.03298627957701683,-0.05279910936951637,0.02675081603229046,0.02815178409218788,0.007085054647177458,-0.04026845842599869,-0.05086182430386543,0.012227285653352737,0.028445979580283165,-0.035488612949848175,-0.02702206000685692,0.0502389594912529,-0.04129626974463463,-0.016302194446325302,-0.013396605849266052,-0.006044521927833557,-0.015434212982654572,-0.01699201576411724,0.038089267909526825,-0.009767401032149792,0.04320797324180603,0.006870747078210115,0.030387263745069504,-0.04143838584423065,-0.013549749739468098,0.05879223719239235,0.029705826193094254,0.042186155915260315,-0.0005442543770186603,0.04791679233312607
