-0.04484261944890022,-0.03653393313288689,0.04014655575156212,0.01847866363823414,-0.049637217074632645,-0.03790473937988281,-0.03538398817181587,0.017634347081184387,-0.049787551164627075,0.038532380014657974,0.014145930297672749,0.03182942792773247,-0.025920171290636063,-0.016088126227259636,0.047058623284101486,0.04288909211754799,-0.04862552508711815,-0.05163412541151047,-0.055559199303388596,-0.04033859074115753,-0.045121580362319946,-0.021524768322706223,0.045625414699316025,-0.007621881552040577,-0.028475310653448105,0.05449184030294418,-0.03508954495191574,0.026557214558124542,0.050596319139003754,0.031128885224461555,-0.05700279027223587,-0.0008180818986147642,0.026116233319044113,-0.002738160314038396,0.05613844096660614,-0.04859787970781326,0.027687866240739822,-0.01444943342357874,0.050609324127435684,0.05447908118367195,-0.03781557455658913,0.04641319811344147,0.05181172490119934,0.028591930866241455,0.05272828787565231,0.06016360595822334,0.04492209106683731,-0.053605303168296814,-0.025284433737397194,-0.05894595384597778,0.020920274779200554,0.056668009608983994,-0.03228374570608139,0.05119817703962326,0.03575748950242996,0.035969287157058716,0.056257475167512894,-0.03181271627545357,0.03796536475419998,-0.016843806952238083,0.045827750116586685,-0.057646188884973526,-0.016502322629094124,0.011536430567502975,-0.012206992134451866,-0.05388274043798447,0.04461250826716423,0.06056367605924606,-0.03719950467348099,0.038653239607810974,-0.03243403136730194,-0.031300634145736694,0.025614053010940552,0.03863435611128807,-0.04408929497003555,0.028526393696665764,0.027908116579055786,-0.051900967955589294,-0.009212231263518333,-0.005438691936433315,-0.035477615892887115,-0.045204974710941315,-0.003188064554706216,1.1681988326017745e-05,-0.04675291106104851,0.03978762403130531,0.03811744228005409,-0.05961822345852852,-0.054928988218307495,-0.039137449115514755,-0.018908636644482613,-0.027158576995134354,-0.04814092442393303,-0.021042978391051292,-0.008141130208969116,0.06227608770132065,-0.027224982157349586,-0.012145540677011013,0.01899915188550949,-0.028643898665905,-0.021233702078461647,0.05407711863517761,-0.0513279102742672,0.020158549770712852,-0.0025778021663427353,-0.03392145782709122,-0.05594465881586075,-0.0543232262134552,0.046386200934648514,-0.04891946539282799,-0.01582765392959118,0.02959204465150833,0.043201666325330734,0.023518268018960953,0.051677994430065155,0.020278699696063995,0.05388694256544113,-0.03864464536309242,0.00954408198595047,-0.020392287522554398,0.02053472213447094,-0.043178435415029526,-0.007471002638339996,-0.032551296055316925,0.046578455716371536,0.0291677787899971,-0.04287030175328255,-0.05609307065606117,0.01724814809858799,-0.03582831844687462,-0.0005308097461238503,-0.023961864411830902,0.053382568061351776,0.04456566646695137,-0.04071822762489319,0.024708028882741928,-0.013251563534140587,-0.04991341754794121,0.03553622215986252,-0.0350181944668293,-0.05055060237646103,0.037131328135728836,0.00332847167737782,-0.011447140946984291,-0.02991875633597374,-0.004770725965499878,0.01816560886800289,0.0133627038449049,-0.032059699296951294,0.03886427730321884,-0.031497564166784286,-0.03687067702412605,-0.0033590635284781456,0.027267372235655785,0.03595088794827461,0.036437876522541046,0.05589129403233528,0.008561360649764538,0.01728682778775692,0.04057444632053375,0.024770744144916534,0.04529054835438728,-5.919581599300727e-05,-0.010394483804702759,-0.04957136884331703,-0.05043429881334305,0.05517033115029335,-0.010416103526949883,-0.023650001734495163,0.020853150635957718,-0.003150822129100561,-0.023596083745360374,-0.050449784845113754,-0.05112866312265396,0.04872255027294159,-0.015478335320949554,-0.05019815266132355,-0.006980177480727434,0.009183738380670547,-0.014387079514563084,-0.02365686371922493,0.044022031128406525,0.010422325693070889,-0.03236492723226547,-0.011276891455054283,0.05805136635899544,-0.024560488760471344,0.03068004548549652,0.020127570256590843,-0.0497518852353096,0.05260821431875229,-0.043835002928972244,-0.05740441009402275,-0.0037484942004084587,-0.030502911657094955,0.005526765249669552,0.048431556671857834,0.05535133183002472,-0.05087168142199516,-0.02656743861734867,0.03696155920624733,-0.016488704830408096,-0.03451923653483391,-0.059728868305683136,0.0011450783349573612,-0.004104770720005035,0.04119468852877617,-0.054868705570697784,-0.011613745242357254,-0.021939214318990707,-0.05609152466058731,-0.02386281080543995,0.004050747025758028,-0.007208004593849182,-0.02190072275698185,-0.04224115610122681,0.03634357824921608,0.03233165666460991,-0.05109073594212532,-0.01726655289530754,-0.0035131722688674927,-0.015163437463343143,-0.03138761967420578,-0.005403089337050915,0.015660960227251053,-0.028004199266433716,-0.05242900550365448,-0.0028546717949211597,0.04340343922376633,0.038525570183992386,0.040917202830314636,-0.0019094905583187938,-0.03724455460906029,-0.0268098134547472,0.0561501607298851,-0.04542137682437897,-0.01629324071109295,-0.04275866970419884,0.013303989544510841,0.04769844561815262,-0.010869652964174747,0.006476951763033867,-0.05152371525764465,0.03509531542658806,-0.000598357932176441,0.03352309763431549,-0.0408063568174839,0.028228281065821648,0.05403503030538559,-0.059931229799985886,-0.04330441355705261,-9.339000098407269e-05,0.022969922050833702,0.014555695466697216,-0.05029981955885887,-0.007353622000664473,0.03410004451870918,0.04868984967470169,0.01037381961941719,-0.025939295068383217,0.014613566920161247,-0.01642538793385029,0.00508150877431035,-0.01432400569319725,-0.04834003373980522,0.05475638434290886,-0.042671144008636475,-0.03881711885333061,0.007185123395174742,0.030479028820991516,0.0462675504386425,-0.05306408181786537,-0.004630175419151783,-0.05670376121997833,0.01678399369120598,-0.008591003715991974,0.02478073164820671,0.05181527137756348,-0.010114301927387714,-0.04957699403166771,-0.027453085407614708,0.05960819870233536,-0.036107927560806274,0.06242768466472626,-0.023978937417268753,0.03172861784696579,-0.036708734929561615,0.03580695390701294,-0.017033517360687256,0.05775933712720871,0.021502377465367317,0.0103256581351161,0.030868440866470337,0.05350588262081146,0.05216104909777641,0.02150462381541729,-0.0028873090632259846,-0.01045824121683836,-0.0100048603489995,0.026624770835042,-0.05126037076115608,0.02463488094508648,0.018751541152596474,-0.013585587032139301,-0.02722354419529438,0.019528251141309738,0.02968679927289486,-0.029994327574968338,0.04515797644853592,0.001010581967420876,0.021293286234140396,0.034089840948581696,-0.03726550564169884,-0.01490243710577488,-0.03062887117266655,0.03632662072777748,-0.0322246178984642,-0.015552868135273457,0.03871317207813263,0.02916228212416172,0.05100443214178085,0.033309206366539,0.06559189409017563,0.0015468832571059465,-0.022087516263127327,0.03506813570857048,0.011646127328276634,0.037707291543483734,-0.04467801749706268,0.04393593594431877,-0.014683932065963745,-0.025534307584166527,0.0501178540289402,0.024147355929017067,0.055157069116830826,0.0004788427031598985,-0.06216254085302353,0.0018587156664580107,0.021483831107616425,0.06425384432077408,0.04270610585808754,0.055257949978113174,0.03387144207954407,0.021093660965561867,0.04570901021361351,-0.02618139050900936,-0.009255633689463139,-0.04526147246360779,-0.04045278951525688,0.05333443731069565,-0.02059779316186905,-0.01577298901975155,-0.019992144778370857,0.009794545359909534,0.03475010022521019,-0.023399420082569122,0.029231153428554535,-0.045852337032556534,0.056250087916851044,0.0378548800945282,0.059322379529476166,0.0482446625828743,0.03412676975131035,0.006417882163077593,-0.049836333841085434,-0.024725010618567467,0.06101585552096367,-0.014149846509099007,0.0056943646632134914,-0.001602702308446169,0.050848182290792465,-0.009005194529891014,-0.018572013825178146,0.00786321796476841,-0.028878429904580116,0.030587023124098778,0.06507215648889542,0.038019392639398575,0.02918768674135208,0.03391821309924126,0.05822773277759552,-0.012020188383758068,-0.017045216634869576,-0.03504224494099617,-0.024752477183938026,0.027426837012171745,0.011615132912993431,0.06085703894495964,-0.013375306501984596,0.045818716287612915,-0.03749845549464226,-0.003993658814579248,0.028095921501517296,-0.041303932666778564,0.0302172489464283,-0.04194413498044014,0.01060555875301361,-0.021792210638523102,-0.02914462238550186,-0.044417742639780045,-0.02552996575832367,-0.010530789382755756,-0.006288518663495779,0.0034545622766017914,0.05929587408900261,-0.04412432760000229,-0.012311041355133057,0.04676081985235214,0.04072427749633789,0.01205859612673521,-0.03287108615040779,0.00204838695935905,-0.021168990060687065,-0.05246652662754059,0.011369175277650356,0.014774310402572155,0.01576406881213188,0.01994512602686882,0.014820581302046776,0.02397969365119934,0.01824185624718666,0.06472568958997726,0.03765789046883583,0.041934072971343994,-0.030491657555103302,0.0527663491666317,-0.029103031381964684,-0.052765801548957825,0.05369523912668228,-0.02935713902115822,-0.009221908636391163,-0.020395644009113312,0.03210093826055527,-0.012455802410840988,0.004607370588928461,-0.026858016848564148,-0.02027820609509945,0.0531499907374382,0.0357494056224823,-0.045052122324705124,-0.01278479490429163,-0.029730910435318947,0.06325938552618027,0.034590285271406174,-0.012428896501660347,0.039141230285167694,0.04795140027999878,-0.0135657312348485,0.000896483426913619,-0.026508597657084465,4.320111474953592e-05,0.0012281819945201278,-0.055022288113832474,-0.030150506645441055,-0.009868890047073364,0.05498775839805603,-0.005741861183196306,0.05753280594944954,-0.03543468564748764,0.04242333769798279,-0.04527529329061508,0.020501254126429558,0.04662386327981949,0.05218939483165741,-0.04307464882731438,-0.025224553421139717,0.03850731998682022,-0.03290635347366333,-0.044075094163417816,0.005124136805534363,-0.025550570338964462,0.04570770263671875,-0.029850609600543976,-0.035814039409160614,0.04014034941792488,0.01796269230544567,-0.02725389413535595,-0.024658139795064926,-0.0473858118057251,-0.02814137190580368,-0.050443924963474274,-0.02781752124428749,-0.04463266208767891,0.0319313183426857,0.020883100107312202,0.037631671875715256,-0.002974623814225197,0.0018136872677132487,-0.0489465557038784,0.034857314079999924,-0.030959201976656914,-0.055349621921777725,0.054828207939863205,-0.04665419086813927,0.020667683333158493,0.0009876939002424479,0.013496928848326206,-0.04545558616518974,0.0031885895878076553,0.0034895124845206738,0.05190547928214073,0.01645462028682232,-0.05117073282599449,-0.01964348740875721,0.006834522821009159,0.061224859207868576,-0.015161147341132164,0.02885075844824314,-0.02854953706264496,-0.044448137283325195,-0.01783333718776703,-0.0348578542470932,0.008215188980102539,-0.009830798022449017,-0.025803271681070328,0.00446008425205946,0.030523641034960747,0.00719901779666543,-0.011349424719810486,-0.017934083938598633,-0.02914285473525524,0.027243616059422493,0.006729298271238804,0.005568342283368111,-0.004411753267049789,-0.035427339375019073,0.052406225353479385,-0.013673990033566952,0.03973585367202759,0.019747961312532425,-0.024663852527737617,-0.015175486914813519,0.001399502158164978,-0.030491098761558533,0.0090004438534379,0.02087220922112465,-0.03031574934720993,-0.03635542094707489,0.0512244813144207,0.04298470541834831,-0.018654637038707733,0.007265664637088776,-0.011063707061111927,0.041979093104600906,-0.015277858823537827,-0.006471886299550533,-0.021386150270700455,-0.06312282383441925,0.03216424211859703,0.022311581298708916,0.05378172546625137,0.007095235865563154,-0.014801114797592163,-0.050114262849092484,-0.05509958788752556,-0.013754238374531269,0.01743776723742485,-0.05596429109573364,0.003079339163377881,-0.00480829831212759,0.0252743661403656,0.022946452721953392,0.022549185901880264,0.05843045935034752,0.04168030992150307,-0.027065251022577286,-0.018410468474030495,0.04759935289621353,-0.012576700188219547,0.0261785127222538,0.06279771775007248,-0.03380843624472618,-0.04021896794438362,-0.039145708084106445,-0.04091035574674606,-0.04556459188461304,0.04758624732494354,0.04893575236201286,0.04810645058751106,-0.0019558060448616743,0.05743689835071564,0.03721024841070175,-0.023083936423063278,0.037899017333984375,0.011626911349594593,-0.0034476565197110176,0.04516935721039772,0.00905641634017229,-0.014545407146215439,-0.020152565091848373,0.022763671353459358,-0.06766588240861893,-0.06735501438379288,0.017915891483426094,-0.03349350392818451,-0.04048050194978714,0.003999649081379175,0.059838809072971344,-0.048424772918224335,0.0070594060234725475,0.04641376808285713,0.009894872084259987,-0.012179292738437653,-0.008446606807410717,0.003912222571671009,0.006535777356475592,0.009273664094507694,-0.031557533890008926,0.0277336984872818,0.04482007026672363,0.03209761157631874,0.05904606729745865,-0.025845909491181374,-0.013684439472854137,0.01773453876376152,-0.014817220158874989,-0.037543147802352905,-0.03507940098643303,0.020536139607429504,-0.0158758033066988,0.010909831151366234,0.047707449644804,0.01378616876900196,-0.04250454530119896,0.0216996967792511,0.014315296895802021,0.05585328862071037,-0.04925958812236786,-0.0671357735991478,0.027159005403518677,0.03450750559568405,0.018787704408168793,-0.05226937308907509,0.0005690185353159904,0.01657632365822792,0.009730582125484943,-0.04246428981423378,-0.008669324219226837,0.0010592401959002018,0.0534692108631134,0.04420323297381401,-0.01571839302778244,0.028014332056045532,0.05402384325861931,0.036833636462688446,0.022261235862970352,-0.036271125078201294,0.020976638421416283,0.03940371796488762,0.057054128497838974,0.05416761338710785,-0.005833205301314592,0.0019600267987698317,-0.0253858994692564,-0.017532678321003914,0.04629776254296303,0.030903073027729988,-0.03998994827270508,-0.021773528307676315,0.003828460583463311,-0.014009623788297176,-0.0064131165854632854,-0.0035917838104069233,-0.035207148641347885,-0.050064098089933395,0.025081073865294456,-0.046757861971855164,-0.0005525845917873085,0.005212143063545227,0.046929627656936646,0.047972481697797775,0.05680686980485916,-0.013160217553377151,-0.0037749833427369595,-0.029195979237556458,0.023770296946167946,-0.0520344078540802,-0.01777876913547516,0.04453462362289429,-0.0523221418261528,0.018818175420165062,-0.018957998603582382,-0.009652074426412582,0.0037650924641638994,-0.03469657525420189,0.04597841203212738,0.03676706552505493,0.020143555477261543,-0.01806010864675045,-0.04227275401353836,-0.048878591507673264,0.01961519941687584,0.01833922415971756,0.04311220347881317,-0.009937722235918045,0.003815009258687496,-0.024382922798395157,-0.028237296268343925,0.005990698933601379,0.05719751864671707,0.029914289712905884,0.0048036822117865086,-0.027027759701013565,-0.04074196144938469,0.03865136578679085,0.031569983810186386,-0.031952474266290665,-0.012795474380254745,-0.011676285415887833,-0.007395255379378796,-0.00043761724373325706,0.053887803107500076,-0.029354533180594444,0.004911254625767469,0.03950744867324829,-0.02209441177546978,0.048078395426273346,0.01292028184980154,0.01467984076589346,0.05940929055213928,0.003490856382995844,0.02993130311369896,0.02424749545753002,-0.042985931038856506,0.043099530041217804,-0.04809625446796417,0.01356542482972145,-0.005130814854055643,0.04243564233183861,-0.007012499496340752,0.00419953279197216,-0.02569037303328514,0.04236339405179024,-0.010060232132673264,0.01841580495238304,0.04566245153546333,0.05095256119966507,0.026907553896307945,0.028729040175676346,-0.04219891503453255,-0.030874045565724373,0.02820998802781105,-0.06257360428571701,-0.039466653019189835,0.0055260746739804745,-0.0390203520655632,-0.028378264978528023,-0.03700703755021095,0.021560192108154297,0.04313935711979866,-0.00272601330652833,-0.04707521200180054,0.05594691261649132,-0.017902441322803497,0.05441009998321533,0.04654997959733009,0.003593457629904151,0.010161000303924084,0.007887978106737137,0.01676977053284645,-0.027257872745394707,-0.022170759737491608,-0.014943357557058334,-0.009500422514975071,-0.0004021903732791543,-0.043258920311927795,0.0011382496450096369,-0.01717543601989746,-0.045514728873968124,-0.02294202707707882,0.0337856225669384,-0.0190118420869112,-0.015620424412190914,-0.05968383327126503,0.03196178004145622,-0.024760836735367775,-0.025625603273510933,-0.00020611156651284546,-0.02396073378622532,-0.05803351476788521,0.004799609538167715,0.019143233075737953,-0.026417311280965805,0.056289784610271454,-0.049139440059661865,0.04836142808198929,-0.05213247612118721,0.023993896320462227,0.04143981635570526,0.02922392264008522,0.0354914627969265,0.005041948053985834,0.027209915220737457,-0.02904239110648632,-0.0072556412778794765,-0.02175922505557537,-0.04803753271698952,-0.03135668486356735,0.01540382206439972,0.030263341963291168,-0.0013065194943919778,-0.002037953119724989,0.04265201836824417,0.04630758613348007,-0.03662554547190666,0.036735136061906815,-0.034472450613975525,-0.06750975549221039,-0.03814789652824402,-0.02998080477118492,-0.038346678018569946,0.007681285031139851,-0.041236475110054016,-0.0012629738776013255,0.0021463935263454914,-0.05482121556997299,0.031123323366045952,-0.004604646470397711,-0.044099319726228714,0.033895768225193024,-0.020536502823233604,-0.05262519046664238,-0.033183690160512924,-0.02943376824259758,-0.005665781442075968,0.01409753505140543,-0.004743226803839207,0.04517053812742233,-0.033962737768888474,0.004292904399335384,-0.05801992863416672,0.008099246770143509,-0.011392757296562195,-0.03758372366428375,-0.026143331080675125,0.04330458119511604,-0.020218586549162865,-0.04351420700550079,-0.0197248924523592,-0.030058374628424644,0.048877064138650894,0.004251803737133741,0.052093714475631714,0.019867489114403725,-0.052587103098630905,-0.050633881241083145,-0.0266275554895401,-0.04079604521393776,-0.004687528125941753,-0.010510772466659546,-0.02267237938940525,-0.009217837825417519,0.052881378680467606,-0.0353112667798996,0.06065116077661514,-0.054922107607126236,0.015542833134531975,0.028586119413375854,0.02377190999686718,-0.007946661673486233,-0.025725148618221283,-0.04524792730808258,0.035081539303064346,-0.05613300949335098,0.032783545553684235,-0.003298973897472024,0.0013183228438720107,0.058944348245859146,-0.03165777027606964,-0.007594251539558172,0.026232099160552025,-0.012148971669375896,-0.00407926132902503,-0.005717707797884941,0.02510998025536537,-0.019547153264284134,-0.006626799702644348,0.028945330530405045,-0.020104138180613518,-0.011531420983374119,-0.003305034013465047,0.034377243369817734,-0.0307785514742136,-0.025137227028608322,-0.014582262374460697,-0.03692711517214775,-0.05142154172062874,-0.05225316807627678,-0.042002592235803604,0.01939276047050953,0.03646424040198326,-0.03273281082510948,-0.013761558569967747,-0.047415055334568024,0.030947552993893623,-0.0038563006091862917,-0.048213254660367966,-0.005422378424555063,-0.06969902664422989,0.038221005350351334,0.017821285873651505,-0.0061624483205378056,0.04190097749233246,0.0043416693806648254,-0.053210701793432236,-0.028503961861133575,0.0403430350124836,-0.01867464743554592,0.03180822357535362,-0.055764611810445786,0.06057801842689514,0.04070122912526131,0.024502430111169815,0.0008077573729678988,-0.01116805337369442,-0.02054785192012787,-0.06226100027561188,0.021587301045656204,-0.0026068505831062794,0.031272679567337036,0.0420808419585228,-0.03005620278418064,-0.012477272190153599,-0.036405980587005615,0.003284190082922578,0.03414344787597656,0.000568819756153971,0.029985906556248665,-0.06307234615087509,0.021018438041210175,0.051465313881635666,0.0566236786544323,0.012503993697464466,0.03690004721283913,0.040308691561222076,0.017767108976840973,0.004524747375398874,0.022652998566627502,0.06468290090560913,0.01021495833992958,-0.03777984157204628,0.015490246005356312,0.012261421419680119,0.01664678193628788,-0.023974118754267693,0.026850586757063866,-0.01970500499010086,-0.0312441885471344,-0.06509149074554443,0.035694658756256104,-0.027177633717656136,0.0033670742996037006,-0.028824325650930405,0.009124980308115482,-0.04600287601351738,-0.022615548223257065,0.025892628356814384,0.03846874460577965,-0.0013978464994579554,0.044466033577919006,-0.04351828992366791,0.020186718553304672,0.030150704085826874,-0.03990592435002327,-0.053225815296173096,-0.05067184939980507,-0.018400756642222404,0.03784957900643349,-0.047031935304403305,0.05971267446875572,-0.02181890793144703,-0.02349422127008438,0.047583576291799545,0.00844012014567852,-0.007554860319942236,-0.016529927030205727,-0.03349306434392929,-0.030863674357533455,-0.06226522475481033,-0.011276387609541416,-0.023430192843079567,-0.022703474387526512,-0.04105635732412338,0.04739806801080704,-0.022337382659316063,0.021374911069869995,0.04229804128408432,-0.0315026119351387,-0.0015809470787644386,-0.022565612569451332,0.003805039683356881,-0.0030108969658613205,0.03778626024723053,-0.02847224846482277,0.03138735517859459,-0.027976220473647118,0.018566487357020378,-0.0036440736148506403,-0.023821085691452026,-0.009576531127095222,0.04890652373433113,-0.029956316575407982,-0.03446967899799347,0.0686270073056221,-0.0015960034215822816,-0.054505039006471634,-0.025218814611434937,-0.012867399491369724,-0.035127460956573486,0.04786941781640053,0.002232795814052224,-0.034192636609077454,-0.03129401430487633,0.05810270458459854,0.006924034096300602,-0.06168561056256294,-0.02000431902706623,0.05192741006612778,0.02783498726785183,-0.009599709883332253,-0.03154804930090904,0.011298257857561111,-0.006787316873669624,0.01513812504708767,0.03055139072239399,0.013804336078464985,-0.023447243496775627,0.0009491657838225365,-0.056067243218421936,-0.06384842097759247,0.045980047434568405,-0.026103995740413666,-0.035311948508024216,-0.06984616070985794,-0.061542995274066925,0.04477838799357414,0.054232724010944366,0.047028444707393646,0.05676930770277977,0.051820576190948486,-0.0014756324235349894,-0.041928816586732864,0.012634903192520142,-0.044767964631319046,0.02802104316651821,0.013694807887077332,0.05475912615656853,0.024782424792647362,-0.0632796511054039,0.015312808565795422,-0.01468140073120594,-0.02661193534731865,-0.007594830356538296,-0.012310461141169071,-0.057990267872810364,-0.009650662541389465,-0.009249956347048283,0.05080107972025871,0.05349899083375931,0.009112644009292126,-0.044729843735694885,0.010658016428351402,-0.01160785835236311,-0.05150516703724861,0.03414322808384895,0.04565276578068733,-0.0045134457759559155,-0.04812776669859886,0.0028903125785291195,0.05353980138897896,0.018278973177075386,-0.03279727324843407,-0.017337806522846222,0.014362255111336708,-0.03519869223237038,0.04925305023789406,-0.02602531760931015,0.012074174359440804,-0.018809616565704346,0.04453684762120247,0.014567558653652668,-0.046612635254859924,-0.02829248271882534,-0.009623030200600624,-0.044002797454595566,0.053735680878162384,0.013071192428469658,-0.02796517126262188,-0.03227190300822258,-0.011548180133104324,0.011186941526830196,0.026302024722099304,0.06485292315483093,-0.002179084112867713,0.046731460839509964,-0.0191535372287035,0.03156113252043724,-0.05671465024352074,-0.017870746552944183,0.024619286879897118,-0.016755957156419754,-0.03347928449511528,-0.02190362848341465,0.020941006019711494,0.018925316631793976,-0.00858763512223959,-0.05213304981589317,0.009712333790957928,0.017000790685415268,-0.0017677814466878772,0.06515256315469742,0.015326631255447865,0.013888532295823097,-0.007157399319112301,-0.006000763736665249,-0.0573633573949337,0.04722556471824646,0.005628335289657116,0.024006109684705734,-0.010459037497639656,-0.0425480417907238,-0.012361252680420876,-0.030933739617466927,-0.03721626475453377,-0.044799692928791046,0.024608667939901352,-0.020517434924840927,-0.043916068971157074,-0.015349400229752064,0.00042939477134495974,0.01174481213092804,-0.01849965751171112,-0.01204231008887291,-0.012948906049132347,0.011627268977463245,-0.0482560396194458,-0.020462825894355774,-0.012805916368961334,-0.01143354456871748,0.009243949316442013,0.044513627886772156,0.05057695135474205,-0.01696903072297573,-0.03927268087863922,-0.015567770227789879,-0.03407062217593193,-0.05086231231689453,-0.04834221303462982,0.03726396709680557,0.040040574967861176,-0.031571757048368454,0.04897351562976837,0.06124582514166832,0.015551954507827759,0.04587947949767113,0.006282216869294643,0.03754835203289986,0.019835520535707474,-0.043613385409116745,0.024038681760430336,-0.02979850023984909,-0.04642057046294212,-0.0007935699541121721,0.015335571020841599,0.010116757825016975,-0.0496603362262249,0.016896741464734077,0.0220942422747612,-0.03372996672987938,-0.014043769799172878,-0.020370254293084145,0.030684929341077805,-0.0016721703577786684,-0.0013173621846362948,-0.02112749218940735,-0.023773999884724617,-0.0122838681563735,0.05889216437935829,0.03261130303144455,0.017254654318094254,-0.04590053856372833,0.05809639021754265,0.03783699497580528,0.031228825449943542,0.0471181720495224,-0.0021388069726526737,-0.017758114263415337,-0.042786505073308945,0.008845297619700432,0.0009406661265529692,0.0044713313691318035,-0.03853222727775574,-0.009157777763903141,0.022328762337565422,0.045328687876462936,0.015504356473684311,0.04868669807910919,0.025665074586868286,0.0014526958111673594,-0.020793868228793144,-0.021072490140795708,0.0107959546148777,0.005321104545146227,-0.02580210380256176,0.020978884771466255,-0.018641257658600807,0.0402563251554966,-0.03057265654206276,-0.02530030906200409,0.05376559868454933,0.02163182571530342,0.034897781908512115,-0.01833486557006836,0.013589384034276009,-0.03603491932153702,0.058475177735090256,0.04170997440814972,0.0525515116751194,0.01502881571650505,-0.04737873002886772,0.0027904147282242775,0.03214488923549652,0.015897108241915703,-0.035202689468860626,0.04384971410036087,0.000663412210997194,-0.043170180171728134,0.02353052794933319,-0.007900707423686981,0.017191698774695396,0.0466696135699749,0.041004933416843414,-0.042691659182310104,-0.03354820981621742,0.02707279659807682,-0.034313641488552094,-0.004091055132448673,0.006948588881641626,0.04865439981222153,0.017069820314645767,0.009242682717740536,-0.04652342200279236,-0.01371244341135025,-0.006967466324567795,0.045728445053100586,-0.06049970164895058,0.030084829777479172,0.0662456825375557,-0.024580596014857292,0.01487287599593401,0.011222021654248238,-0.003086657030507922,-0.036594193428754807,-0.017815036699175835,0.02960287407040596,-0.0023160483688116074,0.04290063679218292,0.054158877581357956,0.018143318593502045,-0.04287127032876015,0.029850848019123077,0.054851386696100235,0.04442954808473587,0.020574985072016716,-0.05552247539162636,0.020399272441864014,-0.027824703603982925,-0.021711217239499092,0.000825813040137291,0.02964610606431961,-0.0558827742934227,0.020216353237628937,-0.02424797974526882,0.0376368947327137,-0.03275047987699509,0.03223809227347374,0.014988095499575138,-0.021178273484110832,-0.00741337426006794,0.02487705461680889,-0.03690347075462341,0.014636636711657047,0.0014370388817042112,-0.012401897460222244,-0.027914470061659813,0.02305036596953869,0.061678338795900345,0.04585336521267891,-0.01841074973344803,-0.04502804949879646,-0.010055066086351871,0.012757170014083385,-0.010857374407351017,-0.04733385145664215,-0.05055932328104973,-0.043733395636081696,-0.012959937565028667,0.03881559520959854,-0.001909882528707385,0.0036424961872398853,0.04043203592300415,-0.012896849773824215,-0.03344244137406349,0.045527879148721695,-0.057028092443943024,0.03650222718715668,0.016757391393184662,0.04580961540341377,0.018939409404993057,0.05059449002146721,0.0577201209962368,-0.036150168627500534,0.0008017137297429144,0.0545232780277729,-0.04578233137726784,-0.02213776484131813,0.04095812514424324,0.06124488636851311,-0.043661028146743774,-0.006488174200057983,0.007981219328939915,0.05917486920952797,-2.8633969122893177e-05,0.019145265221595764,0.029571181163191795,-0.029674643650650978,-0.0069173830561339855,0.04421913996338844,0.02459748275578022,-0.018204670399427414,-0.047102950513362885,0.037184085696935654,0.05745858699083328,-0.04552759975194931,0.018645944073796272,0.04495314881205559,-0.04874406009912491,-0.020655088126659393,0.03499849885702133,-0.03888792172074318,-0.0029874881729483604,0.028842397034168243,-0.0005137392436154187,-0.038681723177433014,-0.03867647051811218,0.031305741518735886,0.059036217629909515,0.0591856986284256,-0.015579476952552795,0.03788051754236221,-0.048469796776771545,-0.05499885603785515,-0.05717160180211067,0.0389191098511219,0.012796393595635891,0.04832598567008972,0.021124253049492836,0.039803750813007355,-0.026808148249983788,-0.015687691047787666,-0.00460859714075923,0.02671178989112377,0.008800389245152473,-0.024288345128297806,0.048789720982313156,0.03563828393816948,-0.004983649589121342,0.021329620853066444,0.020456843078136444,0.018738944083452225,-0.04372217506170273,0.030309833586215973,0.042852457612752914,0.010958990082144737,0.04707300662994385,0.04903839901089668,-0.05445490777492523,0.02280552126467228,0.045496318489313126,-0.010406490415334702,0.030190208926796913,0.02114417403936386,0.022452935576438904,0.007161162793636322,0.03911740705370903,0.0248175710439682,0.012990694493055344,-0.04749477282166481,-0.03356913477182388,-0.005835843738168478,0.028905799612402916,-0.04750630259513855,-0.03088960610330105,0.014690212905406952,-0.04704761132597923,0.03436212241649628,-0.037872131913900375,-0.05000454559922218,0.011645222082734108,-0.05370861291885376,-0.022601565346121788,0.034652434289455414,0.04785320907831192,-0.019706396386027336,-0.035877522081136703,-0.04468909651041031,0.04056693613529205,-0.05733557417988777,-0.06607534736394882,-0.039528194814920425,0.0017601787112653255,-0.05446702241897583,0.038899730890989304,0.0022772231604903936,0.012726694345474243,0.0533599853515625,0.05013396590948105,-0.04620235413312912,0.027175502851605415,0.0006480468437075615,0.04626736789941788,-0.04877627268433571,0.021289044991135597,-0.003875887021422386,-0.05228160694241524,-0.02383480966091156,-0.01392917800694704,0.009199291467666626,0.038660481572151184,-0.03709714114665985,-0.006627246737480164,-0.053329650312662125,0.005243715830147266,-0.013580500148236752,-0.010214262641966343,0.004888980183750391,-0.027159690856933594,-0.0547063909471035,-0.014178507030010223,-0.04494697228074074,-0.05500410124659538,0.024215148761868477,0.028027037158608437,0.023086221888661385,-0.05276866629719734,0.0477701835334301,-0.038065243512392044,0.0036232543643563986,0.006675929296761751,0.041446514427661896,0.031169092282652855,0.04783041775226593,-0.024371620267629623,0.00550845917314291,-0.04297417774796486,0.02657241001725197,0.04657572880387306,0.004139669705182314,0.026653731241822243,0.010573823936283588,0.03154927119612694,0.042315904051065445,0.041292399168014526,-0.028317272663116455,0.0491301491856575,-0.01355961337685585,-0.052726589143276215,0.022439103573560715,-0.041974082589149475,-0.01730659417808056,0.02271561697125435,-0.014721791259944439,-0.026800984516739845,-0.0058419168926775455,0.018877873197197914,-0.01462157815694809,-0.02940039522945881,-0.04098331928253174,0.004090148024260998,0.04723205789923668,0.05943252518773079,-0.04361170157790184,-0.019706159830093384,-0.027631783857941628,0.04921433702111244,0.019485708326101303,-0.04491846263408661,0.036924224346876144,0.04529348388314247,-0.0025009247474372387,0.041489120572805405,0.04015345871448517,-0.0576208271086216,0.04606122523546219,-0.048139963299036026,0.013450606726109982,0.018444333225488663,-0.013799513690173626,-0.0040974062867462635,-0.026553919538855553,-0.015064695850014687,-0.01581057719886303,-0.017361413687467575,0.06805503368377686,-0.024855775758624077,0.03506014496088028,-0.017112841829657555,-0.0011213801335543394,-0.023409409448504448,0.01960710436105728,-0.05571585148572922,-0.009241919033229351,0.016270605847239494,-0.043744031339883804,-0.028758954256772995,0.018766121938824654,-0.007460558321326971,-0.024870358407497406,0.031519193202257156,-0.03323371335864067,0.03780638054013252,-0.03202804923057556,-0.008214975707232952,-0.04826551303267479,-0.02899877354502678,0.04853716865181923,0.01600026711821556,0.03265036270022392,-0.010932138189673424,0.023175299167633057,-0.041517503559589386,0.019579926505684853,0.01448898483067751,0.03772740066051483,0.008828390389680862,0.04800829663872719,-0.013429773971438408,0.002448813058435917,0.05127428472042084,-0.004230015445500612,0.039058271795511246,-0.0560014471411705,0.038245994597673416,0.016533244401216507,0.04281849041581154,0.017490969970822334,-0.04452500492334366,0.034638144075870514,0.01884341798722744,0.06225009262561798,-0.030180178582668304,-0.047092191874980927,0.02449173666536808,0.054005883634090424,-0.03904874995350838,0.0181089099496603,0.04379546269774437,-0.03738795965909958,0.016772514209151268,-0.06409615278244019,-0.05813034251332283,-7.16600043233484e-05,0.04937699809670448,-0.0343756265938282,-0.004432861227542162,0.0340295173227787,0.03656313940882683,0.03304586187005043,-0.054614339023828506,0.05823095142841339,0.039694394916296005,-0.038562558591365814,-0.023931508883833885,0.014792748726904392,0.05005135387182236,-0.017595259472727776,-0.02265600487589836,0.028867188841104507,-0.008836427703499794,-0.0407676100730896,0.0330745168030262,-0.05250566825270653,-0.027745159342885017,0.03714965656399727,-0.006476317998021841,-0.0503905825316906,-0.008946580812335014,0.052214838564395905,-0.01985239051282406,0.03387833014130592,-0.04262678325176239,-0.028724420815706253,-0.0310090072453022,-0.008560978807508945,0.06145371496677399,0.013992926105856895,0.004392899107187986,0.06411299854516983,-0.04614387825131416,0.0028449250385165215,-0.012382399290800095,-0.009074218571186066,-0.03656303882598877,-0.057015225291252136,-0.0261835940182209,-0.009959068149328232,0.02564169093966484,-0.024817073717713356,-0.03681753948330879,0.005236016120761633,-0.06074374541640282,-0.056521423161029816,-0.050219904631376266,-0.013540420681238174,-0.03448295593261719,0.031208770349621773,0.03449736535549164,-0.027254728600382805,-0.01857755519449711,-0.009500468149781227,0.018820125609636307,0.02561149373650551,0.03410264849662781,0.05442972481250763,-0.038592755794525146,-0.03905904293060303,-0.025107460096478462,0.020394736900925636,-0.011205608025193214,-0.024586347863078117,-0.03541602939367294,-0.03871575742959976,0.03336571902036667,-0.04462428390979767,-0.04215332865715027,-0.05505979806184769,0.0008032264886423945,-0.02627304568886757,-0.028876565396785736,-0.043865274637937546,-0.04678808152675629,-0.03807047754526138,-0.010928718373179436,-0.042134761810302734,-0.0026252148672938347,0.026594122871756554,-0.0557137094438076,0.04673892632126808,0.015535016544163227,-0.01901889778673649,-0.047087859362363815,0.047430235892534256,-0.03391171619296074,-0.02464836649596691,-0.027889002114534378,0.03772081807255745,0.036817263811826706,-0.02814088575541973,0.03504779934883118,0.04540177807211876,0.0008441591635346413,0.046907585114240646,0.02255537547171116,-0.03519914671778679,-0.00040406588232144713,0.03281498700380325,0.04931854084134102,0.00549784442409873,-0.061690136790275574,-0.016284801065921783,-0.0192040354013443,0.05150537192821503,0.001753158401697874,-0.025443388149142265,0.014477701857686043,0.042286891490221024,0.021113166585564613,0.0006613003206439316,0.02420990541577339,-0.009148365817964077,-0.02004215307533741,0.004727933090180159,-0.025568556040525436,-0.03332158923149109,0.024476852267980576,0.026826851069927216,-0.05420690029859543,-0.004113976377993822,0.0312885120511055,0.05286498740315437,0.021079737693071365,-0.06059242784976959,0.02159024402499199,0.034276723861694336,-0.047960054129362106,-0.01669183559715748,-0.03932015225291252,0.02525780349969864,0.022938821464776993,-0.026598451659083366,0.03832738474011421,-0.034397318959236145,-0.01805981993675232,0.028017109259963036,0.017337098717689514,0.05987901985645294,-0.04895172640681267,0.038563068956136703,0.02551070787012577,0.03053593635559082,0.06983903795480728,-0.037730518728494644,-0.02286592684686184,-0.01809896156191826,0.030743395909667015,0.03884563595056534,0.05090976133942604,-0.009250212460756302,0.007090214639902115,0.0077139511704444885,-0.01134428195655346,-0.0077885715290904045,-0.014862935058772564,0.012357449159026146,0.04989183694124222,0.04187608137726784,-0.008721036836504936,0.0603254958987236,-0.019047720357775688,0.008829831145703793,-0.022457756102085114,0.027370139956474304,-0.04725639149546623,0.018433935940265656,-0.040160831063985825,-0.042808081954717636,0.04534786567091942,0.037383582442998886,-0.0013664367143064737,0.04753059521317482,-0.049878112971782684,-0.05725971236824989,0.013293219730257988,0.04092375934123993,0.029969895258545876,0.041008949279785156,0.053992681205272675,0.03310413658618927,-0.040935516357421875,-0.005277473945170641,-0.05071280151605606,-0.03982331603765488,0.028162909671664238,-0.05824342742562294,0.035391665995121,0.03407735750079155,0.027588965371251106,-0.01836625300347805,0.030279269441962242,-0.007472399156540632,-0.048599570989608765,-0.04151467606425285,0.0002427157887723297,-0.05949792638421059,-0.024805504828691483,0.00928034819662571,-0.042424969375133514,-0.05008075386285782,-0.006318158470094204,0.03979293629527092,-0.04016142711043358,-0.001938189729116857,-0.012838765047490597,0.014699254184961319,-0.034762244671583176,0.019330302253365517,0.048632681369781494,-0.04427414759993553,0.06342829763889313,0.03242649510502815,-0.03181092441082001,-0.003157217288389802,0.0010547313140705228,-0.022852342575788498,-0.04616158455610275,-0.028317496180534363,-0.048670049756765366,0.02014261856675148,-0.055280059576034546,0.04348808154463768,0.04802720621228218,0.03259701281785965,-0.03212843835353851,0.05144643783569336,-0.034453392028808594,-0.045271068811416626,0.003145134076476097,0.02549595758318901,0.016352830454707146,0.031006019562482834,-0.004088893067091703,-0.015104101970791817,-0.00017134549852926284,-0.01637730374932289,0.05270244553685188,0.05360415205359459,-0.026048678904771805,-0.0546119399368763,0.024781787768006325,0.013936755247414112,0.046397849917411804,0.015289010480046272,0.008018928579986095,-0.05275653675198555,0.01812152750790119,-0.019173206761479378,-0.0030818600207567215,0.014956311322748661,-0.03983006253838539,0.03083447553217411,0.040974635630846024,0.04263843223452568,0.03202015906572342,0.013692685402929783,-0.03099908120930195,0.034000687301158905,-0.04631756618618965,-0.0005733702564612031,0.04609684646129608,-0.0431683212518692,0.02850407548248768,0.021222982555627823,-0.03370458260178566,-0.010673150420188904,0.03876215219497681,-0.031230926513671875,-0.057659950107336044,0.020117025822401047,-0.045256856828927994,0.04519886150956154,0.017051173374056816,-0.010159083642065525,-0.04863147810101509,-0.04793699458241463,0.043157391250133514,0.05043584480881691,-0.03378960117697716,-0.031239759176969528,0.03872881829738617,-0.0010549039579927921,-0.03889336436986923,0.002458327915519476,-0.02396426536142826,-0.04860372468829155,-0.026129569858312607,0.030748087912797928,-0.040376368910074234,0.0020232191309332848,-0.011119850911200047,-0.01041862741112709,0.0051235719583928585,0.02727970853447914,0.02227502316236496,-0.03955085948109627,0.023062655702233315,-0.0005601358716376126,0.017019381746649742,-0.03023051843047142,0.045614201575517654,0.04193144291639328,0.04785266891121864,-0.043637365102767944,0.038744788616895676,0.04877001419663429,-0.021907515823841095,-0.0037886330392211676,0.003319724928587675,-0.02865779772400856,0.02109174244105816,0.034641582518815994,-0.029640402644872665,0.05721946433186531,0.047885388135910034,0.012535452842712402,-0.04075369983911514,-0.014118058606982231,0.02620408684015274,0.007316573057323694,0.050090689212083817,-0.03218958526849747,-0.028403818607330322,-0.02716412954032421,-0.036433275789022446,-0.000630781112704426,0.032141901552677155,0.04714361950755119,0.04297453910112381,-0.01710743084549904,-0.0016475713346153498,0.03620900213718414,-0.058909133076667786,-0.012890731915831566,-0.0058935172855854034,0.026821395382285118,-0.0076288385316729546,-0.04364354535937309,0.019483359530568123,0.004383640829473734,-0.012361768633127213,-0.007163585163652897,0.002712787827476859,0.0442306213080883,0.015334109775722027,-0.017566068097949028,0.06360309571027756,0.014978610910475254,-0.06759477406740189,-0.026892390102148056,-0.039743755012750626,0.012725315988063812,-0.0459444597363472,0.021259980276226997,0.04621103033423424,-0.03918867185711861,0.010990606620907784,0.014502095058560371,-0.019020507112145424,-0.0037180150393396616,-0.04680631682276726,-0.05096182972192764,-0.02428748458623886,0.002826254116371274,0.014863957650959492,0.05961501598358154,-0.03961620479822159,0.004852350801229477,0.036258623003959656,0.009802439250051975,0.06003088504076004,-0.023697249591350555,-0.05389811843633652,-0.03003736212849617,0.006466635037213564,0.0414816252887249,0.0270217452198267,0.030361255630850792,-0.054690610617399216,-0.018701892346143723,-0.00691178860142827,0.009796942584216595,-0.006859659682959318,0.05362171307206154,-0.036396678537130356,-0.03623730316758156,0.043640270829200745,0.05052691698074341,-0.01611003652215004,0.05423686280846596,-0.03651921823620796,0.05523516610264778,0.01419131550937891,0.02523552067577839,0.043871376663446426,-0.015991663560271263,0.042847633361816406,0.019620846956968307,-0.005718696396797895,0.02354944311082363,0.04069996625185013,-0.03402457758784294,-0.020263303071260452,-0.012669014744460583,-0.0598963238298893,0.046810247004032135,-0.05402769893407822,-0.023819172754883766,0.050972335040569305,0.0034403912723064423,-0.0010666270973160863,0.03442172333598137,0.01949678733944893,0.01651887595653534,0.01844487525522709,0.01917226053774357,-0.015805797651410103,-0.02293713018298149,0.012147508561611176,0.06126750260591507,0.046839166432619095,-0.001123199937865138,0.03945644572377205,-0.05539865046739578,0.002656380645930767,0.026222875341773033,0.052266284823417664,-0.04793884605169296,0.02446531131863594,0.012033347971737385,0.01184435561299324,0.05974959582090378,0.04411816969513893,0.05111037939786911,-0.013652345165610313,-0.008129659108817577,-0.003919895272701979,-0.027147451415657997,-0.04798724874854088,-0.02751823514699936,-0.04292410984635353,-0.02770223468542099,0.04903465136885643,0.010323625057935715,-0.03054865077137947,-0.028651315718889236,-0.010754951275885105,0.003949927631765604,0.014787756837904453,-0.05332432687282562,-0.021816536784172058,0.04439208656549454,-0.024035459384322166,-0.01151810958981514,-0.056080594658851624,-0.0346190370619297,-0.03394145146012306,-0.011735126376152039,-0.04227320849895477,-0.044046737253665924,0.026183197274804115,-0.020280998200178146,0.05156470462679863,-0.03679349273443222,0.006736365146934986,-0.023400725796818733,0.008088943548500538,-0.04368649795651436,-0.028306975960731506,-0.037570685148239136,0.05259677767753601,0.046789493411779404,0.00380916940048337,-0.004518686328083277,0.053541991859674454,0.01371039729565382,-0.001955985790118575,0.02415168657898903,-0.0008316104649566114,0.04957585409283638,-0.03848503157496452,-0.03671647235751152,-0.03928748890757561,-0.027671601623296738,0.0004728017665911466,0.030246581882238388,0.048026617616415024,-0.01454240083694458,0.05442844703793526,0.04660831019282341,0.0050159599632024765,0.03407659754157066,-0.01024420466274023,-0.031222587451338768,-0.05069584399461746,0.020654436200857162,0.027485061436891556,0.012300726026296616,0.049851879477500916,0.023574715480208397,0.02768797054886818,-0.005316335242241621,0.007157007697969675,0.02873065508902073,0.04775559529662132,0.000799905858002603,0.010290001519024372,-0.03296953812241554,-0.021580930799245834,-0.017878970131278038,0.06382910907268524,0.05607232823967934,0.033781521022319794,-0.04476337134838104,-0.013179460540413857,0.017979126423597336,0.06739316135644913,0.006428522057831287,0.010379385203123093,-0.028061848133802414,-0.031329281628131866,-0.028438173234462738,-0.027417026460170746,-0.05317461118102074,0.030307620763778687,-0.058355506509542465,-0.032092440873384476,0.009220532141625881,-0.04451509192585945,0.009990708902478218,0.021971341222524643,0.015407150611281395,-0.003043691162019968,0.043715644627809525,-0.05201518163084984,0.05871177464723587,-0.04395706206560135,-0.026273654773831367,-0.01728767715394497,-0.007223441265523434,-0.0327615886926651,-0.004848069045692682,-0.05220721662044525,0.003858615178614855,-0.021107744425535202,-0.04821852967143059,0.0011274124262854457,0.00579084875062108,-0.027814574539661407,0.036051686853170395,-0.045392826199531555,0.01532473973929882,-0.014381429180502892,-0.013387850485742092,-0.029245525598526,0.044899407774209976,0.03624477609992027,0.02696405164897442,0.026671646162867546,0.05329068377614021,0.02568710967898369,-0.034532979130744934,0.012869179248809814,-0.053396496921777725,0.036231327801942825,0.04232882335782051,-0.019547780975699425,-0.03721378371119499,-0.002982117934152484,0.04748031869530678,0.048847001045942307,0.012743871659040451,-0.026825588196516037,0.025373322889208794,0.05984443053603172,0.031177932396531105,0.023983662948012352,-0.032813504338264465,-0.06302516907453537,-0.030689118430018425,-0.02612968347966671,0.039481982588768005,-0.021430665627121925,0.054953355342149734,0.05825245752930641,-0.04164179787039757,-0.026626864448189735,0.052338868379592896,0.022110076621174812,-0.04358641058206558,-0.058135125786066055,0.05724843963980675,0.011013553477823734,-0.03520211577415466,-0.036908939480781555,0.027703968808054924,-0.032266467809677124,-0.01125584077090025,0.013013421557843685,-0.019692765548825264,0.048841796815395355,-0.028529351577162743,-0.051217902451753616,-0.050994180142879486,0.040478821843862534,0.047616004943847656,0.011331084184348583,-0.012305639684200287,-0.009946869686245918,0.0007830256945453584,-0.042723510414361954,0.018074000254273415,-0.026356276124715805,-0.029573125764727592,0.03929007053375244,0.03132258728146553,-0.01100767683237791,0.007704409305006266,-0.004872787278145552,-0.016700753942131996,-0.05388118699193001,0.012207398191094398,0.03832719102501869,-0.04555211961269379,-0.04180094227194786,-0.0379294790327549,-0.008671608753502369,-0.04817795753479004,0.05186495557427406,0.051892492920160294,-0.03607267886400223,-0.011867321096360683,-0.004166489467024803,0.03427774831652641,0.022871728986501694,-0.05406136438250542,-0.03858982026576996,0.04818180203437805,-0.024764826521277428,-0.012841735035181046,-0.012737478129565716,0.03608597442507744,0.0526774637401104,-0.0337369404733181,-0.036664918065071106,-0.007887553423643112,-0.03686334937810898,0.03274564817547798,-0.056816909462213516,-0.03230594843626022,-0.02294315956532955,0.05358000472187996,0.060201384127140045,-0.01049690879881382,0.016996074467897415,-0.019085202366113663,0.04767714813351631,-0.004474441520869732,-0.028170490637421608,-0.04698437452316284,-0.012670609168708324,-0.0003247202548664063,-0.006514108739793301,-0.036005184054374695,0.033275142312049866,0.03138742223381996,-0.024436768144369125,0.042352788150310516,0.025158710777759552,0.007007007021456957,-0.03303888812661171,-0.02476690523326397,-0.030542857944965363,-0.03928202763199806,-0.03478575870394707,0.013216977007687092,0.04839395731687546,0.006355953868478537,-0.037170421332120895,-0.01739337109029293,-0.0008531185449101031,-0.02370632067322731,0.043447982519865036,0.00018328442820347846,0.012576350010931492,0.05243668332695961,0.03784159570932388,-0.046510595828294754,-0.02569461427628994,-0.04718681424856186,-0.010683225467801094,0.005443112459033728,0.04152965545654297,0.05103616043925285,-0.027589397504925728,0.014359011314809322,0.004032396245747805,0.048741504549980164,0.02330947294831276,-0.04799555987119675,0.025820421054959297,0.023974023759365082,0.004798226524144411,-0.04414636269211769,0.030662642791867256,-0.015487290918827057,-0.026704788208007812,0.02553330361843109,0.03864669427275658,-0.05317070707678795,-0.05071989819407463,-0.018758682534098625,-0.015896089375019073,-0.04845349118113518,0.019639357924461365,-0.03214051574468613,0.03767649829387665,-0.047333959490060806,-0.03928527235984802,0.01975594274699688,-0.03530733659863472,-0.021938813850283623,-0.02974899858236313,-0.026976538822054863,0.04540327191352844,-0.051028165966272354,0.019294263795018196,-0.010981988161802292,-0.010248908773064613,-0.0450468584895134,0.005899856332689524,-0.0011964373989030719,0.0016572263557463884,-0.04530681297183037,0.0649527832865715,-0.0251285620033741,0.014514460228383541,0.022342540323734283,0.028362028300762177,-0.04821640998125076,-0.035506997257471085,0.05273004621267319,0.0424419641494751,0.027531182393431664,-0.03182557597756386,-0.03496162220835686,0.013505310751497746,0.05519092455506325,0.013087987899780273,0.05640367791056633,0.04108913615345955,-0.02428930439054966,-0.013033648021519184,-0.0475398451089859,-0.0035611134953796864,0.018055187538266182,0.04593658074736595,-0.016696929931640625,0.03351574391126633,0.023638399317860603,-0.022217541933059692,0.05463815852999687,0.012101133354008198,-0.007530077360570431,0.05910434201359749,0.058616090565919876,-0.0047826929949223995,0.05239413306117058,-0.056912943720817566,0.03322466090321541,-0.008963322266936302,0.04580288380384445,-0.0047301677986979485,-0.010688417591154575,-0.026836594566702843,0.006735893432050943,-0.015686189755797386,0.007633930537849665,-0.04847921431064606,-0.04468508064746857,-0.03854835033416748,0.020261753350496292,-0.03735921159386635,-0.018602833151817322,0.026047643274068832,-0.01835387386381626,0.02647223323583603,-0.04689376428723335,-0.009303281083703041,-0.0340360589325428,-0.04313736781477928,0.042702071368694305,0.02914126217365265,0.06168388947844505,-0.04190930724143982,-0.020214052870869637,0.03002293035387993,0.03564262390136719,0.06424856930971146,-0.049075812101364136,-0.00716161634773016,0.016795238479971886,-0.05608699470758438,0.0011411748128011823,0.02685871161520481,-0.013118340633809566,-0.031002221629023552,0.018271449953317642,0.01287899911403656,0.030396543443202972,-0.05492424592375755,-0.010165969841182232,-0.0448923259973526,-0.016676923260092735,0.057865794748067856,0.014553026296198368,0.058889031410217285,-0.02994142472743988,-0.04664231836795807,-0.018517352640628815,0.009424671530723572,-0.028949689120054245,0.018086157739162445,-0.04353974014520645,-0.052311040461063385,-0.046258773654699326,-0.05365494638681412,-0.008206087164580822,-0.05114143341779709,0.0276473555713892,-0.02721279114484787,0.04691002890467644,0.017208697274327278,0.02310170605778694,-0.07343122363090515,0.03641311824321747,0.026309113949537277,-0.05004371702671051,0.027246128767728806,-0.038900405168533325,-0.0436113178730011,-0.04595215991139412,0.05679783225059509,0.044164225459098816,-0.00956275686621666,0.006845181342214346,-0.023421887308359146,0.032477494329214096,-0.03830861672759056,-0.04354143887758255,-0.04568547382950783,0.014898909255862236,0.036011822521686554,0.01691812090575695,-0.005444678477942944,-0.03579970449209213,0.06591632217168808,0.06397432088851929,-0.03204880282282829,-0.017461126670241356,-0.03522437438368797,-0.013869603164494038,0.021968116983771324,0.0019754713866859674,-0.03616882488131523,-0.0391727089881897,0.019090386107563972,0.05695951730012894,-0.039516597986221313,-0.006373914889991283,0.05154445767402649,0.03780579939484596,-0.043459270149469376,-0.02203804813325405,-0.02138705551624298,-0.027927763760089874,0.05548670515418053,0.0015704077668488026,-0.04810847342014313,-0.006964241620153189,-0.036407627165317535,0.03537718206644058,-0.00943831168115139,-0.0096988370642066,-0.03360613062977791,0.04381198436021805,0.03697085380554199,0.005690978839993477,0.02938750945031643,0.0096133416518569,-0.029902633279561996,-0.0537429042160511,-0.00241793692111969,-0.007972397841513157,-0.014049800112843513,-0.03382113575935364,-0.02075241133570671,0.011377451941370964,0.04076989367604256,0.018335407599806786,0.010780727490782738,0.03555876389145851,-0.04787510260939598,0.060823965817689896,-0.03669069707393646,0.03489760681986809,-0.05500445142388344,0.020835362374782562,-0.036176178604364395,0.0434446781873703,0.00601540133357048,-0.03580573573708534,-0.03412025421857834,0.008474521338939667,-0.03886505961418152,0.016628894954919815,-0.04646644368767738,-0.007106824778020382,0.012149956077337265,0.03539503365755081,0.021504392847418785,0.010772592388093472,0.04305300489068031,0.04461485520005226,-0.016216667369008064,0.0359211191534996,0.052493300288915634,0.04768886789679527,-0.05129815265536308,-0.02492525801062584,0.011293751187622547,0.05690929293632507,0.0547177717089653,-0.04083618149161339,-0.007326560094952583,0.001037744921632111,-0.0023533159401267767,-0.004523126408457756,-0.04994608461856842,0.010428343899548054,0.043087273836135864,-0.002679276280105114,-0.03480768948793411,-0.048983294516801834,0.05852842703461647,0.05756329372525215,0.03577953577041626,-0.04755779728293419,-0.029288984835147858,0.012227022089064121,0.02381432056427002,0.004850618075579405,-0.04151780158281326,0.053877636790275574,-0.03294501081109047,-0.04070993512868881,0.0003610005951486528,-0.03574403002858162,-0.010330419056117535,-0.0021826238371431828,-0.03212497755885124,-0.0022825433406978846,0.05147651955485344,0.05028153210878372,-0.008353590965270996,0.013482097536325455,-0.011755994521081448,0.05091773718595505,0.020805740728974342,0.01621987111866474,-0.015858648344874382,-0.008127507753670216,0.04706963896751404,-0.033001795411109924,-0.040106479078531265,0.02690502256155014,-0.0044608148746192455,-0.018651315942406654,0.013969709165394306,0.03290805220603943,0.028998492285609245,0.02904227375984192,0.03698629140853882,-0.0015037559205666184,-0.03610415384173393,-0.04532596841454506,0.06721857190132141,0.05798465386033058,0.03678957000374794,-0.02946421504020691,-0.055414412170648575,0.0029782222118228674,0.025798695161938667,0.023531192913651466,-0.038601577281951904,0.034395981580019,0.02845005877315998,-0.02285529300570488,0.02622705139219761,0.042261943221092224,-0.0415913425385952,-0.01037667691707611,0.04144609719514847,0.017787259072065353,0.04663866385817528,-0.0021420125849545,-0.045516930520534515,-0.021207040175795555,0.05264248326420784,-0.00742299435660243,0.007322259247303009,0.004966179374605417,-0.01652657426893711,0.0018019303679466248,0.02410198003053665,-0.026035107672214508,0.0045518577098846436,-0.016914714127779007,0.04653400927782059,-0.0059614842757582664,0.042871952056884766,-0.06269635260105133,-0.017565442249178886,0.01929740235209465,-0.047515615820884705,0.045757368206977844,0.0492401160299778,-0.04842766374349594,-0.05656435340642929,-0.05482626333832741,-0.018221572041511536,-0.06607615947723389,-0.04493851959705353,-0.013391662389039993,0.02202732488512993,-0.04804546758532524,-0.054247427731752396,0.009914248250424862,0.03536364063620567,0.017140792682766914,-0.016970764845609665,-0.039587561041116714,-0.022970840334892273,0.028059180825948715,0.00842228438705206,-0.028539348393678665,-0.02966509573161602,-0.019679684191942215,0.010136566124856472,0.05492046847939491,0.030930379405617714,0.01605953462421894,0.04212719947099686,0.03195860981941223,-0.01121299248188734,0.05823063477873802,0.051305145025253296,-0.004482494667172432,-0.058724544942379,0.025111205875873566,0.04054923355579376,-0.057071566581726074,0.043543316423892975,0.009203184396028519,0.04386572539806366,0.0019458697643131018,-0.046098075807094574,0.047929927706718445,0.04487539455294609,0.010736093856394291,-0.01073844637721777,-0.047183047980070114,-0.017449617385864258,0.012491699308156967,-0.030734045431017876,-0.035858750343322754,-0.03526419773697853,0.001062346389517188,-0.05401468276977539,0.013814648613333702,0.031756263226270676,-0.03645572066307068,0.0502290315926075,0.04793737828731537,0.03683892637491226,-0.04289105907082558,0.0329057015478611,-0.011176345869898796,-0.010723150335252285,-0.02188744954764843,0.00954478420317173,-0.024814892560243607,0.03534555435180664,0.06324092298746109,0.04023680090904236,0.01059989258646965,-0.03003857471048832,-0.05423983931541443,-0.03435264155268669,-0.008404867723584175,-0.057947199791669846,0.012245342135429382,0.05290007218718529,0.022866057232022285,-0.023474788293242455,-0.026973601430654526,0.0059295822866261005,0.030912131071090698,-0.023580342531204224,-0.007822469808161259,-0.03168686106801033,-0.02238829806447029,-0.02880958281457424,0.03286882862448692,-0.0039153448306024075,0.039696767926216125,0.027711039409041405,0.05613446980714798,0.03000776842236519,-0.020266668871045113,0.04908515140414238,-0.03870600089430809,0.04043475165963173,-0.0526190921664238,-0.05398311838507652,0.020009782165288925,-0.015469055622816086,-0.02403753064572811,-0.0050881123170256615,0.025435036048293114,0.027899499982595444,0.0043344683945178986,0.021166400983929634,0.05088688060641289,-0.048538029193878174,0.0047026388347148895,0.04786175116896629,0.04554847627878189,0.013870327733457088,-0.020327134057879448,0.00999278761446476,-0.015034647658467293,-0.01276032067835331,-0.004143098369240761,-0.022982150316238403,0.025376474484801292,-0.038647379726171494,-0.004924971144646406,-0.009370677173137665,0.015890901908278465,-0.0004164725833106786,0.032013822346925735,0.035794805735349655,0.04742581769824028,-0.031035717576742172,-0.019243473187088966,-0.036516863852739334,-0.011414207518100739,0.008422715589404106,-0.04376059025526047,0.0070685879327356815,-0.0026142706628888845,-0.05022010579705238,-0.0019718585535883904,-0.045560888946056366,-0.011332960799336433,-0.00024040704010985792,0.0431465208530426,-0.03778607025742531,-0.03565874323248863,0.00741998478770256,-0.039022866636514664,0.02748294733464718,-0.04306225851178169,0.0630122721195221,-0.04026385769248009,-0.01744651235640049,-0.05148937180638313,-0.027150282636284828,0.031772978603839874,-0.04759874567389488,0.03026929311454296,-0.03228851780295372,-0.011852809228003025,0.03617187216877937,-0.026859454810619354,0.042512308806180954,-0.04227792099118233,-0.008796755224466324,-0.039090193808078766,0.04951067641377449,-0.0344209298491478,-0.06177247688174248,0.009658437222242355,-0.05789528414607048,-0.04846862331032753,0.01947479322552681,-0.009199107997119427,0.01901685819029808,-0.058763645589351654,0.051578521728515625,-0.05782249569892883,-0.01933060586452484,-0.0021517383866012096,0.05486167222261429,-0.04004589840769768,-0.019158069044351578,0.06312792003154755,0.03750971704721451,0.010602752678096294,0.017470480874180794,0.025430185720324516,-0.03504730388522148,0.021270068362355232,-0.03837241977453232,0.033678069710731506,-0.0031789701897650957,0.005402003414928913,-0.06303820759057999,0.047144465148448944,0.04502025991678238,-0.005720971152186394,-0.03841908276081085,0.007462724111974239,0.009033757261931896,0.03961993381381035,0.033131059259176254,0.05113403499126434,-0.030771920457482338,0.02793465182185173,0.008657177910208702,0.032204076647758484,0.018758833408355713,0.02694758214056492,0.02760285511612892,0.007390152662992477,-0.03761323168873787,-0.003347791964188218,0.053335078060626984,-0.04328320920467377,-0.030984535813331604,0.03939191624522209,-0.003292626002803445,0.05485178902745247,0.04467807337641716,-0.0344502329826355,0.004899676889181137,0.02895377017557621,-0.02644740417599678,0.004153488669544458,0.003754307748749852,-0.017768939957022667,0.0010202674893662333,-0.028113916516304016,0.008035542443394661,0.04734322428703308,-0.04879913851618767,0.03275279328227043,-0.041693065315485,-0.037679534405469894,-0.02569502592086792,-0.0047545768320560455,0.010906174778938293,-0.02881634421646595,-0.03216606378555298,-0.001550920307636261,-0.041950587183237076,0.02691463753581047,-0.029164351522922516,0.04137124866247177,0.05486716702580452,-0.006441230420023203,-0.03165680170059204,-0.030448751524090767,-0.027865814045071602,-0.030593663454055786,0.0016699497355148196,-0.00841579306870699,-0.01785934343934059,-0.016284121200442314,0.025152333080768585,0.0180509015917778,-0.03339218348264694,-0.004861658904701471,0.06241215765476227,0.05454620346426964,-0.04248092323541641,0.0283933375030756,-0.06196971237659454,0.016917571425437927,-0.018463732674717903,0.036784540861845016,-0.021134329959750175,0.0424041710793972,0.025069819763302803,-0.035485222935676575,-0.012151878327131271,0.019178606569767,0.014524325728416443,0.032887570559978485,-0.011972530744969845,-0.07161389291286469,-0.010935915634036064,0.0156145840883255,-0.008369660936295986,0.04751979559659958,-0.05653304234147072,0.005307434126734734,-0.054662998765707016,0.04910709336400032,-0.05470176413655281,0.042166631668806076,0.036250095814466476,0.029042191803455353,-0.020981205627322197,0.05536516010761261,0.04709969833493233,-0.0035553330089896917,0.0005726529634557664,0.03761901333928108,0.021424775943160057,0.0292471032589674,0.007587122730910778,0.047459572553634644,0.03683845326304436,-0.008772841654717922,0.002647052751854062,0.05193094536662102,-0.0071196174249053,0.050317417830228806,-0.005376429297029972,0.003376175882294774,0.0566810667514801,-0.027169987559318542,-0.011150797829031944,0.005172145552933216,-0.028478777036070824,-0.0439324788749218,-0.002042038831859827,0.018328823149204254,0.05445597320795059,0.022015869617462158,-0.050328001379966736,0.05473969504237175,0.014442394487559795,-0.0205279141664505,-0.018045086413621902,0.04218776151537895,0.05294066295027733,0.027584891766309738,0.012400103732943535,-0.0248070377856493,-0.045591406524181366,-0.03657008334994316,0.02231619693338871,9.173612625090755e-08,-0.03791513293981552,0.04861687868833542,0.00712592201307416,-0.033007342368364334,0.012173851020634174,-0.026198267936706543,-0.02444002591073513,-0.05580650642514229,0.03965972736477852,0.03311046212911606,0.04643113911151886,0.013150669634342194,-0.04865655675530434,0.03474296256899834,-0.04196978360414505,-0.022944070398807526,0.020139699801802635,0.007522763218730688,-0.023414811119437218,0.04741966724395752,0.02540368027985096,-0.03976162523031235,0.06115970388054848,-0.03546268120408058,0.04398762062191963,0.0011116932146251202,-0.02929915301501751,-0.02807198092341423,0.007042557001113892,-0.02075236476957798,0.059411391615867615,-0.026905959472060204,0.01620323397219181,-0.04207200929522514,0.03351575508713722,0.02947675622999668,-0.04338793829083443,-0.004100590944290161,-0.012394162826240063,0.015137352980673313,-0.014133493416011333,0.038408003747463226,-0.05263394117355347,0.025412196293473244,0.03749603405594826,0.01030197273939848,0.009864192456007004,0.0032017002813518047,0.054103024303913116,0.038117408752441406,0.0064737251959741116,0.036350756883621216,0.03821025788784027,0.04518553987145424,0.033640846610069275,-0.0525556318461895,0.00016005003999453038,-0.037158675491809845,-0.03706761822104454,-0.010516079142689705,-0.02662114053964615,0.05863068252801895,-0.046992216259241104,0.012250679545104504,0.03138866648077965,-0.006352385506033897,0.009940942749381065,-0.0011090466286987066,-0.02728014811873436,-0.05553958937525749,-0.025196867063641548,-0.053353484719991684,0.005348082631826401,-0.0002180642622988671,0.05959504842758179,-0.03382919356226921,0.047811780124902725,0.027192329987883568,-0.03956165909767151,0.014042976312339306,0.019319824874401093,0.04714549705386162,-0.024219747632741928,-0.016108322888612747,-0.05256159231066704,0.024839969351887703,0.02422802336513996,0.03655656799674034,0.027380863204598427,-0.031071586534380913,0.006902009714394808,0.028264807537198067,-0.056299224495887756,0.03704765811562538,-0.046429697424173355,0.04101374000310898,-0.03382888808846474,0.05848393216729164,-0.04487616941332817,-0.009892296977341175,-0.05105892941355705,-0.0011133580701425672,0.018569905310869217,-0.0518949031829834,-0.05685367435216904,-0.0054123676382005215,0.02668945863842964,0.04010346904397011,0.0007771291420795023,0.040071237832307816,-0.05126340687274933,0.06028516963124275,0.008035838603973389,0.041232094168663025,0.01359183806926012,0.04095441475510597,0.020401835441589355,0.014931882731616497,0.019035624340176582,0.05465694144368172,0.05729783698916435,0.019176620990037918,0.057906944304704666,0.03189545497298241,0.016439566388726234,-0.05276928469538689,-0.027579290792346,0.04885495826601982,0.04345417395234108,-0.005848214961588383,-0.015016756020486355,0.0011924615828320384,-0.04569466412067413,0.028749657794833183,0.05403609573841095,0.042345743626356125,-0.055318720638751984,-0.04354626685380936,-0.05820150673389435,-0.04871775209903717,-0.03777022287249565,0.01256882306188345,-0.045126333832740784,-0.05087187886238098,-0.0394175723195076,-0.020316408947110176,-0.024979572743177414,-0.0445958711206913,-0.04987035319209099,-0.023038800805807114,0.05604732409119606,-0.026693668216466904,0.056993599981069565,0.05310678482055664,0.04231414571404457,0.03228549659252167,-0.011709017679095268,-0.009715392254292965,0.03540707379579544,0.012413028627634048,0.05416801944375038,0.03635507822036743,-0.003546611638739705,0.05255890637636185,-0.014697309583425522,0.040957871824502945,0.028748761862516403,-0.03762439265847206,0.002723495475947857,0.020223768427968025,0.029791975393891335,0.0629037469625473,-0.023271512240171432,-0.054798275232315063,0.008700723759829998,-0.0018344485433772206,-0.04473908990621567,-0.04556978493928909,0.0005773569573648274,0.030083630234003067,-0.009910717606544495,0.000498581794090569,-0.01011817716062069,-0.030218878760933876,-0.04191892221570015,0.016794798895716667,0.010681183077394962,0.052862659096717834,-0.007155645173043013,-0.003150064032524824,-0.046558745205402374,0.036366987973451614,-0.05001181736588478,-0.04096682742238045,0.05237932875752449,-0.005279456730931997,-0.011105501092970371,-0.054921846836805344,0.01113808248192072,-0.039542924612760544,-0.034923285245895386,0.037616342306137085,0.021031025797128677,-0.04865306615829468,-0.005404843017458916,-0.043657369911670685,0.0014236842980608344,-0.023580489680171013,0.01542853657156229,0.030203204602003098,-0.025410888716578484,0.0277043879032135,-0.01551524642854929,0.012181635946035385,-0.02754312939941883,0.034869737923145294,-0.04534928500652313,0.042347341775894165,-0.04424942284822464,-0.0050591351464390755,0.0022259829565882683,0.030558476224541664,0.05004705488681793,0.019234035164117813,0.021097026765346527,0.009114990942180157,0.04284635931253433,-0.012979075312614441,0.04401976242661476,0.013265502639114857,0.03898291289806366,-0.03369537368416786,0.044405657798051834,0.06450960040092468,-0.035864464938640594,0.021811001002788544,0.010051248595118523,-0.006697487086057663,0.049946583807468414,-0.04574640840291977,0.005449781659990549,0.028244510293006897,-0.013995937071740627,-0.06081239879131317,0.047632038593292236,-0.01966702565550804,-0.015388214960694313,0.04747748747467995,0.03536482900381088,-0.009705333970487118,-0.01498486939817667,-0.04299802705645561,0.0595959797501564,0.05207252502441406,-0.023179829120635986,0.011445263400673866,-0.04967978969216347,0.0328095443546772,0.04297446832060814,-0.02584206499159336,-0.04841528460383415,-0.014038542285561562,0.02551965042948723,-0.02622535452246666,0.022974777966737747,-0.0509146973490715,-0.03443964943289757,-0.0028141746297478676,-0.047480907291173935,-0.020240047946572304,-0.013384048826992512,0.0027609537355601788,-0.0013999973889440298,0.01988239958882332,0.0009763979469425976,0.04200553894042969,-0.02692352794110775,-0.03319365531206131,-0.015348256565630436,0.008199366740882397,-0.024076398462057114,0.05033528804779053,0.056062620133161545,-0.0018280528020113707,-0.052947185933589935,-0.02965850755572319,0.005860752891749144,0.051795411854982376,-0.029502926394343376,0.01707659289240837,-0.02747183106839657,-0.006199254654347897,-0.0598587803542614,0.0028324949089437723,0.04956560209393501,-0.018866579979658127,-0.04163528233766556,-0.015765676274895668,0.04016287997364998,-0.029417909681797028,0.00048817461356520653,-0.011164496652781963,0.049382906407117844,-0.007885977625846863,-0.009835646487772465,0.022280456498265266,-0.007487175054848194,-0.00044491622247733176,-0.03554743155837059,0.011622963473200798,-0.044810064136981964,0.033678553998470306,-0.015349416993558407,0.04662846028804779,-0.01874610036611557,-0.04464239254593849,-0.03091450221836567,-0.035148557275533676,-0.05351121723651886,0.007295783143490553,0.017512142658233643,-0.061095114797353745,0.015254978090524673,-0.04804200306534767,-0.02576003037393093,-0.024875521659851074,-0.045089490711688995,0.04535159096121788,0.01764509826898575,0.04705867916345596,0.03905756026506424,-0.03056253306567669,-0.06160575896501541,0.05175912380218506,0.044273100793361664,0.06408294290304184,0.03192233666777611,-0.06532685458660126,-0.0003497127618175,0.05593262240290642,0.03960615023970604,-0.020642098039388657,-0.03235006332397461,0.05314682796597481,0.04713612422347069,-0.021878208965063095,-0.021082572638988495,0.01564721204340458,-0.021969741210341454,0.0033780629746615887,0.045543890446424484,-0.04463321715593338,0.05663839355111122,-0.04592254385352135,0.045366689562797546,0.035870056599378586,0.054797250777482986,-0.0007541341474279761,0.040443118661642075,-0.047940973192453384,0.05084618926048279,-0.019818894565105438,-0.05655616521835327,-0.020182747393846512,0.0258695799857378,-0.034190136939287186,0.0503302738070488,0.013129465281963348,0.05154789611697197,-0.028515800833702087,-0.04514423757791519,0.04267262667417526,0.04001346975564957,0.05325353890657425,0.022778520360589027,-0.008769187144935131,-0.03653261065483093,0.04454706609249115,0.04344377666711807,0.053708091378211975,0.010846856981515884,-0.04417336359620094,0.05456766486167908,0.0338880680501461,0.007070647086948156,0.006791525054723024,-0.005184655077755451,-0.001062016817741096,0.03154594451189041,0.04417110234498978,0.016557084396481514,0.006556287873536348,0.03869706019759178,0.03978043049573898,0.03443554416298866,0.05391407757997513,0.003241315484046936,0.012654406018555164,0.014737152494490147,-0.033200107514858246,0.0417124405503273,0.011163621209561825,-0.04285794869065285,0.06422236561775208,0.04327879846096039,0.036164604127407074,0.0550878681242466,-0.03222429379820824,0.053412847220897675,-0.02796168252825737,0.0004924541572108865,-0.0409214124083519,-0.010527865961194038,-0.019096404314041138,0.03013693541288376,0.01497094426304102,0.051215220242738724,-0.061316657811403275,0.009608549997210503,-0.04854361712932587,-0.00922892801463604,0.04013480991125107,-0.043924398720264435,0.014084390364587307,-0.0028465716168284416,0.05269700661301613,0.05054587125778198,-0.0449504554271698,0.04722689464688301,-0.02771013043820858,0.04494179040193558,0.022276654839515686,-0.04111167788505554,-0.03877014294266701,-0.03711336851119995,0.021033156663179398,0.03971245512366295,-0.03322045877575874,0.021057968959212303,-0.011521141976118088,0.026436537504196167,-0.0019782993476837873,-0.010680193081498146,-0.02787800133228302,-0.05079718679189682,-0.03281957656145096,0.034501608461141586,-0.02668037824332714,0.0558977909386158,0.038744859397411346,-0.010531112551689148,0.03062315098941326,-0.06014377623796463,-0.05170969292521477,0.026473987847566605,-0.004247043747454882,-0.01659066043794155,-0.05454771965742111,-0.050854701548814774,-0.011155984364449978,-0.017732081934809685,-0.043878354132175446,0.02645122818648815,0.036792002618312836,0.006409438326954842,-0.009995046071708202,0.00982164591550827,-0.0015977557050064206,-0.039914850145578384,0.03283873200416565,-0.034043148159980774,0.021661588922142982,-0.040602896362543106,-0.0200501699000597,0.03528266027569771,-0.028996312990784645,0.042237892746925354,-0.0523291639983654,-0.023847751319408417,0.045831725001335144,0.038674529641866684,-0.019444547593593597,-0.0415516197681427,-0.050960879772901535,-0.011752677150070667,0.03991799056529999,0.025751542299985886,-0.043678510934114456,-0.016247041523456573,0.04281287267804146,0.017111629247665405,-0.032896868884563446,0.047440629452466965,0.019647890701889992,-0.0021009771153330803,0.014414465054869652,-0.033786874264478683,0.032488204538822174,0.015322064980864525,0.05047408118844032,0.005604960955679417,0.031320344656705856,0.026421278715133667,-0.04054760932922363,-0.04189585521817207,-0.018750788643956184,-0.06323061138391495,-0.003103526309132576,0.03033933788537979,0.05583389103412628,-0.024403367191553116,-0.03913091868162155,-0.041064996272325516,-0.04396560788154602,0.025653183460235596,0.036652710288763046,-0.055411193519830704,-0.008035361766815186,0.0058262040838599205,-0.01524413749575615,-0.008613597601652145,-0.0004556389176286757,-0.0581013448536396,-0.04682379961013794,0.04474005103111267,-0.004285123199224472,0.06113462895154953,-0.020314011722803116,0.05202169343829155,0.06180739030241966,-0.0158719252794981,0.01836128532886505,-0.035966839641332626,0.01554924063384533,-0.004387266468256712,0.021353118121623993,-0.044925566762685776,-0.046089403331279755,-0.00024562267935834825,0.04975493997335434,0.022932853549718857,-0.034790728241205215,-0.011778919957578182,-0.003528340021148324,0.0028361710719764233,-0.014500126242637634,-0.014269838109612465,0.0359557680785656,0.026872586458921432,0.004553160164505243,0.03307345509529114,0.00894154328852892,0.03228425607085228,0.030281171202659607,-0.028606485575437546,-0.021562820300459862,-0.004835781175643206,0.04885204881429672,0.006019283551722765,0.018007103353738785,0.04740334674715996,-0.018776314333081245,-0.02107354998588562,-0.017238589003682137,-0.04224206879734993,-0.041210390627384186,0.00812557339668274,0.010665430687367916,0.03530031815171242,0.01118502952158451,0.04889718443155289,0.01725221797823906,-0.032583385705947876,0.028563186526298523,-0.02010718733072281,-0.038771893829107285,-0.019447168335318565,-0.04197375848889351,0.027561161667108536,-0.05213422328233719,0.01228246744722128,0.037629835307598114,-0.028852282091975212,-0.009537601843476295,-0.026115674525499344,-0.029597342014312744,-0.015834204852581024,-0.02320283278822899,-0.04083249345421791,-0.0015020559076219797,-0.02322220429778099,-0.05047466233372688,-0.03499908372759819,0.012995312921702862,0.03495803102850914,0.006600482389330864,0.0203214380890131,-0.010914233513176441,0.012655070051550865,0.010466895066201687,-0.03517524152994156,-0.021636350080370903,-0.04463622719049454,0.02092602662742138,-0.01297315489500761,0.024360427632927895,0.04313572123646736,0.005026346072554588,-0.03440290689468384,-0.02185121923685074,-0.05522042140364647,-0.04634837061166763,0.003084267722442746,0.04787936434149742,-0.0505654439330101,0.007907283492386341,0.05125780776143074,-0.036702778190374374,0.003388101002201438,-0.04407427832484245,-0.045882854610681534,0.011128050275146961,0.05051225796341896,0.026270784437656403,-0.02725949138402939,0.017420310527086258,0.018985792994499207,0.01406833715736866,-0.0024584841448813677,-0.015891006216406822,0.010377232916653156,-0.04471397027373314,-0.04852320998907089,-0.03667198121547699,-0.05510815232992172,-0.0344340056180954,0.0032561190892010927,0.04496864974498749,-0.030701983720064163,0.030192866921424866,0.017676113173365593,0.025082902982831,0.02574801817536354,0.04860425740480423,0.007075686939060688,-0.037713948637247086,-0.016654541715979576,0.05239972844719887,-0.03823290765285492,-0.01169813796877861,-0.054163362830877304,0.009616509079933167,0.007965555414557457,-0.043575599789619446,-0.013425426557660103,-0.03915328532457352,-0.028091860935091972,0.015381022356450558,0.029704762622714043,-0.040943536907434464,-0.039936505258083344,0.026405075564980507,0.012980213388800621,-0.0447530597448349,0.010320340283215046,0.014164036139845848,-0.027433352544903755,0.029550453647971153,0.033156439661979675,0.039285510778427124,-0.024403512477874756,0.03796256706118584,-0.04701407998800278,-0.03488093614578247,-0.039733439683914185,0.007540472783148289,0.05055439844727516,-0.034287743270397186,-0.031236557289958,-0.038222577422857285,0.05009938031435013,-0.0025554136373102665,0.0006604400696232915,-0.049509771168231964,-0.017529504373669624,0.03182003274559975,-0.056213706731796265,0.04200845584273338,0.024054085835814476,-0.05511333420872688,-0.0444670245051384,-0.0025376533158123493,0.013584407977759838,0.05801669508218765,-0.02998926490545273,0.001201990875415504,0.019590232521295547,-0.016549402847886086,-0.007002378348261118,0.013961784541606903,-0.036245547235012054,0.002104142913594842,-0.04158233106136322,-0.01765231415629387,-0.015947790816426277,-0.008799991570413113,0.02855149656534195,0.008778180927038193,-0.053108397871255875,0.02744794636964798,0.006949161645025015,0.01244758814573288,0.015948686748743057,0.06100853160023689,-0.0022305261809378862,-0.01277235522866249,0.02539711631834507,-0.04504116624593735,-0.0204852856695652,0.06478764861822128,-0.03805476427078247,-0.04927877336740494,-0.05780785530805588,-0.05077742785215378,-0.05592379346489906,0.02058008499443531,-0.017071710899472237,-0.015153037384152412,-0.042599719017744064,-0.02030581794679165,0.021298734471201897,0.04650406911969185,0.015174965374171734,0.04848506301641464,0.015476398169994354,-0.03446401283144951,0.05033308267593384,-0.03031964600086212,0.050251081585884094,0.043846309185028076,-0.03688867390155792,0.014478625729680061,0.014948716387152672,0.03195659816265106,-0.05501675233244896,-0.019323252141475677,-0.02100341022014618,0.03750547394156456,0.03413749113678932,0.054592326283454895,0.021896420046687126,-0.008207290433347225,0.004098696634173393,-0.008133042603731155,-0.019347956404089928,0.026249103248119354,-0.013182790018618107,-0.043243106454610825,-0.05525638535618782,-0.034813061356544495,0.014469495043158531,-0.02793409302830696,0.01350608840584755,0.04086911305785179,0.04124375805258751,0.051039379090070724,-0.01588249020278454,0.030156342312693596,-0.038677677512168884,-0.047524139285087585,-0.04754006490111351,0.04820210486650467,0.05162052437663078,0.0461709164083004,0.019095806404948235,0.036376189440488815,-0.03518473729491234,-0.055439695715904236,-0.007723033428192139,0.043639037758111954,0.004772154614329338,-0.055202145129442215,0.024828506633639336,0.04325144737958908,-0.03599242866039276,0.02813679911196232,0.06024738401174545,-0.06500313431024551,0.05240829288959503,-0.005570137407630682,-0.014091087505221367,0.05176649987697601,0.06240079179406166,0.027369460090994835,0.02830495871603489,0.054058659821748734,0.01050717942416668,-0.017910951748490334,0.014214746654033661,-0.017366161569952965,-0.025731539353728294,0.05408469960093498,-0.00534018874168396,-0.04306385666131973,0.017741911113262177,0.04364960640668869,-0.04771576449275017,-0.003912127111107111,-0.031052470207214355,-0.0389016829431057,0.0013587811263278127,-0.019128769636154175,-0.035644594579935074,-0.01493301335722208,-0.00144069769885391,-0.033988382667303085,0.03120271861553192,-0.03632910177111626,-0.026518363505601883,0.04792431741952896,0.03898390755057335,0.04849131032824516,-0.05053300783038139,-0.016932623460888863,0.02867593802511692,-0.04687124863266945,0.0006313039921224117,-0.004670395515859127,0.025721827521920204,-0.031121037900447845,0.040008559823036194,-0.050316859036684036,0.011170162819325924,0.03924519941210747,0.02970530465245247,0.03612279146909714,-0.008978474885225296,0.046740420162677765,0.02026532217860222,-0.015957564115524292,-0.06168942153453827,0.048728227615356445,0.05970728397369385,0.044707976281642914,0.05545084923505783,0.04765909165143967,-0.020794060081243515,0.060631100088357925,-0.02371816895902157,0.04399247467517853,-0.02961769513785839,0.013891560956835747,-0.03543573617935181,-0.05260869488120079,-0.03302077576518059,0.044124819338321686,0.037664178758859634,-0.017619065940380096,0.01161319762468338,0.013574467040598392,-0.016976961866021156,-0.028415685519576073,-0.04487067833542824,-0.05444449186325073,-0.026954323053359985,-0.0005981047870591283,-0.045852016657590866,0.036689504981040955,0.02374202385544777,-0.05610650032758713,-0.012512565590441227,-0.060763169080019,-0.03873280808329582,0.03886709362268448,-0.03530221804976463,-0.019091645255684853,0.016099032014608383,0.06039173901081085,-0.053792554885149,-0.020605314522981644,0.034225158393383026,0.012567508034408092,0.01368862297385931,0.03374568372964859,-0.04036685451865196,-0.0002496805100236088,0.04983341693878174,-0.013718811795115471,0.007982933893799782,0.02892196737229824,0.043665990233421326,0.05286972224712372,-0.03106345422565937,0.030638111755251884,0.040014367550611496,0.020996293053030968,-0.01159763615578413,-0.050227463245391846,-0.05343404412269592,-0.012311686761677265,-0.024558842182159424,0.0520741306245327,0.006891940720379353,-0.003678374458104372,-0.05587178096175194,-0.047166358679533005,-0.022708183154463768,0.047696687281131744,0.009827984496951103,-0.045818060636520386,-0.012247908860445023,0.046901069581508636,-0.018890850245952606,0.001549170003272593,0.007235503755509853,0.023018615320324898,-0.05262564867734909,0.0016620497917756438,-0.03245081380009651,0.013947691768407822,-0.02985924296081066,-0.006512491498142481,0.004327812697738409,-0.004780428484082222,-0.05539939925074577,0.0092041976749897,-0.0012811273336410522,0.006616658065468073,-0.033901799470186234,0.03671787306666374,0.026788804680109024,0.0029644444584846497,0.024114549160003662,-0.005511173978447914,-0.004890683572739363,-0.06331556290388107,0.04263998568058014,0.029363097622990608,0.049972712993621826,0.053506460040807724,-0.04715380072593689,-0.01678607426583767,0.01876630075275898,-0.00018611397536005825,0.02426675334572792,0.053209368139505386,0.05172120779752731,-0.045337505638599396,-0.04309672862291336,0.04132673144340515,-0.0012808999745175242,-0.027637194842100143,-0.050349123775959015,-0.04342400282621384,0.04271021857857704,-0.024969501420855522,0.016520269215106964,-0.0071300542913377285,-0.0374169684946537,0.01336109358817339,-0.039053622633218765,-0.03869723156094551,-0.04666430875658989,0.00037634189357049763,0.034639447927474976,0.0024416896048933268,-0.05513601005077362,0.008951982483267784,-0.0058250767178833485,-0.042142149060964584,0.011151916347444057,-0.042025841772556305,-0.005443846341222525,-0.040714066475629807,0.012626025825738907,-0.05139503628015518,-3.266692510806024e-05,-0.007782435044646263,0.0026314272545278072,-0.03126683831214905,-0.039251819252967834,-0.026703067123889923,0.04408032447099686,-0.02742346189916134,0.02501610480248928,-0.038040801882743835,-0.00209059682674706,-0.04598064720630646,-0.04734751954674721,0.039283767342567444,-0.041734423488378525,0.006826296914368868,0.028207074850797653,-0.03531624376773834,-0.05425054207444191,0.0038872011937201023,0.02529127709567547,-0.037452854216098785,0.027967920526862144,0.05141967535018921,0.04883187636733055,-0.007565638981759548,0.0382755883038044,0.01437717117369175,0.02935219556093216,0.030554549768567085,-0.031753506511449814,0.006634688936173916,-0.046557579189538956,0.024963930249214172,0.005195915699005127,0.05240953341126442,0.026997588574886322,-0.009247536770999432,-0.044832322746515274,-0.03538842126727104,-0.021215518936514854,-0.020782938227057457,0.05946769192814827,0.0015259557403624058,0.02239190600812435,0.045570746064186096,0.057388514280319214,-0.03233494237065315,-0.04251733422279358,-0.003527696244418621,6.887870404170826e-05,0.01374991424381733,0.018094951286911964,0.017990203574299812,-0.05529528111219406,-0.04676855728030205,0.02673623338341713,-0.010953079909086227,-0.032960858196020126,0.054346613585948944,-0.04607849568128586,0.04512106254696846,0.0010945064714178443,0.052742429077625275,0.034744992852211,0.010737299919128418,-0.056595247238874435,0.053993888199329376,0.016008500009775162,-0.04985760897397995,-0.0021772398613393307,0.03059585765004158,-0.0011019384255632758,0.006591614801436663,-0.04190372675657272,0.025385437533259392,-0.040178585797548294,0.04100779816508293,-0.043006617575883865,0.017167706042528152,-0.022313322871923447,0.04748564213514328,0.02398165687918663,0.04707289859652519,-0.03550291806459427,0.03262106701731682,0.040281884372234344,-0.05530663579702377,0.015419261530041695,-0.03363664448261261,0.047717463225126266,-0.05151405185461044,-0.022972915321588516,0.0030283385422080755,0.0183236263692379,0.038499828428030014,-0.04496860131621361,0.01204032450914383,0.024350319057703018,-0.0205200407654047,0.025645017623901367,0.0312793105840683,-0.05524066835641861,-0.03179962933063507,-0.038349930197000504,0.04968954622745514,-0.014902548864483833,0.008938837796449661,0.003116934560239315,-0.02862183004617691,-0.003704468021169305,-0.011947170831263065,0.04739466682076454,0.01858890987932682,-0.007294003386050463,-0.04275861009955406,-0.019360482692718506,0.020271454006433487,0.028702113777399063,-0.009353552013635635,0.04230581596493721,0.018608665093779564,0.053287532180547714,0.01622077263891697,0.04103357717394829,-0.044905949383974075,0.015116545371711254,-0.053833696991205215,0.012715423479676247,-0.027068035677075386,0.03443077951669693,0.05331455543637276,0.015419162809848785,-0.04041655734181404,-0.04418664425611496,-0.056268736720085144,-0.056256722658872604,0.04770219326019287,-0.03898345306515694,0.0009104288765229285,-0.047452956438064575,0.04570302739739418,0.03732313960790634,0.023905184119939804,-0.0314859114587307,-0.04254119098186493,-0.002646725857630372,0.04405496269464493,0.021811574697494507,-0.018608644604682922,-0.011607385240495205,0.0008484105928801,0.024104202166199684,0.0522976815700531,-0.0011902665719389915,-0.03787817433476448,-0.03862443566322327,-0.013458366505801678,0.04811510816216469,0.05476255342364311,-0.029900962486863136,0.043585795909166336,0.01352656353265047,-0.015977829694747925,-0.007786604110151529,-0.021838296204805374,0.046155475080013275,-3.8590536860283464e-05,-0.06435737013816833,-0.0016833997797220945,-0.008780860342085361,0.040610529482364655,0.0011201896704733372,0.04116706922650337,-0.04985560476779938,0.023211844265460968,-0.02956850454211235,-0.012761851772665977,0.00046563547221012414,0.004995841532945633,0.04082217440009117,-0.01541877444833517,-0.03355720266699791,0.00037864744081161916,0.04511203616857529,0.04597686231136322,-0.0016845366917550564,0.01816113479435444,0.016549913212656975,-0.010931982658803463,-0.05233956500887871,0.015884900465607643,0.020680446177721024,-0.0014178566634654999,-0.05164208635687828,-0.024830320850014687,-0.0025314579252153635,-0.04623095318675041,0.04809242859482765,-0.0412718765437603,0.02013421431183815,0.05392869561910629,-0.04216038063168526,0.026235749945044518,-0.0020056767389178276,0.03252749517560005,0.05340004339814186,-0.030652396380901337,-0.004737612325698137,0.02775007113814354,0.05581840127706528,-0.04703139141201973,-0.0029592812061309814,-0.0019260304979979992,-0.031480565667152405,-0.011813098564743996,0.018728945404291153,0.02690873295068741,0.04014461115002632,0.04637319967150688,-0.02704104781150818,0.0024567635264247656,0.04660731926560402,0.029348276555538177,-0.02258777990937233,-0.003746077651157975,-0.03762907162308693,-0.014417324215173721,0.01053503155708313,0.0017940594116225839,0.033208511769771576,-0.0626218393445015,-0.019607938826084137,0.056877706199884415,-0.01892286166548729,0.017367791384458542,0.0343746691942215,0.025911882519721985,0.03989188000559807,0.05501122772693634,-0.027393914759159088,0.0019232920603826642,0.01919703371822834,0.017932794988155365,-0.007322175893932581,-0.05230787768959999,0.018043916672468185,-0.057275157421827316,-0.053381409496068954,-0.04394590109586716,0.054781582206487656,0.04622622951865196,-0.0074240644462406635,-0.0008060637046582997,0.0061273472383618355,-0.030612347647547722,-0.01818973384797573,0.062319088727235794,-0.0035684092435985804,0.026455681771039963,0.015424666926264763,0.04976234957575798,-0.04703462868928909,-0.0478106327354908,-0.001523495651781559,0.05110287293791771,-0.02345048077404499,0.023773664608597755,0.04269286245107651,-0.038001447916030884,-0.006536426488310099,0.02135332114994526,0.049286454916000366,0.04739787429571152,0.03610178828239441,0.0504273846745491,0.004963691346347332,-0.003964081406593323,0.0128768440335989,0.008961775340139866,0.03328072279691696,-0.022741753607988358,0.0004846682131756097,0.03088580071926117,0.03408225625753403,-0.05602375790476799,-0.0431610606610775,0.022912021726369858,-0.020222244784235954,-0.05190826207399368,-0.026389384642243385,0.01393840741366148,0.02195414900779724,0.048331473022699356,0.028923945501446724,-0.05700543895363808,-0.004508171230554581,-0.010128458961844444,-0.007930543273687363,-0.011982351541519165,-0.04078107699751854,-0.009124306961894035,-0.0026835035532712936,-0.031558889895677567,-0.027680279687047005,-0.03904514014720917,0.0363161563873291,-0.04639700427651405,-0.038190871477127075,-0.0571417436003685,-0.04668126255273819,-0.00266280141659081,0.03350869193673134,0.05858857184648514,0.03731394559144974,0.002300806576386094,0.004984138999134302,-0.023758113384246826,0.03135933727025986,0.016666432842612267,0.0313270166516304,-0.030981240794062614,-0.04285234957933426,0.05084120109677315,0.022860700264573097,-0.027655145153403282,-0.05170324444770813,-0.018899263814091682,0.04381449148058891,-0.03436971828341484,0.027652682736516,-0.046014003455638885,-0.05001436918973923,0.010774446651339531,0.0031059205066412687,0.011796756647527218,0.032385483384132385,0.023192590102553368,-0.043583646416664124,-0.016094164922833443,-0.04982241988182068,-0.046215739101171494,0.02918311022222042,0.020129289478063583,-0.05294922739267349,0.05259726569056511,-0.04357685148715973,-0.059871651232242584,-0.0010857138549908996,0.03218650817871094,0.006624378729611635,0.012158653698861599,0.010849060490727425,0.026698922738432884,-0.044020429253578186,0.05918562784790993,0.021000593900680542,-0.025286810472607613,0.010720971040427685,0.031620535999536514,-0.01876957342028618,0.019005896523594856,-0.011735809035599232,-0.05432569235563278,-0.04917598143219948,-0.016761204227805138,0.040829889476299286,-0.016246754676103592,0.034691404551267624,-0.01113137137144804,0.0576728992164135,0.04213527962565422,-0.0018420256674289703,0.038881827145814896,0.016262397170066833,-0.01709905080497265,-0.0011970909545198083,-0.05455877631902695,0.02747001312673092,-0.05031084269285202,-0.007164758164435625,0.0020048560108989477,0.04692748934030533,0.019935069605708122,-0.051056716591119766,-0.053617000579833984,0.044848162680864334,-0.02359231747686863,-0.03694677725434303,0.026837753131985664,0.047501157969236374,0.05315570533275604,0.030220454558730125,-0.01346427109092474,0.03619612753391266,-0.04145699366927147,0.026797352358698845,-0.037311356514692307,-0.0009337633964605629,-0.005728545133024454,-0.004420851357281208,0.021401146426796913,-0.01194076519459486,-0.02759675495326519,-0.058165568858385086,0.032404445111751556,0.0500323511660099,0.03058556653559208,0.004810260143131018,0.018175048753619194,0.021283309906721115,0.04346310719847679,-0.056400030851364136,-0.012360058724880219,-0.015455183573067188,-0.040213536471128464,-0.05824887380003929,-0.023381307721138,0.04734625294804573,-0.011519361287355423,0.05973675101995468,0.03842607140541077,0.038544509559869766,0.06516554951667786,0.017534276470541954,0.006102048791944981,-0.05139901489019394,-0.04716874659061432,-0.042137082666158676,0.02887834794819355,-0.035109009593725204,0.04397585615515709,0.009911678731441498,-0.012746579945087433,-0.03173014894127846,0.013301965780556202,-0.04136979207396507,-0.006386184133589268,-0.027102187275886536,-0.027583995833992958,-0.026903226971626282,-0.042506761848926544,0.015129618346691132,0.02057589590549469,-0.020546335726976395,-0.019460506737232208,0.024096475914120674,-0.02227134071290493,0.04623918980360031,0.046502042561769485,-0.034050606191158295,0.03858976811170578,0.0064208065159618855,-0.03925541415810585,0.0034574728924781084,-0.04984981194138527,-0.043078504502773285,0.027612850069999695,-0.037565089762210846,-0.042308125644922256,0.03479224815964699,0.044764529913663864,-0.051859643310308456,-0.018272507935762405,-0.04859325662255287,0.03891276195645332,0.013380346819758415,0.033614080399274826,-0.03865089640021324,-0.024515515193343163,0.031416311860084534,0.007710893172770739,-0.0031549562700092793,-0.023644771426916122,0.03587383031845093,0.006230268161743879,0.044726286083459854,0.04789075627923012,-0.051230210810899734,0.0237319003790617,-0.030395714566111565,-0.022624049335718155,0.05662539228796959,-0.022310208529233932,0.0060303532518446445,0.009588790126144886,-0.02437792532145977,-0.018322404474020004,-0.01644781604409218,0.02789667248725891,0.00778014212846756,-0.020514613017439842,-0.005177830811589956,-0.03425522893667221,-0.007849122397601604,-0.020454369485378265,-0.0022763670422136784,0.020871849730610847,0.020563902333378792,-0.033118195831775665,0.04623418673872948,-0.02561521716415882,-0.020062826573848724,0.028016868978738785,-0.047773782163858414,-0.01076747290790081,0.026417076587677002,0.03248525783419609,0.011216459795832634,-0.01129793282598257,-0.008803852833807468,-0.03604127839207649,0.029465368017554283,-0.05130922794342041,-0.031184768304228783,0.025393441319465637,0.047113966196775436,0.0229807011783123,-0.02963970974087715,-0.047966282814741135,0.05315069854259491,0.03641844540834427,-0.0323515422642231,0.005099307745695114,-0.010803541168570518,-0.010335826314985752,0.009231467731297016,0.012175762094557285,0.0011964059667661786,-0.007535741664469242,-0.0580562986433506,-0.025334343314170837,-0.010557929053902626,-0.0298498272895813,0.047193486243486404,0.012934940867125988,-0.03175037354230881,-0.046052489429712296,-0.040261827409267426,0.0191083624958992,-0.014523591846227646,0.04574289917945862,0.026278097182512283,-0.05149232596158981,0.023679396137595177,0.010389486327767372,0.046571508049964905,0.038990117609500885,0.031323280185461044,-0.022540943697094917,0.02521497942507267,0.03130252659320831,0.06283588707447052,-0.035140763968229294,-0.01901608146727085,-0.04497568681836128,-0.005125138442963362,-0.00026696326676756144,-0.04674612358212471,-0.01517940778285265,0.03009389340877533,-0.0552382618188858,-0.03846006095409393,-0.022568777203559875,-0.05575140193104744,-0.009442199021577835,-0.02262571081519127,-0.0063517154194414616,-0.020091911777853966,0.025483112782239914,-0.04897627606987953,0.019589848816394806,0.05095958337187767,-0.025771979242563248,-0.009017418138682842,-0.048353809863328934,0.02586379647254944,0.02217850834131241,-1.6322009344094113e-07,0.03157239407300949,-0.030044374987483025,0.02435464970767498,-0.04768155887722969,0.015613318420946598,0.0046464065089821815,0.04835972934961319,0.028571905568242073,0.01615176908671856,0.007141612004488707,-0.049733567982912064,0.005950036458671093,-0.037190694361925125,-0.04659392684698105,0.042264074087142944,0.005354834720492363,-0.0018074094550684094,0.006035728380084038,0.02134173922240734,0.050042539834976196,0.025271518155932426,-0.013491442427039146,-0.01866442710161209,0.05532896891236305,0.031171025708317757,0.061107784509658813,0.011230271309614182,-0.008504369296133518,0.03719032183289528,-0.0414000041782856,-0.016290638595819473,0.013708501122891903,-7.988597644725814e-05,0.012437726370990276,0.03836715966463089,-0.011664817109704018,0.04740795120596886,0.014357918873429298,0.05152690038084984,-0.012052481062710285,-0.03772768750786781,0.04755498468875885,-0.033830203115940094,-0.034582462161779404,-0.0013457731110975146,0.05870465561747551,0.0456741526722908,-0.025318115949630737,-0.025411715731024742,-0.04813093692064285,-0.023489508777856827,0.0030860425904393196,-0.026279471814632416,-0.04981100559234619,0.04805012047290802,-0.004066274967044592,-0.00865824706852436,0.038770027458667755,-0.0235478226095438,-0.04510980471968651,0.030034657567739487,0.03517518192529678,0.026559866964817047,0.012205652892589569,-0.04212988540530205,-0.03792060911655426,-0.03835630416870117,-0.0019708580803126097,-0.039799854159355164,0.013193354941904545,0.032691989094018936,0.04398828744888306,-0.013713239692151546,-0.0354747511446476,-0.013616525568068027,0.0544438362121582,0.022613730281591415,-0.01713481731712818,-0.016225457191467285,-0.00737810367718339,-0.028091026470065117,0.0037027010694146156,-0.01537101436406374,0.04332318156957626,-0.014636020176112652,-0.051563557237386703,0.04203958064317703,0.0523667149245739,0.041404351592063904,0.03249150887131691,-0.033978421241045,0.005946130491793156,0.020350754261016846,0.056797806173563004,0.04102880135178566,-0.0019056437304243445,0.057518113404512405,0.008828702382743359,-0.022801941260695457,-0.045977115631103516,0.025934509932994843,0.002151669468730688,-0.021805860102176666,0.023365944623947144,-0.022874461486935616,0.02877683937549591,-0.01764669455587864,-0.014503785409033298,-0.004529835656285286,0.047864027321338654,-0.01968521811068058,-0.032915517687797546,-0.03778000921010971,0.04242353513836861,0.004036132711917162,0.05014735832810402,0.0037750930059701204,-0.03922952339053154,-0.005141235888004303,0.0071077425964176655,0.03361932188272476,-0.016034871339797974,-0.034596025943756104,-0.018330572172999382,0.05124516785144806,0.025447417050600052,0.039690565317869186,0.007871989160776138,-0.03956646844744682,0.056208327412605286,-0.022682204842567444,-0.04568503797054291,-0.02848479151725769,0.03697408735752106,-0.03585633262991905,0.015480026602745056,-0.0453583225607872,-0.005675783846527338,-0.026976443827152252,-0.044902004301548004,0.0371616892516613,-0.0409768782556057,-0.05544684827327728,0.006715424358844757,0.052553337067365646,0.004680589772760868,0.030648618936538696,-0.0023698543664067984,-0.03553522750735283,0.004319295287132263,-0.053988322615623474,-0.05650988593697548,0.0020996073726564646,0.0007911850698292255,-0.03198017552495003,-0.03901756554841995,0.0038660098798573017,0.019162695854902267,0.022006351500749588,-0.02980472333729267,-0.025804340839385986,-0.03713596984744072,-0.04664542153477669,-0.0355534702539444,-0.02804405987262726,-0.00034099671756848693,0.008506699465215206,0.029685404151678085,0.03358221799135208,-0.012382792308926582,-0.007573126349598169,-0.025533368811011314,-0.03136146068572998,0.037255093455314636,0.04084821790456772,0.05996023118495941,-0.00917216669768095,0.058842018246650696,-0.006532869301736355,-0.01233673095703125,0.06052020564675331,0.06636089831590652,-0.04400399699807167,-0.01627589575946331,-0.053317565470933914,-0.03699138015508652,0.03135025128722191,-0.025931967422366142,-0.011157072149217129,-0.032794248312711716,0.03179730474948883,0.027256203815340996,0.035887397825717926,0.04834594577550888,0.05865663290023804,-0.030947908759117126,-0.002913005882874131,0.05808495730161667,-0.029735131189227104,-0.015333577990531921,0.007083323318511248,0.0012830044142901897,0.020098354667425156,-0.048346731811761856,0.04398129880428314,-0.040854863822460175,0.03515194356441498,-0.0552871972322464,-0.036781735718250275,0.0031244386918842793,0.014045460149645805,-0.0035028092097491026,-0.002068163128569722,-0.047093234956264496,-0.00831223838031292,-0.053501151502132416,-0.0584208220243454,-0.02566104382276535,0.008326735347509384,-0.014333854429423809,-0.015675676986575127,-0.002907932037487626,0.004617962520569563,0.04550762474536896,-0.04844127595424652,0.006010858342051506,-0.038291167467832565,0.043740399181842804,-0.025155479088425636,0.03165299817919731,-0.04062194377183914,0.01613367162644863,0.04633469879627228,0.04729577526450157,-0.04088839888572693,0.006465080194175243,-0.014246877282857895,0.014966857619583607,-0.0359133705496788,-0.04434474557638168,-0.010524132288992405,-0.023228423669934273,0.05506301298737526,0.011208412237465382,0.024294525384902954,0.0056547001004219055,-0.057566847652196884,-0.024034926667809486,0.004968945402652025,0.018983880057930946,0.02202260121703148,-0.03458673506975174,0.04863288253545761,-0.01621623896062374,0.030929261818528175,0.051442213356494904,-0.006050023715943098,0.045103881508111954,0.03462785482406616,0.02917376533150673,0.05450332164764404,-0.015766309574246407,-0.019414564594626427,0.060655172914266586,0.04725445806980133,0.05948157235980034,-0.03965507447719574,