-0.06271039694547653,-0.03393733128905296,0.009657802991569042,0.040948089212179184,-0.06477435678243637,-0.07677102088928223,-0.1503486931324005,0.04118294641375542,0.12012608349323273,0.008615734986960888,-0.14445874094963074,-0.09512225538492203,-0.11173000931739807,0.08515959978103638,0.04452016204595566,-0.024486539885401726,-0.047624435275793076,0.004645171109586954,0.1523132622241974,-0.10794777423143387,-0.10224606096744537,-0.06184503063559532,-0.14579157531261444,0.07724753022193909,0.08807767927646637,-0.0895373523235321,-0.01704341545701027,-0.11303598433732986,-0.04142535850405693,-0.05770539119839668,0.11235658079385757,-0.13246820867061615,0.13862745463848114,-0.026769891381263733,0.07077302783727646,0.11099473387002945,0.11418803036212921,-0.05115726217627525,-0.05377721041440964,0.051593855023384094,0.13511720299720764,-0.045770447701215744,-0.07858283072710037,-0.09157846868038177,0.03790203481912613,0.08404786139726639,-0.0001248985790880397,-0.01506116520613432,-0.08145943284034729,-0.07881204038858414,0.11866933107376099,0.009801318868994713,0.1351124793291092,-0.020982664078474045,0.002823015907779336,0.00016366397903766483,-0.07199062407016754,-0.04939316213130951,-0.035991061478853226,0.043649207800626755,0.13756263256072998,0.06590031832456589,-0.13021443784236908,-4.166442158748396e-05,-0.0402848906815052,-0.11511354148387909,0.13178355991840363,-0.011552972719073296,0.017329609021544456,0.03497111052274704,0.12499281764030457,0.017264338210225105,-0.10819640010595322,0.10781291872262955,0.08041738718748093,0.08217498660087585,-0.14338010549545288,-0.132329061627388,-0.13693901896476746,-0.06116665154695511,-0.0904068723320961,0.08962986618280411,0.1421920359134674,0.030902402475476265,0.05652891471982002,0.12550842761993408,-0.022946950048208237,-0.15200266242027283,0.08736934512853622,0.14629797637462616,0.05381656438112259,0.11870264261960983,0.0415966771543026,-0.08269428461790085,-0.09030803292989731,-0.05014435574412346,0.07892993092536926,-0.034004732966423035,0.03873360902070999,-0.13917982578277588,0.10916722565889359,-0.13991667330265045,0.08023923635482788,0.000341290608048439,-0.026867270469665527,-0.07592049241065979,-0.013204792514443398,-0.0042702434584498405,-0.05893949419260025,-0.038926418870687485,0.003045192454010248,0.01941872015595436,0.12973175942897797,-0.007033901289105415,0.014466851018369198,-2.3822753064450808e-05,0.10757579654455185,0.12275519222021103,0.11821989715099335,-0.0687602311372757,-0.10836527496576309,0.02807687222957611,-0.06952875852584839,0.02108439803123474,0.010392828844487667,0.12488396465778351,0.03786006569862366,0.01072689425200224,0.060898128896951675,-0.08352279663085938,-0.1501753181219101,0.029677994549274445,-0.05930345132946968,0.01039552316069603,0.08382507413625717,-0.0061566391959786415,-0.006465100683271885,-0.1255052387714386,0.0587647520005703,-0.07831291109323502,-0.08620495349168777,-0.022840600460767746,0.07814256101846695,-0.11259055137634277,-0.04140705615282059,-0.03596991300582886,0.004334744997322559,0.12221363186836243,0.12680178880691528,0.04120800644159317,-0.09088844060897827,0.08809437602758408,-3.198617815058924e-09,0.1131654903292656,0.07947644591331482,-0.13673138618469238,-1.345381065220863e-06,-0.004649569746106863,0.0016770156798884273,-0.09082967787981033,-0.09541142731904984,0.0005123818991705775,0.03903055563569069,0.10386087745428085,0.0023301930632442236,-2.0271321773179807e-05,-0.09671289473772049,2.783206696221896e-07,0.01022036001086235,0.04081450775265694,5.2152528951410204e-05,3.6329871363705024e-05,-0.07509667426347733,0.001130705582909286,-0.01937987096607685,0.049121420830488205,0.04093265160918236,0.00030306566623039544,0.10818887501955032,-3.049930455745198e-05,-0.1121399998664856,0.10631471872329712,-0.001071962877176702,-0.13238178193569183,0.10408501327037811,0.0558796226978302,-0.01077339332550764,-0.004096954595297575,0.016735872253775597,-0.09655027091503143,-0.09057249873876572,0.010463343001902103,0.17190499603748322,-0.11435137689113617,0.07787472754716873,-0.08268838375806808,-0.1203651875257492,0.1357703059911728,0.07513963431119919,0.012601122260093689,0.07776743918657303,0.039096295833587646,0.12044273316860199,-0.03773501142859459,0.16117580235004425,-0.0671309307217598,0.01050516776740551,0.006427130661904812,0.10995075106620789,0.024242985993623734,-0.02823050506412983,0.13687598705291748,-0.02741871029138565,0.12500521540641785,-0.1337823122739792,0.06279150396585464,-0.09681731462478638,-0.12569721043109894,-0.009548045694828033,-0.029633408412337303,0.13211596012115479,0.07584308832883835,0.012490186840295792,0.04221970587968826,-0.1358288824558258,-0.060800641775131226,-0.13305313885211945,-0.05502086505293846,-1.8969269149238244e-05,-0.016312725841999054,-0.08189668506383896,-0.0036158289294689894,0.044620055705308914,-0.008581501431763172,5.4110438213683665e-05,-0.12732966244220734,0.06859427690505981,-0.10719838738441467,0.09162946790456772,0.008276737295091152,-0.11830555647611618,-0.036417219787836075,-4.361629544291645e-05,-0.020275477319955826,-0.05685589089989662,-0.07067056000232697,4.02176056013559e-06,0.09368448704481125,-0.1267615407705307,-0.03676927089691162,0.047473762184381485,-0.00817963108420372,-0.1403028666973114,0.09425775706768036,0.005766316317021847,-0.1329888254404068,-0.01778867095708847,-0.1253024786710739,0.06489052623510361,0.026255406439304352,-0.024512339383363724,-0.13257937133312225,0.09142334759235382,0.09077173471450806,-0.05345231667160988,0.10354029387235641,-0.007376707624644041,0.1494373381137848,-0.0833597332239151,-0.03102096915245056,0.1616218239068985,-0.04627242684364319,0.17260906100273132,-0.05269043520092964,-0.1517297327518463,0.0009639738709665835,-0.06664794683456421,0.054427750408649445,0.051164619624614716,0.08888982981443405,0.09541518241167068,0.07760785520076752,0.11494161188602448,-0.11434147506952286,-0.04066680371761322,-0.15386436879634857,-0.04789326339960098,-0.07564149051904678
