0.2694597840309143,0.19351854920387268,-0.2546938359737396,0.06109314039349556,0.19653616845607758,-0.13776126503944397,0.2699632942676544,0.24704048037528992,-0.2352152168750763,-0.22028137743473053,0.11271385103464127,0.17816980183124542,-0.30649444460868835,0.32611820101737976,-0.28783339262008667,0.019384840503335,-0.09702526032924652,0.2885109484195709,-0.3071070909500122,0.06910211592912674,0.10138257592916489,0.30501291155815125,-0.009484916925430298,0.052177656441926956,0.27551645040512085,-0.24239715933799744,0.1486777812242508,-0.3177236318588257,0.25509220361709595,-0.03377372398972511,0.1753249317407608,0.2890961170196533,-0.26628169417381287,0.014835932292044163,-0.2574053108692169,0.18323685228824615,-0.16132496297359467,0.13016961514949799,-0.12673473358154297,-0.19187277555465698,-0.018597185611724854,-0.2722119092941284,0.05642279237508774,-0.09719212353229523,0.13231627643108368,-0.01476555597037077,-0.0788300633430481,-0.2978121340274811,0.01829635724425316,-0.27478426694869995,0.30607834458351135,0.297564834356308,0.11246366053819656,-0.20496681332588196,-0.13850580155849457,-0.3267812728881836,0.1881793886423111,0.31578823924064636,0.15552039444446564,-0.15464159846305847,-0.11098816245794296,0.15131773054599762,-0.22775903344154358,0.040952712297439575,-0.050690505653619766,0.0898253470659256,0.05532262846827507,0.10475252568721771,-0.12229109555482864,0.15512989461421967,-0.0012064756592735648,-0.25592178106307983
