0.04997430369257927,-0.018172763288021088,-0.04225649684667587,0.06457862257957458,0.05760549381375313,-0.0031603688839823008,0.04710282385349274,-0.02197350189089775,-0.0726303979754448,0.030974244698882103,-0.023214545100927353,0.04052450507879257,-0.026330014690756798,0.02330322004854679,-0.02452068030834198,0.04307538643479347,-0.06698667258024216,0.03512302413582802,-0.005670610349625349,0.0843651294708252,0.05133330076932907,0.07279779762029648,0.05853144824504852,-0.05366295948624611,-0.026862801983952522,-0.0601225420832634,0.05701806768774986,0.007971396669745445,-0.02981593832373619,-0.011848521418869495,0.0779556855559349,0.012649428099393845,-0.05428428202867508,-0.012997889891266823,0.07512317597866058,-0.07266764342784882,-0.017721716314554214,0.07705465704202652,0.030431007966399193,-0.005343512166291475,-0.008874388411641121,-0.054134029895067215,-0.041047193109989166,0.06394723057746887,0.07505233585834503,0.06400483101606369,-0.05634821951389313,-0.08467788249254227,-0.05201051011681557,0.06776362657546997,0.007693863473832607,0.003116779262199998,-0.07520375400781631,0.020082009956240654,0.017548199743032455,0.057749729603528976,0.0055412244983017445,-0.01869349367916584,0.044806383550167084,0.08403651416301727,-0.029850216582417488,0.051391009241342545,-0.016424192115664482,0.06706102937459946,0.07342087477445602,-0.016791129484772682,0.08272034674882889,-0.020258557051420212,0.04131821170449257,-0.024549873545765877,0.08247753977775574,0.001404958195053041,-0.04986060783267021,0.05884334072470665,-0.07514411211013794,-0.04391886666417122,-0.06409508734941483,0.0411512553691864,-0.017665741965174675,-0.0799938440322876,-0.07374612987041473,-0.06109991297125816,0.07430750876665115,0.06820482015609741,0.020175863057374954,-0.07462666183710098,0.033481307327747345,-0.07251659035682678,0.07239674031734467,-0.07525639981031418,0.08088658004999161,-0.0042989617213606834,0.031704194843769073,-0.06510695815086365,-0.07169416546821594,0.04745804890990257,0.043693460524082184,0.08008325099945068,-0.037523072212934494,0.02607603184878826,0.01986231654882431,-0.045989394187927246,-0.0071644773706793785,-0.022371508181095123,-0.06335249543190002,-0.052182357758283615,-0.05248088017106056,-0.06751751154661179,0.01769815944135189,0.03410514071583748,-0.011804774403572083,-0.020775625482201576,-0.01062950398772955,0.02894333191215992,-0.02812214568257332,-0.07156338542699814,-0.017397472634911537,0.048663150519132614,-0.04960092157125473,-0.005717908497899771,-0.05230705067515373,-0.022702114656567574,-0.01332184299826622,0.026947632431983948,0.08697546273469925,-0.05928785726428032,0.05049525946378708,-0.064718097448349,-0.05591701343655586,0.015458252280950546,0.0692794919013977,0.02829895168542862,0.07628773897886276,-0.0008865065174177289,0.061693113297224045,-0.02053307183086872,-0.05046485364437103,-0.027854381129145622,0.041386671364307404,-0.050112444907426834,-0.06268108636140823,-0.04383881390094757,0.012455325573682785,-0.06670325994491577,0.07059307396411896,-0.043225809931755066,-0.059032097458839417,-0.030864885076880455,-0.004941199440509081,-0.031186211854219437,-0.08435361087322235,-0.0295884869992733,-0.08155027776956558,-0.02452780492603779,0.005938466638326645,-0.03166821599006653,-0.009966566227376461,0.0741254985332489,-0.07995065301656723,-0.047126851975917816,0.01805221103131771,0.014260497875511646,-0.07617650926113129,0.024948757141828537,-0.046427421271800995,-0.04188995063304901,-0.06814004480838776,-0.054719191044569016,-0.005543227307498455,0.07657154649496078,0.01222580298781395,-0.052073922008275986,-0.02252129465341568,-0.06081497296690941,0.006482195109128952,0.07123998552560806,-0.05874018371105194,-0.0503510981798172,-0.04083152115345001,0.06339264661073685,-0.06407898664474487,0.07215619832277298,-0.053171806037425995,0.050526175647974014,-0.061880312860012054,0.025435423478484154,-0.028190430253744125,0.06295609474182129,-0.014987139031291008,-0.08492697775363922,-0.0662192702293396,-0.05463600158691406,0.03811752796173096,0.014156014658510685,0.054274801164865494,0.027142630890011787,0.060474153608083725,0.003356864210218191,0.015079360455274582,0.05934552103281021,-0.0705447793006897,0.015316285192966461,0.017271606251597404,-0.01830083131790161,0.08352313190698624,-0.022727588191628456,0.08710005134344101,0.018659943714737892,0.00446524191647768,0.05500034615397453,-0.04176543280482292,0.04094194993376732,-0.005823389161378145,0.071292445063591,0.06804448366165161,0.05779218301177025,0.0050787245854735374,-0.035540781915187836,-0.050997134298086166,-0.06190388277173042,0.03296779468655586,-0.0429421067237854,0.04918226599693298,-0.02108386904001236,-0.07193273305892944,-0.038829702883958817,-0.014431312680244446,-0.06570263206958771,-0.07448818534612656,-0.05347573757171631,0.04409770667552948,-0.006265102885663509,0.017656657844781876,-0.048926737159490585,0.050683870911598206,-0.05730995163321495,0.0710373967885971,0.05974055081605911,0.0498029924929142,-0.006227335426956415,0.06398913264274597,0.060945067554712296,-0.07655336707830429,-0.08586204797029495,-0.05699155479669571,-0.0052749100141227245,0.060545820742845535,-0.04137633368372917,0.07784195989370346,-0.0017646708292886615,-0.0736863985657692,-0.07811269164085388,-0.06870893388986588,0.0568520724773407,0.016593461856245995,0.01877760700881481,-0.030163610354065895,-0.028292471542954445,-0.06682001054286957,0.06615512818098068,-0.014370874501764774,0.04527321085333824,-0.03644317016005516,0.08827681094408035,-0.061728883534669876,-0.07687260955572128,-0.039150260388851166,-0.031026650220155716,0.06899890303611755,-0.00826259981840849,0.015350960195064545,-0.03804865851998329,0.025220874696969986,0.0033012134954333305,-0.02029460296034813,-0.014407741837203503,0.0691569373011589,-0.07581155002117157,-0.053762465715408325,-0.06207124888896942,0.07387763261795044,0.05476266145706177,-0.04239260032773018,-0.042662255465984344,-0.07962439209222794,-0.0824507400393486,-0.00932910293340683,-0.05945483595132828,0.022491952404379845,0.03025052696466446,0.015190228819847107,0.04690806567668915,0.06823569536209106,-0.012124411761760712,0.04194362089037895,0.02501489967107773,-0.010874544270336628,0.04774224013090134,-0.03490087017416954,0.04711950942873955,0.07639075815677643,-0.05426669120788574,0.013105564750730991,-0.003752347780391574,0.04160415381193161,-0.054331183433532715,-0.03156592324376106,0.035803817212581635,-0.0805545523762703,-0.04098452255129814,0.01903313584625721,-0.027461733669042587,0.07113935798406601,0.017958587035536766,0.007418300490826368,0.0631072148680687,0.08507540822029114,0.05248115584254265,0.022376773878932,0.08065055310726166,0.016877025365829468,0.009291050024330616,-0.07271642982959747,-0.04564986750483513,-0.06805025041103363,0.023701244965195656,0.0786137655377388,-0.03665659576654434,-0.019699905067682266,-0.07977981120347977,-0.01814078912138939,-0.021596182137727737,0.0583178848028183,-0.04268825799226761,-0.02132464572787285,-0.010869977995753288,-0.06855294853448868,0.031223461031913757,-0.06373928487300873,-0.03758403658866882,0.05265228450298309,-0.050415270030498505,-0.0798482820391655,0.01577029377222061,-0.07516678422689438,-0.018702112138271332,-0.04706427454948425,0.005434349644929171,-0.004999399650841951,0.038802556693553925,-0.04055678844451904,0.028162164613604546,-0.08356828987598419,-0.018452687188982964,-0.062017772346735,-0.036318339407444,0.05425427109003067,-0.014153673313558102,0.0705777183175087,0.010774342343211174,-0.0004174704372417182,-0.05483315512537956,-0.051635757088661194,-0.07284872978925705,0.05478278174996376,0.036217231303453445,0.027567140758037567,-0.0039390684105455875,-0.0223921500146389,-0.06755051761865616,0.025691216811537743,0.06590145826339722,-0.016601165756583214,-0.0048384713008999825,-0.004650239832699299,0.06253562867641449,0.021807901561260223,0.05692041665315628,-0.01036730594933033,0.03290889039635658,-0.08364548534154892,-0.057968322187662125,-0.0656745508313179,-0.06550227105617523,0.07920560985803604,-0.04537108168005943,0.008204082027077675,-0.007453978061676025,-0.0032324506901204586,0.08463960140943527,0.016753047704696655,0.04723278060555458,0.07625306397676468,-0.031131993979215622,-0.04054821655154228,-0.010599542409181595,0.044839028269052505,0.07526639103889465,-0.027400128543376923,-0.08538215607404709,-0.08719543367624283,-0.061771001666784286,-0.04966360703110695,0.05917686969041824,-0.04759643226861954,-0.005581751000136137,0.07284905016422272,0.07574254274368286,-0.007187866605818272,-0.05816735327243805,-0.021187245845794678,-0.05113017186522484,-0.03971974924206734,-0.07687651365995407,-0.016361240297555923,0.006266466341912746,-0.03642210364341736,-0.022549569606781006,-0.03425521403551102,0.03390124812722206,0.00689360685646534,0.05363954231142998,0.07516103237867355,0.04208304360508919,0.05442541837692261,0.0400547981262207,0.0436425656080246,0.052056897431612015,-0.006580093409866095,0.02179861254990101,-0.06036723777651787,0.04379446431994438,-0.07567328214645386,0.03139650821685791,-0.08451627939939499,0.03799042850732803,-0.08219452202320099,0.059489138424396515,0.031851112842559814,-0.019202902913093567,0.03255738317966461,0.07087016850709915,0.06427758187055588,-0.03379765525460243,-0.04059329256415367,-0.05301826819777489,-0.05290769040584564,0.004823579452931881,-0.020504077896475792,0.04419863596558571,-0.051421210169792175,0.06136266514658928,-0.022889068350195885,-0.04587094113230705,-0.01603252813220024,-0.05716102197766304,-0.05820278078317642,-0.04847795143723488,-0.032532744109630585,0.07581533491611481,-0.0695519745349884,-0.060352325439453125,-0.00047143036499619484,-0.010061318054795265,-0.0037143961526453495,0.0712684839963913,-0.0799231231212616,-0.024637138471007347,-0.052416179329156876,0.024879081174731255,0.041409727185964584,-0.07785098999738693,-0.04651259630918503,0.06116711348295212,-0.04072915017604828,0.035874560475349426,0.07350234687328339,0.02659514732658863,-0.04057088866829872,-0.03877269849181175,-0.07060875743627548,0.029570652171969414,0.0015226461691781878,-0.04597367346286774,0.04856627434492111,-0.030658356845378876,0.015481195412576199,-0.03675157204270363,0.018168753013014793,0.008051004260778427,-0.06919785588979721,-0.07683904469013214,-0.02757665328681469,0.07984784990549088,0.0587085485458374,-0.05733359977602959,-0.06296796351671219,0.0654115080833435,-0.02285982109606266,-0.005271954461932182,0.0036112123634666204,0.01759309135377407,-0.06196034327149391,0.08049525320529938,-0.004248968791216612,-0.047568775713443756,0.020459769293665886,0.005862182006239891,-0.06465126574039459,-0.023780161514878273,-0.03457094728946686,-0.07720417529344559,-0.003283025464043021,-0.07884551584720612,0.022076692432165146,-0.016616852954030037,-0.05587984621524811,0.0795634314417839,-0.035782985389232635,0.06095233932137489,0.07329647988080978,-0.012555630877614021,-0.005732163321226835,0.06354336440563202,0.03446537256240845,-0.06182408332824707,-0.023696647956967354,-0.03208013251423836,-0.07466430217027664,0.00909777544438839,-0.04873621463775635,-0.06718558818101883,-0.07134655117988586,0.05252380669116974,-0.07397212088108063,-0.008712776005268097,-0.08748980611562729,-0.06377612799406052,-0.02483491040766239,-0.021896352991461754,0.01923348754644394,0.048761602491140366,-0.015000414103269577,0.037342607975006104,0.052098315209150314,-0.03126123920083046,-0.01804528385400772,-0.06624739617109299,-0.0034878000151365995,-0.045510321855545044,0.020307403057813644,-0.07104585319757462,0.03337668627500534,-0.02687242068350315,-0.05716165527701378,0.04203985258936882,-0.0698106661438942,-0.04150097072124481,-0.019555529579520226,-0.05349280685186386,0.004245408810675144,0.01411961205303669,0.07071144878864288,0.0685078576207161,-0.040536895394325256,-0.06614354252815247,0.07763893902301788,0.08186022192239761,-0.07807622849941254,-0.07590974867343903,-0.06968234479427338,0.037690669298172,-0.05487791821360588,0.04128360003232956,-0.017989274114370346,-0.03305897116661072,0.04496542736887932,-0.04509671777486801,0.018218165263533592,-0.025395268574357033,0.07437042146921158,-0.009187801741063595,0.021404273808002472,-0.037863198667764664,-0.05961232632398605,0.04134378582239151,0.02364468015730381,0.06962046772241592,0.038120854645967484,-0.054508745670318604,0.06570781767368317,-0.035591814666986465,0.0030777438078075647,-0.036871083080768585,-0.002708381973206997,-0.00567886745557189,-0.039984144270420074,0.02691747061908245,0.07056032121181488,0.048488110303878784,-0.08538862317800522,-0.02086728997528553,-0.034559980034828186,-0.0633883997797966,-0.04178837686777115,-0.008745880797505379,0.0037630603183060884,0.04213443398475647,-0.05404110997915268,0.06602175533771515,-0.04605979099869728,0.07354462146759033,0.06804361939430237,-0.0819229781627655,0.07690515369176865,-0.005308207124471664,-0.04679004102945328,-0.07494413107633591,0.04224683344364166,-0.05820624530315399,0.027211003005504608,-0.006309719756245613,0.00796173233538866,0.03218735381960869,-0.07650062441825867,-0.03154565021395683,0.0763377845287323,0.03555881977081299,-0.02426055446267128,-0.05940389260649681,0.05378549173474312,0.012320797890424728,0.02543806843459606,-0.023880885913968086,0.013378432020545006,0.0311893280595541,0.004852817859500647,0.036772098392248154,-0.0640866607427597,-0.06020164489746094,-0.03216591104865074,0.04531192407011986,-0.027989588677883148,-0.07649072259664536,-0.026987887918949127,0.005442259833216667,0.0672425776720047,0.03341911360621452,0.029038405045866966,0.07699617743492126,-0.006755141541361809,0.08487536013126373,-0.049504123628139496,-0.004808677360415459,-0.04874815791845322,0.07037962228059769,0.058642078191041946,-0.022632349282503128,-0.0810137689113617,0.062425509095191956,-0.03599398210644722,0.01928931102156639,-0.06436699628829956,-0.05355308577418327,-0.01477506197988987,0.0430135652422905,-0.015515393577516079,0.060478128492832184,-0.02070574276149273,0.07984534651041031,0.02073257602751255,0.004178033675998449,0.03205563873052597,0.043691374361515045,0.02356335148215294,0.08014155179262161,-0.012757196091115475,-0.0601385198533535,0.06794571131467819,0.0513678677380085,-0.0006737871444784105,0.058014027774333954,-0.05144504830241203,0.08456038683652878,0.015479862689971924,0.050201624631881714,0.062315989285707474,0.027338899672031403,-0.05668402463197708,-0.026959890499711037,0.026478003710508347,-0.045261822640895844,-0.03157155588269234,0.05438493564724922,-0.04783353582024574,0.08101694285869598,0.028896277770400047,0.07465148717164993,-0.017021849751472473,0.017425820231437683,0.0274931900203228,-0.029520682990550995,0.04753325879573822,-0.04894908890128136,-0.03954348713159561,0.009823332540690899,-0.012453294359147549,-0.042617134749889374,-0.06142931059002876,-0.020567553117871284,0.04209158942103386,-0.046286534518003464,0.036669012159109116,0.005352274514734745,0.041381172835826874,0.04437188059091568,-0.07381218671798706,-0.07487816363573074,-0.0009276027558371425,0.06459934264421463,0.03496137261390686,-0.00648318137973547,0.08491493761539459,0.011495423503220081,0.009618086740374565,0.025585217401385307,0.02626071125268936,-0.05328315868973732,-0.006389823276549578,-0.061536286026239395,0.0050633009523153305,-0.04658352956175804,0.032491207122802734,0.010034726932644844,-0.03934263437986374,-0.038056302815675735,0.07515185326337814,0.022913873195648193,-0.04763001203536987,0.05145705118775368,-0.07738015055656433,0.05532237887382507,0.07935569435358047,0.05386574938893318,-0.0400480292737484,-0.02444504015147686,-0.010069464333355427,0.06675287336111069,0.06308207660913467,0.06724739819765091,-0.05086594447493553,-0.05895812064409256,0.01738166995346546,0.05454159155488014,-0.08560161292552948,0.07755070924758911,-0.0534784309566021,0.037667352706193924,0.0619279220700264,-0.05244073644280434,0.01246652752161026,-0.028615232557058334,-0.03858565539121628,-0.01668967679142952,-0.04298722371459007,-0.056978292763233185,0.026114139705896378,0.0010376459686085582,0.07117731869220734,-0.0743195116519928,-0.06629512459039688,-0.02100728638470173,-0.06859342008829117,-0.04260462522506714,0.07968352735042572,-0.02638164907693863,-0.02617768384516239,-0.03611790016293526,0.03852618858218193,-0.030870093032717705,0.07141700387001038,0.07033486664295197,0.06684946268796921,-0.028362389653921127,0.07943522930145264,0.004298008978366852,0.04226851835846901,-0.07436519116163254,-0.05024354159832001,0.07637576758861542,-0.06684625148773193,-0.07217103987932205,-0.07453233748674393,-0.04090384021401405,-0.04512963443994522,-0.049851324409246445,0.06859242916107178,0.04431847482919693,0.0859198272228241,-0.07875031977891922,-0.03775617107748985,0.046836551278829575,0.05915873870253563,-0.0204799585044384,0.06525351107120514,-0.003233770141378045,0.03612881526350975,-0.0787058025598526,-0.05619758367538452,-0.06501194089651108,0.060973141342401505,0.015369917266070843,-0.026974808424711227,-0.030812710523605347,0.057890333235263824,-0.07337437570095062,0.03638176992535591,0.02496734820306301,0.021685129031538963,-0.06272223591804504,0.06255295872688293,0.030449101701378822,-0.06826494634151459,-0.02601936087012291,-0.07436011731624603,0.05113488435745239,0.028772873803973198,0.005703585222363472,-0.007593690417706966,-0.0010703541338443756,-0.05381832271814346,0.029704194515943527,-0.0067161438055336475,0.06701257824897766,0.011858138255774975,0.0800352543592453,0.032391663640737534,-0.04807702824473381,-0.06520857661962509,0.05507195368409157,0.030584590509533882,0.0010136847849935293,0.0799076184630394,-0.05490206554532051,-0.06190977990627289,-0.0730275809764862,0.023980623111128807,0.025605708360671997,-0.06546711176633835,0.012022092007100582,-0.06698504835367203,0.07617606967687607,0.019562752917408943,-0.012648815289139748,0.049956321716308594,-0.05266782268881798,0.02229752019047737,0.02052462100982666,-0.06288496404886246,-0.07491845637559891,-0.07178676873445511,0.06781342625617981,-0.02831408753991127,-0.05355282127857208,0.0690665915608406,-0.018259136006236076,-0.048764653503894806,-0.012313435785472393,0.07723827660083771,0.07858695089817047,-0.0550348125398159,0.01669739931821823,-0.012933566235005856,-0.03977283462882042,0.05291068181395531,0.009469849057495594,-0.007683790288865566,0.016147080808877945,-0.05158550664782524,0.08329132944345474,0.023253362625837326,-0.024057729169726372,-0.055191926658153534,-0.054198164492845535,0.05605196952819824,-0.04546928405761719,0.04595087096095085,-0.021747790277004242,0.0054314318113029,0.07039511948823929,0.05567648634314537,-0.05797373503446579,0.07738307118415833,-0.026690583676099777,0.072037473320961,0.07186334580183029,0.009912058711051941,0.06870913505554199,0.0023332880809903145,0.014818442985415459,0.05812602862715721,-0.07308680564165115,-0.0029995706863701344,0.056125037372112274,0.062064364552497864,0.016459738835692406,0.052572015672922134,0.047160662710666656,-0.04160133749246597,0.0694616362452507,-0.04896405339241028,0.0470375120639801,0.02653355710208416,-0.07359568029642105,-0.06187409162521362,0.06285980343818665,-0.0060518765822052956,-0.018106378614902496,-0.008768136613070965,-0.08176250755786896,0.013467477634549141,-0.08877816796302795,-0.03374343737959862,-0.023214951157569885,-0.02148725651204586,0.04300810024142265,-0.034641895443201065,0.03306218236684799,0.051591452211141586,0.01765855960547924,-0.07359878718852997,0.007345675025135279,-0.055782195180654526,0.030022669583559036,0.06225082650780678,-0.06465131789445877,0.015999771654605865,0.018524058163166046,-0.050977788865566254,-0.011261391453444958,0.08747676759958267,0.0735636055469513,0.02823285572230816,0.07263226062059402,0.02718561701476574,0.07047507166862488,-0.08195903152227402,0.038069337606430054,-0.090852752327919,-0.03140093386173248,0.05747867375612259,0.024364037439227104,0.004189580213278532,0.027103938162326813,-0.036350809037685394,-0.02101602591574192,-0.023083791136741638,-0.014454497024416924,0.050698671489953995,0.0017128572799265385,-0.02404157817363739,-0.08379808813333511,-0.03814899921417236,0.06321746855974197,0.08406906574964523,0.010428300127387047,0.07634442299604416,-0.04306197911500931,0.07901463657617569,0.024717489257454872,-0.05613911151885986,-0.03289596736431122,-0.05847679078578949,-0.06310396641492844,0.06838070601224899,-0.08255843818187714,-0.02795698679983616,0.001139630563557148,-0.05093611404299736,-0.018604321405291557,0.07009372115135193,0.039762549102306366,0.019809510558843613,-0.0692487508058548,0.018325788900256157,-0.023328976705670357,0.05263132601976395,0.07611369341611862,-0.017122386023402214,-0.04115210101008415,0.04219051077961922,-0.0033128957729786634,-0.03449787572026253,-0.05875008925795555,-0.05155765637755394,0.05027167499065399,-0.07862040400505066,-0.038667649030685425,0.05970187485218048,0.03435215726494789,0.033802878111600876,-0.012110213749110699,0.08079832047224045,-0.056606557220220566,0.06218589469790459,0.0009553227573633194,0.03523259237408638,-0.03592905402183533,-0.055998869240283966,-0.05656607076525688,-0.0013118924107402563,0.04363257810473442,0.008658929727971554,-0.055196117609739304,-0.01970713585615158,0.05380179360508919,0.059960491955280304,0.07202448695898056,-0.010864696465432644,-0.0052122389897704124,-0.04807109758257866,0.03233781456947327,-0.04348091408610344,-0.05855603143572807,0.009997827000916004,0.01727708801627159,0.04842657595872879,-0.039054710417985916,0.07946718484163284,0.055441759526729584,-0.030239827930927277,-0.07716737687587738,0.007764534093439579,0.04299604892730713,-0.08092701435089111,-0.05684279650449753,0.055286556482315063,-0.05512511730194092,-0.07048103213310242,0.07599439471960068,-0.01772509701550007,0.019356703385710716,-0.06499946862459183,-0.06437324732542038,-0.06386726349592209,0.04809843748807907,0.008973091840744019,0.017125464975833893,-0.07129746675491333,0.03189116716384888,0.02260608784854412,0.02347615361213684,0.01308151613920927,-0.029465876519680023,0.01875765435397625,-0.055072907358407974,-0.00448713218793273,0.027009904384613037,0.0019539815839380026,0.06998195499181747,0.07787774503231049,-0.06224577873945236,0.0670243501663208,0.028563112020492554,0.06848079711198807,-0.03856654837727547,-0.07002362608909607,0.04040110483765602,-0.05378260836005211,0.03265410289168358,0.020840099081397057,0.0575094074010849,0.037464506924152374,0.0027600449975579977,-0.022992199286818504,0.011819258332252502,-0.06453009694814682,-0.0048788245767354965,-0.08336877822875977,0.04045622795820236,0.06190533563494682,-0.03975481912493706,-0.08718270063400269,-0.046841904520988464,0.06822702288627625,0.03309926018118858,0.003695824183523655,0.027893107384443283,0.05643725395202637,0.08338849991559982,-0.04376295581459999,0.025479333475232124,0.023103484883904457,0.05901121348142624,0.0300933588296175,0.038637690246105194,-0.07560305297374725,0.05155534669756889,-0.06530585139989853,-0.04451597481966019,0.040970779955387115,0.06919756531715393,-0.00536675238981843,0.07764285802841187,0.04487860947847366,0.022713646292686462,-0.004493696615099907,0.06564240902662277,-0.056968171149492264,0.04781308025121689,-0.009057506918907166,0.06132110208272934,0.061875227838754654,0.08191907405853271,0.07221303135156631,-0.016509423032402992,0.04249434545636177,-0.06273618340492249,-0.07513528317213058,0.06820859760046005,-0.07069548219442368,-0.029229668900370598,0.05645165964961052,-0.08597774803638458,-0.07674342393875122,-0.07373540103435516,0.04823257029056549,0.04812927916646004,-0.036726489663124084,0.019789919257164,-0.0044392975978553295,0.06555425375699997,0.015863068401813507,0.05845193564891815,-0.022014206275343895,0.04603477939963341,-0.047396183013916016,-0.08508718758821487,-0.06882625073194504,-0.037322331219911575,0.07636141031980515,-0.01794978231191635,0.08583606779575348,0.035797178745269775,-0.04207669198513031,-0.042302291840314865,-0.020665492862462997,-0.04144797846674919,-0.006070166826248169,0.02834775112569332,-0.021300973370671272,0.02002866007387638,0.07771195471286774,0.06148853525519371,0.0035774637944996357,0.009003188461065292,0.05265767127275467,-0.05724092945456505,-0.05954491347074509,-0.022436857223510742,0.08531085401773453,-0.018537087365984917,-0.018756046891212463,0.06610304117202759,0.023882359266281128,0.027590684592723846,-0.011033070273697376,0.07889258116483688,0.04249422252178192,0.06553327292203903,-0.005485090892761946,-0.0036347878631204367,-0.020135261118412018,-0.04859519749879837,0.02418527379631996,-0.02884080819785595,0.0005954591906629503,0.05072089284658432,0.07907799631357193,0.07846351712942123,0.05312309414148331,-0.029116353020071983,0.0500563345849514,-0.04159638658165932,0.024301990866661072,-0.06702390313148499,0.04098358377814293,-0.039522141218185425,0.03191600367426872,0.03275817260146141,-0.05085558816790581,-0.003806861350312829,-0.08503614366054535,-0.027325263246893883,-0.07706017047166824,-0.09078813344240189,0.015951504930853844,-0.066112220287323,-0.032437894493341446,0.06523911654949188,-0.001445536850951612,0.08806557953357697,-0.004847581963986158,0.013492560014128685,-0.04060228541493416,0.040401358157396317,0.02366526983678341,-0.07235365360975266,-0.05905652418732643,-0.038806356489658356,0.04993649572134018,-0.07335356622934341,-0.07781058549880981,-0.047304917126894,0.0501226969063282,-0.06510350108146667,0.0088189160451293,-0.02629503235220909,0.012120695784687996,0.016747435554862022,-0.03317471966147423,-0.06103624030947685,0.06483516842126846,-0.05809975042939186,0.0667763501405716,-0.037074532359838486,-0.07589206844568253,0.06492626667022705,0.03401879593729973,0.025454767048358917,0.0455571711063385,0.06339491903781891,-0.011910310946404934,-0.06358270347118378,0.04973900690674782,0.06510784476995468,0.07921808212995529,0.024441422894597054,0.002706783590838313,0.03002438321709633,-0.03850238025188446,-0.039180442690849304,0.010309913195669651,0.07943955808877945,0.06614227592945099,0.02067156694829464,0.05303790047764778,-0.07441830635070801,0.029713502153754234,0.04248484596610069,0.021049119532108307,-0.06805582344532013,0.04354981333017349,-0.032050635665655136,-0.05968327820301056,0.043997325003147125,-0.0345555879175663,-0.07309374958276749,-0.008412817493081093,-0.05370711535215378,0.005707301665097475,0.047283291816711426,-0.017188644036650658,0.022250333800911903,0.051255859434604645,-0.07907101511955261,-0.06344819813966751,-0.06816669553518295,0.03377588838338852,0.02647395059466362,-0.008550009690225124,0.04981861636042595,0.0652330070734024,-0.044563934206962585,0.08476332575082779,0.053790267556905746,-0.08758901059627533,-0.032348185777664185,0.023445000872015953,0.0077393618412315845,-0.07591074705123901,0.06407532095909119,0.06032482534646988,0.0002046293520834297,0.01967126503586769,0.02439888007938862,0.016312899067997932,-0.05656513571739197,0.06922869384288788,-0.018570806831121445,0.00916892010718584,-0.06467302143573761,0.012359497137367725,-0.0059799617156386375,0.0001701608853181824,0.007561189122498035,-0.07911647111177444,-0.01641879789531231,-0.016721641644835472,0.013097409158945084,-0.08409544825553894,-0.0416429340839386,-0.029389705508947372,0.042498864233493805,0.06925719231367111,-0.014570934697985649,-0.0689082145690918,0.0039047738537192345,-0.06961438059806824,-0.07065924257040024,0.033999402076005936,-0.03833869844675064,0.06015906482934952,0.005732050631195307,0.004361630417406559,0.049246154725551605,0.07170391082763672,-0.04001344367861748,0.0034771873615682125,0.02793252468109131,-0.04662327468395233,-0.020290298387408257,-0.027991030365228653,-0.06769435852766037,0.05098416656255722,-0.07715921103954315,-0.03606943041086197,0.027992133051156998,-0.01325752679258585,0.0038438555784523487,0.07115981727838516,-0.018733080476522446,0.058985717594623566,-0.009213639423251152,0.06347423791885376,0.07034173607826233,0.0007521910010837018,-0.013795951381325722,0.07410291582345963,0.04645612835884094,-0.022949177771806717,-0.06078950688242912,0.0344274528324604,0.055424999445676804,-0.06994408369064331,-0.058391883969306946,0.0356127992272377,0.06629791855812073,-0.029916053637862206,-0.06212424114346504,-0.0013788819778710604,0.005249401554465294,0.06315044313669205,-0.07010383158922195,0.05520280823111534,-0.030225718393921852,0.05905166640877724,0.010078076273202896,0.08626534789800644,0.06110084056854248,0.019960155710577965,-0.017592890188097954,-0.008259154856204987,-0.041425671428442,-0.0044182646088302135,-0.042465656995773315,-0.07230208069086075,-0.06765250861644745,-0.03865107148885727,0.016528086736798286,0.03913494572043419,-0.055013809353113174,-0.046151697635650635,0.042573023587465286,-0.05265863984823227,-0.02730485424399376,-0.019888974726200104,-0.058281995356082916,-0.06345602124929428,-0.07500823587179184,-0.06786474585533142,0.04181334376335144,0.03652450442314148,0.032898806035518646,-0.07283125817775726,-0.0070706820115447044,0.05929898843169212,0.03305735066533089,0.00471095833927393,0.025170069187879562,-0.0787074938416481,-0.08256690204143524,0.05121653154492378,-0.035825472325086594,-0.04097708314657211,-0.0003291705797892064,-0.06940169632434845,-0.023341769352555275,0.06752859055995941,-0.01954684592783451,-0.06741361320018768,0.028874805197119713,0.05993443354964256,-0.006011646240949631,-0.05628884583711624,0.042987365275621414,0.02487059496343136,0.08420297503471375,-0.07143385708332062,0.017069367691874504,0.017589200288057327,0.07680259644985199,-0.00507260812446475,0.061244815587997437,-0.059099894016981125,-0.0006100519094616175,-0.027159495279192924,0.04760751500725746,0.003472736570984125,-0.03287535533308983,-0.0831790640950203,0.07469705492258072,-0.07208172231912613,0.08042068779468536,0.056620847433805466,-0.007186529692262411,-0.062182649970054626,-0.07329033315181732,0.04783143475651741,-0.020210634917020798,-0.023262718692421913,-0.017736095935106277,0.0245677437633276,0.06191488727927208,-0.07763078063726425,0.06212417036294937,-0.029645539820194244,-0.07014403492212296,-0.008744481950998306,0.07199478894472122,-0.05238376930356026,0.0771692767739296,0.016207532957196236,-0.06468167901039124,-0.02312900684773922,0.07241354882717133,-0.027147794142365456,0.0013219051761552691,-0.00778795825317502,0.015363086946308613,-0.042008738964796066,0.045743636786937714,-0.0664643868803978,-0.058112822473049164,0.006923594977706671,-0.05523647740483284,-0.07304801791906357,0.004175412468612194,0.044145822525024414,-0.036209505051374435,0.04539777711033821,-0.06823309510946274,-0.02582894079387188,-0.014730855822563171,-0.05360502004623413,0.009810228832066059,0.034923866391181946,0.04790686443448067,-0.07428107410669327,-0.04958255961537361,-0.05495500937104225,-0.08124025911092758,0.07522287964820862,0.049541763961315155,0.00403775367885828,-0.07547976076602936,-0.07746920734643936,-0.07392271608114243,0.04577142372727394,0.011380976065993309,0.02578587271273136,0.0023766672238707542,0.05893145129084587,0.03451241925358772,0.05008643493056297,0.035943929105997086,-0.04558226093649864,-0.002391859656199813,-0.017309799790382385,0.015573437325656414,0.06941501051187515,-0.04115821421146393,0.017422815784811974,0.0010503263911232352,-0.03372669965028763,-0.0059702168218791485,-0.03214097395539284,-0.015113103203475475,-0.027613775804638863,0.04206886887550354,0.030039900913834572,0.02473393641412258,0.07763521373271942,-0.036205366253852844,0.051969025284051895,-0.07026445865631104,0.05391032621264458,0.019512327387928963,-0.040995169430971146,0.02104310691356659,0.03386039659380913,0.03804090991616249,-0.04705454036593437,0.004353049676865339,-0.013050614856183529,-0.07819797098636627,0.08073633909225464,0.002893094439059496,0.049873486161231995,-0.052656278014183044,-0.041160278022289276,-0.06075403839349747,0.0780475065112114,0.010140272788703442,-0.057155806571245193,0.032515332102775574,0.04641210287809372,0.03496573865413666,0.05054967477917671,-0.044872332364320755,0.042285799980163574,-0.034605659544467926,0.05450093373656273,-0.05202930420637131,0.010509870946407318,0.00031473292619921267,0.05732511356472969,0.039702851325273514,-0.055016838014125824,-0.004704125691205263,0.076670803129673,0.04420074447989464,-0.03288380801677704,0.014327212236821651,0.05532962828874588,-0.0570978969335556,0.06853616237640381,-0.05617698282003403,-0.007939893752336502,0.020122455433011055,-0.045358311384916306,-0.06660985946655273,0.04791341349482536,-0.01914297416806221,0.00871935673058033,0.036322567611932755,-0.041232794523239136,0.083698570728302,-0.06673316657543182,0.08593153208494186,-0.015363144688308239,-0.025177890434861183,0.08008959889411926,0.007439651992172003,0.039064399898052216,-0.0568276010453701,-0.05475866422057152,0.0811753049492836,0.0494939386844635,0.02347412519156933,0.07014214992523193,-0.048894546926021576,0.050946254283189774,0.031392429023981094,-0.015983086079359055,0.05929230526089668,0.03742188960313797,0.009815322235226631,0.043169036507606506,-0.04612918198108673,-0.06782951951026917,-0.029389778152108192,-0.023501884192228317,-0.07573775947093964,0.06456512957811356,-0.008154132403433323,0.07021128386259079,0.08655600249767303,-0.05907782167196274,0.03175272420048714,0.05877968296408653,-0.05495219677686691,-0.02006485126912594,0.01812713034451008,0.058868199586868286,0.05960267037153244,0.0848148763179779,-0.007538164965808392,-0.036503441631793976,0.022159378975629807,-0.05549301579594612,-0.005007279105484486,-0.02635141648352146,-0.058139216154813766,-0.03316585347056389,0.07110242545604706,0.045520275831222534,-0.032087329775094986,-0.041991449892520905,-0.07969006150960922,0.009039371274411678,0.009715060703456402,-0.037736352533102036,0.003614376997575164,-0.028500564396381378,0.027583222836256027,-0.045408427715301514,0.01387165766209364,0.040496788918972015,0.045070379972457886,-0.0019150165608152747,-0.06369619816541672,-0.034404855221509933,-0.024175792932510376,-0.08138417452573776,0.004577446263283491,-0.07419475167989731,-0.057109229266643524,0.027610167860984802,-0.0028689694590866566,0.05423007905483246,0.04903922602534294,-0.05724865198135376,0.06667546927928925,-0.014073923230171204,0.01750331185758114,0.07409204542636871,0.08260352909564972,-0.008950398303568363,-0.0630846619606018,0.03216009959578514,-0.004143254831433296,0.044665005058050156,0.04220591112971306,0.07707614451646805,-0.0711032897233963,-0.07080267369747162,-0.0346224345266819,0.05553172901272774,-0.039291903376579285,-0.03397074341773987,-0.02092055045068264,0.03730223700404167,-0.06291721016168594,-0.06605467200279236,0.06357105821371078,-0.05864306911826134,-0.07691221684217453,-0.045247193425893784,0.07383807003498077,0.03074054978787899,0.08102726191282272,-0.0666164755821228,0.041508037596940994,-0.01378899160772562,-0.016456983983516693,-0.005935500841587782,0.015353472903370857,0.07435452193021774,-0.0209366288036108,-0.05496879667043686,0.047484952956438065,0.029089540243148804,-0.07040135562419891,-0.03015919215977192,0.08677661418914795,-0.07601995766162872,-0.017511868849396706,-0.006050738971680403,-0.05309708043932915,-0.05931900441646576,0.08097489178180695,-0.04597415030002594,0.057370930910110474,-0.07473274320363998,0.079536072909832,0.07163263112306595,-0.013938460499048233,0.06942684203386307,0.05233602598309517,-0.07115676999092102,0.022316593676805496,-0.05211525037884712,-0.015562471933662891,0.04372522607445717,-0.04744327813386917,-0.029732299968600273,-0.014663700014352798,0.07453309744596481,0.0687725767493248,-0.05249300226569176,0.041583072394132614,0.03515521064400673,-0.019028520211577415,-0.04658280313014984,0.003873710287734866,0.055243901908397675,-0.015657830983400345,-0.034550536423921585,-0.02956807240843773,-0.06195706129074097,0.003294670255854726,-0.07545116543769836,0.010400584898889065,0.054601408541202545,-0.006063513923436403,0.08633946627378464,0.004541570320725441,-0.027713606134057045,-0.05718312785029411,0.04120545834302902,0.016046147793531418,-0.0789833515882492,0.06283272802829742,-0.03907540813088417,-0.06625078618526459,-0.024539249017834663,-0.04434536024928093,0.0671476498246193,0.06440260261297226,-0.025920160114765167,-0.05092597380280495,-0.022060642018914223,-0.038530923426151276,0.05555614456534386,-0.0001430875126970932,-0.04610034078359604,-0.0790189802646637,0.03657498583197594,-0.023380745202302933,0.03640667721629143,0.03495345637202263,-0.028703927993774414,-0.02943260781466961,0.03773323819041252,0.08393928408622742,0.047265373170375824,-0.060599613934755325,0.004662321414798498,-0.023013664409518242,0.00860320683568716,0.04891311004757881,0.021175719797611237,0.005024416837841272,-0.06259477883577347,-0.08923472464084625,-0.039127275347709656,0.050198573619127274,-0.05505351722240448,0.03739716112613678,0.03227134421467781,-0.03619687631726265,0.0005738207255490124,-0.07240807265043259,0.08707762509584427,-0.029847869649529457,0.06856337189674377,-0.06055114045739174,0.05909685418009758,0.03432726860046387,-0.06049526482820511,-0.05844120308756828,-0.04038611799478531,-0.04176177456974983,-0.0841248407959938,-0.04930756986141205,0.06220560893416405,0.024424180388450623,-0.01728907972574234,-0.005403404589742422,-0.026759682223200798,0.026784509420394897,-0.030690278857946396,-0.07206163555383682,-0.017282400280237198,0.03276551514863968,0.07941975444555283,0.07153233140707016,-0.053596965968608856,0.029011698439717293,-0.03346655145287514,0.08504782617092133,-0.02178248204290867,-0.06281542778015137,-0.04839865118265152,-0.005394170060753822,-0.07021553814411163,-0.0167545173317194,0.02868035063147545,-0.05957959592342377,-0.08735585957765579,-0.08089359849691391,0.07047079503536224,0.0006565770017914474,-0.025623703375458717,-0.0352722629904747,-0.011037999764084816,0.027016455307602882,0.014068088494241238,-0.05651331692934036,0.07929250597953796,0.027712231501936913,-0.07013799995183945,0.05575035512447357,0.023243285715579987,0.03325400501489639,0.033207543194293976,-0.07333345711231232,-0.0835455060005188,0.07093999534845352,-0.04377591609954834,-0.012635930441319942,0.054550714790821075,-0.07602550834417343,0.05260185897350311,0.02102476730942726,0.06948332488536835,0.036769118160009384,0.047498513013124466,0.036385852843523026,0.06990228593349457,-0.02929738536477089,-0.06536726653575897,-0.021214300766587257,0.07424723356962204,-0.019058385863900185,0.045628465712070465,0.037908121943473816,0.05634130537509918,0.0782516822218895,0.03273382410407066,0.03702707588672638,-0.028450073674321175,-0.03968995809555054,-0.05063454434275627,0.062067802995443344,-0.021470503881573677,0.016005104407668114,-0.0205822866410017,0.013836863450706005,0.07027696073055267,-0.05393677204847336,-0.00950994249433279,0.03561589866876602,-0.07402534037828445,0.040085334330797195,-0.05989927798509598,-0.010487759485840797,-0.01815960183739662,0.020823929458856583,0.05791565030813217,-0.012301855720579624,0.06355353444814682,-0.05711033567786217,-0.05189931392669678,-0.020273925736546516,0.01515008695423603,0.04949194937944412,-0.04624197632074356,0.07065445929765701,0.07056053727865219,-0.0704675167798996,0.038477879017591476,0.012173843570053577,0.053417790681123734,0.0008706243243068457,-0.06434771418571472,0.06947639584541321,-0.013540970161557198,0.01894550956785679,0.07396233081817627,-0.0050426810048520565,-0.01194622553884983,-0.0761355310678482,0.0026712713297456503,-0.03407905623316765,-0.05271419510245323,-0.02451488934457302,0.006413329392671585,-0.004515874665230513,-0.006560874171555042,-0.04568846896290779,0.055539995431900024,-0.016398368403315544,0.045271892100572586,-0.07452241331338882,-0.0306282676756382,-0.04363806173205376,-0.019582830369472504,0.0745989978313446,-0.02295752428472042,0.012834337539970875,0.06254622340202332,0.07894808799028397,-0.007946799509227276,-0.0010053061414510012,0.07249118387699127,0.060034483671188354,-0.049822259694337845,-0.04448288306593895,0.016235919669270515,0.05291255563497543,-0.06618572026491165,-0.00865002628415823,-0.011346790939569473,-0.04321473464369774,-0.04306868463754654,0.08464371412992477,0.0031121443025767803,-0.06087522953748703,0.02013539709150791,0.0035483241081237793,0.051404811441898346,0.035235803574323654,-0.07065676897764206,-0.0009495366830378771,0.05142562836408615,0.008710400201380253,0.030050083994865417,-0.031410153955221176,0.06918077915906906,-0.012376822531223297,0.0041556572541594505,0.001987867522984743,0.03249596059322357,-0.07078772783279419,-0.03468356281518936,-0.07287707924842834,-0.004038144368678331,0.055650047957897186,0.03661567345261574,0.013015719130635262,0.023267868906259537,-0.049038294702768326,0.07096758484840393,0.060128938406705856,-0.002027732552960515,0.05473892018198967,0.009464160539209843,-0.050952281802892685,0.028768789023160934,0.06338220834732056,-0.04807230457663536,-0.0506250262260437,0.03287069872021675,0.06719817966222763,0.04924529790878296,-0.08798907697200775,0.03577742725610733,-0.06681383401155472,-0.0684698149561882,-0.022964708507061005,-0.005818099249154329,-0.0012389199109748006,0.07348954677581787,-0.06143321469426155,-0.019693339243531227,0.030858024954795837,0.024211786687374115,0.010941005311906338,0.03088313713669777,0.06986769288778305,-0.02188217267394066,-0.004532875493168831,0.02006404660642147,0.03437796235084534,-0.0699579045176506,0.004737081937491894,0.05846881493926048,-0.05334392935037613,-0.043570831418037415,0.006300048902630806,-0.031276848167181015,-0.007683642208576202,-0.030111616477370262,0.034726861864328384,-0.030103057622909546,-0.05794975534081459,0.04631863534450531,0.04008747264742851,0.05172519013285637,0.04495517909526825,-0.01890585757791996,-0.05310513451695442,-0.025269020348787308,0.05163174495100975,0.0057673645205795765,-0.03698274865746498,-0.03568199276924133,-0.049307215958833694,-0.05874484404921532,-0.07560289651155472,-0.06677696108818054,-0.035851605236530304,-0.04988859221339226,-0.02955484576523304,-0.06502054631710052,0.047071583569049835,-0.0332157164812088,0.020075034350156784,-0.04741635173559189,-0.021700916811823845,0.030171889811754227,-0.08426126092672348,0.07803821563720703,-0.005993139464408159,-0.05865384265780449,-0.06818422675132751,0.05221966281533241,0.020840398967266083,-0.038980647921562195,0.07721813768148422,-0.01596403867006302,-0.06424031406641006,0.05536673963069916,-0.015306364744901657,-0.010776182636618614,0.046947285532951355,0.043860308825969696,-0.01656019128859043,-0.05065693333745003,-0.00511403102427721,0.02442946843802929,-0.07328477501869202,0.064536452293396,0.07358966767787933,-0.023397857323288918,-0.03973901644349098,0.05406360328197479,-0.034146830439567566,0.003862909507006407,-0.0774449035525322,-0.052176158875226974,-0.011818082071840763,0.08324333280324936,-0.07702286541461945,-0.06748544424772263,0.008174432441592216,0.08103684335947037,-0.054437726736068726,-0.0010486921528354287,-0.02053023874759674,-0.058893829584121704,-0.05477017164230347,-0.02610606700181961,-0.018875334411859512,-0.07402882725000381,0.02927769348025322,0.0024058721028268337,0.02013797126710415,-0.015116310678422451,0.0768941193819046,-0.010308541357517242,-0.08001753687858582,-0.023111462593078613,0.06875654309988022,-0.03326529264450073,0.004546509589999914,0.001194744952954352,0.02667262963950634,-0.055187564343214035,0.06456369906663895,0.010307434014976025,0.015225041657686234,-0.022550972178578377,-0.04653111472725868,0.07701542228460312,-0.058259379118680954,-0.02496335655450821,-0.056517694145441055,0.021967634558677673,0.027449417859315872,0.005801782011985779,-0.0697534903883934,0.03793824836611748,0.04135384410619736,-0.034308385103940964,0.007466180715709925,0.0015586151275783777,-0.002416521543636918,0.002791586797684431,0.05860786512494087,0.012895799241960049,-0.01728648692369461,-0.004449951462447643,-0.07128949463367462,-0.05054517835378647,0.0442412793636322,-0.06223052740097046,-0.04499748349189758,-0.030528223142027855,0.08424471318721771,0.03312268853187561,0.04394793137907982,0.03441719338297844,-0.008126354776322842,0.0691162571310997,-0.012023646384477615,0.07377652078866959,-0.012777052819728851,0.027591168880462646,-0.01804812252521515,0.008809738792479038,0.040960345417261124,-0.05073656141757965,0.0663832426071167,-0.06689497083425522,0.07889719307422638,-0.042107731103897095,0.07951565831899643,-0.0045851487666368484,-0.0721839889883995,0.0037607934791594744,0.008342429995536804,-0.0014461195096373558,-0.017707321792840958,-0.06052188575267792,0.04766484349966049,0.007484875153750181,0.01869942806661129,0.0608757846057415,-0.009860302321612835,0.006104940082877874,-0.04941502958536148,-0.04598882794380188,0.06966154277324677,-0.04571666195988655,0.08081501722335815,-0.028579672798514366,0.04317602887749672,-0.002834731712937355,0.02752636931836605,-0.014502705074846745,0.06920795887708664,-0.04130827262997627,0.034426432102918625,0.05567723885178566,0.04939046502113342,0.0021220201160758734,0.040699589997529984,-0.01723792962729931,-0.010657583363354206,-0.06300471723079681,-0.04700932279229164,-0.08954000473022461,-0.009248661808669567,-0.009356574155390263,0.001234474708326161,0.03237295523285866,-0.04503478482365608,-0.08384842425584793,-0.07330086082220078,0.05592671036720276,-0.07006178796291351,-0.01489696092903614,-0.06724048405885696,-0.06419593840837479,0.011585773900151253,-0.04171047732234001,0.004050625022500753,0.004549501463770866,-0.014304243959486485,0.04212084412574768,0.03533155471086502,0.04828678071498871,-0.06659743189811707,-0.06621389091014862,0.017648540437221527,0.07684500515460968,0.009022883139550686,0.05323078855872154,0.032829657196998596,0.0393424853682518,0.06659303605556488,-0.07224129140377045,-0.06594115495681763,0.04326651617884636,-0.018472786992788315,0.0672079399228096,0.04698134958744049,0.008507950231432915,0.024309977889060974,-0.07130567729473114,0.06847285479307175,0.0409986674785614,-0.07698024809360504,0.0025231579784303904,0.044661879539489746,-0.02575029246509075,0.05695946142077446,-0.08415038138628006,0.0284684170037508,0.03556317463517189,-0.01646452583372593,-0.062336456030607224,-0.07884532958269119,-0.06694813817739487,-0.04088105261325836,0.028013436123728752,0.01066652126610279,-0.006926119793206453,-0.02565654180943966,0.0833529606461525,-0.0461973138153553,0.0749281495809555,0.007238602265715599,-0.06267136335372925,-0.06321006268262863,0.04680049046874046,0.04252583160996437,0.06862328946590424,-0.06545966118574142,-0.06253407895565033,0.013480030931532383,-0.03457213565707207,-0.03752217814326286,-0.047613129019737244,-0.015652015805244446,0.03787093237042427,-0.02809940092265606,-0.006864539347589016,0.07605056464672089,0.0032128614839166403,-0.07229576259851456,0.07495053857564926,0.05956114083528519,0.04424296319484711,-0.07563162595033646,0.04872718080878258,0.027597518637776375,0.009077568538486958,0.0859481692314148,0.019449802115559578,-0.039288923144340515,-0.03789418190717697,-0.031040377914905548,0.07806248217821121,-0.07836324721574783,-0.01937032863497734,0.024058014154434204,0.03798689693212509,-0.02035270817577839,-0.05115598812699318,0.0791088342666626,0.07004344463348389,-0.04574389010667801,-0.06116807833313942,-0.0015568728558719158,-0.06891267001628876,0.07821568101644516,0.006950991693884134,-0.05274307727813721,-0.01041871216148138,0.05176756903529167,0.05472208932042122,0.0352076031267643,0.06953597068786621,0.03537334129214287,0.05868494510650635,-0.06095254793763161,-0.023197460919618607,0.07739544659852982,-0.020649686455726624,0.009000102058053017,0.004717779345810413,0.051330745220184326,-0.005730624310672283,-0.009523097425699234,0.028352772817015648,0.06844476610422134,0.0690213143825531,-0.06261696666479111,-0.014579481445252895,-0.039087679237127304,-0.07489549368619919,0.057437196373939514,0.02019895426928997,0.08485975861549377,0.04336315020918846,0.04436740651726723,-0.06289425492286682,-0.058148909360170364,0.08553817123174667,-0.05823729559779167,-0.05066217482089996,0.009123461320996284,0.07780948281288147,-0.020022640004754066,0.034988436847925186,-0.06824968010187149,-0.009032183326780796,-0.02545148693025112,-0.07533427327871323,-0.07517466694116592,0.029714418575167656,0.03766106441617012,-0.037711337208747864,-0.030093450099229813,-0.036099568009376526,0.03228681534528732,0.06881897151470184,0.04293814301490784,-0.05146407335996628,0.04494430869817734,0.04555921629071236,-0.025216074660420418,-0.00528886541724205,-0.06419334560632706,-0.0027850100304931402,-0.05854010954499245,-0.0188991017639637,-0.04965955391526222,0.013792168349027634,-0.009024903178215027,0.042784977704286575,-0.04111025854945183,-0.04019877687096596,-0.04828755185008049,-0.07424013316631317,-0.06131752207875252,-0.052106838673353195,-0.026093486696481705,-0.004954478703439236,-0.046284403651952744,0.053134750574827194,0.06885352730751038,0.0768374502658844,-0.048992760479450226,-0.06104594096541405,0.07080359756946564,0.040462177246809006,-0.04367345571517944,-0.05231596529483795,0.05003967881202698,0.06720984727144241,0.004424507729709148,0.06915131956338882,-0.014000159688293934,-0.024457350373268127,-0.06988590955734253,0.08846598863601685,-0.0667886957526207,-0.021936509758234024,0.07113954424858093,0.07103977352380753,0.0400269590318203,0.07634890079498291,0.03297938406467438,-0.08352392166852951,-0.003994068130850792,-0.08574236929416656,0.060898564755916595,-0.02845192328095436,0.07059415429830551,-0.04429401084780693,-0.04853922501206398,0.07347603887319565,0.04530126601457596,-0.056565653532743454,-0.01711333356797695,-0.06260969489812851,-0.05075057968497276,0.077472023665905,-0.07110060751438141,0.03502117842435837,-0.07231449335813522,-0.06746218353509903,-0.008887078613042831,0.07560883462429047,-0.07227713614702225,0.06452230364084244,0.0781278982758522,-0.05971056595444679,0.014780675061047077,0.03645224869251251,0.04682134464383125,-0.07616548985242844,-0.05459825322031975,-0.04984574392437935,0.05992741137742996,0.0402628630399704,-0.06921778619289398,-0.069770947098732,-0.05132419243454933,0.010462765581905842,0.012290028855204582,0.005565929692238569,-0.06604775786399841,-0.0704883486032486,-0.06495783478021622,-0.03196529671549797,0.05751723051071167,-0.06519211083650589,0.022262008860707283,0.03422560170292854,0.030890759080648422,0.0019408146617934108,-0.03049776516854763,-0.03772999718785286,-0.05213329195976257,-0.03630191087722778,-0.00017367303371429443,0.08101394027471542,-0.0007738103158771992,-0.0660528913140297,-0.00434919772669673,-0.06884607672691345,-0.003936943132430315,0.07104130834341049,0.02385254018008709,0.06667935848236084,-0.017540443688631058,-0.016270386055111885,0.05586441233754158,0.07301772385835648,0.02880522608757019,0.013389038853347301,-0.0377715639770031,-0.048301633447408676,-0.05112901329994202,-0.055367257446050644,-0.04193209484219551,-0.03396184369921684,0.023343401029706,-0.06502299010753632,0.02966122515499592,0.04750526323914528,-0.0193486288189888,0.06136699765920639,-0.06903325766324997,0.06853964179754257,0.006499909795820713,0.07944107055664062,0.03943636640906334,0.07792380452156067,0.07618393003940582,0.05396004021167755,-0.019109655171632767,0.08294586837291718,0.048143170773983,-0.0369749516248703,0.07109083235263824,0.020092902705073357,0.0032860231585800648,-0.015394647605717182,-0.02702275477349758,-0.07448592782020569,0.03187371790409088,-0.02422170341014862,-0.05156949535012245,0.00836065411567688,-0.07496020197868347,0.009848397225141525,-0.033020682632923126,0.07468996196985245,0.057564958930015564,-0.014291387982666492,0.05615885928273201,0.04997973144054413,-0.012511802837252617,-0.008671493269503117,-0.07201047986745834,0.04330650717020035,-0.06616388261318207,-0.050762854516506195,0.07845703512430191,-0.023589905351400375,-0.07087863981723785,0.06139344349503517,-0.0541965588927269,-0.07489606738090515,0.044637978076934814,0.028653522953391075,0.009926398284733295,-0.07310083508491516,-0.02126612327992916,0.030096113681793213,-0.03909144550561905,0.06105215474963188,-0.005345993209630251,-0.04030631482601166,-0.0032769471872597933,0.06123362109065056,0.06690578162670135,-0.04043954983353615,0.05770546570420265,-0.026628587394952774,0.06952754408121109,0.053158294409513474,-0.05112100765109062,0.05657147243618965,-0.05786233767867088,-0.00840058084577322,-0.044033996760845184,0.06320064514875412,-0.013639244250953197,-0.04043552652001381,0.083192378282547,-0.009247438050806522,-0.04022566229104996,-0.02648874558508396,-0.003549676388502121,-0.06095894053578377,-0.024756720289587975,-0.035929493606090546,0.027930552139878273,0.06377992033958435,-0.085677869617939,-0.010737083852291107,0.07200316339731216,0.051478832960128784,0.0661572739481926,0.014858396723866463,-0.07472047209739685,0.06485018879175186,-0.04662245139479637,0.08068548142910004,-0.02211247943341732,-0.010028352029621601,-0.0047733113169670105,-0.04203616455197334,0.07517879456281662,0.026860736310482025,0.0522860512137413,0.07902631908655167,-0.06896363943815231,0.0013379391748458147,-0.019040962681174278,0.025882838293910027,-0.0743606686592102,0.01727154664695263,0.06513841450214386,0.0644025132060051,-0.05451025068759918,-0.00628214655444026,-0.014775119721889496,-0.07586877048015594,-0.07488518208265305,-0.06564110517501831,-0.007927929051220417,0.06702280044555664,0.024179715663194656,-0.022974565625190735,-0.005680096801370382,0.0349719300866127,0.03812583535909653,-0.019631830975413322,-0.07402854412794113,0.07418078184127808,0.026685131713747978,-0.026646891608834267,0.05690378695726395,0.013240890577435493,0.06997840851545334,-0.0441509485244751,0.051961060613393784,-0.03703849017620087,0.07238273322582245,0.06265579909086227,0.04000384733080864,0.06899846345186234,0.06687421351671219,0.07346033304929733,-0.07688087970018387,-0.038406942039728165,0.052794791758060455,-0.008734247647225857,-0.04174435883760452,-0.07377666980028152,-1.0295419087924529e-05,-0.03607827425003052,-0.06385812908411026,-0.008685708045959473,0.00822379905730486,0.06277380138635635,-0.0765455812215805,-0.020619139075279236,-0.058923229575157166,0.07197432219982147,-0.007268510293215513,0.035124439746141434,0.021270835772156715,-0.03261406719684601,0.06527263671159744,0.046541549265384674,-0.07825428247451782,0.04914560914039612,0.02748354896903038,-0.001508098328486085,-0.04834252968430519,0.014936733990907669,0.07387512177228928,-0.04422781616449356,-0.02120710350573063,-0.022209182381629944,-0.05778948590159416,0.04108772799372673,0.010946339927613735,-0.011419538408517838,-0.036376647651195526,0.03579416498541832,0.009933066554367542,-0.029402369633316994,0.057198263704776764,-0.016546936705708504,0.025150110945105553,-0.010878454893827438,0.04468221962451935,-0.038696400821208954,0.05852911248803139,-0.04163257032632828,0.006600432563573122,0.07799023389816284,-0.06582938879728317,0.030622581019997597,-0.06158916652202606,0.0015190240228548646,-0.054064374417066574,0.030844328925013542,0.059664785861968994,0.03279758244752884,0.06721547245979309,-0.04454924911260605,-0.04071972146630287,-0.07611285895109177,0.08856143802404404,-0.014030837453901768,-0.018372293561697006,0.004779741633683443,-0.02967536635696888,-0.07181631028652191,-0.07131031900644302,-0.0670410767197609,-0.04836704209446907,0.03868185728788376,-0.036371879279613495,0.05095348507165909,0.027126429602503777,0.0005327841499820352,-0.06537195295095444,-0.028831109404563904,0.06996527314186096,-0.030702456831932068,-0.003435121150687337,0.00419005099684,0.08163516223430634,-0.016609059646725655,0.05133812129497528,-0.08531107753515244,-0.00040781113784760237,-0.010422663763165474,0.0008017810760065913,0.02104179561138153,-0.0020121634006500244,0.02390228770673275,-0.01014286931604147,0.06560838967561722,-0.05326518043875694,-0.04571882262825966,-0.036688145250082016,-0.07981663197278976,-0.019954051822423935,0.0714065209031105,-0.025279030203819275,0.05754486098885536,0.07132336497306824,0.053029339760541916,0.003812283743172884,0.02415274642407894,-0.03188087418675423,0.06282622367143631,0.045309241861104965,0.07469657063484192,-0.029425466433167458,-0.020684724673628807,-0.06688742339611053,-0.012029589153826237,-0.08046150952577591,0.07800642400979996,-0.010398544371128082,-0.02844029664993286,-0.07723155617713928,-0.06792192161083221,-0.00985082145780325,0.059411898255348206,-0.052401162683963776,-0.061125412583351135,0.029933558776974678,0.04090436175465584,-0.028805933892726898,0.038948703557252884,-0.06650932133197784,0.034401874989271164,0.06546808034181595,0.0015287547139450908,0.037722159177064896,0.011226186528801918,0.06720186024904251,0.013173499144613743,-0.05767722800374031,0.07324618101119995,-0.060953233391046524,-0.017184756696224213,0.02491544373333454,-0.06609785556793213,0.07934805750846863,0.07494408637285233,0.006888563744723797,-0.049426641315221786,0.06564033776521683,0.06412550061941147,-0.0831940695643425,0.014739684760570526,-0.02372313290834427,-0.07077264785766602,0.011520115658640862,0.04900852218270302,-0.04323703423142433,-0.06027841195464134,0.014749265275895596,0.015024757944047451,0.00044752476969733834,0.05125221610069275,-0.0783676952123642,-0.01641327142715454,-0.07283832877874374,-0.029493987560272217,0.07643629610538483,0.0694439709186554,0.008104400709271431,-0.07223479449748993,-0.0033712151926010847,-0.07034111022949219,0.04358067736029625,0.06905374675989151,-0.06626228988170624,-0.011833067052066326,0.05176999419927597,-0.009404469281435013,-0.0628599300980568,0.03417949751019478,0.07684548944234848,-0.0335257463157177,0.0488448441028595,-0.012808362953364849,0.0021087380591779947,-0.04837372899055481,-0.055624205619096756,0.013463069684803486,-0.023926304653286934,-0.039730846881866455,0.03467172384262085,-0.06875499337911606,-0.062142256647348404,0.025624040514230728,-0.07650655508041382,-0.03953542560338974,-0.06506548076868057,0.06980473548173904,0.01939179003238678,0.044066332280635834,-0.0025052938144654036,-0.08355184644460678,-0.038321178406476974,-0.0519203245639801,-0.038027893751859665,0.05806279554963112,0.0013423165073618293,0.048458293080329895,-0.07576064765453339,0.05107133463025093,-0.04841087386012077,0.009082058444619179,0.041937556117773056,-0.037226058542728424,-0.04743495211005211,-0.08081028610467911,0.06778056174516678,0.056602321565151215,-0.04005739465355873,-0.049762532114982605,0.0270554106682539,-0.027396734803915024,-0.051786500960588455,0.037312351167201996,-0.04396466910839081,-0.010006414726376534,0.047172240912914276,0.06561009585857391,-0.06955372542142868,0.016340238973498344,-0.04906269907951355,-0.04775673523545265,0.04711662605404854,-0.07342468947172165,0.04685220122337341,0.030037714168429375,0.00016815867274999619,0.008473541587591171,0.07241008430719376,-0.060000695288181305,-0.018835725262761116,-0.041214581578969955,-0.06950176507234573,0.02216828428208828,0.007165071554481983,0.03763221949338913,-0.07063940167427063,0.0717892050743103,-0.06053297221660614,0.005151890218257904,-0.07246433943510056,-0.08090933412313461,-0.06941882520914078,-0.034428924322128296,-0.07047048956155777,0.08664003014564514,0.03620397299528122,-0.04108736664056778,0.03190280497074127,-0.004260311834514141,0.057252831757068634,0.060694921761751175,-0.046243324875831604,0.02904089167714119,0.040414247661828995,-0.027338355779647827,-0.0749499499797821,-0.042222317308187485,0.02370269037783146,0.01514897495508194,-0.012710257433354855,-0.03963373228907585,-0.062124915421009064,-0.042553216218948364,0.043254174292087555,-0.06176835298538208,-0.006457854062318802,0.04479959234595299,-0.06013786047697067,-0.008868417702615261,-0.03122152015566826,-0.06522373110055923,0.027831945568323135,0.058701612055301666,-0.0009193134610541165,0.06738225370645523,-0.02085021138191223,0.08614242821931839,0.05984433367848396,-0.03927142545580864,0.02039150521159172,-0.066740021109581,0.03648298978805542,0.04674356058239937,0.03607262298464775,-0.02299516834318638,-0.06817547231912613,-0.050372544676065445,0.0035351477563381195,0.07463748008012772,-0.05934064835309982,-0.002493218518793583,-0.03208063170313835,-0.08618076890707016,-0.02593078464269638,-0.08661486953496933,0.0406205914914608,-0.016897937282919884,0.0617680698633194,-0.022264622151851654,0.008053667843341827,0.02360265702009201,-0.08318207412958145,0.08695276081562042,-0.014854994602501392,-0.07272671908140182,-0.03742188587784767,-0.011438270099461079,0.01757771335542202,0.03141317889094353,5.522823630599305e-05,-0.05172628164291382,-0.03285253420472145,-0.05165291205048561,0.02475089021027088,0.03595588728785515,-0.02051025629043579,0.01932981051504612,0.028281982988119125,0.06080900505185127,0.06392022967338562,-0.044351596385240555,0.03274209424853325,-0.03642609715461731,-0.03258766606450081,0.0660620704293251,-0.016417182981967926,-0.04801331087946892,0.07679323107004166,0.07486218214035034,0.07465144991874695,0.06645391881465912,0.04244115576148033,-0.010592627339065075,-0.026141153648495674,0.03557831421494484,0.03901107981801033,0.03301048278808594,0.06296241283416748,0.066391721367836,-0.04796276241540909,0.0736004114151001,-0.07966107875108719,0.016123544424772263,0.03871950879693031,0.05154334753751755,0.08226115256547928,0.0003840424760710448,-0.010824340395629406,0.07629586011171341,-0.0628092959523201,-0.012751966714859009,-0.04942282661795616,0.0006935397395864129,0.0345994234085083,-0.022495202720165253,0.012719998136162758,0.03887086361646652,0.06793518364429474,0.07595764845609665,0.03585619106888771,0.07215885072946548,0.053089603781700134,0.0749870017170906,-0.0014657308347523212,0.00417745765298605,0.04645390436053276,-0.00970545969903469,-0.015094351023435593,0.0649179220199585,-0.005071849096566439,0.0741511732339859,-0.01898563653230667,-0.005961551796644926,-0.003668090095743537,-0.04398298263549805,0.06579750031232834,0.016061900183558464,0.058350417762994766,0.060408469289541245,0.058148760348558426,-0.015882326290011406,0.04562857747077942,0.009612934663891792,0.07841832935810089,-0.022922459989786148,0.09055686742067337,0.08573310822248459,-0.06400210410356522,-0.05441499873995781,0.019821738824248314,-0.07514794915914536,-0.0037872774992138147,-0.055409591645002365,-0.025225453078746796,-0.014347188174724579,0.05142355337738991,-0.06594841182231903,0.04977154731750488,-0.07916688919067383,0.02505657821893692,0.06024597957730293,-0.06276867538690567,-0.03196749836206436,0.08139324933290482,0.08340831100940704,0.042010605335235596,-0.019861387088894844,0.04197731614112854,-0.03689241781830788,0.06100986897945404,-0.01106679905205965,0.03731963783502579,0.020908186212182045,0.0840279683470726,-0.08630585670471191,-0.06981277465820312,0.043314844369888306,0.00827972125262022,0.0376148521900177,-0.061992097645998,-0.031414128839969635,-0.0423094667494297,-0.06788124889135361,-0.05885845422744751,0.044525984674692154,-0.012358926236629486,-0.014697276055812836,0.007502348627895117,-0.05297985300421715,-0.0037846695631742477,0.061803944408893585,0.06983137130737305,0.02606402337551117,-0.06279813498258591,-0.0364396795630455,0.01546451821923256,0.0020052066538482904,-0.04310397058725357,0.03970799967646599,-0.04656451940536499,-0.055104807019233704,0.008116268552839756,-0.0713895782828331,0.018879057839512825,-0.06496237218379974,-0.006790128070861101,0.04744856432080269,-0.020288201048970222,-0.07871214300394058,-0.06588515639305115,0.006803270895034075,0.012121033854782581,-0.04158642143011093,0.034223441034555435,0.017984304577112198,0.07637175172567368,0.002568495459854603,-0.03208453580737114,-0.0762275904417038,-0.018551604822278023,-0.016794228926301003,-0.00385091919451952,-0.033632539212703705,0.0327385812997818,-0.025256387889385223,-0.039027344435453415,0.0690949559211731,-0.05136362090706825,-0.05561260133981705,0.019909480586647987,-0.06442942470312119,0.02767052687704563,-0.0758010745048523,0.01789630390703678,0.012613321654498577,-0.021381640806794167,0.034892357885837555,0.052675772458314896,0.058554425835609436,0.06440120935440063,0.0326802022755146,-0.0008847361314110458,0.06486179679632187,-0.035718534141778946,0.032501447945833206,-0.025989022105932236,-0.06926724314689636,-0.061000626534223557,-0.02492215856909752,-0.004582912661135197,-0.08482901751995087,-0.02314073219895363,-0.018930742517113686,0.014710755087435246,0.07817015051841736,-0.04467018321156502,0.049755871295928955,0.00719899358227849,-0.02959509938955307,-0.07153692096471786,0.0491829477250576,0.029280710965394974,-0.006238172296434641,-0.013084812089800835,0.02693765237927437,0.0055063203908503056,0.02972102165222168,-0.06796509772539139,-0.042663924396038055,0.011293044313788414,0.027333447709679604,0.0738372653722763,0.055207375437021255,-0.05438363179564476,0.06481639295816422,-0.08679107576608658,-0.042431678622961044,-0.05313422530889511,0.023805765435099602,0.028431983664631844,-0.07020708173513412,-0.06845401227474213,-0.029335996136069298,-0.06801382452249527,0.031242864206433296,0.04379202425479889,0.06571455299854279,0.05766764655709267,0.033397555351257324,-0.0685797929763794,-0.00469924183562398,-0.07368385046720505,-0.007471141405403614,0.054487474262714386,0.04538954049348831,-0.04388819634914398,-0.0068046413362026215,0.06371500343084335,-0.05980560556054115,-0.06841907650232315,-0.03878456726670265,-0.026290465146303177,0.001847188686951995,-0.009249034337699413,-0.03529046103358269,-0.06209232658147812,-0.05298309028148651,-0.0499340258538723,-0.08316511660814285,-0.040637653321027756,-0.07395467162132263,0.052231937646865845,-0.01566009782254696,0.05998167395591736,-0.05721135810017586,0.03800072893500328,0.015366501174867153,-0.04744509607553482,0.02209705486893654,-0.07427207380533218,-0.029112733900547028,0.009850901551544666,-0.0503668338060379,-0.04877337068319321,0.024855870753526688,-0.021639132872223854,-0.03789174556732178,-0.03330845385789871,0.053696826100349426,0.052375514060258865,-0.012976124882698059,-0.07638689875602722,0.04312438517808914,0.08433843404054642,0.07454344630241394,0.01581498607993126,0.017234813421964645,0.07462501525878906,-0.05121893063187599,0.006871388293802738,0.02703724429011345,0.06632689386606216,0.012678481638431549,0.0638766661286354,0.007909207604825497,-0.028044871985912323,-0.04008343815803528,-0.03992040082812309,-0.03442009165883064,-0.038309164345264435,-0.056090276688337326,0.044771309942007065,0.029759496450424194,0.052183039486408234,0.049582842737436295,0.025271981954574585,0.044114869087934494,-0.05453713983297348,-0.025520844385027885,-0.006309377495199442,0.015706846490502357,-0.05977955833077431,-0.0539739727973938,-0.035557787865400314,0.07179275155067444,0.018331440165638924,-0.008605296723544598,-0.008921971544623375,0.06487549841403961,-0.057252708822488785,-0.022538205608725548,0.05851992964744568,0.06802812218666077,-0.044884342700242996,0.0697467029094696,0.008147011511027813,-0.04539581760764122,-0.05483889579772949,-0.03101252019405365,0.06095069274306297,0.0844481810927391,-0.02900378219783306,-0.025318434461951256,0.01182016171514988,-0.01576785370707512,0.019461413845419884,-0.05855122208595276,0.07084033638238907,0.05618477240204811,-0.042692750692367554,-0.0669734925031662,0.011639109812676907,0.08121921867132187,-0.006219937931746244,0.021242890506982803,0.04966060072183609,-0.05691414326429367,-0.06655379384756088,0.05495452880859375,0.049875713884830475,-0.07037685811519623,0.005066579673439264,0.022400008514523506,0.042154327034950256,-0.06732405722141266,0.07222731411457062,-0.05329784005880356,0.029502056539058685,-0.019031919538974762,0.07301308214664459,-0.07469350844621658,-0.04105066508054733,0.051004163920879364,-0.0070762792602181435,-0.027633510529994965,0.019316384568810463,0.03236587345600128,-0.051178593188524246,0.03080732561647892,0.02357342839241028,-0.036270707845687866,-0.04814392700791359,0.024777743965387344,0.08582106977701187,0.0687706395983696,0.0814603641629219,0.060666438192129135,0.08099784702062607,-0.03136851638555527,0.04244566336274147,-0.0595880001783371,0.027761250734329224,-0.020201293751597404,-0.03453608229756355,0.046677350997924805,-0.05356510356068611,0.06388361006975174,-0.059136245399713516,-0.04504293575882912,-0.08444184809923172,0.022468088194727898,0.027185101062059402,0.0737321749329567,0.06579037755727768,0.037950411438941956,0.05251440405845642,0.07295588403940201,0.02528063766658306,-0.05891924723982811,0.07832635939121246,0.032811883836984634,-0.05068741738796234,0.02312023751437664,0.08147428184747696,-0.0722540020942688,-0.01509465929120779,0.009819181635975838,-0.08611570298671722,0.03504399582743645,-0.01872667856514454,0.03137941285967827,0.004780175164341927,0.0639229267835617,0.017289871349930763,-0.08517873287200928,-0.07612710446119308,-0.052439481019973755,-0.06931775063276291,0.03236544504761696,0.006912758108228445,0.017830710858106613,0.07782185077667236,-0.0805545300245285,0.07600155472755432,-0.058058351278305054,-0.05669338256120682,-0.031162751838564873,0.06038156524300575,0.08784065395593643,-0.02622615545988083,0.04845935106277466,0.03454264625906944,-0.030118165537714958,0.0635252445936203,0.017407815903425217,-0.017540449276566505,-0.018305735662579536,0.046965233981609344,0.04285181313753128,-0.07714560627937317,-0.04161076620221138,-0.030397366732358932,-0.023799141868948936,0.014799635857343674,0.007701487746089697,0.04771849513053894,0.003410997800529003,0.06892532110214233,-0.04164658114314079,-0.02909265086054802,-0.04152451455593109,-0.03717730939388275,-0.016351815313100815,-0.0373680405318737,-0.05771375820040703,-0.047778449952602386,-0.05242147669196129,0.0010251222411170602,0.055728159844875336,-0.07632072269916534,-0.05049370601773262,-0.04544889181852341,-0.011887088418006897,0.05274432525038719,0.07819207012653351,-0.07890702039003372,-0.007645465899258852,-0.03779097646474838,0.002179639646783471,0.04217208921909332,-0.025705039501190186,-0.08420124650001526,0.05207393690943718,-0.0603192038834095,-0.07929566502571106,-0.0632387176156044,-0.00411606440320611,0.02357061207294464,-0.08154410868883133,0.043666090816259384,-0.05061588063836098,0.06936204433441162,0.011115425266325474,0.050459083169698715,0.04744594544172287,0.06426680833101273,-0.06927185505628586,-0.07472085952758789,0.040691349655389786,-0.06055527180433273,0.0042534079402685165,0.0826675146818161,0.021241789683699608,0.06907252967357635,0.043536119163036346,0.052622757852077484,0.08424387127161026,-0.014753107912838459,0.02224390022456646,0.0011707284720614552,-0.03601611778140068,-0.05350955203175545,-0.06707676500082016,-0.02013440802693367,0.01370641216635704,-0.049025099724531174,-0.018572816625237465,-0.040826089680194855,-0.05522880330681801,0.03756258636713028,0.05912046134471893,-0.0074965571984648705,-0.07206094264984131,0.027491962537169456,-0.07551299780607224,-0.0839134082198143,-0.08174268156290054,-0.07622046768665314,0.033190250396728516,0.06955354660749435,-0.01875513605773449,0.06754113733768463,0.07724512368440628,-0.005345676559954882,0.07049954682588577,0.03397446498274803,-0.048607975244522095,-0.057844944298267365,-0.05251879617571831,0.020876524969935417,-0.00979973841458559,0.008458567783236504,0.010036638006567955,0.0650922954082489,0.050092313438653946,0.024233106523752213,-0.08667147904634476,-0.03900258615612984,-0.06830023974180222,-0.04250405728816986,-0.02021859399974346,-0.003721185028553009,-0.021402327343821526,-0.05460836738348007,-0.005541238002479076,-0.003995643928647041,-0.07296555489301682,-0.014706890098750591,-0.0027154828421771526,-0.012040230445563793,-0.07183738052845001,0.047891199588775635,-0.05891166627407074,0.006353394128382206,-0.01096375472843647,-0.04405068978667259,0.04997772350907326,0.07922175526618958,-0.003831826150417328,0.02310403250157833,-0.042992204427719116,0.058337800204753876,-0.009081910364329815,0.0018225805833935738,-0.0022372398525476456,-0.07975209504365921,-0.06938549131155014,0.06614961475133896,-0.06193069741129875,-0.0806472972035408,0.03145522624254227,0.03765479475259781,0.06633223593235016,0.014221878722310066,0.016886333003640175,0.03886456415057182,-0.006516985595226288,0.030823541805148125,-0.07817167788743973,-0.015360761433839798,-0.038477860391139984,0.0667477548122406,0.052564237266778946,-0.023151185363531113,0.0008437802316620946,0.06572593748569489,-0.072638139128685,0.0033881065901368856,0.07317445427179337,0.08015336841344833,0.039632562547922134,0.05583231896162033,-0.033083632588386536,0.03548203036189079,-0.016292452812194824,0.0047458442859351635,0.014875042252242565,0.08941233903169632,0.04981432110071182,0.06737107038497925,-0.05087868496775627,0.07097217440605164,0.010060783475637436,-0.05833825096487999,-0.04922453686594963,0.04071054235100746,-0.04521608725190163,-0.01603015512228012,-0.06749916821718216,-0.01903962716460228,0.01823422499001026,-0.030428651720285416,-0.010106229223310947,0.0505797415971756,-0.044028140604496,0.022258607670664787,-0.0068612294271588326,-0.0030158874578773975,0.08191884309053421,-0.005911692511290312,0.030483413487672806,0.053383924067020416,-0.0578271858394146,0.06685851514339447,0.04046538844704628,-0.013376999646425247,0.030403941869735718,-0.0627528578042984,-0.0363471582531929,-0.06024732440710068,-0.06022818759083748,0.058712758123874664,0.03989773243665695,0.055608972907066345,0.059109993278980255,0.010728341527283192,-0.07167045027017593,-0.008112229406833649,-0.04656878858804703,-0.013963678851723671,0.028547760099172592,-0.028735825791954994,-0.08530990034341812,0.03597818687558174,-0.03610788285732269,0.031522493809461594,0.017314687371253967,-0.01153275091201067,-0.051637012511491776,0.025179482996463776,-0.06959549337625504,-0.05432094633579254,-0.06197666749358177,0.037515781819820404,-0.040197648108005524,-0.05845451354980469,0.04565873742103577,-0.033392176032066345,-0.018786879256367683,-0.03205737844109535,-0.05577080696821213,0.018203390762209892,-0.08121377229690552,0.0544046051800251,-0.022225670516490936,-0.07944703847169876,0.03545311465859413,-0.07619056850671768,-0.05425947904586792,-0.04570954293012619,0.021972808986902237,-0.01291565876454115,0.069302499294281,0.048280876129865646,0.06973973661661148,0.06500876694917679,0.07350845634937286,0.06734579056501389,0.043618302792310715,0.05042564868927002,0.03432542458176613,-0.04072078689932823,0.041827522218227386,0.008690507151186466,0.08460087329149246,0.08034348487854004,0.07121768593788147,0.039959270507097244,0.0051002600230276585,-0.07315375655889511,-0.051462821662425995,0.05877230688929558,0.07832454144954681,0.07713578641414642,0.053339067846536636,0.07542534917593002,0.02141900174319744,-0.024688303470611572,0.046510908752679825,-0.009115076623857021,0.052678659558296204,0.06748348474502563,-0.07900378108024597,0.041570015251636505,0.07460470497608185,-0.045679088681936264,0.027278991416096687,0.05778209865093231,0.0010763030732050538,-0.028490375727415085,0.03286091610789299,-0.024202099069952965,-0.07978515326976776,0.06264470517635345,-0.06727629154920578,0.03478168323636055,0.0495167151093483,-0.04522072151303291,0.04300706833600998,0.07610691338777542,0.054378654807806015,-0.014983795583248138,0.0016266513848677278,-0.008763416670262814,0.024724725633859634,0.06584102660417557,0.04982117936015129,0.06979328393936157,0.06633168458938599,-0.05453251302242279,-0.05394044145941734,0.038120388984680176,-0.08418641239404678,-0.019569512456655502,-0.05023718997836113,0.04169239476323128,-0.0730019360780716,-0.03364396095275879,-0.07479716092348099,-0.0591314435005188,-0.08120106905698776,-0.025429463014006615,-0.031749606132507324,-0.0658835619688034,-0.009445549920201302,0.06673227250576019,-0.038300521671772,0.048724215477705,0.024049967527389526,0.020920708775520325,-0.05675312876701355,0.007312245666980743,-0.05566499009728432,0.05717804282903671,0.020809296518564224,0.06378987431526184,0.016199342906475067,0.05476819723844528,0.0037780313286930323,0.026163270696997643,-0.024083048105239868,0.061291780322790146,0.0759972631931305,-0.04156600683927536,0.003936472814530134,0.08791182190179825,-0.02165747433900833,0.05788935720920563,-0.04018477350473404,0.020451605319976807,0.08090769499540329,-0.06592952460050583,0.04608936235308647,-0.02004508301615715,0.06244068592786789,-0.05870310217142105,0.07355644553899765,-0.08421935141086578,0.049052562564611435,0.02695053070783615,-0.07606126368045807,-0.02223597839474678,0.015316431410610676,-0.026871072128415108,0.03406578674912453,-0.06386083364486694,-0.02840411476790905,-0.04983709380030632,0.029480617493391037,-0.05556173250079155,-0.016847649589180946,-0.06943817436695099,-0.035653870552778244,0.07301869988441467,-0.029902450740337372,0.03738097846508026,0.028360145166516304,-0.07814770191907883,0.08339937031269073,-0.036814235150814056,-0.05860361084342003,-0.03515380620956421,0.0077661192044615746,-0.05044516921043396,0.048662908375263214,0.05603732168674469,0.024736102670431137,-0.037554942071437836,-0.060380417853593826,0.03238861635327339,0.010647942312061787,-0.01843622326850891,-0.015507342293858528,0.01360806543380022,0.046430572867393494,0.04191652312874794,0.05368976294994354,-0.07423508167266846,0.07648353278636932,0.08235859870910645,0.0379452109336853,0.024441111832857132,-0.04476790875196457,-0.0027066385373473167,0.0008753684815019369,-0.03744570538401604,0.021124331280589104,-0.03838220238685608,-0.07838792353868484,0.08188027888536453,0.0426594577729702,-0.05050770938396454,-0.06543366611003876,-0.07135207206010818,0.05153925344347954,-0.08195139467716217,0.06551165133714676,0.06574947386980057,0.07577362656593323,-0.07940670102834702,0.03046857938170433,-0.06246216595172882,-0.025814969092607498,-0.0019109173445031047,-0.06080196052789688,-0.016232457011938095,-0.00442871730774641,-0.013385985046625137,-0.019703203812241554,-0.062261514365673065,0.012244479730725288,-0.0417923629283905,-0.01653509959578514,0.07588420808315277,0.001959927147254348,-0.054907090961933136,0.028892576694488525,0.02368360571563244,0.06298773735761642,-0.039495933800935745,0.023872774094343185,0.011096744798123837,-0.037222977727651596,-0.05780114233493805,-0.028620386496186256,-0.0726085975766182,0.0453948937356472,-0.024877725169062614,-0.05703434348106384,-0.07110384106636047,0.0019425363279879093,-0.03227175772190094,0.008897615596652031,-0.010312422178685665,-0.05578788369894028,0.07196128368377686,-0.05549755319952965,0.027776898816227913,0.04174524173140526,0.04565775394439697,-0.0003823813167400658,0.08096498250961304,0.01490972749888897,-0.007083434145897627,0.06384143233299255,0.038603708148002625,0.08514493703842163,0.03878850117325783,-0.0659249871969223,-0.018943430855870247,0.034956902265548706,0.05110898241400719,0.0002265702496515587,-0.07654286921024323,-0.07148615270853043,0.05000949651002884,-0.06091444194316864,-0.04532329738140106,-0.02121959812939167,-0.07517587393522263,-0.03835586458444595,0.055451832711696625,-0.048303838819265366,0.053234852850437164,0.005416022147983313,0.05967382341623306,0.024581391364336014,-0.06777184456586838,0.06911718100309372,0.03608253225684166,-0.006473067682236433,0.018608523532748222,0.032466448843479156,0.029276670888066292,0.03359055891633034,-0.054472122341394424,-0.011512846685945988,-0.0016500536585226655,-0.01986556127667427,-0.0721486285328865,0.07537923008203506,-0.03673370182514191,0.053822439163923264,-0.008684851229190826,0.0032710011582821608,0.07328549772500992,0.07462699711322784,-0.054716646671295166,-0.06463473290205002,0.04042372107505798,-0.000994717120192945,-0.021003013476729393,0.058523450046777725,0.0374528132379055,0.05431157350540161,-0.014154082164168358,-0.07034578919410706,0.04778698831796646,0.036517877131700516,0.07829679548740387,-0.07017520070075989,0.03981614485383034,-0.04717437922954559,-0.05570896342396736,0.023811934515833855,-0.00913986749947071,0.07833206653594971,-0.019554361701011658,0.08175556361675262,0.027366699650883675,-0.02972625195980072,-0.003042698372155428,0.038927461951971054,-0.06757914274930954,0.028729651123285294,0.0033915939275175333,0.06656870245933533,-0.08187104761600494,-0.054097987711429596,-0.07240636646747589,-0.07613248378038406,-0.007319910451769829,0.010037861764431,0.03561219200491905,0.029133979231119156,0.06404465436935425,-0.03566398471593857,-0.054887522011995316,-0.021139124408364296,0.034688256680965424,-0.02491810731589794,-0.04206816107034683,0.06646646559238434,-0.01247330941259861,0.08805707842111588,-0.03675781562924385,0.0021140682511031628,0.03655238077044487,-0.0015865226741880178,0.0741150826215744,-0.03447652980685234,-0.03269924968481064,-0.03249632567167282,-0.0715617835521698,0.026443427428603172,0.010003501549363136,-0.03576098755002022,0.07153083384037018,-0.006740456912666559,-0.0750880092382431,-0.03026629239320755,0.015829354524612427,0.05677105858922005,-0.03900536149740219,-0.05794035643339157,-0.022526459768414497,0.06212874501943588,0.07169284671545029,0.06474170833826065,-0.02346009761095047,0.07674062997102737,0.020553871989250183,0.004482462536543608,0.002805913332849741,0.06621813029050827,0.012732814997434616,-0.028298573568463326,-0.03716587275266647,-0.04448596015572548,-0.03835366666316986,-0.03877685219049454,-0.02237054891884327,0.007383326068520546,0.021469125524163246,0.07648002356290817,0.004144845064729452,-0.07212689518928528,-0.02997175231575966,0.04139230027794838,0.029568059369921684,-0.028902439400553703,-0.07517104595899582,0.07210525125265121,0.05491447076201439,-0.06776858121156693,-0.00034644900006242096,-0.06000901758670807,-0.009248513728380203,-0.04025790095329285,-0.07358753681182861,0.06109599024057388,-0.006169847212731838,0.05081572383642197,0.011329554952681065,0.00033499926212243736,-0.05978092923760414,0.008665645495057106,0.05345044285058975,0.054644495248794556,-0.05630579963326454,0.0066935596987605095,-0.04547066614031792,0.011800732463598251,0.06354286521673203,-0.04283905029296875,0.07850184291601181,0.06584490090608597,-0.05763633921742439,-0.07295436412096024,-0.003813239512965083,-0.039018936455249786,-0.010745647363364697,-0.07964032143354416,-0.050177328288555145,0.01687435992062092,0.08480428904294968,0.038466811180114746,0.05395222455263138,0.046432845294475555,0.03817792236804962,-0.03459792211651802,-0.04150919243693352,-0.03190787881612778,-0.04161393269896507,-0.04185275360941887,-0.02397848851978779,0.07972903549671173,0.042663298547267914,0.08649975061416626,0.029431616887450218,0.05255570635199547,-0.006142753176391125,0.02449539490044117,-0.004712205845862627,-0.055621687322854996,-0.003745446680113673,0.05144602060317993,0.06533735245466232,-0.05031721293926239,0.05967586115002632,0.044943999499082565,-0.0006910648662596941,-0.023412354290485382,0.045773644000291824,-0.027312157675623894,0.040485430508852005,0.04740028455853462,0.04656584560871124,-0.020731452852487564,-0.07675124704837799,0.00841481238603592,0.021114634349942207,0.05682963877916336,-0.004230395425111055,-0.05104696750640869,-0.047388285398483276,0.0616941824555397,0.05969128757715225,-0.0002763817901723087,0.06834527105093002,-0.051521964371204376,0.014666841365396976,0.08421923220157623,0.05761352926492691,0.06341876834630966,-0.08071856945753098,0.027597811073064804,-0.044455964118242264,-0.03205007687211037,0.010563409887254238,0.027997691184282303,-0.06279092282056808,-0.033612001687288284,0.07496647536754608,-0.042063675820827484,0.06925162672996521,0.04296824336051941,-0.07892267405986786,-0.05959416180849075,0.035760872066020966,0.016492221504449844,-0.0432736836373806,0.02427082322537899,0.058178454637527466,0.07113073021173477,0.026312436908483505,-0.009699325077235699,0.028966953977942467,0.0608212947845459,-0.07429412752389908,-0.08140288293361664,-0.011372962035238743,0.047288231551647186,0.04853947088122368,0.052929140627384186,0.06268852949142456,0.005431801546365023,-0.06341791898012161,-0.02897021919488907,-0.06798124313354492,-0.07007350772619247,-0.01887625828385353,0.06798169761896133,-0.06507360190153122,-0.06439211964607239,-0.022960180416703224,0.012148497626185417,0.010199292562901974,0.05574110895395279,0.03701925650238991,0.039403680711984634,-0.018055886030197144,0.04935802146792412,0.03130318596959114,0.03192779794335365,-0.010302083566784859,-0.06352350860834122,-0.003877026028931141,-0.0044741081073880196,0.04191069304943085,-0.02951764315366745,0.04312479496002197,-0.029271481558680534,0.07634031027555466,-0.03723381087183952,0.05860165134072304,-0.025097358971834183,-0.03867743909358978,-0.07778908312320709,0.07754651457071304,-0.04471907392144203,0.021018067374825478,-0.006563340779393911,-0.011457380838692188,0.02347639575600624,0.042165204882621765,0.033500175923109055,0.04014737904071808,0.00752066308632493,0.012087879702448845,-0.004017970059067011,0.00735479686409235,0.0683688297867775,0.008832629770040512,-0.02929171361029148,-0.06479712575674057,-0.01434000488370657,0.08213333040475845,0.05941961333155632,0.021145349368453026,0.01715788245201111,-0.06748361885547638,0.0039026762824505568,-0.062010254710912704,0.06598308682441711,-0.06825011968612671,-0.01602884940803051,0.009122558869421482,-0.041605591773986816,0.025915205478668213,0.01260861475020647,0.023952193558216095,-0.019972991198301315,0.0700932964682579,0.015404053032398224,-0.0376918725669384,-0.011103536002337933,-0.0007197519880719483,0.0004604337445925921,0.08201083540916443,-0.05194081366062164,0.04700782150030136,0.039699021726846695,-0.07336034625768661,0.06052470579743385,0.026577720418572426,-0.08303849399089813,-0.07968225330114365,0.026522809639573097,0.08097749203443527,0.03156454116106033,-0.06263726204633713,-0.04413679242134094,0.014719140715897083,-0.05965203046798706,0.08015604317188263,-0.04886569082736969,-0.03404686227440834,0.013618269935250282,-0.02763921394944191,0.030782822519540787,-0.015873601660132408,-0.058211550116539,-0.04022679477930069,0.005830391775816679,0.022530140355229378,0.08318138122558594,-0.007030099630355835,-0.07340916991233826,0.07393765449523926,-0.03466372936964035,0.0005880799144506454,-0.05169372633099556,-0.0024909714702516794,0.026145121082663536,0.07345619052648544,0.0027852372732013464,-0.04285668209195137,-0.056101325899362564,-0.06284176558256149,0.013863488100469112,-0.06941100209951401,0.06206103786826134,-0.0602438859641552,-0.006174929440021515,0.0798550546169281,-0.047625571489334106,0.04949968680739403,0.009329701773822308,0.04352656751871109,0.003009442239999771,-0.024546118453145027,0.05598003417253494,0.05569584667682648,0.06571192294359207,-0.03422922268509865,0.0447065643966198,0.004288261290639639,-0.01219609472900629,0.01854410395026207,-0.05828271061182022,-0.021481823176145554,-0.052957575768232346,-0.06481822580099106,0.08263243734836578,-0.04553990811109543,-0.02265864424407482,0.02123599871993065,0.08234208077192307,-0.017247388139367104,0.03658779710531235,0.059181444346904755,0.051192380487918854,0.059448011219501495,-0.027697721496224403,-0.006706591695547104,-0.06382676959037781,-0.04240624979138374,-0.06631579250097275,-0.04873092100024223,0.0697927251458168,-0.04953448474407196,-0.06977442651987076,-0.046952180564403534,-0.046979956328868866,0.05502687022089958,0.023990513756871223,0.004261692985892296,0.02138623781502247,-0.06064315512776375,0.0536942183971405,0.026079600676894188,-0.008662503212690353,-0.001379183609969914,0.017107941210269928,0.0732848271727562,-0.05512590333819389,-0.055732499808073044,0.05575241893529892,-0.05311954766511917,-0.008942010812461376,-0.06816872209310532,-0.058021895587444305,0.03431389108300209,0.0036791106685996056,-0.022748926654458046,-0.004699202254414558,-0.06658536940813065,0.031709495931863785,0.05658534914255142,-0.05446337163448334,-0.06847016513347626,-0.005503354128450155,0.007021357771009207,0.05594984441995621,0.042538803070783615,0.06561168283224106,0.007996805012226105,0.0732136145234108,-0.0028921798802912235,0.026105880737304688,0.003424745984375477,0.04926380515098572,0.05219373106956482,-0.0352100171148777,0.0751221626996994,-0.015038917772471905,-0.006608654744923115,0.0486016683280468,0.015672272071242332,-0.08262111246585846,-0.08249028027057648,-0.07072831690311432,0.018515069037675858,-0.029191842302680016,0.07593758404254913,0.049997467547655106,0.01241779513657093,-0.03359384462237358,-0.015431812033057213,-0.058690477162599564,-0.05570007115602493,-0.025525974109768867,0.017613485455513,-0.054102007299661636,0.05003541335463524,0.03286399692296982,0.00716031901538372,-0.006429625675082207,-0.07875452935695648,0.06625257432460785,0.006756606977432966,-0.06189429759979248,-0.06310732662677765,0.07596225291490555,-0.07083137333393097,-0.062005411833524704,-0.05927656218409538,-0.04421241208910942,-0.05524848401546478,-0.009704455733299255,0.0806165561079979,0.02165818214416504,-0.022074919193983078,-0.03347649797797203,0.010200492106378078,0.08230268210172653,0.03837862238287926,-0.06670884042978287,0.06937352567911148,-0.010224385187029839,0.020637111738324165,0.050540704280138016,0.010882466100156307,0.011012536473572254,-0.0708395391702652,-0.04432011768221855,-0.07559575885534286,0.0010865414515137672,0.036092791706323624,0.014501641504466534,-0.02749740332365036,-0.016066797077655792,0.015384353697299957,0.0070494492538273335,0.06850466132164001,-0.04932889714837074,0.036977361887693405,-0.03718964755535126,0.07671292871236801,0.007393743842840195,-0.07097449898719788,-0.06210622191429138,0.0812663733959198,-0.027700964361429214,0.02797422558069229,-0.02350594848394394,0.06054147705435753,0.017843270674347878,0.005179877858608961,0.07928941398859024,-0.01166880875825882,0.04120207577943802,-0.055738482624292374,-0.06670866906642914,0.0795559212565422,-0.020287057384848595,0.009498448111116886,-0.045242730528116226,-0.06589809060096741,0.049990057945251465,-0.05309128388762474,0.07247558981180191,0.06765902787446976,-0.06585733592510223,0.015794243663549423,-0.04335745424032211,-0.013751366175711155,0.08325684070587158,-0.07702994346618652,0.04825718328356743,-0.05654844269156456,-0.038175053894519806,-0.04242633283138275,0.0024744761176407337,-0.01150432601571083,0.009361122734844685,0.07606926560401917,-0.05988876149058342,0.014073343016207218,-0.04841772839426994,-0.010946064256131649,0.034062135964632034,0.016127925366163254,-0.057438820600509644,-0.06465229392051697,0.03853112459182739,0.054568350315093994,-0.007244698703289032,-0.05136768892407417,0.0012785447761416435,0.0066612595692276955,0.06986937671899796,-0.022379163652658463,0.08389323204755783,0.04081088304519653,0.07068832963705063,0.05506475269794464,0.05940297618508339,-0.025081411004066467,-0.05169457942247391,-0.08400548249483109,-0.05819186940789223,-0.05237783491611481,0.015334807336330414,0.005312798544764519,0.020380260422825813,0.006930604577064514,-0.06489718705415726,-0.05020330473780632,0.06948237121105194,-0.04098505154252052,-0.0015841571148484945,0.05400041863322258,0.058519989252090454,0.05448749661445618,-0.013260042294859886,0.04953934624791145,-0.0381474606692791,0.01507396250963211,-0.07942856103181839,0.02018056996166706,0.04866870492696762,0.043921586126089096,-0.03243061527609825,-0.01108813937753439,0.07830088585615158,-0.057855430990457535,0.0832100510597229,0.08725084364414215,0.06678073108196259,0.025538915768265724,-0.07939033955335617,0.06922638416290283,0.006650010123848915,-0.05793057009577751,0.01256981585174799,0.05050841346383095,0.06122346594929695,-0.03286168724298477,-0.05757857859134674,-0.03439930081367493,-0.058716658502817154,0.030326904729008675,0.03921419382095337,-0.004881208762526512,0.07344705611467361,0.009913403540849686,0.04197533428668976,-0.06806442141532898,-0.013156508095562458,0.0071726697497069836,0.0515190064907074,-0.012928597629070282,-0.019131725654006004,0.046500299125909805,-0.021238647401332855,-0.019972143694758415,0.006781634408980608,0.01904749497771263,0.03833700343966484,-0.030837437137961388,0.040261149406433105,-0.016812549903988838,-0.05210135504603386,0.06756813824176788,0.047800857573747635,-0.04182940721511841,0.01624685898423195,0.028214052319526672,0.07618626952171326,0.07085157930850983,0.010980688035488129,-0.04908708482980728,0.051629044115543365,0.06280166655778885,0.024360721930861473,0.01992751844227314,0.024976102635264397,0.06771209836006165,0.04485909268260002,-0.03587128594517708,-0.05291077867150307,-0.059635575860738754,0.044182222336530685,-0.05345262959599495,0.07499124854803085,-0.05962396413087845,-0.02426247112452984,-0.06343017518520355,0.035143494606018066,-0.047991231083869934,-0.07204853743314743,0.03424864262342453,0.05597494915127754,0.05756586790084839,-0.046296898275613785,0.048581838607788086,0.07370007038116455,0.03486150875687599,-0.04636708274483681,0.05159325152635574,0.07353035360574722,-0.005787746049463749,-0.0547863245010376,0.00012215548485983163,0.014209247194230556,-0.04749733582139015,0.026391537860035896,0.04916897788643837,-0.020728057250380516,-0.07819366455078125,-0.02015269361436367,0.014644022099673748,0.046635232865810394,-0.07359544187784195,-0.043132632970809937,0.05751911550760269,0.03326152265071869,-0.03207603096961975,-0.04275277256965637,-0.005373252555727959,0.07169093191623688,-0.0267726369202137,-0.02821827493607998,0.06097559258341789,0.053232789039611816,0.06934409588575363,-0.03093695268034935,-0.032898981124162674,0.0320487804710865,0.048965051770210266,0.053401827812194824,-0.046395156532526016,-0.06160934269428253,0.037952590733766556,-0.024490974843502045,0.05801844969391823,-0.0645373985171318,-0.0718013346195221,-0.06866361200809479,0.043154675513505936,0.06005600839853287,0.020124174654483795,0.07958046346902847,-0.036382291465997696,0.03223397210240364,-0.008269527927041054,0.06699158251285553,-0.028092097491025925,0.03485109284520149,0.008637456223368645,-0.07680054008960724,-0.007598723750561476,0.010793080553412437,-0.019297603517770767,-0.009673230350017548,0.05592804774641991,0.07217864692211151,0.085502028465271,0.06442867964506149,-0.05338558927178383,0.037851765751838684,-0.016009852290153503,-0.024679716676473618,-0.04736131429672241,0.056536804884672165,0.010370648466050625,0.027226105332374573,0.015619310550391674,0.0506390817463398,-0.07610900700092316,-0.04938704892992973,0.052179966121912,0.059902872890233994,0.01427230704575777,-0.053754836320877075,0.026135751977562904,0.08230214565992355,0.0643705204129219,0.000280612672213465,0.03090214915573597,-0.06138448044657707,0.040902383625507355,-0.03753002732992172,-0.03902103006839752,0.01710975170135498,-0.04956234619021416,0.01134959515184164,-0.045857664197683334,0.058035023510456085,-0.06123749166727066,-0.005511634983122349,-0.03396259620785713,0.025462310761213303,-0.01820394955575466,-0.04281870648264885,-0.019458012655377388,0.06369884312152863,-0.027539493516087532,0.05577864125370979,-0.0029153109062463045,0.04691151902079582,0.06383896619081497,-0.027831971645355225,-0.04956332594156265,-0.07325702905654907,0.050310488790273666,0.006950953975319862,0.07601910829544067,0.06788448244333267,-0.030572745949029922,-0.07590356469154358,-0.01973058469593525,-0.07705617696046829,0.04971420392394066,-0.0653446614742279,0.0410480760037899,0.0486866720020771,-0.05976656451821327,-0.018903426826000214,0.07555773109197617,0.07229042053222656,-0.053916994482278824,0.06941557675600052,-0.08305519074201584,0.053875211626291275,-0.0233328714966774,-0.029036840423941612,-0.017584893852472305,-0.0009009372442960739,0.046926021575927734,-0.056649547070264816,0.015268397517502308,0.0856950506567955,-0.049010343849658966,0.03097214177250862,-0.01456761546432972,0.04369446262717247,0.02345246449112892,-0.015927117317914963,-0.07362561672925949,0.06767220050096512,0.07120933383703232,-0.040088951587677,0.05012411251664162,0.04752469062805176,-0.07687526196241379,-0.053973160684108734,0.05248185992240906,0.08725903928279877,-0.03410270810127258,0.07224355638027191,-0.03874693810939789,0.0457787960767746,-0.030956421047449112,0.05992884188890457,-0.016487538814544678,-0.02373558096587658,0.04473800212144852,0.07151210308074951,-0.0019854551646858454,0.04775862768292427,0.042352549731731415,0.03623606264591217,-0.029673870652914047,0.004638730548322201,-0.08019549399614334,-0.02973977103829384,0.07635616511106491,-0.044006381183862686,0.06043105944991112,-0.050545576959848404,0.07187136262655258,0.06229782849550247,-0.0799114927649498
