0.0898379534482956,-0.013597887940704823,-0.17839759588241577,-0.09797462075948715,0.04531797394156456,0.17643462121486664,-0.22789308428764343,-0.22063767910003662,-0.20880088210105896,0.007854380644857883,0.010547250509262085,0.08475317060947418,-0.3230995535850525,-0.236543670296669,-0.2028917819261551,0.2818141281604767,-0.24970027804374695,0.30098316073417664,0.24171991646289825,0.13756990432739258,0.06372945010662079,-0.06074332818388939,0.2103394865989685,0.09246163815259933,0.25110429525375366,-0.05227379873394966,-0.03303726390004158,-0.10622303932905197,-0.23807251453399658,0.2875164747238159,0.03425271809101105,-0.10236859321594238,-0.32502081990242004,0.251065194606781,-0.005059727001935244,-0.12725992500782013,-0.026134660467505455,-0.20387868583202362,0.20998640358448029,0.20052467286586761,-0.05163733288645744,-0.02914523519575596,0.24820297956466675,0.12805211544036865,-0.26204079389572144,-0.18673324584960938,-0.19387474656105042,-0.10390826314687729,0.016901137307286263,-0.16690580546855927,-0.30339330434799194,0.057673919945955276,-0.20473048090934753,-0.19465041160583496,0.03425459563732147,-0.05522466078400612,-0.22501392662525177,0.20813125371932983,-0.2841506600379944,0.023736588656902313,0.12217967957258224,0.09731646627187729,0.3000016510486603,0.13059763610363007,-0.11351051926612854,0.14235787093639374,-0.023395659402012825,-0.14988888800144196,0.2953917384147644,-0.02042267471551895,0.01787220500409603,-0.1950879991054535,-0.17941409349441528,-0.09814263880252838,-0.20528730750083923,0.32522112131118774,0.08684279769659042,0.13559207320213318,-0.2786698341369629,-0.2891843616962433,0.26568683981895447,0.18198099732398987,0.2714332938194275,0.24446015059947968,0.23838458955287933,0.24082382023334503,-0.08277341723442078,0.03042127750813961,-0.09982013702392578,-0.030594902113080025,0.22476568818092346,-0.322406530380249,0.1223476380109787,0.015996865928173065,-0.14689530432224274,-0.042339760810136795,-0.22472652792930603,0.12345784157514572,0.2677849233150482,0.2762967050075531,-0.18254458904266357,0.11152881383895874,-0.01396990567445755,-0.28151655197143555,-0.23635664582252502,-0.3327238857746124,-0.1193581223487854,0.17475250363349915,0.18633051216602325,0.18537509441375732,-0.06502556800842285,0.21525990962982178,-0.09142068028450012,0.31785133481025696,0.1884402483701706,-0.04818124696612358,-0.06864959746599197,-0.06698141992092133,0.05611144006252289,0.16101835668087006,-0.1543305218219757,-0.2087772935628891,0.09373552352190018,0.11901477724313736,-0.3202703297138214,0.03939218819141388,-0.20620253682136536,0.1710578352212906,0.05382499471306801,-0.28256282210350037,-0.02261011302471161,-0.16622363030910492,0.08241914957761765,-0.003740583546459675,-0.16783760488033295,0.22770383954048157,0.2678050398826599,-0.17691229283809662,-0.15345938503742218,0.016048472374677658,0.10524473339319229,0.057915639132261276,-0.12756623327732086,-0.04117583855986595
