-0.10640695691108704,-0.0711977407336235,-0.078699491918087,0.16531194746494293,0.013673270121216774,-0.05740421265363693,0.17793357372283936,0.12930595874786377,0.20309999585151672,0.0015064191538840532,-0.09223711490631104,0.06401489675045013,-0.14193274080753326,0.03523487225174904,0.013160296715795994,0.06449715048074722,0.003825438441708684,-0.0037135272286832333,0.0017683980986475945,0.041094958782196045,-0.06850378215312958,-0.008688387461006641,0.2249767929315567,-0.06313513964414597,0.1365939974784851,-0.038410961627960205,0.24240602552890778,0.20112083852291107,0.05982096493244171,0.0044031101278960705,0.11813103407621384,0.2372172623872757,0.25915440917015076,-0.0429278202354908,0.2517186999320984,0.12002454698085785,0.04633136838674545,0.07614708691835403,0.030892271548509598,0.12464052438735962,0.14372612535953522,0.16305193305015564,-0.058572035282850266,0.1509314477443695,0.10368607938289642,0.30181825160980225,0.18683618307113647,0.04174976050853729,0.18812121450901031,0.2918146848678589,0.2786725163459778,0.058060623705387115,0.22662144899368286,0.22979357838630676,-0.07544001936912537,0.01033355575054884,0.20801293849945068,0.11249994486570358,0.11750359833240509,-0.06652598828077316,-0.10497734695672989,-0.09617996215820312,-0.059061769396066666,-0.10174466669559479,-0.1065291166305542,-0.20124775171279907,-0.1594906598329544,-0.23865652084350586,-0.16097064316272736,-0.14035774767398834,0.10185226798057556,-0.028199341148138046,0.025773143395781517,-0.019238105043768883,0.05826667696237564,-0.05645512416958809,0.019653642550110817,-0.019931064918637276,0.002922505373135209,-0.09527873992919922,-0.1002284586429596,-0.24490666389465332,-0.22606103122234344,-0.18987739086151123,-0.27665287256240845,0.0005747469258494675,-0.22075535356998444,-0.20367947220802307,-0.06735014915466309,-0.08520708233118057,0.11403195559978485,0.12615777552127838,0.19518615305423737,0.15582126379013062,0.05743315443396568,0.1389060765504837,-0.011969631537795067,0.18314285576343536,0.0557628832757473,0.13525812327861786,0.051194947212934494,0.22868213057518005,0.25686460733413696,0.07890540361404419,0.12485495954751968,-0.03622834011912346,0.2744135856628418,0.01669793389737606,-0.04952838644385338,0.07275253534317017,-0.1069846823811531,0.10787501186132431,-0.04185767471790314,0.19457435607910156,-0.0869203582406044,0.15882159769535065,0.018569568172097206,-0.17155781388282776,-0.12642653286457062,-0.19659031927585602,-0.2141309231519699,-0.12036861479282379,-0.17981687188148499,-0.1503208726644516,-0.1743650883436203,0.003203687025234103,0.11122003197669983,0.14332811534404755,-0.05216420441865921,0.11880400776863098,0.12422407418489456,0.12045137584209442,0.15558354556560516,0.012990562245249748,-0.021071331575512886,0.0791703388094902,0.15481823682785034,0.1774507611989975,0.18781955540180206,0.2587214410305023,0.13531622290611267,0.17657920718193054,0.03379705920815468,0.08505593985319138,0.007140124682337046,0.003492136253044009,0.03922624886035919,0.1163758635520935,0.07578513771295547,-0.01920980028808117,0.08111441880464554,0.1532048135995865,-0.06493481248617172,0.13145588338375092,-0.006327261682599783,0.08719189465045929,0.2713370621204376,-0.026256797835230827,0.2839463949203491,0.09203219413757324,0.3096581995487213,0.04194527491927147,0.08184996992349625,-0.10409758985042572,0.21334823966026306,0.06373976916074753,-0.15677598118782043,-0.1131230816245079,-0.02421685867011547,-0.16969451308250427,0.027862166985869408,0.1507122814655304,-0.021762914955615997,0.022560689598321915,-0.16582368314266205,-0.09075706452131271,-0.22707340121269226,0.08881337940692902,-0.14541131258010864,0.05589189752936363,0.05468887835741043,-0.044292472302913666,0.09010118246078491,0.09879814833402634,0.19479677081108093,-0.10581764578819275,0.12378101050853729,-0.05551905930042267,0.17851732671260834,0.03047242946922779,0.13766860961914062,0.12648329138755798,0.1289166957139969,0.12264416366815567,-0.1795371174812317,-0.09355779737234116,-0.040287524461746216,-0.056690387427806854,0.05037485808134079,0.08020975440740585,0.15958049893379211,0.21306341886520386,0.1722942292690277,0.008313468657433987,0.07361757755279541,0.25183916091918945,0.15460819005966187,0.13688036799430847,0.07557397335767746,0.1613277643918991,0.06327582150697708,-0.07103854417800903,-0.028583068400621414,0.17620277404785156,-0.0025854825507849455,0.15852436423301697,-0.10748589038848877,-0.14812886714935303,-0.1831531822681427,-0.10928581655025482,-0.04845147579908371,0.17050543427467346,0.06471163034439087,-0.06161267310380936,0.098481684923172,-0.21764422953128815,-0.06032497435808182,-0.10953629016876221,-0.2594791054725647,-0.05976100265979767,-0.24629291892051697,-0.16465801000595093,-0.20324721932411194,-0.02702169492840767,0.22997769713401794,0.18596838414669037,0.16551098227500916,0.19150762259960175,0.18708965182304382,0.2515195608139038,0.04850546643137932,-0.07220762968063354,0.02015932835638523,0.2488703429698944,-0.030409520491957664,0.23682637512683868,-0.05671609938144684,0.11960567533969879,0.19464145600795746,0.01754091866314411,0.24981476366519928,0.06599211692810059,0.011558341793715954,0.14358966052532196,0.08989812433719635,0.02256210707128048,0.18983282148838043,0.06283827126026154,-0.08010636270046234,0.05194767564535141,-0.028565654531121254,0.04016604274511337,-0.03090178780257702,0.1400364637374878,0.09622269123792648,0.014060447923839092,0.010923972353339195,0.28681671619415283,0.24468572437763214,0.2751678228378296,0.05630617216229439,0.04991468787193298,0.15815255045890808,-0.07260564714670181,-0.052009303122758865,-0.12932173907756805,0.11794903874397278,-0.13430100679397583,-0.04926032945513725,-0.23874400556087494,-0.1866491287946701,-0.04827521741390228,-0.1351277381181717,-0.006900125648826361,-0.1455366611480713,-0.19971726834774017,-0.014491768553853035,0.0211800467222929
