0.09619294106960297,-0.01818711683154106,-0.17164403200149536,-0.09161647409200668,0.03999361768364906,0.18189629912376404,-0.22140635550022125,-0.2268361747264862,-0.2038806676864624,0.01178769115358591,0.005925687961280346,0.08645594865083694,-0.3211306035518646,-0.24379482865333557,-0.19755209982395172,0.2854178249835968,-0.25597745180130005,0.2993980944156647,0.2420632392168045,0.13984842598438263,0.0669354647397995,-0.056237779557704926,0.20607878267765045,0.0961986854672432,0.2567386329174042,-0.05207820236682892,-0.026417411863803864,-0.10895217210054398,-0.23335035145282745,0.28751739859580994,0.0371653251349926,-0.1073596328496933,-0.32785797119140625,0.24722905457019806,-0.008166485466063023,-0.12456874549388885,-0.023458559066057205,-0.19918707013130188,0.20526333153247833,0.20768000185489655,-0.047302547842264175,-0.024830639362335205,0.2532867193222046,0.12045000493526459,-0.26211848855018616,-0.18633612990379333,-0.19670109450817108,-0.09992935508489609,0.014391142874956131,-0.16182106733322144,-0.3007569909095764,0.04979448765516281,-0.20464473962783813,-0.20225320756435394,0.0374639630317688,-0.05926569551229477,-0.22268345952033997,0.21539689600467682,-0.280823677778244,0.031071996316313744,0.12370718270540237,0.099401094019413,0.293832391500473,0.1338205486536026,-0.11779360473155975,0.14829224348068237,-0.0168834887444973,-0.15441985428333282,0.29844900965690613,-0.016838984563946724,0.011651505716145039,-0.18961821496486664,-0.17762473225593567,-0.10632824152708054,-0.19954483211040497,0.32456186413764954,0.08859526365995407,0.13229051232337952,-0.2847636044025421,-0.28721585869789124,0.26212698221206665,0.1891593635082245,0.2686758041381836,0.24212317168712616,0.23994790017604828,0.2381662130355835,-0.07708767801523209,0.03456996753811836,-0.09740349650382996,-0.035745956003665924,0.22826732695102692,-0.32880544662475586,0.11946810036897659,0.014126559719443321,-0.14868083596229553,-0.04274195805191994,-0.22357088327407837,0.11952143162488937,0.2664962708950043,0.2716132700443268,-0.1786871701478958,0.10443814098834991,-0.01978805847465992,-0.28002506494522095,-0.24272248148918152,-0.33165109157562256,-0.12386617809534073,0.17455056309700012,0.189068004488945,0.18302983045578003,-0.05860590934753418,0.2228468358516693,-0.08965397626161575,0.3142157793045044,0.18995380401611328,-0.04715302586555481,-0.06477672606706619,-0.0685310959815979,0.05815217271447182,0.1550014615058899,-0.1549714058637619,-0.2081775665283203,0.09570667892694473,0.11671271175146103,-0.3233720064163208,0.03780415654182434,-0.20801201462745667,0.17039330303668976,0.048708219081163406,-0.2897706627845764,-0.026072749868035316,-0.16574294865131378,0.07962608337402344,-0.0036954651586711407,-0.1657104790210724,0.22205176949501038,0.27274614572525024,-0.18335860967636108,-0.15844246745109558,0.017383938655257225,0.10003542900085449,0.052375078201293945,-0.12255825847387314,-0.047122105956077576
