0.18209831416606903,-0.2762421667575836,2.11001570278313e-05,-0.20564870536327362,0.2855072021484375,-0.24693703651428223,0.18112652003765106,-0.24558107554912567,-0.2526266872882843,0.02938501536846161,-0.04123730584979057,0.28204500675201416,-0.2592274248600006,0.20442579686641693,0.28822678327560425,0.10965339094400406,-0.10138710588216782,-0.29732516407966614,0.3076018691062927,0.2667059898376465,-0.23839525878429413,0.24676057696342468,-0.25388944149017334,0.287824809551239,0.10916627198457718,0.21639475226402283,0.025076892226934433,0.175428569316864,0.17492100596427917,-0.010490354150533676,-0.24614489078521729,0.024938486516475677,-0.27680259943008423,-0.02946578525006771,0.0362391397356987,0.32230886816978455,-0.08480226248502731,0.08594843000173569,0.1944226771593094,-0.23779994249343872,-0.045089591294527054,-0.037044547498226166,-0.06805882602930069,0.008590216748416424,0.2634976804256439,0.3059103786945343,0.16835160553455353,-0.09977031499147415,-0.07602600753307343,-0.21674703061580658,0.0035047174897044897,0.2868676483631134,0.04900201037526131,-0.16409796476364136,0.06225144863128662,-0.2438485324382782,0.1290806531906128,-0.023740682750940323,0.245534747838974,0.313131719827652,-0.08458662033081055,-0.09967627376317978,0.06928382813930511,-0.26806849241256714,-0.11833427101373672,-0.279834508895874,0.29345062375068665,0.008604796603322029,0.08835065364837646,-0.01665034145116806,0.13507947325706482,0.07809238135814667,-0.06653594225645065,-0.1815342754125595,0.29974454641342163,0.15350595116615295,0.22110562026500702,0.2145995795726776,0.32474759221076965,-0.1752236932516098,-0.13940046727657318,-0.28333449363708496,0.011629058048129082,0.13977158069610596,-0.11832555383443832,-0.2283473163843155,-0.241229847073555,-0.2689683139324188,-0.31298863887786865,-0.2531214952468872,0.24270188808441162,0.11003517359495163,0.19848668575286865,0.2702811062335968,0.006491687148809433,-0.29745668172836304,-0.15544120967388153,0.2738521099090576,-0.03976909816265106,0.050321292132139206,-0.3280539810657501,0.004152954090386629,-0.17609980702400208,0.006309606600552797,-0.1954657882452011,-0.21642377972602844,-0.2791556119918823,0.19503434002399445,-0.18331196904182434,0.16424886882305145,-0.12797138094902039,0.2835906445980072,-0.005903641227632761,-0.3187430202960968,4.237507198467938e-07,-0.002527429023757577,0.23444080352783203,0.31378838419914246,-0.18921080231666565,0.30819079279899597,-0.19987638294696808,-0.05976959690451622,-0.006331200245767832,0.09416530281305313,0.3276017904281616,-0.11982318013906479,-0.16436707973480225,-0.3376190960407257,0.2621966004371643,0.02125297114253044,0.22386841475963593,0.22492049634456635,-0.2577960193157196,0.30677857995033264,-0.04888143017888069,0.23236674070358276,-0.32012972235679626,0.15550629794597626,-0.29930490255355835,-0.009098292328417301,0.2659263610839844,-0.16620300710201263,-0.20083974301815033,-0.32086846232414246,0.30753469467163086,-0.18122749030590057,0.18747948110103607,0.3154543340206146,0.2186991423368454,0.20529696345329285,0.11137757450342178,0.19202454388141632,-0.08296752721071243,-0.09425303339958191,-0.2753623127937317,-0.11017769575119019,-0.15996433794498444,0.015298387967050076,0.314071923494339,0.03273295611143112,0.19328735768795013,0.09520074725151062,0.30606523156166077,-0.05749175325036049,0.29251334071159363,0.031994953751564026,0.23104503750801086,0.07622227072715759,0.1835906058549881,0.03652052581310272,-0.30319100618362427,-0.2141389697790146,-1.8295710333404713e-06,-0.19227629899978638,-0.0259192306548357,0.11451608687639236,0.2772480249404907,0.02714802697300911,0.21881413459777832,0.19240069389343262,0.007328731939196587,-0.31776565313339233,-0.11911436170339584,0.18517513573169708,-0.022960780188441277,-0.21590378880500793,-0.07879883795976639,0.10269419848918915,0.3358691334724426,-0.07901325821876526,-0.29494571685791016,-0.0592007078230381,-0.0073420279659330845,-0.2627735137939453,0.1549081802368164,0.2526284158229828,-0.15578080713748932,0.1714356392621994,-0.019187480211257935,-0.09172862023115158,0.12562890350818634,0.19027972221374512,-0.18274866044521332,-0.10213074833154678,0.2955819070339203,0.22084251046180725,-0.25695547461509705,-0.06332338601350784,0.07426045835018158,-0.07916467636823654,-0.2604735493659973,0.23327063024044037,0.22902387380599976,0.18765029311180115,0.09459918737411499,0.062237806618213654,-0.30734431743621826,0.09822347015142441,0.1906897872686386,0.13790562748908997,-0.041208554059267044,-0.21874721348285675,-0.2885128855705261,-0.2894660234451294,0.2598261535167694,0.30919480323791504,0.3031670153141022,0.10826694965362549,-0.17938493192195892,-0.04382045567035675,-0.20171843469142914,-0.3138059675693512,0.06238073110580444,0.06836264580488205,-0.17651470005512238,0.2464188188314438,0.2707381844520569,0.32514435052871704,-0.10635826736688614,0.2972794771194458,-0.15018606185913086,-0.031247949227690697,0.1998419463634491,-0.2391643524169922,0.33082202076911926,-0.20867326855659485,0.1355898380279541,-0.02237698808312416,0.21733810007572174,-0.3112117648124695,-0.16963915526866913,-0.0404493473470211,0.33425047993659973,0.022928010672330856,-0.023760735988616943,0.28276172280311584
