-0.0699603259563446,-0.12180066853761673,0.10059297829866409,0.14853216707706451,0.0035127035807818174,0.01785135641694069,-0.14535610377788544,-0.05803559720516205,-0.01967695727944374,0.06962668895721436,0.054248616099357605,-0.0029101737309247255,0.1373158097267151,-0.1909460574388504,0.20464159548282623,-0.01785437949001789,-0.0038722362369298935,-0.215592622756958,0.03483643755316734,-0.1875937581062317,0.16224059462547302,0.04513100907206535,0.13069254159927368,-0.0995139479637146,0.004365093074738979,-0.0004897109465673566,-0.1753147542476654,-0.11430869996547699,-0.17591068148612976,0.21574558317661285,0.04601743072271347,0.15462863445281982,0.051668133586645126,0.1267816126346588,-0.1418071985244751,-0.19637122750282288,-0.08383721858263016,0.1380355954170227,-0.14441613852977753,0.0808769017457962,-0.1847386509180069,-0.16733989119529724,-0.17331279814243317,-0.24337433278560638,-0.04628699645400047,0.007430754601955414,-0.06454522907733917,-0.03495616465806961,0.13469862937927246,0.20986734330654144,-0.002477009082213044,0.1864384412765503,0.1797959804534912,0.06230037659406662,-0.00034441056777723134,0.062190670520067215,0.09998885542154312,0.03822117671370506,-0.20296022295951843,0.21936213970184326,0.11800476908683777,-0.001451766467653215,-0.21088522672653198,-1.9823728791834583e-07,-0.10415560752153397,0.16210833191871643,-0.012086099945008755,0.031654927879571915,0.22095215320587158,0.04550718516111374,-0.20830543339252472,-0.1274971067905426,-0.0006340477266348898,0.010576087981462479,-0.02869683876633644,0.1896062195301056,-0.19751441478729248,0.11673426628112793,-0.06062454357743263,0.024265365675091743,0.0031509259715676308,-0.0761992409825325,-0.10212813317775726,0.13467887043952942,-0.04198430851101875,0.08072572946548462,0.013144218362867832,0.05848446860909462,0.22265590727329254,0.24062643945217133,-0.13067401945590973,0.11928560584783554,0.06727398931980133,-0.10356280952692032,0.0004837233864236623,-0.07375574856996536,7.871883281040937e-05,0.07692087441682816,-0.007757452316582203,0.1717604547739029,0.12997139990329742,0.2184457629919052,0.06691230833530426,-0.1773127168416977,-0.1842791885137558,0.18901336193084717,-0.13879624009132385,-0.08705756813287735,-0.02432117611169815,-0.214273139834404,-0.1698957085609436,0.06266358494758606,-0.1982816755771637,0.18444538116455078,0.1602863371372223,-0.19549958407878876,-0.06726639717817307,0.057228539139032364,0.18736037611961365,-0.011302105151116848,0.19178320467472076,-0.11300406605005264,0.009074142202734947,0.06327597796916962,-0.24194246530532837,0.07696706056594849,-0.11245451867580414,-0.19572503864765167
