0.014783959835767746,-0.0030224560759961605,-0.08849658817052841,0.0508357509970665,-0.03986525163054466,-0.041766807436943054,0.06635705381631851,-0.006348722614347935,0.06691478192806244,0.03052378259599209,-0.006873098202049732,3.5867597034666687e-06,-0.04399125277996063,0.08998633921146393,0.020084422081708908,-0.02283933386206627,0.07078250497579575,9.097853762796149e-05,-0.004421191290020943,0.049645181745290756,-0.028753705322742462,-0.009923916310071945,-0.046526242047548294,0.030828557908535004,-0.009513850323855877,0.04760650917887688,0.03881368413567543,0.010655577294528484,-0.08389642834663391,-0.0711076557636261,-0.06273642927408218,-0.0870303139090538,0.05645715817809105,0.0294437687844038,3.1012183399070636e-07,0.005260616075247526,0.011726069264113903,-0.08478113263845444,-0.0001191019982798025,0.03708980605006218,-0.07984455674886703,-6.928825314389542e-06,0.04563139006495476,0.005203432869166136,0.07395021617412567,-0.009164184331893921,-8.957325189840049e-05,-0.07133588194847107,-1.1064757018175442e-05,0.01883281022310257,-0.021455127745866776,-0.06156105548143387,-0.023104466497898102,-0.08154253661632538,-0.020877676084637642,0.004969863686710596,-9.282396058551967e-05,-0.05470384657382965,-0.08375014364719391,-0.05554879456758499,0.02191484533250332,0.012712582014501095,-2.58051477430854e-06,1.856202516137273e-06,-0.07399552315473557,-0.08136478066444397,7.464446838412186e-08,0.0023059442173689604,-0.07755444943904877,-0.016417568549513817,0.014954155310988426,-0.04940197244286537,-0.090817391872406,0.05528693646192551,0.054764315485954285,0.05540350452065468,0.05755350738763809,-0.03943466767668724,-0.015143807977437973,-6.134727300377563e-05,0.03877594321966171,-0.09030309319496155,-0.0706210657954216,0.023653071373701096,-0.05227142199873924,-0.00020012161985505372,-0.08382164686918259,0.043353576213121414,-0.0012908533681184053,0.034857600927352905,-0.04325392469763756,-0.014066425152122974,1.661464193603024e-05,0.03376279026269913,0.02607511356472969,0.014399220235645771,0.020569469779729843,0.07001185417175293,-0.022759003564715385,-0.07833121716976166,0.050481945276260376,0.0034987502731382847,-0.002389822620898485,-1.3489001503330655e-05,0.008229287341237068,-0.012810347601771355,-0.002804711228236556,1.3821349057252519e-05,0.08104027062654495,0.05436674878001213,0.05372602865099907,0.0572829470038414,0.051651135087013245,0.0016384110786020756,0.04283178597688675,0.005620437208563089,-0.05565585568547249,9.364202560391277e-05,-0.0339544378221035,-0.0076609584502875805,-0.0025776943657547235,0.05929537117481232,0.026385076344013214,-0.01321222260594368,-0.031464919447898865,0.016088418662548065,-0.0667833611369133,0.05282723903656006,0.00512247160077095,-0.0776531845331192,0.05682109296321869,1.1765291674237233e-06,-0.00034325645538046956,-0.016609176993370056,-0.09046252816915512,-0.0434291698038578,-0.08203595876693726,0.012261706404387951,-0.003238240722566843,-0.06746947020292282,-0.0820157378911972,6.727957224939018e-05,-0.058000218123197556,7.681504143874918e-07,0.023137731477618217,-9.008098459162284e-06,0.03663193807005882,-0.06897719204425812,-0.01594635471701622,0.08743498474359512,-0.06766798347234726,-0.013137506321072578,-0.07038190960884094,-0.026063276454806328,-7.807374799995159e-07,0.07521622627973557,9.420758578926325e-05,-0.08229859173297882,0.0680558905005455,-0.08717426657676697,-0.06527886539697647,-0.07705876231193542,-0.0032043519895523787,-0.015903471037745476,0.06986595690250397,-0.011250677518546581,-0.003849511034786701,0.10277304798364639,-0.051164329051971436,-0.016626840457320213,-0.0704989954829216,0.06993705779314041,0.02911483123898506,0.028969259932637215,5.624108780466486e-06,0.05998862907290459,0.02413058653473854,7.997063949005678e-05,-0.05131983011960983,-0.0030454937368631363,-1.247179625352146e-06,0.0013266124296933413,-0.0742107704281807,0.06583377718925476,-0.03380614519119263,0.03546854108572006,0.004871435463428497,0.0446288175880909,-0.022701798006892204,0.0662052109837532,0.01862139068543911,0.06524204462766647,0.03680551052093506,-0.1108439713716507,-0.09560266137123108,0.02414064295589924,-0.018597960472106934,-0.044422879815101624,0.06308328360319138,9.687085548648611e-05,0.06739138066768646,-0.047392554581165314,0.06785065680742264,0.022063391283154488,-0.018619883805513382,-0.031016629189252853,9.98018778730625e-10,-0.09775486588478088,0.08699581027030945,-0.054672230035066605,-0.12224948406219482,0.03319131210446358,0.034369394183158875,0.024989772588014603,-0.10665062814950943,0.10080800205469131,0.048257406800985336,0.06836101412773132,0.05756717175245285,0.0324377678334713,0.06623150408267975,-1.9049204638577066e-05,-0.013684944249689579,-0.025825822725892067,0.07645391672849655,-0.001625685952603817,-0.08693331480026245,0.006819428876042366,0.07456326484680176,-0.038231417536735535,0.01654251292347908,0.033492494374513626,0.05170528590679169,-0.041115909814834595,0.0552147775888443,-0.0808933675289154,7.75832904764684e-06,0.057793453335762024,-0.07176205515861511,0.002162502845749259,-0.020510034635663033,-0.0902007594704628,-0.08153854310512543,0.0186503604054451,0.03751712664961815,0.02719724364578724,-0.0017945171566680074,0.06491701304912567,-0.009732285514473915,-0.0113443061709404,0.04320204630494118,0.027737336233258247,-0.0021387941669672728,0.00165911007206887,-0.02204066701233387,0.03557083383202553,-0.0013525893446058035,-0.039659664034843445,-0.011544681154191494,0.05644978955388069,-0.03777841478586197,-0.03672664985060692,-0.02434878796339035,0.00018998084124177694,-0.0075347633101046085,0.03596871346235275,-0.009383177384734154,-0.0642213374376297,-0.057681914418935776,-0.0003707297728396952,-0.020897677168250084,0.0906175822019577,-0.008302604779601097,0.0012228733394294977,-3.4563660733510915e-07,0.013512098230421543,-1.3022488474234706e-06,-8.940975385485217e-05,0.04765539616346359,-2.865007900254568e-06,0.03906955197453499,-0.01743837632238865,0.08330129832029343,0.017624156549572945,-2.196338573412504e-05,-0.07036624103784561,-0.058824826031923294,-0.02695668861269951,0.06999021023511887,0.059722624719142914,-0.012812861241400242,0.07493747770786285,0.012010021135210991,-0.01112668588757515,-0.07520164549350739,-4.147302661294816e-06,-0.07698003202676773,-0.08463748544454575,-0.028931090608239174,0.07497027516365051,0.0071412320248782635,0.039695676416158676,-0.003968145698308945,-0.09083754569292068,-0.0019521282520145178,-0.00092296366347,0.10901130735874176,-0.08258490264415741,-0.10068748891353607,0.04879198595881462,0.11874988675117493,-0.08926080167293549,0.11845891177654266,-0.0063866483978927135,-0.03465891256928444,0.0018647478427737951,-0.015025665983557701,0.06664219498634338,0.035253237932920456,-1.405961000955358e-07,-4.340425675763981e-06,-0.06885278970003128,-9.529739145364147e-06,-0.04015493392944336,-0.0372479222714901,-2.58182410561858e-07,0.013101830147206783,0.09061375260353088,-0.0825112909078598,-0.04516062140464783,-0.051798608154058456,0.07360467314720154,0.011705123819410801,-0.0219560619443655,0.0017946695443242788,-0.07677581161260605,0.08335339277982712,-0.023886216804385185,0.048627108335494995,-0.009212164208292961,0.005060089286416769,0.07460127025842667,0.0072159236297011375,0.06373677402734756,-0.029591836035251617,0.015796927735209465,-0.06582540273666382,0.017102232202887535,-0.08390079438686371,0.053660545498132706,-0.034597136080265045,0.06651587784290314,-0.0667005181312561,-0.054461900144815445,0.08887473493814468,0.09021218121051788,0.099769726395607,0.09083857387304306,-0.07528309524059296,0.10064582526683807,-0.06011956185102463,-0.06762300431728363,0.015600217506289482,-0.030482430011034012,-0.049780458211898804,0.08972898870706558,0.08083292841911316,-0.006830086465924978,0.076089046895504,0.06459358334541321,5.083789801574312e-06,0.004083241336047649,0.0522279255092144,-1.1536259989952669e-05,0.047660551965236664,-0.004810279235243797,-9.42172027862398e-06,0.010313428938388824,-0.07685060054063797,-0.044129401445388794,0.010208899155259132,0.08042751252651215,0.0939297080039978,0.044399503618478775,-0.11115314811468124,-0.11002231389284134,-0.0662902221083641,-0.05472462251782417,-0.05918585881590843,0.06317535042762756,0.08416929095983505,-0.042473528534173965,0.07675894349813461,-0.0473906435072422,-0.042137447744607925,-0.009293929673731327,-0.011135362088680267,0.0769520103931427,-0.011953781358897686,-0.06929363310337067,-0.015260832384228706,0.06933878362178802,0.01339091919362545,-8.636894199298695e-05,-0.0717291310429573,0.08650528639554977,0.03448567911982536,0.019209790974855423,0.0321139320731163,-0.11702068150043488,0.09267988801002502,0.05348500236868858,0.020459210500121117,0.09852507710456848,-0.08244025707244873,0.053051870316267014,-0.05737128481268883,-0.002195585984736681,0.06644971668720245,0.005995791871100664,-0.005666170734912157,-0.06949793547391891,-2.103535007336177e-05,-0.049331288784742355,-0.08328402042388916,0.0655227079987526,-0.04858677461743355,-0.04723314940929413,0.02748635970056057,-0.04948258772492409,-0.10588692873716354,0.08558811992406845,-0.015579215250909328,0.07578907161951065,-0.06426743417978287,0.0633307620882988,0.05109976977109909,0.03349008038640022,-0.0570654422044754,0.06057214364409447,0.06338703632354736,-0.05521269515156746,0.03277983516454697,-0.02543497085571289,0.007521134335547686,1.4689959471070324e-06,-0.06303691864013672,0.017419563606381416,-1.4398928215086926e-05,-0.04423800855875015,-0.03527483344078064,0.041886359453201294,0.0007247730391100049,-0.00162259372882545,-0.0741875022649765,-0.0006928336224518716,0.029754268005490303,-0.033275675028562546,0.0026422764640301466,0.04752708226442337,0.03885100409388542,-2.987502739415504e-06,-0.02869604155421257,-0.06828019767999649,-0.01557918917387724,0.05005556344985962,0.024296995252370834,-0.05459798127412796,-8.798800263321027e-05,0.0012341385008767247,-0.022023115307092667,2.193264117522631e-05,-0.08002883940935135,-0.06176779419183731,-0.0811416506767273,0.0731276199221611,0.04985088109970093,0.04962527006864548,-0.09062287956476212,-0.004469036590307951,1.0700831808208022e-05,-0.013242864049971104,-0.07238669693470001,6.6873217292595655e-06,0.013054734095931053,0.04262228310108185,-0.00033804570557549596,0.06033961474895477,-0.006980204489082098,0.08014769107103348,0.03841866925358772,0.05265823379158974,-0.027369096875190735,-0.02196616306900978,-0.0547700859606266,-0.05309590324759483,0.0817616805434227,-0.046852849423885345,0.05795702338218689,9.54890638240613e-05,1.2483604905355605e-06,-0.01869973912835121,-3.2320290301868226e-06,-0.08006039261817932,-0.010130846872925758,0.0024648092221468687,-4.6723005652893335e-05,-0.030872264876961708,-2.7911364668398164e-06,0.05964227765798569,0.0847475454211235,0.03946612775325775,-0.035388000309467316,0.03887415677309036,0.05308820679783821,0.0667600929737091,0.059408340603113174,-0.00042789094732142985,0.0770716518163681,0.03755611181259155,-0.07537896186113358,-0.008254456333816051,6.613825826207176e-05,0.0737011581659317,-0.046300556510686874,-3.7427182633109624e-06,-0.027346039190888405,-0.04596896842122078,1.1819184919659165e-06,-0.08153031766414642,-0.00547308474779129,9.501894965069368e-05,0.005965672433376312,0.005627512000501156,0.08683469146490097,0.028422527015209198,-0.06086292490363121,-0.0456547737121582,-0.042944055050611496,0.002533098915591836,0.01331238355487585,0.007346132304519415,-0.05502462387084961,0.08303536474704742,1.9392567992326804e-05,-0.06653724610805511,-0.008597082458436489,0.04047278314828873,-0.04771606624126434,-0.04061783105134964,-0.06729599088430405,0.06092982366681099,-0.006849734578281641,0.015133881941437721,-0.0035761340986937284,0.01112730149179697,-0.08194948732852936,8.957401587394997e-05,0.05815532058477402,0.060658253729343414,0.033185750246047974,-0.042823728173971176,-0.005093472544103861,-0.03930689021945,-0.04471247270703316,-0.05440335348248482,0.09079359471797943,0.07539433985948563,0.08097448199987411,0.06976670026779175,0.032965533435344696,-0.00011968566832365468,0.012888227589428425,0.002187262289226055,-0.059538837522268295,0.03103010170161724,-0.0506553091108799,0.04162463918328285,-0.06372983008623123,-0.08068685978651047,-0.08163464814424515,-0.005373404361307621,0.006268433295190334,-0.00533605832606554,1.0158799341297708e-05,8.159868593793362e-05,0.02771056815981865,-0.061303384602069855,0.07965818792581558,-0.0073844436556100845,0.0837474837899208,0.03931337967514992,-7.763768371660262e-05,-9.280355152441189e-05,-0.015168987214565277,-0.015805721282958984,0.04233569651842117,0.005869705229997635,0.005181864835321903,0.05075228959321976,-0.02984388917684555,-0.007742483634501696,0.0763600766658783,-9.400022827321663e-05,-0.06246939301490784,0.024276195093989372,-3.106222493443056e-06,0.037323955446481705,0.05829489976167679,-1.2624959708773531e-05,-2.222514922323171e-05,-0.03654606267809868,0.031679026782512665,0.0539676696062088,0.04052020609378815,0.06063308194279671,0.0887250006198883,0.050918806344270706,-0.051390934735536575,1.5646899555576965e-05,-0.033613402396440506,-0.0003423945454414934,-0.07992492616176605,-0.002538047032430768,-0.03532962128520012,0.049481138586997986,-8.082442218437791e-05,-9.567695815348998e-05,-0.06761182844638824,1.751572563080117e-05,-0.045616958290338516,0.05457068607211113,-0.05883876234292984,-0.04084853082895279,-0.034581027925014496,-3.0498847536364337e-06,-1.705541944829747e-05,-0.017549796029925346,0.012218179181218147,1.7553295037942007e-05,0.0045210495591163635,0.009756273590028286,-0.07581493258476257,0.04076817259192467,8.137133590935264e-06,0.06577406078577042,-0.04437777400016785,-0.014437581412494183,0.029219625517725945,-0.0019113614689558744,8.054071076912805e-05,-0.02184767834842205,0.07644488662481308,-0.05078158155083656,-0.047613780945539474,4.550371613731841e-06,0.002524584997445345,-2.311860271220212e-06,-0.013170501217246056,0.042038947343826294,-1.6414158380939625e-05,0.05281243473291397,-0.01751595363020897,-0.08272171765565872,0.012923668138682842,0.052946895360946655,0.05453655496239662,0.042555734515190125,-0.02547394298017025,0.08801590651273727,-0.053116198629140854,-0.10248526930809021,-0.0937664732336998,-0.09673279523849487,-0.0073725515976548195,-0.06521566957235336,0.07386738806962967,-1.579420967345868e-07,0.038299888372421265,0.07941677421331406,-0.026250729337334633,0.0349414199590683,0.01664942502975464,0.08445864170789719,0.013181432150304317,0.06090177968144417,0.05209317430853844,0.01601092331111431,0.06565382331609726,0.07690571248531342,4.0166181861422956e-05,-0.021880045533180237,0.04108631610870361,0.03481372445821762,0.08825681358575821,0.0019234175560995936,-0.07077472656965256,-0.04637376591563225,-0.03649654984474182,-0.08223042637109756,0.12739668786525726,-0.03671736642718315,-0.03676772490143776,1.1626381137830322e-06,0.006024674512445927,0.05756796896457672,-0.06958631426095963,0.011098113842308521,-0.06907340884208679,0.005795912351459265,0.05061633512377739,0.12268751859664917,0.1023261547088623,0.10156787931919098,-0.012641173787415028,0.039272621273994446,-0.06103959679603577,0.040500614792108536,0.042200878262519836,0.033588286489248276,9.417274122824892e-05,0.060977112501859665,0.055439140647649765,0.02521819807589054,0.05567559227347374,0.012207027524709702,0.08536515384912491,0.0759681910276413,0.01644226349890232,0.08701550960540771,-0.07361272722482681,-0.03592962026596069,-0.03511498123407364,-0.055379778146743774,-0.0025159348733723164,-0.03511134535074234,0.0005046369042247534,0.07035481929779053,0.027599534019827843,0.06865590810775757,-0.1136598214507103,-0.006808899808675051,-0.10262680798768997,-0.00451872730627656,-0.11206131428480148,-0.10692422837018967,-0.08125019073486328,0.06904967129230499,3.086278866248904e-06,-0.0192690622061491,-0.00114909908734262,0.04876880720257759,0.016084030270576477,1.4176500371831935e-05,0.0827324390411377,0.07102636992931366,-0.06184110790491104,0.047378960996866226,-0.06232844293117523,-0.025458015501499176,-0.04937345162034035,-0.08000409603118896,-0.030010495334863663,-0.035000089555978775,-0.017679475247859955,-0.015283696353435516,-0.005837741307914257,-0.06078554689884186,0.027474146336317062,0.05586058646440506,-0.11048127710819244,0.05842159315943718,-0.06060587242245674,-0.0428428016602993,-2.0969428078387864e-05,-0.014136683195829391,0.0012696387711912394,-0.02142132632434368,0.04251399636268616,0.04975365847349167,-0.06545628607273102,-0.068726547062397,0.038989562541246414,-0.06548560410737991,0.10743554681539536,-0.00798757839947939,-0.07949887216091156,-0.05849693715572357,0.08402461558580399,-0.009329949505627155,-0.03810001537203789,1.8664439267013222e-05,-3.904990080627613e-06,-0.04682914540171623,0.015243085101246834,-0.009281102567911148,-0.009974773973226547,0.05944292992353439,-0.07837129384279251,0.040844012051820755,-0.08616187423467636,0.008785877376794815,0.005088184494525194,-0.060148898512125015,1.4473866940534208e-05,-0.008273905143141747,0.004544027149677277,-0.08406974375247955,0.01072018500417471,0.0348830409348011,0.05743885412812233,0.06354428827762604,-0.059519652277231216,0.10393409430980682,0.034705258905887604,-0.05937579274177551,0.04792693629860878,-0.0636054277420044,-0.04383838176727295,-0.05024035647511482,-0.03649399057030678,0.08081280440092087,-0.057234011590480804,-0.013888869434595108,0.001061636721715331,8.254222848336212e-06,-0.00694702984765172,-0.00021046120673418045,-0.05117574334144592,0.0011037442600354552,0.013098138384521008,-0.00950451847165823,-0.06792405247688293,-0.009976775385439396,-0.06419564038515091,-0.03259794041514397,-0.08230575174093246,0.055660348385572433,0.06661084294319153,0.08661781996488571,-0.002312042750418186,-0.05280366539955139,-0.079255111515522,0.06888073682785034,0.06943979114294052,-0.07118299603462219,0.007653689477592707,-0.014114533551037312,-0.08301699161529541,-0.00015408662147819996,0.07007812708616257,0.08372616022825241,0.06159206107258797,0.008535932749509811,0.077823705971241,-0.09892211109399796,0.08009488880634308,-0.1050192341208458,-0.039767324924468994,-0.09028854221105576,0.024537209421396255,0.019327374175190926,-0.022252215072512627,-0.07011483609676361,0.08055205643177032,-0.0005359415663406253,-0.06190361827611923,-0.08680993318557739,-0.0036802724935114384,-0.03408610820770264,-0.058687809854745865,0.07369403541088104,8.011697332221956e-07,0.023159829899668694,0.0017827622359618545,-0.016583696007728577,-0.05789562687277794,0.08524385839700699,-0.05842002481222153,-0.05156617611646652,0.005211289040744305,0.020371340215206146,0.07785272598266602,-0.061066027730703354,0.05402946472167969,-0.009793674573302269,0.04778481647372246,-0.032765526324510574,-0.007971186190843582,0.028155874460935593,0.015907282009720802,-0.07482782751321793,-0.05463103577494621,0.021484939381480217,6.385380402207375e-05,-0.044922612607479095,0.06433313339948654,-0.08378472924232483,-0.07488172501325607,-0.04147625342011452,-0.0006122156046330929,-0.007675500586628914,0.00047374109271913767,0.017876844853162766,0.05409148335456848,-0.06935063749551773,0.005872749723494053,-0.056314192712306976,0.05682173743844032,0.08334125578403473,-0.08976304531097412,-0.060231782495975494,-0.050802551209926605,-2.2171154512307112e-07,0.05494486913084984,0.07495377212762833,3.0181146939867176e-05,-0.07611526548862457,1.464401407247351e-06,-0.05809655040502548,0.058994874358177185,-0.03198111802339554,-0.0010277224937453866,3.7877255181228975e-06,-0.07973548024892807,-0.02036295458674431,-0.03481729328632355,-0.08237671107053757,0.0036805267445743084,-0.008370858617126942,-0.03815578669309616,-0.02979874052107334,5.0927108532050624e-05,-1.0865605872822925e-05,-0.010120609775185585,0.00012946616334374994,-0.03147352486848831,-0.03523637354373932,-0.03371890261769295,0.012860494665801525,0.026969706639647484,-0.07464829087257385,0.016741113737225533,-6.512778054457158e-05,-0.03437252715229988,-0.017218511551618576,0.051830049604177475,0.03756387159228325,-0.07768727838993073,-0.08015793561935425,0.008851742371916771,-0.059736598283052444,0.002415559021756053,-0.041468843817710876,-0.08810677379369736,0.08729616552591324,0.00042885023867711425,0.10868173837661743,-0.11951662600040436,-0.10533560067415237,-0.03256139159202576,-0.08229013532400131,-0.08892153948545456,0.018399495631456375,0.0878637358546257,0.08708443492650986,0.030946098268032074,-0.06009356305003166,-0.00737030291929841,0.03343490883708,1.7495556221547304e-06,0.027108080685138702,0.05587076023221016,-0.022721849381923676,-0.05973019823431969,-0.08519572764635086,3.946261415421759e-07,-0.04677154868841171,0.05433376133441925,0.0075826519168913364,-0.038209427148103714,0.027797147631645203,0.040816325694322586,-0.10476984083652496,0.1051546260714531,-0.04798806831240654,0.0021399417892098427,-0.11805698275566101,0.09977999329566956,0.008427486754953861,-0.014220931567251682,0.008693349547684193,0.014583340846002102,-0.030044646933674812,2.3769882318447344e-05,-0.0578414648771286,-1.8202867067884654e-05,0.002695780713111162,0.02852640300989151,-0.1192605197429657,-0.07188575714826584,-0.012894771993160248,0.10692916810512543,-0.029291627928614616,-0.11728805303573608,-0.12145489454269409,0.03230750188231468,-0.04291236400604248,-0.030940217897295952,0.08696605265140533,0.025244059041142464,6.49975409032777e-05,-0.01740327849984169,-0.003359269816428423,0.01774871163070202,1.0899161679844838e-05,-0.0009571095579303801,0.08379028737545013,-0.07752788066864014,-8.142427759594284e-06,-6.201413270900957e-06,-6.001674819344771e-07,1.824363789637573e-05,-0.06602413207292557,-0.06102858483791351,-0.04984905198216438,0.050750311464071274,0.0321788527071476,0.07201043516397476,-0.0071037751622498035,0.10051301121711731,-0.07175344973802567,-0.07863710075616837,-0.07190839946269989,9.011411748360842e-05,-0.052156638354063034,-1.9173994587617926e-06,0.020899713039398193,-0.008554733358323574,-0.017131200060248375,0.02587028592824936,0.049947068095207214,0.06667277216911316,-0.0010821414180099964,-0.045726340264081955,0.021859729662537575,-0.07214798033237457,0.008649330586194992,2.478575879649725e-06,-6.643597589572892e-05,0.07881157845258713,0.03816869854927063,0.05917162820696831,0.04886678606271744,0.08042780309915543,-0.06371081620454788,-0.07126209139823914,0.1010236069560051,-0.006818867288529873,3.9075365165786025e-09,-0.0077598076313734055,0.08114391565322876,0.04470907896757126,9.239419887308031e-05,0.0470353439450264,-0.025094671174883842,-0.02343468926846981,-0.07316333055496216,0.01568515971302986,-0.05494944006204605,0.08708061277866364,-0.020995168015360832,-0.045159582048654556,-0.019995106384158134,0.07412932068109512,-0.06068430840969086,0.08983713388442993,0.001044608186930418,-0.00048795738257467747,-0.004631217569112778,-0.0720801129937172,0.08522507548332214,0.040618035942316055,-0.02101753279566765,-1.5523412002949044e-05,-0.012599312700331211,-0.00739939184859395,-0.01875700242817402,-0.00018942254246212542,0.07258458435535431,-0.02366483025252819,-0.004527518060058355,-0.04352619871497154,0.06304223835468292,-0.014127819798886776,0.02274920791387558,-0.00018629794067237526,0.02736479789018631,0.10307882726192474,0.04331963136792183,0.028026288375258446,-0.0013780937297269702,-0.05823478102684021,0.025517305359244347,-0.03734230995178223,0.07513917237520218,0.05531653016805649,-0.0012963851913809776,5.494785959569981e-09,-2.0131535904965858e-07,0.0603242889046669,0.04144192114472389,-0.06226319819688797,0.0889684185385704,0.021122083067893982,0.06356049329042435,-0.004907961469143629,0.0640423595905304,0.009524202905595303,-0.028018072247505188,0.05286600813269615,0.005199965089559555,0.047616589814424515,0.04312927648425102,9.6637595561333e-05,-0.09187247604131699,0.016954969614744186,-0.07410989701747894,-0.08610109239816666,0.09881646186113358,-0.06921644508838654,-0.09659353643655777,0.03771692141890526,-0.016341740265488625,0.0015281388768926263,0.027468247339129448,-0.08808758109807968,-0.01604284904897213,0.02847255766391754,-0.08641751110553741,-0.08554433286190033,0.021158218383789062,0.01603107899427414,0.0006991351256147027,-0.08576014637947083,-0.009701276198029518,-0.10970544070005417,-0.028939848765730858,0.017168104648590088,-0.1190868467092514,0.059566207230091095,-0.09119551628828049
