-0.006509261671453714,-0.006941481959074736,0.07305802404880524,0.07363224029541016,-0.06203911826014519,0.08710785955190659,-0.03476778790354729,0.0818055123090744,0.07365231215953827,-0.03602271527051926,-0.07375876605510712,0.006573144346475601,0.018962431699037552,-0.08523392677307129,-0.06927575916051865,0.060826633125543594,-0.07171974331140518,-0.06959011405706406,0.003313321154564619,0.0376158282160759,-0.06700100749731064,0.042353518307209015,0.08829492330551147,0.0839427039027214,0.06184367835521698,0.08702866733074188,-0.06761239469051361,0.00471203587949276,-0.05474312603473663,-0.07164864987134933,7.610616989950358e-07,-0.062349583953619,0.004688441287726164,0.061966050416231155,-4.6773016947554424e-05,-0.025284504517912865,4.675772288464941e-06,-0.002664050320163369,1.8951550373458304e-05,-1.5003025509940926e-05,0.0160174909979105,0.07398974895477295,-0.09049643576145172,-0.01752939075231552,-0.03445414826273918,-0.07870694249868393,-0.06449572741985321,-0.022251108661293983,0.039266280829906464,0.001132328761741519,0.034542497247457504,0.057086702436208725,-0.07361695170402527,-0.008497700095176697,-0.0031536591704934835,-0.07429315149784088,-0.04801123961806297,-0.058703530579805374,-0.0645613744854927,0.013315658085048199,0.004874393343925476,2.227571485491353e-06,-0.03643931820988655,0.026202423498034477,-0.07685839384794235,0.05684873089194298,0.000804990588221699,-0.06111893430352211,0.01444156002253294,-0.06299600750207901,-0.07794734090566635,-0.06107986718416214,-0.04233893007040024,0.07203236222267151,-0.025910591706633568,-0.043849341571331024,-0.0984119325876236,-0.10544280707836151,-0.0738026574254036,-0.06781360507011414,0.04725844785571098,-1.864627847680822e-05,-1.4369666132552084e-06,-0.07174909114837646,0.07937884330749512,-0.035092730075120926,-0.029768316075205803,-0.054985564202070236,-0.05958649143576622,0.007770448923110962,-0.128581240773201,0.0870521143078804,-0.10634130984544754,0.04419262707233429,0.01970791444182396,-0.12940071523189545,0.0538456030189991,-0.08070379495620728,0.08448700606822968,0.0017044087871909142,0.0016672182828187943,-0.06371985375881195,-0.05772935599088669,-0.018065715208649635,0.018760761246085167,0.006820558570325375,-0.07231485098600388,0.04848196730017662,-0.042981669306755066,0.05403054133057594,0.03921123221516609,0.05180448293685913,0.06672140210866928,0.003200134728103876,0.05607151240110397,-0.0018844065489247441,-0.031080337241292,0.00810335110872984,0.03472725301980972,-0.04313415661454201,0.06908991187810898,-0.13780108094215393,-0.03553047776222229,0.04230603203177452,-0.11414468288421631,-0.0057753813453018665,0.041078198701143265,0.03653028607368469,0.07991429418325424,-0.012010022066533566,-0.027388036251068115,-0.0008873942424543202,-0.05240558832883835,0.03623783960938454,-2.1564019334618933e-05,-0.044764578342437744,-0.07919718325138092,0.003315284848213196,0.03307946398854256,0.030769381672143936,0.012949815019965172,0.01882486790418625,0.10231286287307739,0.02890614978969097,-0.000366959284292534,0.06577461957931519,-0.09700660407543182,-0.031317196786403656,-0.03182191401720047,-0.10889749228954315,0.03472071886062622,0.024813175201416016,-0.038873326033353806,6.875969575048657e-06,-0.05386145040392876,0.08795452862977982,-1.528638313175179e-05,7.426163847412681e-06,-0.05258690565824509,0.00042733302689157426,0.08728967607021332,-0.009334634058177471,-0.08300277590751648,-0.10679671168327332,0.1187996119260788,0.07493480294942856,-0.1023619994521141,-0.1006096825003624,0.07112161815166473,0.019307149574160576,-0.08800356090068817,0.05420364812016487,0.036288369446992874,0.018052998930215836,-0.02211892046034336,0.033945612609386444,0.06022993102669716,0.011452718637883663,-0.004234651103615761,-0.054105304181575775,-0.00041195860831066966,0.02192535810172558,0.05988816171884537,-0.0020660131704062223,-0.022723017260432243,-0.03538621962070465,1.568629886605777e-05,0.07076787948608398,-0.016717959195375443,0.05965917557477951,0.041180070489645004,-0.059437014162540436,-0.10173693299293518,-0.1061694398522377,-0.06174743175506592,-0.08942240476608276,-0.06756732612848282,0.046819109469652176,-0.002303929068148136,-0.010192519053816795,-0.029479388147592545,0.005683873314410448,4.392783375806175e-05,-0.030992459505796432,-0.05246729776263237,-0.0011211158707737923,0.0738140195608139,0.03817841783165932,-0.08378805965185165,-0.08085346221923828,0.09701785445213318,0.0843464583158493,0.06861860305070877,-0.07318725436925888,0.020404599606990814,-0.04835815355181694,0.07046639174222946,-0.000604458968155086,0.032755520194768906,0.0803016796708107,-0.0070716640911996365,-0.07966265827417374,-0.00030753161991015077,-0.03224564343690872,0.11419832706451416,0.04822321981191635,-0.0002518092514947057,-0.03481166809797287,0.07749006897211075,-0.017617756500840187,-0.06389858573675156,0.06394584476947784,-0.08261584490537643,0.0016320140566676855,0.10194794833660126,-0.014663945883512497,0.11341542750597,0.1179932951927185,0.03431045636534691,0.06949466466903687,0.10889458656311035,-0.07071830332279205,-0.10712143033742905,-0.007540128659456968,0.024236280471086502,0.005038530565798283,-0.09136244654655457,-0.02257748693227768,0.011838424019515514,0.0222124345600605,0.040240705013275146,-0.008127586916089058,-0.06477899849414825,0.05417248234152794,-0.0017196066910400987,-9.194223093800247e-05,-5.5053154937922955e-05,0.054885029792785645,0.04003417119383812,0.00329491775482893,0.03049462102353573,-0.05436321347951889,0.059942688792943954,0.06416380405426025,0.02950497530400753,-0.005764296744018793,-0.08103764057159424,0.07227244973182678,-0.040380582213401794,-0.0686921700835228,0.01432356983423233,-0.025839192792773247,-0.003822756465524435,0.07470574229955673,0.043529950082302094,0.08933252841234207,-0.013668792322278023,-0.018897641450166702,-1.4627973541792016e-05,0.07926565408706665,0.1076430082321167,0.09055139124393463,-0.02788652665913105,-0.10564767569303513,-0.032505303621292114,0.09231232851743698,-0.06473226845264435,-0.010807320475578308,-0.03663572296500206,0.015775028616189957,0.06516951322555542,0.0008709289832040668,0.04941072314977646,0.025399230420589447,-0.08644603192806244,1.7570155250723474e-05,-0.052529484033584595,0.011246145702898502,-0.05487850308418274,-0.05153045430779457,0.04485313594341278,-0.04492689296603203,0.04620871692895889,0.08069788664579391,-0.08929476141929626,8.048365998547524e-05,-0.08384115993976593,2.0249176486686338e-06,-2.205826240242459e-05,-9.583949577063322e-05,-0.07599437236785889,2.972676043100364e-07,-0.006765075493603945,-8.698922101757489e-06,-0.04558376595377922,0.008389106951653957,0.00839269533753395,-0.031370844691991806,-0.01970747858285904,-3.2151911000255495e-05,-0.006121979095041752,-0.008954226039350033,0.018985183909535408,0.05011991411447525,0.022653082385659218,0.0009534239070490003,0.011497135274112225,0.005713202524930239,-0.06232704967260361,-0.07179898768663406,0.01885596103966236,-0.04798213019967079,7.210284093162045e-05,-0.016910728067159653,0.08976287394762039,-0.07810340821743011,0.07081115245819092,0.07728414237499237,0.015209902077913284,0.0040916260331869125,-0.08814685791730881,0.0008239181479439139,-0.0016365180490538478,-0.07623260468244553,-0.02480156533420086,-1.047866703629552e-06,-0.06149641051888466,0.04332663118839264,0.0003827429609373212,0.005764452274888754,-0.03935735672712326,0.01908411644399166,0.013339054770767689,-0.043232280761003494,-2.2226910004974343e-05,0.029249269515275955,3.889785602950724e-06,-0.014244988560676575,-9.539670281810686e-05,-0.06529182195663452,-0.046756889671087265,0.02288268879055977,-0.02056381292641163,-0.0682237297296524,-0.06892775744199753,0.09298980981111526,-0.029206842184066772,0.05987486615777016,0.0349738709628582,0.08353741466999054,-0.002658439101651311,-0.08270270377397537,-0.0006632536533288658,-0.0815771222114563,0.025831837207078934,-0.04444053769111633,-0.0448722243309021,-0.07905521988868713,-0.04064581170678139,0.05472574010491371,0.07913517951965332,0.0010925778187811375,-0.011584853753447533,-0.014448554255068302,-0.1290035992860794,0.07810069620609283,0.08752479404211044,-0.011800609529018402,-0.00638143066316843,-0.06287992000579834,0.07328183203935623,-0.06021687760949135,0.07741004228591919,0.06407817453145981,0.01900342106819153,0.04818173870444298,-0.04357853904366493,0.04363308474421501,0.06815505772829056,-0.05057225748896599,-0.07155643403530121,0.07109339535236359,0.06138027086853981,-0.029593609273433685,-0.06703490763902664,-0.08623956888914108,-0.055638764053583145,0.09856289625167847,-0.07039874792098999,0.041895583271980286,0.0002553783415351063,-0.031987886875867844,0.034699972718954086,-0.11389686912298203,-0.034297000616788864,-0.0023912545293569565,3.914532499038614e-05,5.802135092380922e-07,-0.0825318843126297,-0.04804590716958046,0.0048175775445997715,0.042079173028469086,0.05527445301413536,0.08939409255981445,0.062066156417131424,-0.07567787915468216,-0.09825601428747177,0.05680637061595917,-0.02317420206964016,0.042191192507743835,0.04380657151341438,-0.10045307129621506,-0.06357554346323013,0.06065215915441513,0.028378838673233986,-3.818234290520195e-06,-0.003223474370315671,0.011656035669147968,0.02809576317667961,0.08787131309509277,-0.04333022981882095,-0.009378933347761631,0.05932176858186722,-0.04335619509220123,0.0527169443666935,-0.05474141240119934,-0.0694260224699974,0.07490132004022598,-0.006519174203276634,-1.6112557204905897e-05,0.034670498222112656,-0.00285892141982913,0.00860625971108675,-0.023488841950893402,0.045920729637145996,0.08208555728197098,-0.023687655106186867,-0.08301398903131485,0.05879960209131241,0.010239514522254467,-0.010309383273124695,-9.486184717388824e-05,-0.00979914516210556,-0.07517228275537491,0.020880790427327156,-0.017233557999134064,-0.03466137498617172,0.001426565577276051,-0.032101307064294815,0.08384258300065994,0.07364774495363235,0.08395931869745255,0.08047466725111008,0.0020504530984908342,0.030991889536380768,-0.044205229729413986,0.029606036841869354,0.0005409599980339408,0.03382476046681404,0.00018839709809981287,-0.005999990738928318,-0.07406523078680038,-0.0030919727869331837,-0.037123002111911774,-0.02711091935634613,-0.07954484224319458,0.029445093125104904,0.01278572715818882,-3.594953739138873e-07,-0.05790979042649269,-0.0021216438617557287,-0.029957005754113197,-0.06634985655546188,0.07123606652021408,0.053299013525247574,1.6605977704031716e-09,0.08172067254781723,0.0004917235346511006,3.6319374885351863e-06,0.00047467293916270137,-0.04632061347365379,-0.0713517814874649,0.08385340869426727,-0.011917940340936184,0.09933102875947952,-0.09511726349592209,0.02085401862859726,-0.05473147705197334,-0.0656067430973053,-0.04909263551235199,0.05099739879369736,0.0819559097290039,-0.10285507887601852,0.00901072658598423,0.0438905693590641,-0.021322671324014664,0.01702754944562912,-0.04902281612157822,0.07301820069551468,-0.018180575221776962,0.02451508305966854,0.05512256175279617,0.03983268886804581,0.03234393894672394,0.04830564931035042,-0.04734421893954277,-0.009697811678051949,0.03079129569232464,-0.1137785017490387,0.04083431139588356,-0.11481476575136185,0.05965421721339226,0.04883967339992523,-0.04800034314393997,0.007248151581734419,0.06838557124137878,0.08229436725378036,0.003099423134699464,-0.032955437898635864,0.054808393120765686,-0.005806887522339821,0.08003785461187363,0.05187792330980301,-0.035103242844343185,-0.0038730641826987267,0.0024679384659975767,2.94025949187926e-06,-5.740846609114669e-05,0.04606974869966507,0.008560837246477604,-0.025697944685816765,-0.03277474269270897,0.033957190811634064,0.016703587025403976,0.09482123702764511,0.09942229092121124,-0.09120558202266693,-0.035767748951911926,0.013226686045527458,0.06794637441635132,-0.045578766614198685,-0.018966861069202423,-0.003554491326212883,0.07661635428667068,0.004616080783307552,-0.05249352008104324,0.058329254388809204,0.07506296038627625,-0.001623059855774045,-0.10187219828367233,0.0334596261382103,0.06456912308931351,-0.027403248474001884,-0.04335032403469086,-0.09220899641513824,0.04097142815589905,-0.04211937263607979,-0.04015291482210159,0.026353446766734123,-0.02613600343465805,0.08992151916027069,-0.04798673093318939,0.031758345663547516,-0.03563681244850159,0.02456054463982582,0.04466772824525833,-0.05001769959926605,0.001086361357010901,0.035585906356573105,-0.030634228140115738,-0.0056680371053516865,0.03602425009012222,-3.095287183896289e-06,0.005692087579518557,0.030270345509052277,0.06427006423473358,-0.040306638926267624,0.00279837753623724,0.018204111605882645,-0.08699999004602432,0.037261463701725006,0.0296428594738245,-0.09453842788934708,0.02507011592388153,-1.9932882423745468e-05,0.0343056358397007,0.06746359914541245,-0.019611826166510582,0.06735557317733765,0.07148250937461853,0.006354744546115398,-0.003626100718975067,0.038658034056425095,0.01731589436531067,-0.03741617500782013,-0.00134733272716403,-0.055410776287317276,-0.03226951137185097,-0.02294829674065113,0.019836753606796265,2.182963271479821e-06,-0.025255637243390083,-0.01506070140749216,0.050847865641117096,0.04957786574959755,-0.028973432257771492,0.08499355614185333,-0.10709048062562943,0.05552053079009056,-0.04422471672296524,0.0009656246402300894,0.05554027855396271,0.0007155724451877177,0.0031881374306976795,0.005912099499255419,2.358657911827322e-05,-0.0535089485347271,0.0005136735271662474,0.01401905994862318,0.050442442297935486,-0.005353109445422888,0.0006769585306756198,0.06348661333322525,0.05210229381918907,0.05462479963898659,-0.06401509046554565,0.09472135454416275,-0.07630687952041626,0.0381363108754158,-0.07609674334526062,0.01948697865009308,0.10931147634983063,0.11953294277191162,-0.051508478820323944,0.1028694435954094,-0.09172600507736206,0.0599973239004612,0.011003322899341583,0.044145211577415466,-8.174405957106501e-05,0.004425098653882742,-0.07830048352479935,-0.08945801854133606,-0.07804502546787262,0.08206227421760559,0.021884987130761147,-0.04352407529950142,-0.0897664874792099,0.012783803977072239,0.11252930760383606,0.060309283435344696,0.023414552211761475,-0.0540810264647007,-0.06993872672319412,-0.07602857798337936,0.05862308293581009,-0.09093906730413437,-0.0038573083002120256,-0.08674105256795883,-0.03973536938428879,-0.00968234147876501,-0.0898776575922966,0.06815747916698456,-0.04685886204242706,-0.08601873368024826,0.03176427260041237,-0.0042159100994467735,-0.07059987634420395,0.022281084209680557,0.0438113771378994,-0.009234314784407616,-0.050137802958488464,0.01658683270215988,-0.033023275434970856,0.12108047306537628,0.1334487944841385,0.1317199021577835,-0.08403022587299347,0.06992573291063309,0.13200493156909943,0.10046925395727158,0.08629419654607773,0.01461387611925602,0.061356719583272934,-0.03606218472123146,-0.02047056518495083,-0.036548513919115067,0.023295791819691658,0.00030554065597243607,-0.08823443949222565,-0.06340824067592621,0.04972893372178078,0.03835563361644745,-0.008482979610562325,0.05113740637898445,-0.030824627727270126,-0.08423931151628494,-0.03955430909991264,-0.024329056963324547,-0.08669286221265793,0.06497419625520706,-0.07561290264129639,0.00018681805522646755,0.0004230084305163473,0.030771518126130104,3.010165073646931e-06,0.04925711452960968,-0.04254070296883583,-0.045505426824092865,-0.08433455973863602,0.0007095031905919313,0.07014795392751694,0.04970454424619675,0.03671826422214508,-0.061683762818574905,0.07453342527151108,0.07792597264051437,-1.0689225746318698e-05,-0.028238797560334206,-0.03873276337981224,-0.07284705340862274,-7.977426321303938e-06,-3.863257713732082e-09,0.07314396649599075,-0.03355517238378525,-0.08629859238862991,0.03319951146841049,-3.4499075241001265e-07,-0.0013165739364922047,-0.07773665338754654,-0.03684422746300697,0.026704685762524605,0.0601164810359478,0.00256624398753047,-2.0622683223336935e-05,0.031139979138970375,-3.7848579381716263e-07,3.12181691697333e-06,-0.0883760154247284,0.03175809234380722,-0.0905759334564209,0.06522000581026077,0.024091430008411407,-0.021616293117403984,0.08735685050487518,-0.07618730515241623,-0.018206417560577393,0.011091643944382668,-0.006629300769418478,0.021850688382983208,0.004744184203445911,-6.481353921117261e-05,0.015603716485202312,-0.03839242085814476,-0.05910985916852951,-0.007624539081007242,-0.07719338685274124,0.06915576756000519,0.009872539900243282,0.016965415328741074,0.05871417373418808,0.06092514842748642,-0.025142822414636612,0.07164756208658218,-0.032014764845371246,0.03841990604996681,1.5238222204061458e-06,-0.02067350409924984,-0.0013009500689804554,-0.010624603368341923,-0.040591780096292496,0.06100953742861748,0.11098099499940872,0.12552188336849213,0.09270153939723969,0.022283051162958145,-0.03969749063253403,0.1002715528011322,0.08440568298101425,0.03175145015120506,0.03421248868107796,4.640297265723348e-05,-0.03566472977399826,-0.05105176568031311,0.0020762383937835693,-6.38159763184376e-05,0.02498222328722477,9.393914297106676e-06,0.015029454603791237,2.91832402581349e-05,0.09601414948701859,0.08625033497810364,-0.10608116537332535,-0.07853211462497711,-0.10643820464611053,-0.06529221683740616,0.08346705883741379,0.08462486416101456,-0.07946870476007462,0.06097802519798279,0.050658151507377625,-0.009460202418267727,-0.007001718506217003,-0.011549786664545536,0.05692290514707565,-0.03244736045598984,-0.0397893488407135,-0.08179845660924911,0.05223997309803963,-0.07222748547792435,0.08428747951984406,-0.049399346113204956,-0.035680025815963745,-0.09004741907119751,-0.07969941198825836,-0.08046227693557739,0.025998108088970184,0.1354272961616516,-0.014300781302154064,0.020325563848018646,0.1299358457326889,-0.04016806185245514,0.10179638117551804,0.10244379937648773,-0.012474100105464458,-0.045468609780073166,-0.07742433995008469,0.02491549588739872,0.042423639446496964,0.045973241329193115,2.2337382688419893e-05,0.0064275530166924,1.2759986930177547e-05,-0.0520375557243824,-0.018337218090891838,-0.00023783385404385626,0.0881645604968071,-0.09808343648910522,-0.038606733083724976,0.017379766330122948,-0.03270156309008598,0.09798188507556915,-0.06404639035463333,0.0870189517736435,-0.06298946589231491,0.10737371444702148,0.03509102389216423,0.05303166061639786,0.06710954755544662,0.07340335845947266,-0.02178170345723629,0.06745894998311996,-0.07400880008935928,0.08496703952550888,0.02978229895234108,-1.2593622159329243e-05,-0.06229633837938309,-0.058206427842378616,-0.07807062566280365,0.002824206603690982,0.0005524420412257314,0.07066301256418228,0.05664641410112381,-0.00694303261116147,0.08596853911876678,-0.059849176555871964,-0.08085815608501434,-0.05646687373518944,0.09383256733417511,-0.06191303953528404,0.06522011011838913,-0.06858456134796143,0.00632834667339921,0.053781744092702866,0.08421878516674042,0.02128702402114868,0.07892254739999771,0.07687544822692871,0.04365481808781624,0.0002078184625133872,0.08661539852619171,-0.04398735240101814,0.03866758570075035,-9.976055480365176e-06,0.02748408541083336,-5.475453690451104e-06,-0.07151664048433304,0.00599098252132535,-0.05302315205335617,-0.003939345479011536,0.1357225924730301,0.03869949281215668,-0.01795095205307007,0.029113169759511948,0.023224450647830963,-0.0066679404117167,-0.07905136048793793,-0.014308013953268528,0.0276865866035223,0.0565313994884491,-0.07807431370019913,-0.03140111267566681,-0.07298414409160614,0.06897152215242386,-0.03155152499675751,0.04857856407761574,0.05201044678688049,-0.00043739599641412497,0.014339148066937923,0.12006337195634842,-0.06675787270069122,-0.10010067373514175,0.05808746814727783,0.04408799484372139,0.09363172948360443,-0.10603468120098114,0.0859135165810585,-0.022523511201143265,-1.278224431189301e-06,0.06389893591403961,0.002089875051751733,-0.07674038410186768,-0.05881533771753311,0.055780597031116486,1.5665642422391102e-05,-0.07155662029981613,0.0631403774023056,0.045095525681972504,-0.08031987398862839,-0.048420313745737076,-0.0034550202544778585,0.040288038551807404,-0.03449635207653046,0.0905807614326477,-0.0472540445625782,0.03458182513713837,0.029080944135785103,-0.05996166542172432,0.06739091873168945,-0.002700930694118142,0.03880247101187706,0.064349465072155,0.009315267205238342,0.06701334565877914,0.07154741138219833,-0.003009185427799821,7.388064841507003e-05,6.703880353597924e-05,-0.006045935209840536,0.02496415190398693,-0.04103580489754677,-0.03859689086675644,3.7665590753022116e-06,0.061584148555994034,0.03804183006286621,0.035606130957603455,0.06834478676319122,5.822880666528363e-08,-0.07809167355298996,0.0023059137165546417,0.0011990151833742857,0.05811840295791626,0.06636922061443329,0.014061887748539448,0.09060100466012955,-0.02277389168739319,-0.06519132107496262,-0.033612560480833054,-0.08919642120599747,0.08517300337553024,0.03465037792921066,0.04532426595687866,-0.027564041316509247,-0.050543367862701416,0.029573950916528702,-0.0025923389475792646,8.086931302386802e-07,-0.0009213370503857732,0.00245605013333261,0.07021232694387436,-0.010633858852088451,-0.025011282414197922,-0.013365458697080612,-0.07477569580078125,0.023928327485919,3.967953521311074e-09,-0.05145896226167679,-0.038160111755132675,-0.07947233319282532,-0.005185926798731089,2.006371687457431e-06,-3.41310233409331e-08,-3.8676185795338824e-05,0.0758242979645729,0.008470983244478703,-0.020500391721725464,0.035141512751579285,-0.04396675527095795,0.0010085705434903502,0.003594645531848073,0.06543518602848053,0.07770747691392899,1.3778710126644e-05,0.02900279313325882,0.0797479897737503,0.003206435590982437,-0.06389947235584259,-0.04805134981870651,0.042379993945360184,0.07006154209375381,1.1353561149007874e-06,-0.035112880170345306,0.02618907019495964,0.0056604803539812565,-0.0007769539370201528,-0.014587264508008957,-2.1464545625349274e-06,0.06336692720651627,-0.0656556785106659,0.03653545677661896,-0.016551969572901726,0.054162200540304184,-0.011589744128286839,0.05730263516306877,-0.03145155310630798,0.07186690717935562,-0.018682163208723068,-0.0791577398777008,-0.08779627084732056,0.08711478114128113,-1.0602243492030539e-06,0.04568932577967644,0.033703792840242386,-0.031544383615255356,9.045602928381413e-05,0.044048942625522614,0.01025052834302187,-0.05992395803332329,9.65298168011941e-05,0.016730260103940964,-0.001767607289366424,0.018230991438031197,-0.027124682441353798,-0.03821525722742081,0.06116480007767677,0.044044654816389084,2.7486517865327187e-05,-0.02354639768600464,-0.047023314982652664,0.009919152595102787,0.04623791202902794,-0.012660464271903038,-0.0011909024324268103,1.1259707207500469e-05,0.04121599718928337,-0.08591680973768234,-0.030692126601934433,0.03452230244874954,0.010671333409845829,1.2397930504448595e-06,-0.09334352612495422,-0.03190575912594795,-0.009360969997942448,-0.001805895590223372,0.05092749744653702,-0.09630440175533295,0.04346765577793121,-0.0017249658703804016,-0.026638347655534744,-0.009910572320222855,0.04715973138809204,-0.030459072440862656,-3.609884879551828e-05,-0.0871485099196434,-1.5033577255962882e-05,-0.07702449709177017,3.643451418611221e-05,-0.0334140881896019,0.006190783344209194,0.011937875300645828,0.0838848277926445,-0.05699547752737999,0.008842446841299534,-0.08228430151939392,0.020494647324085236,0.12726296484470367,-0.03832744434475899,-0.08488349616527557,0.08229780197143555,-0.0241438876837492,0.04817492142319679,0.05343557521700859,-0.004111146088689566,-0.0326116681098938,0.09217193722724915,-0.07662278413772583,5.391287231759634e-06,0.051573239266872406,-0.07121577858924866,-5.162460183782969e-07,4.504794560489245e-06,-0.04092777892947197,0.0075581795535981655,-0.04909165948629379,0.05555156245827675,-0.002322119427844882,0.07933904230594635,-0.08014214038848877,0.0018034206004813313,-0.04615210369229317,0.009798525832593441,0.12054800242185593,-0.028748231008648872,-0.0892542377114296,0.042716238647699356,0.08493397384881973,0.020754972472786903,-0.04397627338767052,-0.005936921574175358,-0.020600700750947,0.002409538021311164,-0.04906425252556801,-0.005605793092399836,0.12156454473733902,-0.009866844862699509,0.0034211312886327505,0.06535404920578003,0.07305388152599335,0.012406401336193085,0.1166454553604126,0.06864282488822937,0.08041192591190338
