-0.016262821853160858,-0.016558071598410606,0.010192828252911568,0.001512756571173668,-0.00292017450556159,-0.0036932488437741995,-0.020763609558343887,0.017145587131381035,-0.012135865166783333,0.015315655618906021,0.005018387455493212,-0.010303078219294548,-0.0034028866793960333,-0.01272085215896368,0.01676257885992527,-0.00907338410615921,-0.011815079487860203,0.0017093936912715435,0.016963666304945946,-0.015733135864138603,0.012268620543181896,0.013947296887636185,-0.020350679755210876,-0.011154914274811745,-0.011622871272265911,0.002502288669347763,-0.01908833160996437,-0.016762051731348038,0.018160024657845497,0.009103866294026375,-0.012291669845581055,-0.012693263590335846,-0.0038704753387719393,-0.010190220549702644,0.004710222594439983,-0.014630184508860111,5.1729266488109715e-06,-0.023301653563976288,0.014611417427659035,-0.013158468529582024,-0.01278955489397049,0.007445218972861767,0.01290934532880783,-6.541136485793686e-07,-0.022506210952997208,0.01683937758207321,-0.0011218538274988532,-0.007895410060882568,0.0016714805969968438,0.0025629999581724405,0.0004104473628103733,-0.00012449981295503676,0.018087349832057953,-0.0014053804334253073,-0.008126611821353436,-0.011770096607506275,-0.016090944409370422,0.0001523641258245334,-8.9998475232278e-06,0.0122313741594553,3.090277232331573e-06,-0.0008240416063927114,0.00367831252515316,-0.024134790524840355,-0.008924322202801704,-0.0006643898668698967,-0.0010685875313356519,-0.014490487985312939,0.0048180799931287766,-0.008108005858957767,0.004356841556727886,-0.022302230820059776,0.02086879499256611,-0.008465982042253017,0.011777825653553009,-0.003738273633643985,-8.945959416450933e-05,0.008071397431194782,-0.008386940695345402,0.016016248613595963,-0.011873378418385983,-0.00214722054079175,-0.011600141413509846,-0.018555572256445885,0.003151657758280635,0.007510436698794365,-0.023776350542902946,0.014058164320886135,-0.01669345237314701,-0.0011781880166381598,-0.016364645212888718,-0.0035989016760140657,0.004124880768358707,-0.01965928077697754,0.008821465075016022,-0.00256563862785697,-1.1711295883287676e-05,0.0051535917446017265,-0.004091136623173952,0.010577530600130558,0.014181035570800304,-0.003979126922786236,0.002022779081016779,0.0022312623914331198,0.0037119437474757433,0.012849442660808563,0.009615577757358551,-0.0016573421889916062,-0.011375388130545616,-0.021063052117824554,-0.024210484698414803,-0.019414853304624557,0.006459924858063459,-0.01412512268871069,0.0002193069813074544,0.0013194598723202944,0.0018888761987909675,-0.021628478541970253,-0.017832623794674873,-0.00788712315261364,0.011314311996102333,-0.014799710363149643,0.007497168146073818,0.0019505107775330544,-0.010116294957697392,-0.004508974030613899,-0.0031641244422644377,0.017633020877838135
