0.011543001048266888,-0.013552704825997353,-0.005041180644184351,-0.006747926585376263,-0.01368269044905901,0.0038968452718108892,-0.006657748483121395,0.009146910160779953,-0.0015698671340942383,-0.01366571057587862,-0.0008888244046829641,-0.0001903620723169297,0.013365461491048336,-0.008399003185331821,-0.013700632378458977,0.009740861132740974,-0.007185503374785185,0.0050696441903710365,-0.007952287793159485,0.0063058603554964066,-0.0012944932095706463,0.01327421609312296,0.013088102452456951,-0.002696298062801361,-0.010347232222557068,-0.01020199153572321,0.00412769103422761,0.01719791069626808,-0.003240174613893032,0.005215865094214678,0.010716387070715427,-0.003031863598152995,-0.011979762464761734,0.0009243597160093486,-0.010604938492178917,-0.002841518959030509,-0.000385265244403854,-0.015365620143711567,-0.009813543409109116,-0.013516298495233059,-0.00473365793004632,0.0021344912238419056,0.010667874477803707,0.007817869074642658,0.0016478036995977163,-0.004765511490404606,-0.006872659549117088,0.013135101646184921,0.007576086092740297,0.011378890834748745,-0.01249658688902855,0.009214594960212708,-0.00606499332934618,-0.0015041067963466048,-0.015531767159700394,-0.0011907968437299132,0.0064188591204583645,0.010047470219433308,-0.005691894795745611,-0.0016251392662525177,-0.014141225256025791,0.00893206987529993,-0.007489230949431658,-0.008335952647030354,-0.008654545061290264,-0.008744148537516594,0.016842300072312355,-0.0023460674565285444,0.004864806309342384,-0.0022082924842834473,-0.008120753802359104,0.017039349302649498,-0.008287236094474792,0.013625352643430233,0.003960309084504843,0.00154914241284132,-0.014057587832212448,-0.0053339325822889805,0.0020706169307231903,-0.004988137632608414,-0.0007142045069485903,-0.0024987265933305025,0.00826253555715084,-0.010356705635786057,0.008430898189544678,-0.006397663615643978,-0.004481693264096975,0.01568342186510563,0.004412365145981312,0.004880724474787712,0.012337887659668922,0.0024540419690310955,0.002808747347444296,0.005135126877576113,5.161328226677142e-05,0.002764669479802251,0.010224249213933945,0.010217858478426933,0.011999196372926235,-0.0022153190802782774,-0.011315945535898209,0.014194631949067116,-0.00533422501757741,0.004762300290167332,0.00336064794100821,0.012776678428053856,0.012038224376738071,-0.008818130008876324,-0.013356666080653667,0.0013629564782604575,-0.005570682696998119,-0.000966093793977052,0.0034014908596873283,0.011618133634328842,-0.01176216546446085,-0.012020868249237537,-0.0018700219225138426,0.007833104580640793,-0.011247779242694378,0.006277271080762148,0.0088853370398283,0.014840120449662209,0.008345535956323147,-0.010169285349547863,0.007921867072582245,0.014285759069025517,0.004559902474284172,-0.011087487451732159
