0.012669863179326057,-0.013552704825997353,-0.005041180644184351,-0.005604031030088663,-0.01368269044905901,0.0036226576194167137,-0.005509690381586552,0.009770555421710014,-0.0015585074434056878,-0.013814368285238743,-0.00044351289398036897,-0.00039062477299012244,0.013630104251205921,-0.00806258525699377,-0.013700632378458977,0.009462015703320503,-0.006755974609404802,0.0049630762077867985,-0.008274929597973824,0.006308467593044043,-0.0005856294883415103,0.013900087215006351,0.014120291918516159,-0.0018610332626849413,-0.009314180351793766,-0.009484645910561085,0.005096689332276583,0.017576830461621284,-0.0026391034480184317,0.0051512205973267555,0.01205254253000021,-0.0023882898967713118,-0.011431649327278137,0.0009243597160093486,-0.010604938492178917,-0.0024763557594269514,-0.00029018172062933445,-0.015365620143711567,-0.009813543409109116,-0.012924513779580593,-0.00315158162266016,0.0024933943059295416,0.010954460129141808,0.008344974368810654,0.002154232934117317,-0.004102010745555162,-0.006032808218151331,0.013388186693191528,0.007974943146109581,0.012117101810872555,-0.011889040470123291,0.010146151296794415,-0.005387358833104372,-0.0007570832967758179,-0.015531767159700394,-0.0014270429965108633,0.006416040938347578,0.01009154412895441,-0.005749044939875603,-0.0017717243172228336,-0.014775716699659824,0.009290207177400589,-0.0073750559240579605,-0.008652301505208015,-0.008203818462789059,-0.008485334925353527,0.017804211005568504,-0.002713412744924426,0.0055860853753983974,-0.0017164660384878516,-0.008120753802359104,0.01757635734975338,-0.008185956627130508,0.013566551730036736,0.003944234922528267,0.002223389921709895,-0.014169692993164062,-0.0053339325822889805,0.0029077616054564714,-0.004988137632608414,0.00035581234260462224,-0.0024740707594901323,0.00826253555715084,-0.009383019991219044,0.008430898189544678,-0.0065726120956242085,-0.004205254837870598,0.01582527719438076,0.00442528584972024,0.005169750656932592,0.012309453450143337,0.0021989953238517046,0.002539140870794654,0.005135126877576113,-0.00016843611956574023,0.0029560180846601725,0.010872739367187023,0.011115893721580505,0.012998991645872593,-0.001825291896238923,-0.011304322630167007,0.014793074689805508,-0.004623193293809891,0.00476249260827899,0.003908019512891769,0.012677747756242752,0.011470385827124119,-0.008818130008876324,-0.013260449282824993,0.003910864237695932,-0.005605835467576981,-0.0009581812773831189,0.003899112343788147,0.010929010808467865,-0.010646303184330463,-0.012021094560623169,-0.002061828039586544,0.008560574613511562,-0.011247779242694378,0.006277271080762148,0.010585600510239601,0.014712229371070862,0.00930734071880579,-0.010169285349547863,0.007871444337069988,0.014386520721018314,0.004476478789001703,-0.01094735600054264
