0.016387807205319405,-0.07699912041425705,0.06591656804084778,-0.004272350110113621,-0.056247781962156296,0.026019882410764694,0.05783984810113907,-0.0417194664478302,0.0761144831776619,-0.062491800636053085,0.001126084360294044,0.07183216512203217,-0.023759515956044197,0.058494701981544495,0.03830541670322418,0.09196552634239197,-0.022388610988855362,0.07658719271421432,0.06553918123245239,0.08040047436952591,-0.088468998670578,0.03722812607884407,0.07551975548267365,0.02611381746828556,-0.0013875097502022982,0.01388151478022337,0.01873793639242649,0.06811168789863586,0.01333701703697443,0.08270127326250076,0.07241538912057877,0.012942317873239517,-0.09477398544549942,-0.0642118975520134,-0.011994589120149612,-0.003744922811165452,0.08704976737499237,0.07396809011697769,-0.006524928845465183,-0.07341913133859634,0.0877627432346344,0.09426193684339523,0.08046746999025345,0.05287892371416092,-0.10049432516098022,-0.09257151931524277,-0.08526092022657394,-0.0058901067823171616,-0.06419490277767181,-0.030224652960896492,0.06702302396297455,-0.02820032835006714,-0.045488763600587845,0.029451889917254448,0.048483867198228836,0.002950302790850401,0.0482633076608181,-0.03715800493955612,0.028287352994084358,0.07437016069889069,-0.032389432191848755,0.05319274216890335,0.0735650509595871,-0.021396681666374207,0.059416186064481735,0.07791276276111603,0.06462801992893219,-0.02844126708805561,-0.031802304089069366,-0.07625323534011841,-0.03264177218079567,0.057155050337314606,-0.04188117757439613,-0.00476118503138423,0.07787785679101944,-0.07181397080421448,0.054010335355997086,0.019518282264471054,-0.098091259598732,-0.07821355760097504,0.054755572229623795,0.029728969559073448,-0.034734755754470825,0.013083446770906448,0.07777099311351776,0.0009537653531879187,-0.030292710289359093,0.03447337821125984,0.05822281166911125,-0.03030373342335224,0.010485353879630566,0.03346153348684311,-0.004159190692007542,-0.022535450756549835,-0.004402546212077141,-0.034331753849983215,0.04534580186009407,0.07512954622507095,0.07547103613615036,0.011211895383894444,0.08102438598871231,-0.085425965487957,0.055084384977817535,0.0721227303147316,0.023358499631285667,0.04608520492911339,-0.045139018446207047,-0.009776713326573372,0.06793271750211716,0.09254340082406998,0.08479522168636322,0.07222102582454681,0.028748616576194763,-0.005628353916108608,0.08822862803936005,0.050889428704977036,-0.07874113321304321,-0.07626688480377197,-0.07503361254930496,-0.0010554995387792587,0.08456575870513916,-0.09782960265874863,0.07252604514360428,0.01034262403845787,-0.05017325282096863,0.08212094008922577,0.08961854130029678,-0.02992180362343788,-0.0018798260716721416,-0.022309904918074608,-0.06719597429037094,0.012546873651444912,0.08685416728258133,0.03094840981066227,0.07355151325464249,-0.08937188982963562,0.0026628768537193537,-0.017266444861888885,0.05129644647240639,-0.0504574179649353,-0.09285370260477066,-0.002688433974981308,-0.0021317810751497746,0.0849466472864151,-0.07779508084058762,-0.09239126741886139,0.04456941410899162,-0.02215869165956974,-0.07015162706375122,0.0927739068865776,0.08927815407514572,0.07561702281236649,-0.047068092972040176,0.03704310581088066,-0.022955823689699173,-0.07240793108940125,0.045237328857183456,-0.04444441571831703,-0.06224796921014786,-0.056608185172080994,0.0018983023473992944,0.03125564754009247,-0.0400315560400486,-0.02942078933119774,-0.08019330352544785,0.07950001955032349,-0.07484857738018036,0.07122814655303955,-0.07930140197277069,-0.10354113578796387,-0.09956714510917664,0.08757814764976501,0.06424646079540253,-0.07962527871131897,-0.02831280417740345,0.06909973174333572,0.03397646173834801,0.05686139687895775,-0.0668686106801033,-0.006138721015304327,-0.00521704088896513,-0.037321995943784714,0.054271165281534195,0.014277772977948189,-0.09235275536775589,0.017548352479934692,-0.052602481096982956,-0.007153721060603857,0.022767826914787292,0.0931161418557167,-0.06125662848353386,-0.005415246821939945,-0.029282083734869957,-0.03743996098637581,0.03718142956495285,-0.08156710863113403,-0.033350978046655655,0.08772590011358261,-0.06401622295379639,-0.007969827391207218,0.03669852018356323,0.03095174767076969,0.07530402392148972,-0.025428874418139458,-0.0066840327344834805,0.050272151827812195,-0.08251790702342987,-0.004047710448503494,0.0706985667347908,0.036423150449991226,0.043162960559129715,0.000640059937722981,-0.03057743050158024,-0.08574681729078293,0.0645185112953186,0.07140228152275085,-0.06947854161262512,0.09057103842496872,-0.04995439946651459,0.045771025121212006,0.01141599752008915,0.02623063698410988,0.010320441797375679,-0.006369109731167555,-0.028619837015867233,0.034533094614744186,0.08325130492448807,0.07790651172399521,-0.03096689283847809,0.036163199692964554,0.07976654171943665,0.03967897593975067,-0.08021236211061478,-0.0726650208234787,0.013839277438819408,0.08500517904758453,-0.027464862912893295,-0.08772184699773788,-0.08185017853975296,-0.03325098380446434,0.05765628442168236,-0.02959216758608818,0.03472605720162392,-0.0666547566652298,-0.08607439696788788,-0.05061420053243637,-0.06477688252925873,-0.03726173937320709,0.01681159809231758,-0.048681534826755524,0.014997015707194805,-0.00476691871881485,0.010206487029790878,0.057192981243133545,-0.09295930713415146,0.053510744124650955,-0.0844610184431076,-0.0657813549041748,-0.06653185188770294,-0.09483092278242111,0.056826502084732056,0.0755276009440422,-0.0418316125869751,0.02216905914247036,-0.0033402033150196075,0.02336147427558899,0.013900707475841045,0.015683768317103386,-0.03877202048897743,0.03676053509116173,0.07743022590875626,0.09276917576789856,-0.10123508423566818,-0.0041701593436300755,0.09544100612401962,-0.03328055888414383,-0.021445518359541893,0.0037487437948584557,-0.02868533320724964,-0.08853860944509506,0.08950161933898926,-0.07578181475400925,0.0481308177113533,-0.0936465933918953,-0.04962052404880524,0.03470243513584137,-0.08608771115541458,-0.0693410336971283,0.06875371932983398,0.005433954298496246,0.03785734623670578,0.05917724594473839,0.03273579105734825,-0.06955097615718842,0.015254990197718143,-0.09738156199455261,-0.04338733106851578,0.015825651586055756,-0.01789526641368866,-0.05531567707657814,0.08012408763170242,-0.08681073039770126,0.04323456808924675,0.09094967693090439,-0.0770275667309761,-0.10069521516561508,-0.051276206970214844,0.05885343253612518,-0.01952926255762577,-0.08918379992246628,0.030197784304618835,0.010636955499649048,0.08765055984258652,0.040525536984205246,-0.07563044875860214,0.02196493372321129,-0.013109566643834114,-0.0126432403922081,-0.011558543890714645,0.009463593363761902,-0.023855531588196754,-0.021831795573234558,-0.03434743359684944,0.010791853070259094,0.017744269222021103,0.0393390916287899,0.02638070285320282,-0.05705728381872177,0.015641123056411743,0.059540629386901855,0.05482883378863335,-0.07802598178386688,-0.013242609798908234,-0.030717389658093452,-0.05121924728155136,-0.06529279053211212,-0.10600448399782181,-0.05456734821200371,0.034883175045251846,-0.022326413542032242,0.04560784623026848,0.06217266619205475,-0.0038983658887445927,0.07987143099308014,-0.06154927983880043,0.02484803833067417,0.07769175618886948,0.057894181460142136,0.07115224003791809,0.051550474017858505,0.004963808227330446,-0.042261943221092224,-0.08504105359315872,-0.02370702475309372,-0.058120399713516235,0.06137973070144653,-0.0248308964073658,-0.06872377544641495,-0.041241731494665146,-0.07378645986318588,-0.08991196006536484,0.06371299177408218,0.09639354050159454,0.004808131139725447,0.05379091575741768,-0.07877763360738754,0.050131116062402725,0.04036923497915268,-0.05646374449133873,0.09160489588975906,-0.07712200284004211,0.08456481248140335,0.028204843401908875,0.07890667766332626,-0.02378701977431774,-0.019063644111156464,0.011372891254723072,0.08191803097724915,-0.05913683399558067,0.05429613217711449,0.06375348567962646,0.031536538153886795,0.05717793479561806,-0.006063779350370169,-0.0259989146143198,0.07637255638837814,-0.07589366286993027,-0.06107030063867569,-0.06178237870335579,-0.08159790188074112,0.009735564701259136,0.06939956545829773,-0.06214805319905281,-0.03948907181620598,0.023851709440350533,-0.07265061885118484,-0.08872494846582413,-0.10613232851028442,0.030303696170449257,-0.08261135220527649,-0.03463095799088478,-0.06808657199144363,0.05369545519351959,-0.07914509624242783,0.07864517718553543,0.0566047839820385,0.04471394047141075,-0.05902448296546936,0.018884744495153427,0.03878822177648544,0.08440965414047241,0.04063168168067932,-0.0442567802965641,0.009468679316341877,-0.0018128389492630959,0.021551141515374184,0.09173178672790527,0.004310737829655409,0.06014561653137207,0.04667128995060921,0.020015986636281013,-0.0579545721411705,0.017194312065839767,0.06632012873888016,-0.07508526742458344,0.06277819722890854,0.09254763275384903,-0.05966215953230858,0.09139282256364822,0.024929529055953026,0.05370762199163437,0.05063860863447189,0.027343885973095894,0.029515773057937622,0.10076487064361572,0.09575974196195602,0.06641547381877899,0.035814397037029266,0.006024353206157684,-0.0969979390501976,0.056185342371463776,-0.010266268625855446,-0.08449429273605347,-0.04218331351876259,0.0640571117401123,-0.026278039440512657,-0.06358062475919724,-0.08802273124456406,0.05980893597006798,0.031226683408021927,0.052263714373111725,-0.08268018066883087,0.04053433984518051,0.08174022287130356,-0.05838842689990997,0.019171953201293945,-0.044628191739320755,0.0186691302806139,0.025425240397453308,0.024884557351469994,-0.015149103477597237,-0.04532204568386078,-0.0040105050429701805,-0.01576877571642399,0.02899322286248207,-0.09002716839313507,0.03683885559439659,0.024133533239364624,-0.04861629381775856,-0.013526121154427528,-0.062637098133564,-0.05258503928780556,-0.03566143289208412,-0.017853135243058205,0.028823858126997948,-0.09773384034633636,-0.09838178753852844,-0.01775713637471199,-0.09993172436952591,-0.07860185950994492,0.09276408702135086,0.053218722343444824,0.04863141104578972,0.055635079741477966,-0.016093341633677483,0.05834254249930382,0.05540132522583008,-0.011927153915166855,0.08999783545732498,-0.008497712202370167,-0.09259964525699615,0.06539349257946014,0.07996222376823425,-0.05936288461089134,0.0017977399984374642,0.023912688717246056,-0.070713572204113,-0.016936758533120155,0.005554137285798788,0.08028805255889893,-0.010983157902956009,0.04657759144902229,0.0370255783200264,0.05558432638645172,0.043929990381002426,-0.02461117133498192,0.07061629742383957,0.061842240393161774,-0.007549713831394911,-0.009246845729649067,-0.028041791170835495,-0.08700062334537506
