0.015445152297616005,-0.07699912041425705,0.06591656804084778,-0.004096649587154388,-0.056247781962156296,0.02654789388179779,0.05764126032590866,-0.040903765708208084,0.0743853822350502,-0.059145186096429825,0.0031733757350593805,0.06918856501579285,-0.02851932868361473,0.05739712342619896,0.03830541670322418,0.09212197363376617,-0.027564022690057755,0.07282766699790955,0.06454170495271683,0.07836374640464783,-0.08643501996994019,0.03879314661026001,0.07538029551506042,0.026448002085089684,-0.0028016241267323494,0.013818948529660702,0.024774551391601562,0.06431804597377777,0.014056219719350338,0.07843572646379471,0.06282059848308563,0.00937788374722004,-0.09160485863685608,-0.0642118975520134,-0.011994589120149612,0.00019423339108470827,0.08011630922555923,0.07396809011697769,-0.006524928845465183,-0.07122079282999039,0.07952045649290085,0.08723066747188568,0.07534079253673553,0.05296383798122406,-0.09614338725805283,-0.0856608971953392,-0.07992837578058243,-0.0015110246604308486,-0.06181204691529274,-0.02936238795518875,0.0619349330663681,-0.02348087728023529,-0.0378711074590683,0.022196801379323006,0.048483867198228836,0.0033255922608077526,0.04525568708777428,-0.03280697390437126,0.02520391345024109,0.07264399528503418,-0.03067752718925476,0.053401798009872437,0.06428192555904388,-0.020610595121979713,0.05552620813250542,0.07235707342624664,0.06384565681219101,-0.029982715845108032,-0.027172962203621864,-0.07270776480436325,-0.03264177218079567,0.05435793101787567,-0.03910618647933006,-0.00039733556332066655,0.07745573669672012,-0.06994660198688507,0.050615184009075165,0.019518282264471054,-0.09089284390211105,-0.07821355760097504,0.05480274558067322,0.029474155977368355,-0.034734755754470825,0.011687898077070713,0.07777099311351776,-0.0005749493720941246,-0.028246264904737473,0.044071994721889496,0.05297555774450302,-0.028237678110599518,0.010284021496772766,0.03412149101495743,-0.0032319638412445784,-0.022535450756549835,-0.004033754114061594,-0.0334492065012455,0.04111429303884506,0.07400614768266678,0.08045483380556107,0.014156556688249111,0.07504216581583023,-0.08242127299308777,0.05520842596888542,0.07212265580892563,0.020391110330820084,0.04461544752120972,-0.04191381856799126,-0.009776713326573372,0.06396409124135971,0.08094635605812073,0.08047008514404297,0.06784249097108841,0.029132358729839325,-0.0031950809061527252,0.08718149363994598,0.0508897565305233,-0.07494038343429565,-0.07089145481586456,-0.07503361254930496,-0.0010554995387792587,0.07495236396789551,-0.09286722540855408,0.07106873393058777,0.01034262403845787,-0.04605596885085106,0.08111170679330826,0.08508491516113281,-0.028775138780474663,-0.001802640501409769,-0.022309904918074608,-0.06719597429037094,0.011412382125854492,0.08685416728258133,0.030076641589403152,0.07287624478340149,-0.0862676203250885,0.003891788423061371,-0.01949836127460003,0.04924681782722473,-0.04794960096478462,-0.08614900708198547,-0.0022687737364321947,-0.0021317810751497746,0.08432982861995697,-0.07265714555978775,-0.08877967298030853,0.04675903916358948,-0.020671041682362556,-0.06980302929878235,0.09062836319208145,0.08860094845294952,0.07423713803291321,-0.044008612632751465,0.036409612745046616,-0.01489621214568615,-0.06873816251754761,0.04340040683746338,-0.04015430808067322,-0.062094610184431076,-0.05289022997021675,0.00048164441250264645,0.03125564754009247,-0.0400315560400486,-0.022600490599870682,-0.07217726856470108,0.07950001955032349,-0.07484857738018036,0.06903525441884995,-0.07535100728273392,-0.09545291215181351,-0.09373895078897476,0.08642071485519409,0.06151434779167175,-0.08152510225772858,-0.030161142349243164,0.06608156859874725,0.03128429129719734,0.05538266897201538,-0.06098935753107071,-0.006880462635308504,-0.008426147513091564,-0.028342420235276222,0.054271165281534195,0.013402888551354408,-0.08776465058326721,0.014171581715345383,-0.05024261400103569,-0.0058363345451653,0.020972998812794685,0.09169907867908478,-0.052717458456754684,-0.006482819095253944,-0.02508355677127838,-0.0321381613612175,0.037230122834444046,-0.07968674600124359,-0.031538285315036774,0.08515125513076782,-0.06401622295379639,-0.005812517367303371,0.03382282331585884,0.028301596641540527,0.0749877393245697,-0.026605837047100067,-0.0037672773469239473,0.050272151827812195,-0.08292939513921738,-0.004047710448503494,0.0700031965970993,0.035700783133506775,0.043162960559129715,0.0017253437545150518,-0.03057743050158024,-0.08298440277576447,0.061971087008714676,0.06257962435483932,-0.06449286639690399,0.08825009316205978,-0.047324106097221375,0.0446334145963192,0.010151891969144344,0.02623063698410988,0.009475145488977432,-0.0077742235735058784,-0.019010625779628754,0.03503342717885971,0.07181158661842346,0.07559855282306671,-0.02528826892375946,0.03361992537975311,0.07890783995389938,0.03967897593975067,-0.07681203633546829,-0.06374425441026688,0.011098520830273628,0.08500517904758453,-0.021804697811603546,-0.07594069838523865,-0.0773334801197052,-0.028686122968792915,0.05611053854227066,-0.03029630146920681,0.03497674688696861,-0.06665444374084473,-0.08559338003396988,-0.052235737442970276,-0.06477688252925873,-0.03726173937320709,0.0291120782494545,-0.051093921065330505,0.01598699577152729,-0.00476691871881485,0.007514961529523134,0.05753199756145477,-0.08833784610033035,0.05184123292565346,-0.07665936648845673,-0.0657813549041748,-0.06653185188770294,-0.08720500767230988,0.056826502084732056,0.07127003371715546,-0.0337650403380394,0.022190457209944725,-0.006898719817399979,0.020759545266628265,0.015116875059902668,0.011911292560398579,-0.04628736153244972,0.029856018722057343,0.07743022590875626,0.08930250257253647,-0.09467801451683044,-0.00897469837218523,0.09173925220966339,-0.035350214689970016,-0.020781133323907852,0.010431366041302681,-0.0204282496124506,-0.08055219799280167,0.08241414278745651,-0.06810840964317322,0.04836488515138626,-0.08888882398605347,-0.04286506026983261,0.03208344057202339,-0.07564330101013184,-0.06445180624723434,0.06864440441131592,0.005433954298496246,0.03785734623670578,0.057683512568473816,0.031228207051753998,-0.06955097615718842,0.015254990197718143,-0.09332111477851868,-0.04656786471605301,0.016258014366030693,-0.015282281674444675,-0.048647813498973846,0.08017899841070175,-0.08422520756721497,0.04263459891080856,0.08948379009962082,-0.07012144476175308,-0.09323116391897202,-0.04761217162013054,0.05905100703239441,-0.017354242503643036,-0.08153384923934937,0.030197784304618835,0.00726568978279829,0.08615673333406448,0.03838003799319267,-0.07060173898935318,0.018434317782521248,-0.012097623199224472,-0.0069265286438167095,-0.018437841907143593,0.004780746065080166,-0.019202759489417076,-0.016544925048947334,-0.02679711952805519,0.005999775603413582,0.0178054366260767,0.03988582268357277,0.02638070285320282,-0.0506201907992363,0.013311543501913548,0.05704062432050705,0.053605109453201294,-0.07538843899965286,-0.009216681122779846,-0.030717389658093452,-0.05030917748808861,-0.06529279053211212,-0.09750664979219437,-0.053762439638376236,0.034883175045251846,-0.016775643453001976,0.04560784623026848,0.05969369411468506,-0.005056058056652546,0.07272084057331085,-0.053747761994600296,0.024152476340532303,0.07537294924259186,0.05389958992600441,0.0667232796549797,0.051550474017858505,0.0012624594382941723,-0.0432497002184391,-0.07736577093601227,-0.015549736097455025,-0.05029468610882759,0.061429623514413834,-0.024651484563946724,-0.06559060513973236,-0.033966243267059326,-0.07378645986318588,-0.08623258769512177,0.057278767228126526,0.09202246367931366,0.004808131139725447,0.054143376648426056,-0.07157213985919952,0.04683779180049896,0.03832867369055748,-0.05118358135223389,0.08735264092683792,-0.06849901378154755,0.08458555489778519,0.026381006464362144,0.07766025513410568,-0.02378701977431774,-0.019063644111156464,0.021816782653331757,0.07977468520402908,-0.052994150668382645,0.05429613217711449,0.06166370213031769,0.029354333877563477,0.05314575508236885,-0.0073867067694664,-0.029333654791116714,0.07637255638837814,-0.07589366286993027,-0.060370463877916336,-0.06178237870335579,-0.07671836018562317,0.0072914008051157,0.06770706176757812,-0.05738208442926407,-0.03763508424162865,0.0231307465583086,-0.06868374347686768,-0.0812680646777153,-0.09881026297807693,0.030303696170449257,-0.07795318216085434,-0.041268326342105865,-0.06312935799360275,0.056644584983587265,-0.07458478212356567,0.07663838565349579,0.0537961907684803,0.04102769494056702,-0.05556939169764519,0.024394506588578224,0.03454873338341713,0.08166874945163727,0.03607579320669174,-0.03941713273525238,0.011845381930470467,-0.007931935600936413,0.01642887480556965,0.09068042039871216,0.004310737829655409,0.06014561653137207,0.0458260253071785,0.019656524062156677,-0.0579545721411705,0.017194312065839767,0.06284014135599136,-0.06871020793914795,0.06081726402044296,0.08859618753194809,-0.05417436733841896,0.09040577709674835,0.021030869334936142,0.052759911864995956,0.051028959453105927,0.022177426144480705,0.025486500933766365,0.09625977277755737,0.09390286356210709,0.06306712329387665,0.027981719002127647,0.006024353206157684,-0.09234410524368286,0.05608223006129265,-0.008923297747969627,-0.07791297137737274,-0.037593625485897064,0.06501760333776474,-0.019680239260196686,-0.05697442218661308,-0.08276405930519104,0.05493732541799545,0.026039455085992813,0.04787837341427803,-0.07808011770248413,0.03862611949443817,0.08053077757358551,-0.05838842689990997,0.014340322464704514,-0.04164355993270874,0.019967293366789818,0.029920388013124466,0.021789049729704857,-0.00937246810644865,-0.04532204568386078,-0.006669159512966871,-0.01576877571642399,0.0223963875323534,-0.08389445394277573,0.03683885559439659,0.019348936155438423,-0.04861629381775856,-0.012115534394979477,-0.05923813208937645,-0.045496437698602676,-0.03734352067112923,-0.016108587384223938,0.029427673667669296,-0.09256037324666977,-0.09325210750102997,-0.01775713637471199,-0.09502533823251724,-0.075330950319767,0.0849386602640152,0.048436060547828674,0.040912337601184845,0.05510268732905388,-0.016145072877407074,0.05517179146409035,0.05098725110292435,-0.011927063576877117,0.08591499924659729,-0.0026796951424330473,-0.088369220495224,0.06539349257946014,0.07783275842666626,-0.06520525366067886,0.0044561270624399185,0.025261158123612404,-0.06476183235645294,-0.01314873993396759,0.0010089408606290817,0.0802668109536171,-0.01108606532216072,0.04623182490468025,0.0370255783200264,0.05558432638645172,0.034535717219114304,-0.024033522233366966,0.06571423262357712,0.061842240393161774,-0.006610841955989599,-0.004328904673457146,-0.024267863482236862,-0.0836290493607521
