0.2403893619775772,-0.054685913026332855,0.038707081228494644,-0.19889140129089355,-0.0017525014700368047,0.03639412298798561,0.16140833497047424,-0.1317320615053177,0.09683099389076233,0.12998077273368835,-0.2763294577598572,0.28031957149505615,-0.13667142391204834,0.09786329418420792,0.12314078211784363,-0.08062276989221573,0.053464360535144806,0.01789393275976181,-0.31403347849845886,0.20448154211044312,0.20949946343898773,-0.1064663827419281,0.007947193458676338,0.24473364651203156,0.1673509031534195,-0.2326013147830963,0.2444833517074585,-0.07260589301586151,-0.22606350481510162,-0.3232291042804718,0.13178853690624237,-0.3551097810268402,0.12906911969184875,0.12327814847230911,0.23504726588726044,-0.08872929215431213,-0.03808731585741043,-0.15830408036708832,0.23756474256515503,-0.1524348109960556,-0.02429807372391224,0.21683064103126526,-0.022176455706357956,0.09433451294898987,-0.1476038694381714,-0.09989895671606064,-0.20969092845916748,0.1153305396437645,-0.09131713956594467,0.14497482776641846,-0.13713926076889038,-0.0303744375705719,0.20220190286636353,0.16034823656082153,-0.21080386638641357,0.15521197021007538,0.025387443602085114,-0.21729588508605957,0.05864108353853226,-0.27444562315940857,0.12257995456457138,0.20375566184520721,-0.08505701273679733,0.35359516739845276
