-0.02320956066250801,0.07143989205360413,0.014532608911395073,-0.02048116736114025,0.06342535465955734,-0.029895348474383354,0.062439631670713425,3.470231604296714e-05,-0.07748130708932877,-0.00856983195990324,-0.056260593235492706,-0.03584601357579231,0.08043435961008072,-0.07583528757095337,0.05682678148150444,0.0036972316447645426,-0.04197968170046806,-0.02591921202838421,0.004729951731860638,0.043310344219207764,0.0355025939643383,0.02262827195227146,-0.08399086445569992,0.06887342780828476,-0.017939835786819458,0.03982824832201004,-0.05264360457658768,0.044025953859090805,0.015932930633425713,0.046923473477363586,-0.04652993381023407,0.08287246525287628,-0.08423048257827759,0.06993205845355988,-0.07244937866926193,0.06975658982992172,0.029183991253376007,-0.06739895045757294,-0.0664573609828949,-0.04586208239197731,-0.010395131073892117,-0.023057693615555763,-0.06389668583869934,-0.04096599295735359,0.004887419752776623,0.013661839067935944,0.011965850368142128,-0.0028134440071880817,0.07898317277431488,-0.031761534512043,0.07378023117780685,-0.005035281181335449,-0.06568829715251923,0.020270654931664467,0.03307719901204109,-0.022558249533176422,-0.0003484714834485203,-0.06305300444364548,-0.024588070809841156,0.002027449430897832,-0.0511900931596756,-0.01151455007493496,-0.04649382457137108,-0.041224632412195206,0.06199866905808449,-0.057075127959251404,-0.06234664097428322,0.03474860265851021,-0.03744053468108177,-0.0023290382232517004,0.06864152103662491,-0.05958092585206032,-0.0347302220761776,-0.024699481204152107,0.08328908681869507,0.02776038646697998,-0.007351994980126619,-0.08120559900999069,-0.05425887927412987,0.07985573261976242,0.04381055757403374,0.01817714422941208,0.04726327210664749,-0.05965755879878998,0.00015845682355575264,-0.08443251997232437,-0.05932870879769325,0.012000474147498608,0.017938265576958656,1.8927897471598953e-08,0.022947367280721664,0.028572728857398033,-0.023248638957738876,0.05545375496149063,-0.05256117507815361,-0.030477076768875122,0.027519071474671364,-0.02501068450510502,-0.06542962044477463,0.0658937320113182,0.05687590315937996,0.03730429336428642,-0.05759303271770477,0.015772037208080292,-0.006706609390676022,0.05605731159448624,-0.0721101239323616,0.014533879235386848,-0.06738875806331635,-0.020806699991226196,-0.012317015789449215,-0.06850270181894302,-0.068545401096344,-0.02948451042175293,0.057995256036520004,-0.08055603504180908,-0.007855466566979885,-0.011961332522332668,-0.024328280240297318,-0.019720761105418205,0.07525396347045898,0.0804775133728981,-0.031362421810626984,0.0019132178276777267,-0.027079863473773003,-0.07403036206960678,-0.06679712235927582,0.05849097669124603,0.05060764029622078,-0.047653812915086746,-0.015850860625505447,0.0018867022590711713,-0.04425515606999397,-0.05415109544992447,-0.07783172279596329,0.08113279938697815,-0.04884412884712219,0.08352315425872803,-0.018676426261663437,0.04929590970277786,-0.04311004653573036,0.06429969519376755,-0.02469753473997116,0.004550349898636341,0.027863454073667526,5.770919960923493e-05,-0.04492465406656265,-0.01157185435295105,0.06807070970535278,9.140163456322625e-05,-0.0013373118126764894,0.016623010858893394,0.07031453400850296,-0.07298384606838226,0.05482994765043259,-0.04299641028046608,0.0012427452020347118,-0.05032102391123772,-0.03352820873260498,-0.048777613788843155,-0.06237485632300377,-0.06796543300151825,0.06473712623119354,-0.026810185983777046,0.01567099243402481,-0.08239050209522247,-0.03893297165632248,0.017115170136094093,0.008880062028765678,-0.040628671646118164,0.02282518707215786,4.341832664067624e-06,0.06295157223939896,0.01979999989271164,0.008927612565457821,0.07264838367700577,-0.04910637065768242,0.08044581860303879,0.02543426863849163,-0.002219225512817502,-0.07412634789943695,-0.000831758719868958,-0.012751811183989048,-0.00993955135345459,0.0645151287317276,-0.016578517854213715,0.008859425783157349,0.030647488310933113,-0.017079969868063927,0.02252120152115822,-1.8806493926604162e-06,-0.06880847364664078,-0.031261224299669266,-0.06028633937239647,-0.05942033231258392,-0.01561985444277525,-0.07278946787118912,0.005572806112468243,-0.0698808953166008,-0.08356214314699173,0.010159450583159924,-0.0030276610050350428,-0.07135042548179626,0.007865038700401783,-0.019440405070781708,0.013889642432332039,0.037599049508571625,0.06321524828672409,0.022672398015856743,-0.0014118829276412725,0.08525710552930832,0.08204348385334015,0.03192446008324623,0.05626951903104782,-0.0629613921046257,-0.0841061919927597,-0.07941187173128128,-0.052892666310071945,-0.08051971346139908,-0.07572681456804276,0.05015205591917038,-0.009362797252833843,-0.07217631489038467,0.06442185491323471,0.03830325976014137,0.05138660967350006,-0.07383140176534653,-0.021533673629164696,0.04299572482705116,-0.05966987833380699,-0.00453083636239171,-0.039019472897052765,-0.0790664404630661,-0.015568578615784645,0.01635943539440632,-0.045653633773326874,0.04095045477151871,-0.036193765699863434,-0.07683879882097244,-0.04444664716720581,-0.07583370804786682,-0.03074422851204872,0.017672939226031303,0.03153764829039574,-0.0763743668794632,0.011021402664482594,0.05266469344496727,0.0674683079123497,0.0542386993765831,0.056703120470047,0.05675666406750679,-0.003514214651659131,0.08440680056810379,-0.08323045074939728,-0.026638535782694817,-0.009633375331759453,-0.0733160600066185,-0.04950791224837303,0.054633934050798416,-0.013390942476689816,-0.04522228613495827,0.018897725269198418,0.07246923446655273,0.05154690891504288,-0.05073335021734238,-0.04854360222816467,0.0035292410757392645,0.01917790062725544,0.011763385497033596,0.055411528795957565,-0.07120294868946075,0.02640169858932495,0.07544886320829391,-0.04437258467078209,-0.047613635659217834,-0.07888093590736389,-0.08021533489227295,-0.006292624864727259,-0.01538327056914568,-0.044992368668317795,-0.053529322147369385,0.029451902955770493,-0.05472927913069725,-0.006827885285019875,0.0008685432258062065,0.028192508965730667,0.039535775780677795,0.05651681497693062,0.00278524961322546,-0.010305768810212612,-0.022267352789640427,0.04486849531531334,-1.0931783435808029e-05,0.010097969323396683,-0.015911730006337166,-0.003935304004698992,0.023905223235487938,0.033053986728191376,-0.06797830760478973,0.04928625002503395,0.05240907520055771,0.05483100190758705,-0.02720918320119381,-0.030032025650143623,0.0036874276120215654,0.027173444628715515,-0.035362523049116135,0.04031762480735779,-0.02235930785536766,-0.010996798984706402,0.06070879474282265,0.022881535813212395,0.07069095224142075,-0.07495927065610886,-0.036151137202978134,0.07463991641998291,-0.016714872792363167,-0.06049053370952606,-0.014840710908174515,0.02854585088789463,-0.07565391063690186,0.02305382676422596,0.07629387825727463,-0.012618793174624443,-0.05858919769525528,-0.04305798560380936,-0.05260743200778961,0.012576736509799957,-0.042159922420978546,1.833660098782275e-05,0.05857235565781593,-0.0022125295363366604,-0.01811530999839306,0.001792363473214209,0.03270735591650009,-0.019589463248848915,0.02101481333374977,-0.017388610169291496,-0.08126576244831085,-0.04494034871459007,0.031240904703736305,-0.002330715535208583,0.014679212123155594,-0.06475455313920975,0.0778195858001709,-0.0005199287552386522,0.07919706404209137,-0.07381122559309006,-0.00807487778365612,-0.02984616905450821,-0.020924648270010948,0.049123458564281464,-1.0296693062628037e-06,-0.05022546648979187,-0.06294023245573044,-0.039466533809900284,-0.082189179956913,0.061734504997730255,0.016869954764842987,-0.013726701028645039,-0.06543729454278946,-0.005034481640905142,0.011065181344747543,0.07611443847417831,0.0669730007648468,0.0735764279961586,-0.05416049435734749,-0.022821824997663498,0.025029247626662254,-0.034322433173656464,-0.018605293706059456,0.046254076063632965,0.06117004156112671,0.03967666998505592,0.04750450700521469,-0.03095397725701332,0.029378417879343033,0.009963558055460453,-0.024687442928552628,0.06486716121435165,-0.05999535694718361,0.07032106071710587,0.04083889722824097,0.045941099524497986,0.0667828842997551,-0.022530311718583107,-0.026479357853531837,0.018299899995326996,0.041870564222335815,0.04801299795508385,0.060487400740385056,-0.06361877173185349,0.05905751511454582,-0.008187301456928253,-0.06716316938400269,-0.013866011053323746,-0.02410736307501793,0.06574638187885284,0.05420872941613197,-0.03748790919780731,0.05086025968194008,0.00960094016045332,0.004309145733714104,-0.05187678337097168,0.018555227667093277,0.0025730940978974104,0.03264809399843216,-0.03348271921277046,0.026745732873678207,0.014183318242430687,0.027563361451029778,0.08115202188491821,0.05617188289761543,0.03343112766742706,0.029526762664318085,-0.030194340273737907,0.015680361539125443,0.028130436316132545,0.06292294710874557,0.03540202975273132,0.051162973046302795,-0.06475850194692612,-0.05709502100944519,0.05102799832820892,-0.048600878566503525,-0.06920068711042404,-0.06699099391698837,0.002968650544062257,0.006372726988047361,0.0546017549932003,0.011463292874395847,0.014856318011879921,-0.07142401486635208,0.08218136429786682,0.013125511817634106,-9.763012349139899e-05,-0.08319621533155441,-0.05768390744924545,0.059523724019527435,-0.025597164407372475,0.06991591304540634,-0.07571452856063843,-0.0011604205938056111,-0.0430823378264904,-0.004877325147390366,0.0447608046233654,-0.0035194295924156904,-0.029434064403176308,-0.023585904389619827,-0.009443998336791992,0.03482580929994583,-0.032035596668720245,-0.05422348901629448,0.027904806658625603,-0.08349985629320145,-0.0531587116420269,0.008651521988213062,-0.06016622483730316,0.05375777184963226,0.04086831212043762,-0.03239236772060394,0.07940196245908737,0.02801106683909893,0.0019765873439610004,0.07555136829614639,-0.046328458935022354,0.06710696965456009,-0.04741211608052254,-0.02368152141571045,0.06053823605179787,0.012929193675518036,-0.00048391075688414276,-0.026893094182014465,-0.02107439748942852,-0.04859207198023796,0.005186481401324272,-0.05750179663300514,-0.06583795696496964,0.06644649803638458,0.044595517218112946,-0.00024778395891189575,0.0019731333013623953,-0.03900892660021782,-0.01347740925848484,0.06990615278482437,0.01532458234578371,-0.002974845003336668,0.03448869287967682,-0.04211198538541794,-0.07018627226352692,-0.011908316984772682,-0.009117085486650467,0.015724308788776398,-0.053649578243494034,0.0620691254734993,0.055452682077884674,-0.08210114389657974,-0.04899430274963379,0.002743152203038335,-0.033234234899282455,-0.021936887875199318,-0.05563582852482796,0.06639227271080017,0.019108837470412254,-0.04345285892486572,0.010169493034482002,-0.0665494054555893,0.02297329343855381,-0.08159388601779938,-0.0662987157702446,-0.028502194210886955,-0.03516583517193794,0.05250556394457817,-0.0031853436958044767,-0.01720592752099037,0.06912566721439362,0.02557978220283985,-0.044833697378635406,-0.04782051593065262,0.06953196227550507,0.05100281909108162,0.05996577814221382,0.04985743388533592,0.008747602812945843,-0.06464260816574097,-0.06104894354939461,0.014359193854033947,0.016545958817005157,0.009641359560191631,0.017831765115261078,0.08330070227384567,0.0542120561003685,-0.008515460416674614,-0.038236089050769806,-0.033997341990470886,0.05328543111681938,0.06380759179592133,-0.06850485503673553,0.029058536514639854,0.03514888137578964,0.06733448803424835,0.09004919975996017,-0.026751624420285225,0.04752311110496521,0.07613050937652588,-0.019704950973391533,-0.019123366102576256,-0.015520184300839901,0.014268716797232628,0.0462535098195076,0.06901207566261292,-0.07087313383817673,-0.05397871509194374,0.03459351509809494,-0.010721636936068535,-0.041910022497177124,0.09056918323040009,-0.016694406047463417,0.03309758007526398,0.07407251000404358,0.0840989425778389,-0.029156416654586792,0.013464821502566338,0.023518549278378487,-0.038723766803741455,-0.04736430197954178,-0.03692178428173065,-0.0025430002715438604,-0.021180065348744392,-0.007292339578270912,0.033476296812295914,0.025047535076737404,-0.039366744458675385,-0.0023965181317180395,0.007548613473773003,-0.005421896930783987,0.08122903853654861,0.055614035576581955,-0.07314623892307281,-0.07360991835594177,0.033585723489522934,-0.08144132047891617,0.020419536158442497,-0.01636952906847,0.019750364124774933,0.051821254193782806,-0.07438866049051285,0.08257083594799042,-0.002465612255036831,0.052136775106191635,0.05548609048128128,0.0859023779630661,-0.05948437377810478,-0.009415775537490845,-0.06186613440513611,0.005315416492521763,0.041138406842947006,-0.08449851721525192,-0.014557239599525928,0.030919114127755165,0.05965784564614296,0.024754945188760757,0.009501252323389053,-0.015833094716072083,-0.05451344698667526,-0.052217114716768265,0.07227309048175812,0.07890723645687103,0.003674950683489442,0.008559990674257278,-0.05534985288977623,0.006997075397521257,-0.0032415054738521576,-0.0439738892018795,0.010814487002789974,0.00506309699267149,-0.03705703839659691,-0.07676071673631668,-0.04036572575569153,0.007223137188702822,-0.08037356287240982,0.08148293197154999,-0.049824364483356476,0.04725475609302521,-0.02613166719675064,-0.00177013932261616,-0.002330091083422303,-0.015947241336107254,0.0212740208953619,0.023345790803432465,0.011061272583901882,0.03946702554821968,0.049609456211328506,0.07464048266410828,-0.034443244338035583,0.051142141222953796,-0.041953448206186295,0.07420981675386429,-0.021618468686938286,-0.08503904193639755,-0.023198725655674934,-0.07755191624164581,-0.0368100143969059,0.07431685924530029,0.07252927124500275,-0.05413354933261871,-0.023656563833355904,0.07825487852096558,-0.052511394023895264,-0.028750058263540268,-0.049152906984090805,0.03438591584563255,0.008786291815340519,-0.060191500931978226,0.03494025021791458,-0.0003719941305462271,0.04163854941725731,-0.00788960698992014,0.0376962274312973,0.07337084412574768,-0.0012847892940044403,-0.06017469987273216,-0.0758419781923294,0.0047871824353933334,-0.0462997667491436,-0.03364495560526848,-0.03516152501106262,-0.02413206174969673,0.0664631798863411,-0.05694926902651787,0.03898276761174202,-0.016419945284724236,0.005665828939527273,0.049304232001304626,-0.0480365976691246,0.0006512781255878508,-0.018961669877171516,-0.07611539214849472,0.023995818570256233,0.03435266762971878,-0.013840734958648682,0.03157293424010277,0.005316450260579586,0.034690774977207184,0.060615554451942444,0.048567693680524826,0.022621911019086838,-0.0756162777543068,0.07644714415073395,0.05096350610256195,0.07668238878250122,-0.024872323498129845,-0.06171892583370209,0.01411612518131733,0.05847935378551483,-0.011284914799034595,-0.04175815358757973,-0.036846768110990524,0.008956799283623695,0.02193894237279892,0.03993368148803711,0.019681353121995926,0.019117100164294243,-0.023777484893798828,-0.08245778828859329,-0.04580485448241234,-0.01706046797335148,0.0073936558328568935,0.08494815975427628,-0.03479830548167229,-0.08106523007154465,-0.06183065474033356,0.060969118028879166,0.0040112207643687725,-0.06647709012031555,-0.06029346212744713,9.171263809548691e-05,-6.898837455082685e-05,0.016794735565781593,0.07078244537115097,-0.05601004511117935,-0.029404330998659134,-0.014277285896241665,0.004516787361353636,0.0232054702937603,0.07809027284383774,0.03520333394408226,-0.01649077609181404,0.0532870851457119,0.0015489681391045451,-0.022261926904320717,0.05339527502655983,0.045205965638160706,0.07650208473205566,0.03585550934076309,-0.012931951321661472,-0.047802478075027466,0.013698313385248184,0.03506928309798241,0.06803161650896072,0.046636082231998444,0.06364401429891586,-0.04057120531797409,-0.02746613509953022,-0.04793150722980499,-0.018532348796725273,0.00094476283993572,0.04077091068029404,-0.025053193792700768,0.04351209104061127,0.009337817318737507,-0.030300607904791832,-0.0011799815110862255,-0.0019109053537249565,0.00569496862590313,-0.059041257947683334,0.05706637725234032,-0.018435467034578323,-0.052716802805662155,-0.07157209515571594,-0.004814560525119305,0.0693637803196907,-0.0490226149559021,-0.04844753071665764,0.009783750399947166,-0.015627281740307808,0.05484389513731003,-0.05413925275206566
